digraph Tree {
node [shape=box, fontname="helvetica"] ;
edge [fontname="helvetica"] ;
0 [label="x[5] <= 0.305\nentropy = 0.59\nsamples = 58645\nvalue = [50295, 8350]"] ;
1 [label="x[4] <= 14.04\nentropy = 0.449\nsamples = 53915\nvalue = [48860, 5055]"] ;
0 -> 1 [labeldistance=2.5, labelangle=45, headlabel="True"] ;
2 [label="x[4] <= 11.1\nentropy = 0.253\nsamples = 46693\nvalue = [44716.0, 1977.0]"] ;
1 -> 2 ;
3 [label="x[1] <= 39650.0\nentropy = 0.174\nsamples = 30155\nvalue = [29370, 785]"] ;
2 -> 3 ;
4 [label="x[1] <= 34896.0\nentropy = 0.348\nsamples = 4696\nvalue = [4389, 307]"] ;
3 -> 4 ;
5 [label="x[13] <= 0.5\nentropy = 0.407\nsamples = 2811\nvalue = [2582, 229]"] ;
4 -> 5 ;
6 [label="x[3] <= 6987.5\nentropy = 0.349\nsamples = 2682\nvalue = [2506, 176]"] ;
5 -> 6 ;
7 [label="x[7] <= 0.5\nentropy = 0.301\nsamples = 2134\nvalue = [2020, 114]"] ;
6 -> 7 ;
8 [label="x[6] <= 17.5\nentropy = 0.325\nsamples = 1872\nvalue = [1761, 111]"] ;
7 -> 8 ;
9 [label="x[1] <= 33192.0\nentropy = 0.314\nsamples = 1852\nvalue = [1747, 105]"] ;
8 -> 9 ;
10 [label="entropy = 0.286\nsamples = 1745\nvalue = [1658, 87]"] ;
9 -> 10 ;
11 [label="entropy = 0.654\nsamples = 107\nvalue = [89, 18]"] ;
9 -> 11 ;
12 [label="x[11] <= 0.5\nentropy = 0.881\nsamples = 20\nvalue = [14, 6]"] ;
8 -> 12 ;
13 [label="entropy = 0.764\nsamples = 18\nvalue = [14, 4]"] ;
12 -> 13 ;
14 [label="entropy = 0.0\nsamples = 2\nvalue = [0, 2]"] ;
12 -> 14 ;
15 [label="x[2] <= 0.5\nentropy = 0.09\nsamples = 262\nvalue = [259, 3]"] ;
7 -> 15 ;
16 [label="x[5] <= 0.075\nentropy = 0.353\nsamples = 30\nvalue = [28, 2]"] ;
15 -> 16 ;
17 [label="entropy = 0.863\nsamples = 7\nvalue = [5, 2]"] ;
16 -> 17 ;
18 [label="entropy = 0.0\nsamples = 23\nvalue = [23, 0]"] ;
16 -> 18 ;
19 [label="x[4] <= 10.87\nentropy = 0.04\nsamples = 232\nvalue = [231, 1]"] ;
15 -> 19 ;
20 [label="entropy = 0.0\nsamples = 213\nvalue = [213, 0]"] ;
19 -> 20 ;
21 [label="entropy = 0.297\nsamples = 19\nvalue = [18, 1]"] ;
19 -> 21 ;
22 [label="x[6] <= 5.5\nentropy = 0.509\nsamples = 548\nvalue = [486, 62]"] ;
6 -> 22 ;
23 [label="x[9] <= 0.5\nentropy = 0.421\nsamples = 363\nvalue = [332, 31]"] ;
22 -> 23 ;
24 [label="x[15] <= 0.5\nentropy = 0.452\nsamples = 327\nvalue = [296, 31]"] ;
23 -> 24 ;
25 [label="entropy = 0.389\nsamples = 275\nvalue = [254, 21]"] ;
24 -> 25 ;
26 [label="entropy = 0.706\nsamples = 52\nvalue = [42, 10]"] ;
24 -> 26 ;
27 [label="entropy = 0.0\nsamples = 36\nvalue = [36, 0]"] ;
23 -> 27 ;
28 [label="x[9] <= 0.5\nentropy = 0.652\nsamples = 185\nvalue = [154, 31]"] ;
22 -> 28 ;
29 [label="x[5] <= 0.215\nentropy = 0.704\nsamples = 162\nvalue = [131, 31]"] ;
28 -> 29 ;
30 [label="entropy = 0.971\nsamples = 5\nvalue = [2, 3]"] ;
29 -> 30 ;
31 [label="entropy = 0.676\nsamples = 157\nvalue = [129.0, 28.0]"] ;
29 -> 31 ;
32 [label="entropy = 0.0\nsamples = 23\nvalue = [23, 0]"] ;
28 -> 32 ;
33 [label="x[10] <= 0.5\nentropy = 0.977\nsamples = 129\nvalue = [76, 53]"] ;
5 -> 33 ;
34 [label="x[9] <= 0.5\nentropy = 0.483\nsamples = 67\nvalue = [60, 7]"] ;
33 -> 34 ;
35 [label="x[2] <= 18.0\nentropy = 0.669\nsamples = 40\nvalue = [33, 7]"] ;
34 -> 35 ;
36 [label="x[6] <= 5.5\nentropy = 0.619\nsamples = 39\nvalue = [33, 6]"] ;
35 -> 36 ;
37 [label="entropy = 0.371\nsamples = 14\nvalue = [13, 1]"] ;
36 -> 37 ;
38 [label="entropy = 0.722\nsamples = 25\nvalue = [20, 5]"] ;
36 -> 38 ;
39 [label="entropy = 0.0\nsamples = 1\nvalue = [0, 1]"] ;
35 -> 39 ;
40 [label="entropy = 0.0\nsamples = 27\nvalue = [27, 0]"] ;
34 -> 40 ;
41 [label="x[6] <= 2.5\nentropy = 0.824\nsamples = 62\nvalue = [16, 46]"] ;
33 -> 41 ;
42 [label="entropy = 0.0\nsamples = 11\nvalue = [0, 11]"] ;
41 -> 42 ;
43 [label="x[4] <= 8.735\nentropy = 0.897\nsamples = 51\nvalue = [16, 35]"] ;
41 -> 43 ;
44 [label="x[5] <= 0.16\nentropy = 0.997\nsamples = 30\nvalue = [14, 16]"] ;
43 -> 44 ;
45 [label="entropy = 0.722\nsamples = 10\nvalue = [8, 2]"] ;
44 -> 45 ;
46 [label="entropy = 0.881\nsamples = 20\nvalue = [6, 14]"] ;
44 -> 46 ;
47 [label="x[4] <= 10.87\nentropy = 0.454\nsamples = 21\nvalue = [2, 19]"] ;
43 -> 47 ;
48 [label="entropy = 0.0\nsamples = 15\nvalue = [0, 15]"] ;
47 -> 48 ;
49 [label="entropy = 0.918\nsamples = 6\nvalue = [2, 4]"] ;
47 -> 49 ;
50 [label="x[13] <= 0.5\nentropy = 0.249\nsamples = 1885\nvalue = [1807, 78]"] ;
4 -> 50 ;
51 [label="x[4] <= 7.215\nentropy = 0.219\nsamples = 1804\nvalue = [1741.0, 63.0]"] ;
50 -> 51 ;
52 [label="x[3] <= 9800.0\nentropy = 0.024\nsamples = 415\nvalue = [414, 1]"] ;
51 -> 52 ;
53 [label="entropy = 0.0\nsamples = 355\nvalue = [355, 0]"] ;
52 -> 53 ;
54 [label="x[1] <= 38700.0\nentropy = 0.122\nsamples = 60\nvalue = [59, 1]"] ;
52 -> 54 ;
55 [label="entropy = 0.0\nsamples = 51\nvalue = [51, 0]"] ;
54 -> 55 ;
56 [label="x[7] <= 0.5\nentropy = 0.503\nsamples = 9\nvalue = [8, 1]"] ;
54 -> 56 ;
57 [label="entropy = 0.0\nsamples = 7\nvalue = [7, 0]"] ;
56 -> 57 ;
58 [label="entropy = 1.0\nsamples = 2\nvalue = [1, 1]"] ;
56 -> 58 ;
59 [label="x[1] <= 38552.0\nentropy = 0.263\nsamples = 1389\nvalue = [1327, 62]"] ;
51 -> 59 ;
60 [label="x[15] <= 0.5\nentropy = 0.211\nsamples = 1286\nvalue = [1243, 43]"] ;
59 -> 60 ;
61 [label="x[20] <= 0.5\nentropy = 0.146\nsamples = 1060\nvalue = [1038, 22]"] ;
60 -> 61 ;
62 [label="entropy = 0.14\nsamples = 1059\nvalue = [1038, 21]"] ;
61 -> 62 ;
63 [label="entropy = 0.0\nsamples = 1\nvalue = [0, 1]"] ;
61 -> 63 ;
64 [label="x[1] <= 37271.0\nentropy = 0.446\nsamples = 226\nvalue = [205, 21]"] ;
60 -> 64 ;
65 [label="entropy = 0.546\nsamples = 167\nvalue = [146, 21]"] ;
64 -> 65 ;
66 [label="entropy = 0.0\nsamples = 59\nvalue = [59, 0]"] ;
64 -> 66 ;
67 [label="x[6] <= 7.5\nentropy = 0.69\nsamples = 103\nvalue = [84, 19]"] ;
59 -> 67 ;
68 [label="x[6] <= 3.5\nentropy = 0.573\nsamples = 81\nvalue = [70, 11]"] ;
67 -> 68 ;
69 [label="entropy = 0.73\nsamples = 49\nvalue = [39, 10]"] ;
68 -> 69 ;
70 [label="entropy = 0.201\nsamples = 32\nvalue = [31, 1]"] ;
68 -> 70 ;
71 [label="x[0] <= 38.0\nentropy = 0.946\nsamples = 22\nvalue = [14, 8]"] ;
67 -> 71 ;
72 [label="entropy = 0.991\nsamples = 18\nvalue = [10, 8]"] ;
71 -> 72 ;
73 [label="entropy = 0.0\nsamples = 4\nvalue = [4, 0]"] ;
71 -> 73 ;
74 [label="x[10] <= 0.5\nentropy = 0.691\nsamples = 81\nvalue = [66, 15]"] ;
50 -> 74 ;
75 [label="x[0] <= 23.5\nentropy = 0.33\nsamples = 66\nvalue = [62, 4]"] ;
74 -> 75 ;
76 [label="entropy = 0.0\nsamples = 3\nvalue = [0, 3]"] ;
75 -> 76 ;
77 [label="x[3] <= 9900.0\nentropy = 0.118\nsamples = 63\nvalue = [62, 1]"] ;
75 -> 77 ;
78 [label="entropy = 0.0\nsamples = 53\nvalue = [53, 0]"] ;
77 -> 78 ;
79 [label="x[4] <= 10.87\nentropy = 0.469\nsamples = 10\nvalue = [9, 1]"] ;
77 -> 79 ;
80 [label="entropy = 0.0\nsamples = 9\nvalue = [9, 0]"] ;
79 -> 80 ;
81 [label="entropy = 0.0\nsamples = 1\nvalue = [0, 1]"] ;
79 -> 81 ;
82 [label="x[1] <= 36054.0\nentropy = 0.837\nsamples = 15\nvalue = [4, 11]"] ;
74 -> 82 ;
83 [label="x[2] <= 1.5\nentropy = 0.946\nsamples = 11\nvalue = [4, 7]"] ;
82 -> 83 ;
84 [label="entropy = 0.0\nsamples = 4\nvalue = [0, 4]"] ;
83 -> 84 ;
85 [label="x[6] <= 2.5\nentropy = 0.985\nsamples = 7\nvalue = [4, 3]"] ;
83 -> 85 ;
86 [label="entropy = 0.0\nsamples = 1\nvalue = [0, 1]"] ;
85 -> 86 ;
87 [label="entropy = 0.918\nsamples = 6\nvalue = [4, 2]"] ;
85 -> 87 ;
88 [label="entropy = 0.0\nsamples = 4\nvalue = [0, 4]"] ;
82 -> 88 ;
89 [label="x[7] <= 0.5\nentropy = 0.135\nsamples = 25459\nvalue = [24981, 478]"] ;
3 -> 89 ;
90 [label="x[10] <= 0.5\nentropy = 0.181\nsamples = 10992\nvalue = [10691, 301]"] ;
89 -> 90 ;
91 [label="x[1] <= 44002.0\nentropy = 0.011\nsamples = 1081\nvalue = [1080, 1]"] ;
90 -> 91 ;
92 [label="x[3] <= 12375.0\nentropy = 0.063\nsamples = 136\nvalue = [135, 1]"] ;
91 -> 92 ;
93 [label="entropy = 0.0\nsamples = 135\nvalue = [135, 0]"] ;
92 -> 93 ;
94 [label="entropy = 0.0\nsamples = 1\nvalue = [0, 1]"] ;
92 -> 94 ;
95 [label="entropy = 0.0\nsamples = 945\nvalue = [945, 0]"] ;
91 -> 95 ;
96 [label="x[5] <= 0.255\nentropy = 0.196\nsamples = 9911\nvalue = [9611, 300]"] ;
90 -> 96 ;
97 [label="x[16] <= 0.5\nentropy = 0.178\nsamples = 9344\nvalue = [9094, 250]"] ;
96 -> 97 ;
98 [label="x[2] <= 11.5\nentropy = 0.197\nsamples = 7808\nvalue = [7569, 239]"] ;
97 -> 98 ;
99 [label="x[4] <= 7.385\nentropy = 0.189\nsamples = 7555\nvalue = [7336, 219]"] ;
98 -> 99 ;
100 [label="entropy = 0.118\nsamples = 1692\nvalue = [1665.0, 27.0]"] ;
99 -> 100 ;
101 [label="entropy = 0.208\nsamples = 5863\nvalue = [5671, 192]"] ;
99 -> 101 ;
102 [label="x[2] <= 23.5\nentropy = 0.399\nsamples = 253\nvalue = [233, 20]"] ;
98 -> 102 ;
103 [label="entropy = 0.377\nsamples = 247\nvalue = [229, 18]"] ;
102 -> 103 ;
104 [label="entropy = 0.918\nsamples = 6\nvalue = [4, 2]"] ;
102 -> 104 ;
105 [label="x[2] <= 1.5\nentropy = 0.061\nsamples = 1536\nvalue = [1525, 11]"] ;
97 -> 105 ;
106 [label="x[6] <= 2.5\nentropy = 0.124\nsamples = 411\nvalue = [404, 7]"] ;
105 -> 106 ;
107 [label="entropy = 0.0\nsamples = 85\nvalue = [85, 0]"] ;
106 -> 107 ;
108 [label="entropy = 0.15\nsamples = 326\nvalue = [319, 7]"] ;
106 -> 108 ;
109 [label="x[3] <= 24625.0\nentropy = 0.034\nsamples = 1125\nvalue = [1121, 4]"] ;
105 -> 109 ;
110 [label="entropy = 0.027\nsamples = 1120\nvalue = [1117, 3]"] ;
109 -> 110 ;
111 [label="entropy = 0.722\nsamples = 5\nvalue = [4, 1]"] ;
109 -> 111 ;
112 [label="x[17] <= 0.5\nentropy = 0.43\nsamples = 567\nvalue = [517, 50]"] ;
96 -> 112 ;
113 [label="x[1] <= 82500.0\nentropy = 0.496\nsamples = 294\nvalue = [262, 32]"] ;
112 -> 113 ;
114 [label="x[2] <= 3.5\nentropy = 0.456\nsamples = 271\nvalue = [245, 26]"] ;
113 -> 114 ;
115 [label="entropy = 0.294\nsamples = 135\nvalue = [128, 7]"] ;
114 -> 115 ;
116 [label="entropy = 0.583\nsamples = 136\nvalue = [117, 19]"] ;
114 -> 116 ;
117 [label="x[1] <= 88247.0\nentropy = 0.828\nsamples = 23\nvalue = [17, 6]"] ;
113 -> 117 ;
118 [label="entropy = 1.0\nsamples = 8\nvalue = [4, 4]"] ;
117 -> 118 ;
119 [label="entropy = 0.567\nsamples = 15\nvalue = [13, 2]"] ;
117 -> 119 ;
120 [label="x[2] <= 18.5\nentropy = 0.351\nsamples = 273\nvalue = [255, 18]"] ;
112 -> 120 ;
121 [label="x[4] <= 8.195\nentropy = 0.337\nsamples = 272\nvalue = [255, 17]"] ;
120 -> 121 ;
122 [label="entropy = 0.285\nsamples = 221\nvalue = [210, 11]"] ;
121 -> 122 ;
123 [label="entropy = 0.523\nsamples = 51\nvalue = [45, 6]"] ;
121 -> 123 ;
124 [label="entropy = 0.0\nsamples = 1\nvalue = [0, 1]"] ;
120 -> 124 ;
125 [label="x[1] <= 88100.0\nentropy = 0.095\nsamples = 14467\nvalue = [14290, 177]"] ;
89 -> 125 ;
126 [label="x[4] <= 7.89\nentropy = 0.112\nsamples = 10159\nvalue = [10008, 151]"] ;
125 -> 126 ;
127 [label="x[16] <= 0.5\nentropy = 0.084\nsamples = 6232\nvalue = [6167, 65]"] ;
126 -> 127 ;
128 [label="x[0] <= 22.5\nentropy = 0.098\nsamples = 5146\nvalue = [5081, 65]"] ;
127 -> 128 ;
129 [label="x[2] <= 2.5\nentropy = 0.048\nsamples = 744\nvalue = [740, 4]"] ;
128 -> 129 ;
130 [label="entropy = 0.0\nsamples = 125\nvalue = [125, 0]"] ;
129 -> 130 ;
131 [label="entropy = 0.056\nsamples = 619\nvalue = [615, 4]"] ;
129 -> 131 ;
132 [label="x[6] <= 3.5\nentropy = 0.105\nsamples = 4402\nvalue = [4341, 61]"] ;
128 -> 132 ;
133 [label="entropy = 0.073\nsamples = 1237\nvalue = [1226.0, 11.0]"] ;
132 -> 133 ;
134 [label="entropy = 0.117\nsamples = 3165\nvalue = [3115, 50]"] ;
132 -> 134 ;
135 [label="entropy = 0.0\nsamples = 1086\nvalue = [1086, 0]"] ;
127 -> 135 ;
136 [label="x[16] <= 0.5\nentropy = 0.152\nsamples = 3927\nvalue = [3841, 86]"] ;
126 -> 136 ;
137 [label="x[3] <= 2900.0\nentropy = 0.172\nsamples = 3241\nvalue = [3158, 83]"] ;
136 -> 137 ;
138 [label="entropy = 0.0\nsamples = 148\nvalue = [148, 0]"] ;
137 -> 138 ;
139 [label="x[2] <= 29.0\nentropy = 0.178\nsamples = 3093\nvalue = [3010, 83]"] ;
137 -> 139 ;
140 [label="entropy = 0.177\nsamples = 3091\nvalue = [3009, 82]"] ;
139 -> 140 ;
141 [label="entropy = 1.0\nsamples = 2\nvalue = [1, 1]"] ;
139 -> 141 ;
142 [label="x[2] <= 21.5\nentropy = 0.041\nsamples = 686\nvalue = [683, 3]"] ;
136 -> 142 ;
143 [label="x[1] <= 49350.0\nentropy = 0.029\nsamples = 682\nvalue = [680, 2]"] ;
142 -> 143 ;
144 [label="entropy = 0.127\nsamples = 115\nvalue = [113, 2]"] ;
143 -> 144 ;
145 [label="entropy = 0.0\nsamples = 567\nvalue = [567, 0]"] ;
143 -> 145 ;
146 [label="x[4] <= 9.62\nentropy = 0.811\nsamples = 4\nvalue = [3, 1]"] ;
142 -> 146 ;
147 [label="entropy = 1.0\nsamples = 2\nvalue = [1, 1]"] ;
146 -> 147 ;
148 [label="entropy = 0.0\nsamples = 2\nvalue = [2, 0]"] ;
146 -> 148 ;
149 [label="x[3] <= 24750.0\nentropy = 0.053\nsamples = 4308\nvalue = [4282, 26]"] ;
125 -> 149 ;
150 [label="x[3] <= 1650.0\nentropy = 0.035\nsamples = 4061\nvalue = [4046, 15]"] ;
149 -> 150 ;
151 [label="x[11] <= 0.5\nentropy = 0.353\nsamples = 30\nvalue = [28, 2]"] ;
150 -> 151 ;
152 [label="x[2] <= 0.5\nentropy = 0.222\nsamples = 28\nvalue = [27, 1]"] ;
151 -> 152 ;
153 [label="entropy = 0.918\nsamples = 3\nvalue = [2, 1]"] ;
152 -> 153 ;
154 [label="entropy = 0.0\nsamples = 25\nvalue = [25, 0]"] ;
152 -> 154 ;
155 [label="x[0] <= 34.5\nentropy = 1.0\nsamples = 2\nvalue = [1, 1]"] ;
151 -> 155 ;
156 [label="entropy = 0.0\nsamples = 1\nvalue = [1, 0]"] ;
155 -> 156 ;
157 [label="entropy = 0.0\nsamples = 1\nvalue = [0, 1]"] ;
155 -> 157 ;
158 [label="x[1] <= 96810.0\nentropy = 0.031\nsamples = 4031\nvalue = [4018, 13]"] ;
150 -> 158 ;
159 [label="entropy = 0.0\nsamples = 1093\nvalue = [1093, 0]"] ;
158 -> 159 ;
160 [label="x[15] <= 0.5\nentropy = 0.041\nsamples = 2938\nvalue = [2925, 13]"] ;
158 -> 160 ;
161 [label="entropy = 0.049\nsamples = 2373\nvalue = [2360, 13]"] ;
160 -> 161 ;
162 [label="entropy = 0.0\nsamples = 565\nvalue = [565, 0]"] ;
160 -> 162 ;
163 [label="x[11] <= 0.5\nentropy = 0.263\nsamples = 247\nvalue = [236, 11]"] ;
149 -> 163 ;
164 [label="x[4] <= 10.745\nentropy = 0.294\nsamples = 212\nvalue = [201, 11]"] ;
163 -> 164 ;
165 [label="x[2] <= 13.5\nentropy = 0.347\nsamples = 169\nvalue = [158, 11]"] ;
164 -> 165 ;
166 [label="entropy = 0.269\nsamples = 152\nvalue = [145, 7]"] ;
165 -> 166 ;
167 [label="entropy = 0.787\nsamples = 17\nvalue = [13, 4]"] ;
165 -> 167 ;
168 [label="entropy = 0.0\nsamples = 43\nvalue = [43, 0]"] ;
164 -> 168 ;
169 [label="entropy = 0.0\nsamples = 35\nvalue = [35, 0]"] ;
163 -> 169 ;
170 [label="x[20] <= 0.5\nentropy = 0.374\nsamples = 16538\nvalue = [15346, 1192]"] ;
2 -> 170 ;
171 [label="x[13] <= 0.5\nentropy = 0.357\nsamples = 16384\nvalue = [15278, 1106]"] ;
170 -> 171 ;
172 [label="x[1] <= 34830.0\nentropy = 0.322\nsamples = 14635\nvalue = [13777, 858]"] ;
171 -> 172 ;
173 [label="x[1] <= 19984.0\nentropy = 0.606\nsamples = 1966\nvalue = [1674, 292]"] ;
172 -> 173 ;
174 [label="x[5] <= 0.155\nentropy = 0.998\nsamples = 122\nvalue = [58, 64]"] ;
173 -> 174 ;
175 [label="x[0] <= 22.5\nentropy = 0.463\nsamples = 51\nvalue = [46, 5]"] ;
174 -> 175 ;
176 [label="entropy = 0.0\nsamples = 14\nvalue = [14, 0]"] ;
175 -> 176 ;
177 [label="x[11] <= 0.5\nentropy = 0.571\nsamples = 37\nvalue = [32, 5]"] ;
175 -> 177 ;
178 [label="entropy = 0.637\nsamples = 31\nvalue = [26, 5]"] ;
177 -> 178 ;
179 [label="entropy = 0.0\nsamples = 6\nvalue = [6, 0]"] ;
177 -> 179 ;
180 [label="x[10] <= 0.5\nentropy = 0.655\nsamples = 71\nvalue = [12, 59]"] ;
174 -> 180 ;
181 [label="x[4] <= 11.845\nentropy = 0.65\nsamples = 6\nvalue = [5, 1]"] ;
180 -> 181 ;
182 [label="entropy = 0.0\nsamples = 4\nvalue = [4, 0]"] ;
181 -> 182 ;
183 [label="entropy = 1.0\nsamples = 2\nvalue = [1, 1]"] ;
181 -> 183 ;
184 [label="x[6] <= 12.0\nentropy = 0.493\nsamples = 65\nvalue = [7, 58]"] ;
180 -> 184 ;
185 [label="entropy = 0.414\nsamples = 60\nvalue = [5, 55]"] ;
184 -> 185 ;
186 [label="entropy = 0.971\nsamples = 5\nvalue = [2, 3]"] ;
184 -> 186 ;
187 [label="x[9] <= 0.5\nentropy = 0.54\nsamples = 1844\nvalue = [1616, 228]"] ;
173 -> 187 ;
188 [label="x[1] <= 33924.0\nentropy = 0.569\nsamples = 1699\nvalue = [1471, 228]"] ;
187 -> 188 ;
189 [label="x[15] <= 0.5\nentropy = 0.513\nsamples = 1564\nvalue = [1385, 179]"] ;
188 -> 189 ;
190 [label="entropy = 0.483\nsamples = 1310\nvalue = [1173, 137]"] ;
189 -> 190 ;
191 [label="entropy = 0.647\nsamples = 254\nvalue = [212, 42]"] ;
189 -> 191 ;
192 [label="x[1] <= 34076.0\nentropy = 0.945\nsamples = 135\nvalue = [86, 49]"] ;
188 -> 192 ;
193 [label="entropy = 0.974\nsamples = 116\nvalue = [69, 47]"] ;
192 -> 193 ;
194 [label="entropy = 0.485\nsamples = 19\nvalue = [17, 2]"] ;
192 -> 194 ;
195 [label="entropy = 0.0\nsamples = 145\nvalue = [145, 0]"] ;
187 -> 195 ;
196 [label="x[1] <= 79946.0\nentropy = 0.263\nsamples = 12669\nvalue = [12103, 566]"] ;
172 -> 196 ;
197 [label="x[9] <= 0.5\nentropy = 0.304\nsamples = 9159\nvalue = [8662, 497]"] ;
196 -> 197 ;
198 [label="x[16] <= 0.5\nentropy = 0.316\nsamples = 8664\nvalue = [8169, 495]"] ;
197 -> 198 ;
199 [label="x[7] <= 0.5\nentropy = 0.341\nsamples = 7207\nvalue = [6750.0, 457.0]"] ;
198 -> 199 ;
200 [label="entropy = 0.311\nsamples = 4875\nvalue = [4602, 273]"] ;
199 -> 200 ;
201 [label="entropy = 0.398\nsamples = 2332\nvalue = [2148, 184]"] ;
199 -> 201 ;
202 [label="x[18] <= 0.5\nentropy = 0.174\nsamples = 1457\nvalue = [1419, 38]"] ;
198 -> 202 ;
203 [label="entropy = 0.251\nsamples = 692\nvalue = [663, 29]"] ;
202 -> 203 ;
204 [label="entropy = 0.092\nsamples = 765\nvalue = [756, 9]"] ;
202 -> 204 ;
205 [label="x[3] <= 6100.0\nentropy = 0.038\nsamples = 495\nvalue = [493, 2]"] ;
197 -> 205 ;
206 [label="x[5] <= 0.145\nentropy = 0.074\nsamples = 223\nvalue = [221, 2]"] ;
205 -> 206 ;
207 [label="entropy = 0.043\nsamples = 215\nvalue = [214, 1]"] ;
206 -> 207 ;
208 [label="entropy = 0.544\nsamples = 8\nvalue = [7, 1]"] ;
206 -> 208 ;
209 [label="entropy = 0.0\nsamples = 272\nvalue = [272, 0]"] ;
205 -> 209 ;
210 [label="x[5] <= 0.205\nentropy = 0.14\nsamples = 3510\nvalue = [3441, 69]"] ;
196 -> 210 ;
211 [label="x[1] <= 80022.0\nentropy = 0.113\nsamples = 3101\nvalue = [3054, 47]"] ;
210 -> 211 ;
212 [label="entropy = 0.0\nsamples = 343\nvalue = [343, 0]"] ;
211 -> 212 ;
213 [label="x[4] <= 13.085\nentropy = 0.124\nsamples = 2758\nvalue = [2711.0, 47.0]"] ;
211 -> 213 ;
214 [label="entropy = 0.105\nsamples = 2033\nvalue = [2005, 28]"] ;
213 -> 214 ;
215 [label="entropy = 0.175\nsamples = 725\nvalue = [706, 19]"] ;
213 -> 215 ;
216 [label="x[4] <= 11.535\nentropy = 0.302\nsamples = 409\nvalue = [387, 22]"] ;
210 -> 216 ;
217 [label="x[2] <= 10.0\nentropy = 0.139\nsamples = 102\nvalue = [100, 2]"] ;
216 -> 217 ;
218 [label="entropy = 0.0\nsamples = 88\nvalue = [88, 0]"] ;
217 -> 218 ;
219 [label="entropy = 0.592\nsamples = 14\nvalue = [12, 2]"] ;
217 -> 219 ;
220 [label="x[5] <= 0.255\nentropy = 0.348\nsamples = 307\nvalue = [287, 20]"] ;
216 -> 220 ;
221 [label="entropy = 0.288\nsamples = 238\nvalue = [226, 12]"] ;
220 -> 221 ;
222 [label="entropy = 0.518\nsamples = 69\nvalue = [61, 8]"] ;
220 -> 222 ;
223 [label="x[0] <= 23.5\nentropy = 0.589\nsamples = 1749\nvalue = [1501, 248]"] ;
171 -> 223 ;
224 [label="x[1] <= 71802.0\nentropy = 0.451\nsamples = 53\nvalue = [5, 48]"] ;
223 -> 224 ;
225 [label="x[2] <= 1.5\nentropy = 0.262\nsamples = 45\nvalue = [2, 43]"] ;
224 -> 225 ;
226 [label="x[10] <= 0.5\nentropy = 0.567\nsamples = 15\nvalue = [2, 13]"] ;
225 -> 226 ;
227 [label="x[3] <= 2300.0\nentropy = 0.918\nsamples = 6\nvalue = [2, 4]"] ;
226 -> 227 ;
228 [label="entropy = 0.0\nsamples = 1\nvalue = [1, 0]"] ;
227 -> 228 ;
229 [label="entropy = 0.722\nsamples = 5\nvalue = [1, 4]"] ;
227 -> 229 ;
230 [label="entropy = 0.0\nsamples = 9\nvalue = [0, 9]"] ;
226 -> 230 ;
231 [label="entropy = 0.0\nsamples = 30\nvalue = [0, 30]"] ;
225 -> 231 ;
232 [label="x[1] <= 73822.0\nentropy = 0.954\nsamples = 8\nvalue = [3, 5]"] ;
224 -> 232 ;
233 [label="entropy = 0.0\nsamples = 2\nvalue = [2, 0]"] ;
232 -> 233 ;
234 [label="x[19] <= 0.5\nentropy = 0.65\nsamples = 6\nvalue = [1, 5]"] ;
232 -> 234 ;
235 [label="entropy = 0.0\nsamples = 3\nvalue = [0, 3]"] ;
234 -> 235 ;
236 [label="x[3] <= 8825.0\nentropy = 0.918\nsamples = 3\nvalue = [1, 2]"] ;
234 -> 236 ;
237 [label="entropy = 0.0\nsamples = 1\nvalue = [1, 0]"] ;
236 -> 237 ;
238 [label="entropy = 0.0\nsamples = 2\nvalue = [0, 2]"] ;
236 -> 238 ;
239 [label="x[10] <= 0.5\nentropy = 0.523\nsamples = 1696\nvalue = [1496, 200]"] ;
223 -> 239 ;
240 [label="x[1] <= 84100.0\nentropy = 0.302\nsamples = 914\nvalue = [865, 49]"] ;
239 -> 240 ;
241 [label="x[7] <= 0.5\nentropy = 0.399\nsamples = 557\nvalue = [513, 44]"] ;
240 -> 241 ;
242 [label="entropy = 0.0\nsamples = 80\nvalue = [80, 0]"] ;
241 -> 242 ;
243 [label="x[25] <= 0.5\nentropy = 0.444\nsamples = 477\nvalue = [433, 44]"] ;
241 -> 243 ;
244 [label="entropy = 0.399\nsamples = 367\nvalue = [338, 29]"] ;
243 -> 244 ;
245 [label="entropy = 0.575\nsamples = 110\nvalue = [95.0, 15.0]"] ;
243 -> 245 ;
246 [label="x[5] <= 0.135\nentropy = 0.106\nsamples = 357\nvalue = [352, 5]"] ;
240 -> 246 ;
247 [label="entropy = 0.0\nsamples = 223\nvalue = [223, 0]"] ;
246 -> 247 ;
248 [label="x[1] <= 216200.0\nentropy = 0.23\nsamples = 134\nvalue = [129, 5]"] ;
246 -> 248 ;
249 [label="entropy = 0.195\nsamples = 133\nvalue = [129, 4]"] ;
248 -> 249 ;
250 [label="entropy = 0.0\nsamples = 1\nvalue = [0, 1]"] ;
248 -> 250 ;
251 [label="x[3] <= 10100.0\nentropy = 0.708\nsamples = 782\nvalue = [631, 151]"] ;
239 -> 251 ;
252 [label="x[2] <= 2.5\nentropy = 0.838\nsamples = 486\nvalue = [356, 130]"] ;
251 -> 252 ;
253 [label="x[1] <= 49500.0\nentropy = 0.923\nsamples = 228\nvalue = [151, 77]"] ;
252 -> 253 ;
254 [label="entropy = 0.58\nsamples = 65\nvalue = [9, 56]"] ;
253 -> 254 ;
255 [label="entropy = 0.554\nsamples = 163\nvalue = [142, 21]"] ;
253 -> 255 ;
256 [label="x[5] <= 0.185\nentropy = 0.733\nsamples = 258\nvalue = [205, 53]"] ;
252 -> 256 ;
257 [label="entropy = 0.59\nsamples = 225\nvalue = [193, 32]"] ;
256 -> 257 ;
258 [label="entropy = 0.946\nsamples = 33\nvalue = [12, 21]"] ;
256 -> 258 ;
259 [label="x[2] <= 17.0\nentropy = 0.369\nsamples = 296\nvalue = [275, 21]"] ;
251 -> 259 ;
260 [label="x[5] <= 0.255\nentropy = 0.333\nsamples = 293\nvalue = [275, 18]"] ;
259 -> 260 ;
261 [label="entropy = 0.227\nsamples = 245\nvalue = [236, 9]"] ;
260 -> 261 ;
262 [label="entropy = 0.696\nsamples = 48\nvalue = [39, 9]"] ;
260 -> 262 ;
263 [label="entropy = 0.0\nsamples = 3\nvalue = [0, 3]"] ;
259 -> 263 ;
264 [label="x[10] <= 0.5\nentropy = 0.99\nsamples = 154\nvalue = [68, 86]"] ;
170 -> 264 ;
265 [label="x[7] <= 0.5\nentropy = 0.935\nsamples = 57\nvalue = [37, 20]"] ;
264 -> 265 ;
266 [label="entropy = 0.0\nsamples = 7\nvalue = [7, 0]"] ;
265 -> 266 ;
267 [label="x[14] <= 0.5\nentropy = 0.971\nsamples = 50\nvalue = [30, 20]"] ;
265 -> 267 ;
268 [label="x[3] <= 7875.0\nentropy = 0.91\nsamples = 43\nvalue = [29.0, 14.0]"] ;
267 -> 268 ;
269 [label="x[4] <= 13.045\nentropy = 0.667\nsamples = 23\nvalue = [19, 4]"] ;
268 -> 269 ;
270 [label="entropy = 0.0\nsamples = 13\nvalue = [13, 0]"] ;
269 -> 270 ;
271 [label="x[2] <= 0.5\nentropy = 0.971\nsamples = 10\nvalue = [6, 4]"] ;
269 -> 271 ;
272 [label="entropy = 0.0\nsamples = 2\nvalue = [0, 2]"] ;
271 -> 272 ;
273 [label="entropy = 0.811\nsamples = 8\nvalue = [6, 2]"] ;
271 -> 273 ;
274 [label="x[11] <= 0.5\nentropy = 1.0\nsamples = 20\nvalue = [10, 10]"] ;
268 -> 274 ;
275 [label="x[6] <= 11.0\nentropy = 0.863\nsamples = 14\nvalue = [10, 4]"] ;
274 -> 275 ;
276 [label="entropy = 0.65\nsamples = 12\nvalue = [10, 2]"] ;
275 -> 276 ;
277 [label="entropy = 0.0\nsamples = 2\nvalue = [0, 2]"] ;
275 -> 277 ;
278 [label="entropy = 0.0\nsamples = 6\nvalue = [0, 6]"] ;
274 -> 278 ;
279 [label="x[1] <= 112125.0\nentropy = 0.592\nsamples = 7\nvalue = [1, 6]"] ;
267 -> 279 ;
280 [label="entropy = 0.0\nsamples = 6\nvalue = [0, 6]"] ;
279 -> 280 ;
281 [label="entropy = 0.0\nsamples = 1\nvalue = [1, 0]"] ;
279 -> 281 ;
282 [label="x[2] <= 7.5\nentropy = 0.904\nsamples = 97\nvalue = [31.0, 66.0]"] ;
264 -> 282 ;
283 [label="x[3] <= 2875.0\nentropy = 0.797\nsamples = 87\nvalue = [21, 66]"] ;
282 -> 283 ;
284 [label="entropy = 0.0\nsamples = 3\nvalue = [3, 0]"] ;
283 -> 284 ;
285 [label="x[1] <= 81498.0\nentropy = 0.75\nsamples = 84\nvalue = [18, 66]"] ;
283 -> 285 ;
286 [label="x[3] <= 9800.0\nentropy = 0.65\nsamples = 78\nvalue = [13, 65]"] ;
285 -> 286 ;
287 [label="x[2] <= 4.5\nentropy = 0.734\nsamples = 63\nvalue = [13, 50]"] ;
286 -> 287 ;
288 [label="entropy = 0.643\nsamples = 55\nvalue = [9, 46]"] ;
287 -> 288 ;
289 [label="entropy = 1.0\nsamples = 8\nvalue = [4, 4]"] ;
287 -> 289 ;
290 [label="entropy = 0.0\nsamples = 15\nvalue = [0, 15]"] ;
286 -> 290 ;
291 [label="x[0] <= 24.0\nentropy = 0.65\nsamples = 6\nvalue = [5, 1]"] ;
285 -> 291 ;
292 [label="entropy = 0.0\nsamples = 1\nvalue = [0, 1]"] ;
291 -> 292 ;
293 [label="entropy = 0.0\nsamples = 5\nvalue = [5, 0]"] ;
291 -> 293 ;
294 [label="entropy = 0.0\nsamples = 10\nvalue = [10, 0]"] ;
282 -> 294 ;
295 [label="x[4] <= 14.805\nentropy = 0.984\nsamples = 7222\nvalue = [4144, 3078]"] ;
1 -> 295 ;
296 [label="x[20] <= 0.5\nentropy = 0.831\nsamples = 2533\nvalue = [1868, 665]"] ;
295 -> 296 ;
297 [label="x[9] <= 0.5\nentropy = 0.481\nsamples = 1686\nvalue = [1511, 175]"] ;
296 -> 297 ;
298 [label="x[1] <= 34100.0\nentropy = 0.499\nsamples = 1595\nvalue = [1420, 175]"] ;
297 -> 298 ;
299 [label="x[1] <= 33798.0\nentropy = 0.791\nsamples = 244\nvalue = [186, 58]"] ;
298 -> 299 ;
300 [label="x[1] <= 19600.0\nentropy = 0.725\nsamples = 228\nvalue = [182, 46]"] ;
299 -> 300 ;
301 [label="x[3] <= 2550.0\nentropy = 0.99\nsamples = 25\nvalue = [11.0, 14.0]"] ;
300 -> 301 ;
302 [label="x[0] <= 40.5\nentropy = 0.722\nsamples = 10\nvalue = [8, 2]"] ;
301 -> 302 ;
303 [label="entropy = 0.503\nsamples = 9\nvalue = [8, 1]"] ;
302 -> 303 ;
304 [label="entropy = 0.0\nsamples = 1\nvalue = [0, 1]"] ;
302 -> 304 ;
305 [label="x[16] <= 0.5\nentropy = 0.722\nsamples = 15\nvalue = [3, 12]"] ;
301 -> 305 ;
306 [label="entropy = 0.881\nsamples = 10\nvalue = [3, 7]"] ;
305 -> 306 ;
307 [label="entropy = 0.0\nsamples = 5\nvalue = [0, 5]"] ;
305 -> 307 ;
308 [label="x[13] <= 0.5\nentropy = 0.629\nsamples = 203\nvalue = [171, 32]"] ;
300 -> 308 ;
309 [label="x[6] <= 7.5\nentropy = 0.527\nsamples = 193\nvalue = [170, 23]"] ;
308 -> 309 ;
310 [label="entropy = 0.406\nsamples = 148\nvalue = [136, 12]"] ;
309 -> 310 ;
311 [label="entropy = 0.802\nsamples = 45\nvalue = [34, 11]"] ;
309 -> 311 ;
312 [label="x[3] <= 4650.0\nentropy = 0.469\nsamples = 10\nvalue = [1, 9]"] ;
308 -> 312 ;
313 [label="entropy = 0.811\nsamples = 4\nvalue = [1, 3]"] ;
312 -> 313 ;
314 [label="entropy = 0.0\nsamples = 6\nvalue = [0, 6]"] ;
312 -> 314 ;
315 [label="x[5] <= 0.17\nentropy = 0.811\nsamples = 16\nvalue = [4, 12]"] ;
299 -> 315 ;
316 [label="x[16] <= 0.5\nentropy = 0.971\nsamples = 10\nvalue = [4, 6]"] ;
315 -> 316 ;
317 [label="entropy = 0.0\nsamples = 6\nvalue = [0, 6]"] ;
316 -> 317 ;
318 [label="entropy = 0.0\nsamples = 4\nvalue = [4, 0]"] ;
316 -> 318 ;
319 [label="entropy = 0.0\nsamples = 6\nvalue = [0, 6]"] ;
315 -> 319 ;
320 [label="x[21] <= 0.5\nentropy = 0.425\nsamples = 1351\nvalue = [1234, 117]"] ;
298 -> 320 ;
321 [label="x[16] <= 0.5\nentropy = 0.41\nsamples = 1337\nvalue = [1227, 110]"] ;
320 -> 321 ;
322 [label="x[5] <= 0.205\nentropy = 0.428\nsamples = 1145\nvalue = [1045, 100]"] ;
321 -> 322 ;
323 [label="x[2] <= 10.5\nentropy = 0.381\nsamples = 933\nvalue = [864, 69]"] ;
322 -> 323 ;
324 [label="entropy = 0.354\nsamples = 869\nvalue = [811.0, 58.0]"] ;
323 -> 324 ;
325 [label="entropy = 0.662\nsamples = 64\nvalue = [53, 11]"] ;
323 -> 325 ;
326 [label="x[1] <= 35700.0\nentropy = 0.6\nsamples = 212\nvalue = [181, 31]"] ;
322 -> 326 ;
327 [label="entropy = 0.0\nsamples = 7\nvalue = [7, 0]"] ;
326 -> 327 ;
328 [label="entropy = 0.613\nsamples = 205\nvalue = [174, 31]"] ;
326 -> 328 ;
329 [label="x[6] <= 18.0\nentropy = 0.295\nsamples = 192\nvalue = [182, 10]"] ;
321 -> 329 ;
330 [label="x[0] <= 31.5\nentropy = 0.275\nsamples = 190\nvalue = [181, 9]"] ;
329 -> 330 ;
331 [label="entropy = 0.315\nsamples = 158\nvalue = [149, 9]"] ;
330 -> 331 ;
332 [label="entropy = 0.0\nsamples = 32\nvalue = [32, 0]"] ;
330 -> 332 ;
333 [label="x[6] <= 20.0\nentropy = 1.0\nsamples = 2\nvalue = [1, 1]"] ;
329 -> 333 ;
334 [label="entropy = 0.0\nsamples = 1\nvalue = [0, 1]"] ;
333 -> 334 ;
335 [label="entropy = 0.0\nsamples = 1\nvalue = [1, 0]"] ;
333 -> 335 ;
336 [label="x[3] <= 10375.0\nentropy = 1.0\nsamples = 14\nvalue = [7, 7]"] ;
320 -> 336 ;
337 [label="x[2] <= 5.0\nentropy = 0.722\nsamples = 5\nvalue = [1, 4]"] ;
336 -> 337 ;
338 [label="entropy = 0.0\nsamples = 4\nvalue = [0, 4]"] ;
337 -> 338 ;
339 [label="entropy = 0.0\nsamples = 1\nvalue = [1, 0]"] ;
337 -> 339 ;
340 [label="x[0] <= 32.5\nentropy = 0.918\nsamples = 9\nvalue = [6, 3]"] ;
336 -> 340 ;
341 [label="x[2] <= 0.5\nentropy = 0.592\nsamples = 7\nvalue = [6, 1]"] ;
340 -> 341 ;
342 [label="entropy = 0.0\nsamples = 1\nvalue = [0, 1]"] ;
341 -> 342 ;
343 [label="entropy = 0.0\nsamples = 6\nvalue = [6, 0]"] ;
341 -> 343 ;
344 [label="entropy = 0.0\nsamples = 2\nvalue = [0, 2]"] ;
340 -> 344 ;
345 [label="entropy = 0.0\nsamples = 91\nvalue = [91, 0]"] ;
297 -> 345 ;
346 [label="x[11] <= 0.5\nentropy = 0.982\nsamples = 847\nvalue = [357.0, 490.0]"] ;
296 -> 346 ;
347 [label="x[2] <= 2.5\nentropy = 1.0\nsamples = 692\nvalue = [349, 343]"] ;
346 -> 347 ;
348 [label="x[1] <= 59500.0\nentropy = 0.773\nsamples = 286\nvalue = [65, 221]"] ;
347 -> 348 ;
349 [label="x[10] <= 0.5\nentropy = 0.517\nsamples = 190\nvalue = [22, 168]"] ;
348 -> 349 ;
350 [label="x[9] <= 0.5\nentropy = 0.943\nsamples = 25\nvalue = [16, 9]"] ;
349 -> 350 ;
351 [label="x[0] <= 23.5\nentropy = 0.971\nsamples = 15\nvalue = [6, 9]"] ;
350 -> 351 ;
352 [label="entropy = 0.0\nsamples = 4\nvalue = [0, 4]"] ;
351 -> 352 ;
353 [label="entropy = 0.994\nsamples = 11\nvalue = [6, 5]"] ;
351 -> 353 ;
354 [label="entropy = 0.0\nsamples = 10\nvalue = [10, 0]"] ;
350 -> 354 ;
355 [label="x[3] <= 4550.0\nentropy = 0.225\nsamples = 165\nvalue = [6, 159]"] ;
349 -> 355 ;
356 [label="x[3] <= 4350.0\nentropy = 0.445\nsamples = 54\nvalue = [5, 49]"] ;
355 -> 356 ;
357 [label="entropy = 0.323\nsamples = 51\nvalue = [3, 48]"] ;
356 -> 357 ;
358 [label="entropy = 0.918\nsamples = 3\nvalue = [2, 1]"] ;
356 -> 358 ;
359 [label="x[6] <= 11.5\nentropy = 0.074\nsamples = 111\nvalue = [1, 110]"] ;
355 -> 359 ;
360 [label="entropy = 0.0\nsamples = 95\nvalue = [0, 95]"] ;
359 -> 360 ;
361 [label="entropy = 0.337\nsamples = 16\nvalue = [1, 15]"] ;
359 -> 361 ;
362 [label="x[10] <= 0.5\nentropy = 0.992\nsamples = 96\nvalue = [43, 53]"] ;
348 -> 362 ;
363 [label="x[6] <= 5.5\nentropy = 0.684\nsamples = 44\nvalue = [36, 8]"] ;
362 -> 363 ;
364 [label="x[14] <= 0.5\nentropy = 0.877\nsamples = 27\nvalue = [19, 8]"] ;
363 -> 364 ;
365 [label="entropy = 0.575\nsamples = 22\nvalue = [19, 3]"] ;
364 -> 365 ;
366 [label="entropy = 0.0\nsamples = 5\nvalue = [0, 5]"] ;
364 -> 366 ;
367 [label="entropy = 0.0\nsamples = 17\nvalue = [17, 0]"] ;
363 -> 367 ;
368 [label="x[24] <= 0.5\nentropy = 0.57\nsamples = 52\nvalue = [7, 45]"] ;
362 -> 368 ;
369 [label="x[1] <= 90402.0\nentropy = 0.738\nsamples = 24\nvalue = [5, 19]"] ;
368 -> 369 ;
370 [label="entropy = 0.874\nsamples = 17\nvalue = [5, 12]"] ;
369 -> 370 ;
371 [label="entropy = 0.0\nsamples = 7\nvalue = [0, 7]"] ;
369 -> 371 ;
372 [label="x[0] <= 21.5\nentropy = 0.371\nsamples = 28\nvalue = [2, 26]"] ;
368 -> 372 ;
373 [label="entropy = 1.0\nsamples = 2\nvalue = [1, 1]"] ;
372 -> 373 ;
374 [label="entropy = 0.235\nsamples = 26\nvalue = [1, 25]"] ;
372 -> 374 ;
375 [label="x[14] <= 0.5\nentropy = 0.882\nsamples = 406\nvalue = [284.0, 122.0]"] ;
347 -> 375 ;
376 [label="x[6] <= 3.5\nentropy = 0.621\nsamples = 317\nvalue = [268, 49]"] ;
375 -> 376 ;
377 [label="x[1] <= 79825.0\nentropy = 0.767\nsamples = 125\nvalue = [97, 28]"] ;
376 -> 377 ;
378 [label="x[3] <= 3100.0\nentropy = 0.855\nsamples = 100\nvalue = [72.0, 28.0]"] ;
377 -> 378 ;
379 [label="entropy = 0.0\nsamples = 11\nvalue = [11, 0]"] ;
378 -> 379 ;
380 [label="entropy = 0.898\nsamples = 89\nvalue = [61, 28]"] ;
378 -> 380 ;
381 [label="entropy = 0.0\nsamples = 25\nvalue = [25, 0]"] ;
377 -> 381 ;
382 [label="x[13] <= 0.5\nentropy = 0.498\nsamples = 192\nvalue = [171, 21]"] ;
376 -> 382 ;
383 [label="x[2] <= 16.5\nentropy = 0.384\nsamples = 147\nvalue = [136, 11]"] ;
382 -> 383 ;
384 [label="entropy = 0.339\nsamples = 143\nvalue = [134, 9]"] ;
383 -> 384 ;
385 [label="entropy = 1.0\nsamples = 4\nvalue = [2, 2]"] ;
383 -> 385 ;
386 [label="x[0] <= 23.5\nentropy = 0.764\nsamples = 45\nvalue = [35, 10]"] ;
382 -> 386 ;
387 [label="entropy = 0.0\nsamples = 2\nvalue = [0, 2]"] ;
386 -> 387 ;
388 [label="entropy = 0.693\nsamples = 43\nvalue = [35, 8]"] ;
386 -> 388 ;
389 [label="x[7] <= 0.5\nentropy = 0.68\nsamples = 89\nvalue = [16, 73]"] ;
375 -> 389 ;
390 [label="x[0] <= 35.5\nentropy = 0.767\nsamples = 67\nvalue = [15, 52]"] ;
389 -> 390 ;
391 [label="x[10] <= 0.5\nentropy = 0.657\nsamples = 59\nvalue = [10, 49]"] ;
390 -> 391 ;
392 [label="entropy = 0.0\nsamples = 1\nvalue = [1, 0]"] ;
391 -> 392 ;
393 [label="entropy = 0.623\nsamples = 58\nvalue = [9, 49]"] ;
391 -> 393 ;
394 [label="x[4] <= 14.525\nentropy = 0.954\nsamples = 8\nvalue = [5, 3]"] ;
390 -> 394 ;
395 [label="entropy = 0.811\nsamples = 4\nvalue = [1, 3]"] ;
394 -> 395 ;
396 [label="entropy = 0.0\nsamples = 4\nvalue = [4, 0]"] ;
394 -> 396 ;
397 [label="x[5] <= 0.055\nentropy = 0.267\nsamples = 22\nvalue = [1, 21]"] ;
389 -> 397 ;
398 [label="x[2] <= 8.0\nentropy = 1.0\nsamples = 2\nvalue = [1, 1]"] ;
397 -> 398 ;
399 [label="entropy = 0.0\nsamples = 1\nvalue = [0, 1]"] ;
398 -> 399 ;
400 [label="entropy = 0.0\nsamples = 1\nvalue = [1, 0]"] ;
398 -> 400 ;
401 [label="entropy = 0.0\nsamples = 20\nvalue = [0, 20]"] ;
397 -> 401 ;
402 [label="x[4] <= 14.6\nentropy = 0.293\nsamples = 155\nvalue = [8, 147]"] ;
346 -> 402 ;
403 [label="x[1] <= 22800.0\nentropy = 0.199\nsamples = 129\nvalue = [4, 125]"] ;
402 -> 403 ;
404 [label="x[6] <= 3.5\nentropy = 1.0\nsamples = 2\nvalue = [1, 1]"] ;
403 -> 404 ;
405 [label="entropy = 0.0\nsamples = 1\nvalue = [0, 1]"] ;
404 -> 405 ;
406 [label="entropy = 0.0\nsamples = 1\nvalue = [1, 0]"] ;
404 -> 406 ;
407 [label="x[3] <= 7350.0\nentropy = 0.161\nsamples = 127\nvalue = [3, 124]"] ;
403 -> 407 ;
408 [label="x[9] <= 0.5\nentropy = 0.283\nsamples = 61\nvalue = [3, 58]"] ;
407 -> 408 ;
409 [label="x[0] <= 26.5\nentropy = 0.211\nsamples = 60\nvalue = [2, 58]"] ;
408 -> 409 ;
410 [label="entropy = 0.0\nsamples = 40\nvalue = [0, 40]"] ;
409 -> 410 ;
411 [label="entropy = 0.469\nsamples = 20\nvalue = [2, 18]"] ;
409 -> 411 ;
412 [label="entropy = 0.0\nsamples = 1\nvalue = [1, 0]"] ;
408 -> 412 ;
413 [label="entropy = 0.0\nsamples = 66\nvalue = [0, 66]"] ;
407 -> 413 ;
414 [label="x[7] <= 0.5\nentropy = 0.619\nsamples = 26\nvalue = [4, 22]"] ;
402 -> 414 ;
415 [label="x[9] <= 0.5\nentropy = 0.811\nsamples = 16\nvalue = [4, 12]"] ;
414 -> 415 ;
416 [label="x[2] <= 3.5\nentropy = 0.592\nsamples = 14\nvalue = [2, 12]"] ;
415 -> 416 ;
417 [label="entropy = 0.0\nsamples = 9\nvalue = [0, 9]"] ;
416 -> 417 ;
418 [label="x[1] <= 32000.0\nentropy = 0.971\nsamples = 5\nvalue = [2, 3]"] ;
416 -> 418 ;
419 [label="entropy = 0.0\nsamples = 1\nvalue = [1, 0]"] ;
418 -> 419 ;
420 [label="entropy = 0.811\nsamples = 4\nvalue = [1, 3]"] ;
418 -> 420 ;
421 [label="entropy = 0.0\nsamples = 2\nvalue = [2, 0]"] ;
415 -> 421 ;
422 [label="entropy = 0.0\nsamples = 10\nvalue = [0, 10]"] ;
414 -> 422 ;
423 [label="x[14] <= 0.5\nentropy = 0.999\nsamples = 4689\nvalue = [2276, 2413]"] ;
295 -> 423 ;
424 [label="x[2] <= 2.5\nentropy = 0.994\nsamples = 3878\nvalue = [2116, 1762]"] ;
423 -> 424 ;
425 [label="x[10] <= 0.5\nentropy = 0.852\nsamples = 1451\nvalue = [403, 1048]"] ;
424 -> 425 ;
426 [label="x[7] <= 0.5\nentropy = 0.803\nsamples = 400\nvalue = [302, 98]"] ;
425 -> 426 ;
427 [label="x[3] <= 2675.0\nentropy = 0.307\nsamples = 91\nvalue = [86, 5]"] ;
426 -> 427 ;
428 [label="x[1] <= 19360.0\nentropy = 0.985\nsamples = 7\nvalue = [4, 3]"] ;
427 -> 428 ;
429 [label="entropy = 0.0\nsamples = 2\nvalue = [0, 2]"] ;
428 -> 429 ;
430 [label="x[21] <= 0.5\nentropy = 0.722\nsamples = 5\nvalue = [4, 1]"] ;
428 -> 430 ;
431 [label="entropy = 0.0\nsamples = 4\nvalue = [4, 0]"] ;
430 -> 431 ;
432 [label="entropy = 0.0\nsamples = 1\nvalue = [0, 1]"] ;
430 -> 432 ;
433 [label="x[0] <= 24.5\nentropy = 0.162\nsamples = 84\nvalue = [82, 2]"] ;
427 -> 433 ;
434 [label="x[8] <= 0.5\nentropy = 0.337\nsamples = 32\nvalue = [30, 2]"] ;
433 -> 434 ;
435 [label="entropy = 0.206\nsamples = 31\nvalue = [30, 1]"] ;
434 -> 435 ;
436 [label="entropy = 0.0\nsamples = 1\nvalue = [0, 1]"] ;
434 -> 436 ;
437 [label="entropy = 0.0\nsamples = 52\nvalue = [52, 0]"] ;
433 -> 437 ;
438 [label="x[1] <= 96750.0\nentropy = 0.882\nsamples = 309\nvalue = [216, 93]"] ;
426 -> 438 ;
439 [label="x[16] <= 0.5\nentropy = 0.945\nsamples = 234\nvalue = [149, 85]"] ;
438 -> 439 ;
440 [label="x[0] <= 26.5\nentropy = 0.978\nsamples = 194\nvalue = [114, 80]"] ;
439 -> 440 ;
441 [label="entropy = 0.999\nsamples = 96\nvalue = [46, 50]"] ;
440 -> 441 ;
442 [label="entropy = 0.889\nsamples = 98\nvalue = [68, 30]"] ;
440 -> 442 ;
443 [label="x[22] <= 0.5\nentropy = 0.544\nsamples = 40\nvalue = [35, 5]"] ;
439 -> 443 ;
444 [label="entropy = 0.477\nsamples = 39\nvalue = [35, 4]"] ;
443 -> 444 ;
445 [label="entropy = 0.0\nsamples = 1\nvalue = [0, 1]"] ;
443 -> 445 ;
446 [label="x[20] <= 0.5\nentropy = 0.49\nsamples = 75\nvalue = [67, 8]"] ;
438 -> 446 ;
447 [label="entropy = 0.0\nsamples = 28\nvalue = [28, 0]"] ;
446 -> 447 ;
448 [label="x[0] <= 21.5\nentropy = 0.658\nsamples = 47\nvalue = [39, 8]"] ;
446 -> 448 ;
449 [label="entropy = 0.0\nsamples = 2\nvalue = [0, 2]"] ;
448 -> 449 ;
450 [label="entropy = 0.567\nsamples = 45\nvalue = [39, 6]"] ;
448 -> 450 ;
451 [label="x[20] <= 0.5\nentropy = 0.457\nsamples = 1051\nvalue = [101, 950]"] ;
425 -> 451 ;
452 [label="x[13] <= 0.5\nentropy = 0.788\nsamples = 322\nvalue = [76, 246]"] ;
451 -> 452 ;
453 [label="x[4] <= 15.98\nentropy = 0.845\nsamples = 257\nvalue = [70, 187]"] ;
452 -> 453 ;
454 [label="x[4] <= 15.42\nentropy = 0.963\nsamples = 93\nvalue = [57, 36]"] ;
453 -> 454 ;
455 [label="entropy = 0.794\nsamples = 46\nvalue = [35, 11]"] ;
454 -> 455 ;
456 [label="entropy = 0.997\nsamples = 47\nvalue = [22, 25]"] ;
454 -> 456 ;
457 [label="x[3] <= 5800.0\nentropy = 0.4\nsamples = 164\nvalue = [13, 151]"] ;
453 -> 457 ;
458 [label="entropy = 0.0\nsamples = 62\nvalue = [0, 62]"] ;
457 -> 458 ;
459 [label="entropy = 0.55\nsamples = 102\nvalue = [13, 89]"] ;
457 -> 459 ;
460 [label="x[5] <= 0.175\nentropy = 0.444\nsamples = 65\nvalue = [6, 59]"] ;
452 -> 460 ;
461 [label="x[1] <= 96500.0\nentropy = 0.65\nsamples = 36\nvalue = [6, 30]"] ;
460 -> 461 ;
462 [label="entropy = 0.216\nsamples = 29\nvalue = [1, 28]"] ;
461 -> 462 ;
463 [label="entropy = 0.863\nsamples = 7\nvalue = [5, 2]"] ;
461 -> 463 ;
464 [label="entropy = 0.0\nsamples = 29\nvalue = [0, 29]"] ;
460 -> 464 ;
465 [label="x[1] <= 74750.0\nentropy = 0.215\nsamples = 729\nvalue = [25, 704]"] ;
451 -> 465 ;
466 [label="x[1] <= 35760.0\nentropy = 0.135\nsamples = 637\nvalue = [12.0, 625.0]"] ;
465 -> 466 ;
467 [label="x[2] <= 1.5\nentropy = 0.034\nsamples = 277\nvalue = [1, 276]"] ;
466 -> 467 ;
468 [label="entropy = 0.0\nsamples = 175\nvalue = [0, 175]"] ;
467 -> 468 ;
469 [label="entropy = 0.079\nsamples = 102\nvalue = [1, 101]"] ;
467 -> 469 ;
470 [label="x[1] <= 60250.0\nentropy = 0.197\nsamples = 360\nvalue = [11, 349]"] ;
466 -> 470 ;
471 [label="entropy = 0.23\nsamples = 295\nvalue = [11, 284]"] ;
470 -> 471 ;
472 [label="entropy = 0.0\nsamples = 65\nvalue = [0, 65]"] ;
470 -> 472 ;
473 [label="x[1] <= 76500.0\nentropy = 0.588\nsamples = 92\nvalue = [13.0, 79.0]"] ;
465 -> 473 ;
474 [label="x[0] <= 28.0\nentropy = 0.811\nsamples = 8\nvalue = [6, 2]"] ;
473 -> 474 ;
475 [label="entropy = 0.0\nsamples = 4\nvalue = [4, 0]"] ;
474 -> 475 ;
476 [label="entropy = 1.0\nsamples = 4\nvalue = [2, 2]"] ;
474 -> 476 ;
477 [label="x[5] <= 0.095\nentropy = 0.414\nsamples = 84\nvalue = [7, 77]"] ;
473 -> 477 ;
478 [label="entropy = 0.755\nsamples = 23\nvalue = [5, 18]"] ;
477 -> 478 ;
479 [label="entropy = 0.208\nsamples = 61\nvalue = [2, 59]"] ;
477 -> 479 ;
480 [label="x[11] <= 0.5\nentropy = 0.874\nsamples = 2427\nvalue = [1713, 714]"] ;
424 -> 480 ;
481 [label="x[10] <= 0.5\nentropy = 0.68\nsamples = 2010\nvalue = [1648, 362]"] ;
480 -> 481 ;
482 [label="x[9] <= 0.5\nentropy = 0.516\nsamples = 962\nvalue = [851, 111]"] ;
481 -> 482 ;
483 [label="x[1] <= 59709.5\nentropy = 0.565\nsamples = 814\nvalue = [706.0, 108.0]"] ;
482 -> 483 ;
484 [label="x[1] <= 59328.5\nentropy = 0.803\nsamples = 253\nvalue = [191, 62]"] ;
483 -> 484 ;
485 [label="entropy = 0.788\nsamples = 250\nvalue = [191, 59]"] ;
484 -> 485 ;
486 [label="entropy = 0.0\nsamples = 3\nvalue = [0, 3]"] ;
484 -> 486 ;
487 [label="x[0] <= 22.5\nentropy = 0.409\nsamples = 561\nvalue = [515, 46]"] ;
483 -> 487 ;
488 [label="entropy = 0.73\nsamples = 49\nvalue = [39, 10]"] ;
487 -> 488 ;
489 [label="entropy = 0.367\nsamples = 512\nvalue = [476, 36]"] ;
487 -> 489 ;
490 [label="x[21] <= 0.5\nentropy = 0.143\nsamples = 148\nvalue = [145, 3]"] ;
482 -> 490 ;
491 [label="entropy = 0.0\nsamples = 133\nvalue = [133, 0]"] ;
490 -> 491 ;
492 [label="x[3] <= 9000.0\nentropy = 0.722\nsamples = 15\nvalue = [12, 3]"] ;
490 -> 492 ;
493 [label="entropy = 0.985\nsamples = 7\nvalue = [4, 3]"] ;
492 -> 493 ;
494 [label="entropy = 0.0\nsamples = 8\nvalue = [8, 0]"] ;
492 -> 494 ;
495 [label="x[1] <= 46250.0\nentropy = 0.794\nsamples = 1048\nvalue = [797, 251]"] ;
481 -> 495 ;
496 [label="x[1] <= 33948.0\nentropy = 0.966\nsamples = 324\nvalue = [197, 127]"] ;
495 -> 496 ;
497 [label="x[3] <= 9800.0\nentropy = 1.0\nsamples = 99\nvalue = [49, 50]"] ;
496 -> 497 ;
498 [label="entropy = 0.999\nsamples = 94\nvalue = [49, 45]"] ;
497 -> 498 ;
499 [label="entropy = 0.0\nsamples = 5\nvalue = [0, 5]"] ;
497 -> 499 ;
500 [label="x[4] <= 15.005\nentropy = 0.927\nsamples = 225\nvalue = [148, 77]"] ;
496 -> 500 ;
501 [label="entropy = 0.414\nsamples = 24\nvalue = [22, 2]"] ;
500 -> 501 ;
502 [label="entropy = 0.953\nsamples = 201\nvalue = [126, 75]"] ;
500 -> 502 ;
503 [label="x[0] <= 22.5\nentropy = 0.661\nsamples = 724\nvalue = [600, 124]"] ;
495 -> 503 ;
504 [label="x[13] <= 0.5\nentropy = 0.869\nsamples = 93\nvalue = [66.0, 27.0]"] ;
503 -> 504 ;
505 [label="entropy = 0.782\nsamples = 86\nvalue = [66, 20]"] ;
504 -> 505 ;
506 [label="entropy = 0.0\nsamples = 7\nvalue = [0, 7]"] ;
504 -> 506 ;
507 [label="x[19] <= 0.5\nentropy = 0.619\nsamples = 631\nvalue = [534.0, 97.0]"] ;
503 -> 507 ;
508 [label="entropy = 0.647\nsamples = 574\nvalue = [479, 95]"] ;
507 -> 508 ;
509 [label="entropy = 0.219\nsamples = 57\nvalue = [55, 2]"] ;
507 -> 509 ;
510 [label="x[19] <= 0.5\nentropy = 0.624\nsamples = 417\nvalue = [65, 352]"] ;
480 -> 510 ;
511 [label="x[9] <= 0.5\nentropy = 0.413\nsamples = 373\nvalue = [31, 342]"] ;
510 -> 511 ;
512 [label="x[1] <= 47500.0\nentropy = 0.227\nsamples = 354\nvalue = [13, 341]"] ;
511 -> 512 ;
513 [label="x[0] <= 22.5\nentropy = 0.074\nsamples = 111\nvalue = [1, 110]"] ;
512 -> 513 ;
514 [label="entropy = 0.242\nsamples = 25\nvalue = [1, 24]"] ;
513 -> 514 ;
515 [label="entropy = 0.0\nsamples = 86\nvalue = [0, 86]"] ;
513 -> 515 ;
516 [label="x[0] <= 24.5\nentropy = 0.284\nsamples = 243\nvalue = [12, 231]"] ;
512 -> 516 ;
517 [label="entropy = 0.158\nsamples = 87\nvalue = [2, 85]"] ;
516 -> 517 ;
518 [label="entropy = 0.344\nsamples = 156\nvalue = [10, 146]"] ;
516 -> 518 ;
519 [label="x[20] <= 0.5\nentropy = 0.297\nsamples = 19\nvalue = [18, 1]"] ;
511 -> 519 ;
520 [label="entropy = 0.0\nsamples = 1\nvalue = [0, 1]"] ;
519 -> 520 ;
521 [label="entropy = 0.0\nsamples = 18\nvalue = [18, 0]"] ;
519 -> 521 ;
522 [label="x[0] <= 23.5\nentropy = 0.773\nsamples = 44\nvalue = [34, 10]"] ;
510 -> 522 ;
523 [label="entropy = 0.0\nsamples = 14\nvalue = [14, 0]"] ;
522 -> 523 ;
524 [label="x[6] <= 9.5\nentropy = 0.918\nsamples = 30\nvalue = [20, 10]"] ;
522 -> 524 ;
525 [label="x[6] <= 7.5\nentropy = 0.84\nsamples = 26\nvalue = [19, 7]"] ;
524 -> 525 ;
526 [label="entropy = 0.949\nsamples = 19\nvalue = [12, 7]"] ;
525 -> 526 ;
527 [label="entropy = 0.0\nsamples = 7\nvalue = [7, 0]"] ;
525 -> 527 ;
528 [label="x[10] <= 0.5\nentropy = 0.811\nsamples = 4\nvalue = [1, 3]"] ;
524 -> 528 ;
529 [label="entropy = 0.0\nsamples = 1\nvalue = [1, 0]"] ;
528 -> 529 ;
530 [label="entropy = 0.0\nsamples = 3\nvalue = [0, 3]"] ;
528 -> 530 ;
531 [label="x[19] <= 0.5\nentropy = 0.716\nsamples = 811\nvalue = [160, 651]"] ;
423 -> 531 ;
532 [label="x[9] <= 0.5\nentropy = 0.563\nsamples = 728\nvalue = [96, 632]"] ;
531 -> 532 ;
533 [label="x[1] <= 117375.0\nentropy = 0.492\nsamples = 699\nvalue = [75, 624]"] ;
532 -> 533 ;
534 [label="x[20] <= 0.5\nentropy = 0.47\nsamples = 688\nvalue = [69, 619]"] ;
533 -> 534 ;
535 [label="x[21] <= 0.5\nentropy = 0.254\nsamples = 141\nvalue = [6, 135]"] ;
534 -> 535 ;
536 [label="entropy = 0.0\nsamples = 21\nvalue = [0, 21]"] ;
535 -> 536 ;
537 [label="x[3] <= 2000.0\nentropy = 0.286\nsamples = 120\nvalue = [6, 114]"] ;
535 -> 537 ;
538 [label="entropy = 0.0\nsamples = 1\nvalue = [1, 0]"] ;
537 -> 538 ;
539 [label="entropy = 0.251\nsamples = 119\nvalue = [5, 114]"] ;
537 -> 539 ;
540 [label="x[2] <= 2.5\nentropy = 0.515\nsamples = 547\nvalue = [63, 484]"] ;
534 -> 540 ;
541 [label="x[10] <= 0.5\nentropy = 0.229\nsamples = 189\nvalue = [7, 182]"] ;
540 -> 541 ;
542 [label="entropy = 0.359\nsamples = 44\nvalue = [3, 41]"] ;
541 -> 542 ;
543 [label="entropy = 0.182\nsamples = 145\nvalue = [4, 141]"] ;
541 -> 543 ;
544 [label="x[5] <= 0.115\nentropy = 0.626\nsamples = 358\nvalue = [56, 302]"] ;
540 -> 544 ;
545 [label="entropy = 0.457\nsamples = 104\nvalue = [10, 94]"] ;
544 -> 545 ;
546 [label="entropy = 0.682\nsamples = 254\nvalue = [46, 208]"] ;
544 -> 546 ;
547 [label="x[25] <= 0.5\nentropy = 0.994\nsamples = 11\nvalue = [6, 5]"] ;
533 -> 547 ;
548 [label="x[3] <= 15500.0\nentropy = 0.811\nsamples = 4\nvalue = [1, 3]"] ;
547 -> 548 ;
549 [label="entropy = 0.0\nsamples = 2\nvalue = [0, 2]"] ;
548 -> 549 ;
550 [label="x[7] <= 0.5\nentropy = 1.0\nsamples = 2\nvalue = [1, 1]"] ;
548 -> 550 ;
551 [label="entropy = 0.0\nsamples = 1\nvalue = [0, 1]"] ;
550 -> 551 ;
552 [label="entropy = 0.0\nsamples = 1\nvalue = [1, 0]"] ;
550 -> 552 ;
553 [label="x[5] <= 0.12\nentropy = 0.863\nsamples = 7\nvalue = [5, 2]"] ;
547 -> 553 ;
554 [label="entropy = 0.0\nsamples = 4\nvalue = [4, 0]"] ;
553 -> 554 ;
555 [label="x[5] <= 0.23\nentropy = 0.918\nsamples = 3\nvalue = [1, 2]"] ;
553 -> 555 ;
556 [label="entropy = 0.0\nsamples = 2\nvalue = [0, 2]"] ;
555 -> 556 ;
557 [label="entropy = 0.0\nsamples = 1\nvalue = [1, 0]"] ;
555 -> 557 ;
558 [label="x[0] <= 22.5\nentropy = 0.85\nsamples = 29\nvalue = [21, 8]"] ;
532 -> 558 ;
559 [label="entropy = 0.0\nsamples = 4\nvalue = [4, 0]"] ;
558 -> 559 ;
560 [label="x[3] <= 4400.0\nentropy = 0.904\nsamples = 25\nvalue = [17, 8]"] ;
558 -> 560 ;
561 [label="entropy = 0.0\nsamples = 7\nvalue = [7, 0]"] ;
560 -> 561 ;
562 [label="x[4] <= 16.63\nentropy = 0.991\nsamples = 18\nvalue = [10, 8]"] ;
560 -> 562 ;
563 [label="x[3] <= 5250.0\nentropy = 0.918\nsamples = 15\nvalue = [10, 5]"] ;
562 -> 563 ;
564 [label="entropy = 0.0\nsamples = 4\nvalue = [4, 0]"] ;
563 -> 564 ;
565 [label="entropy = 0.994\nsamples = 11\nvalue = [6, 5]"] ;
563 -> 565 ;
566 [label="entropy = 0.0\nsamples = 3\nvalue = [0, 3]"] ;
562 -> 566 ;
567 [label="x[7] <= 0.5\nentropy = 0.776\nsamples = 83\nvalue = [64, 19]"] ;
531 -> 567 ;
568 [label="x[0] <= 30.5\nentropy = 0.604\nsamples = 61\nvalue = [52, 9]"] ;
567 -> 568 ;
569 [label="x[3] <= 3800.0\nentropy = 0.672\nsamples = 51\nvalue = [42, 9]"] ;
568 -> 569 ;
570 [label="x[5] <= 0.055\nentropy = 0.991\nsamples = 9\nvalue = [5, 4]"] ;
569 -> 570 ;
571 [label="entropy = 0.0\nsamples = 4\nvalue = [4, 0]"] ;
570 -> 571 ;
572 [label="x[0] <= 25.0\nentropy = 0.722\nsamples = 5\nvalue = [1, 4]"] ;
570 -> 572 ;
573 [label="entropy = 0.918\nsamples = 3\nvalue = [1, 2]"] ;
572 -> 573 ;
574 [label="entropy = 0.0\nsamples = 2\nvalue = [0, 2]"] ;
572 -> 574 ;
575 [label="x[2] <= 0.5\nentropy = 0.527\nsamples = 42\nvalue = [37, 5]"] ;
569 -> 575 ;
576 [label="x[4] <= 15.25\nentropy = 0.971\nsamples = 5\nvalue = [3, 2]"] ;
575 -> 576 ;
577 [label="entropy = 0.0\nsamples = 2\nvalue = [0, 2]"] ;
576 -> 577 ;
578 [label="entropy = 0.0\nsamples = 3\nvalue = [3, 0]"] ;
576 -> 578 ;
579 [label="x[0] <= 28.5\nentropy = 0.406\nsamples = 37\nvalue = [34, 3]"] ;
575 -> 579 ;
580 [label="entropy = 0.316\nsamples = 35\nvalue = [33, 2]"] ;
579 -> 580 ;
581 [label="entropy = 1.0\nsamples = 2\nvalue = [1, 1]"] ;
579 -> 581 ;
582 [label="entropy = 0.0\nsamples = 10\nvalue = [10, 0]"] ;
568 -> 582 ;
583 [label="x[25] <= 0.5\nentropy = 0.994\nsamples = 22\nvalue = [12, 10]"] ;
567 -> 583 ;
584 [label="x[3] <= 4000.0\nentropy = 0.994\nsamples = 11\nvalue = [5, 6]"] ;
583 -> 584 ;
585 [label="entropy = 0.0\nsamples = 3\nvalue = [0, 3]"] ;
584 -> 585 ;
586 [label="x[0] <= 26.0\nentropy = 0.954\nsamples = 8\nvalue = [5, 3]"] ;
584 -> 586 ;
587 [label="x[2] <= 4.0\nentropy = 0.971\nsamples = 5\nvalue = [2, 3]"] ;
586 -> 587 ;
588 [label="entropy = 0.0\nsamples = 2\nvalue = [2, 0]"] ;
587 -> 588 ;
589 [label="entropy = 0.0\nsamples = 3\nvalue = [0, 3]"] ;
587 -> 589 ;
590 [label="entropy = 0.0\nsamples = 3\nvalue = [3, 0]"] ;
586 -> 590 ;
591 [label="x[4] <= 15.615\nentropy = 0.946\nsamples = 11\nvalue = [7, 4]"] ;
583 -> 591 ;
592 [label="x[3] <= 15750.0\nentropy = 0.985\nsamples = 7\nvalue = [3, 4]"] ;
591 -> 592 ;
593 [label="x[0] <= 24.0\nentropy = 0.811\nsamples = 4\nvalue = [3, 1]"] ;
592 -> 593 ;
594 [label="entropy = 0.0\nsamples = 1\nvalue = [1, 0]"] ;
593 -> 594 ;
595 [label="entropy = 0.918\nsamples = 3\nvalue = [2, 1]"] ;
593 -> 595 ;
596 [label="entropy = 0.0\nsamples = 3\nvalue = [0, 3]"] ;
592 -> 596 ;
597 [label="entropy = 0.0\nsamples = 4\nvalue = [4, 0]"] ;
591 -> 597 ;
598 [label="x[7] <= 0.5\nentropy = 0.885\nsamples = 4730\nvalue = [1435, 3295]"] ;
0 -> 598 [labeldistance=2.5, labelangle=-45, headlabel="False"] ;
599 [label="x[9] <= 0.5\nentropy = 0.558\nsamples = 3567\nvalue = [465.0, 3102.0]"] ;
598 -> 599 ;
600 [label="x[4] <= 15.575\nentropy = 0.255\nsamples = 3223\nvalue = [138, 3085]"] ;
599 -> 600 ;
601 [label="x[1] <= 44842.0\nentropy = 0.28\nsamples = 2830\nvalue = [137, 2693]"] ;
600 -> 601 ;
602 [label="x[5] <= 0.365\nentropy = 0.212\nsamples = 1820\nvalue = [61, 1759]"] ;
601 -> 602 ;
603 [label="x[4] <= 6.765\nentropy = 0.267\nsamples = 990\nvalue = [45, 945]"] ;
602 -> 603 ;
604 [label="entropy = 0.0\nsamples = 54\nvalue = [0, 54]"] ;
603 -> 604 ;
605 [label="x[1] <= 10800.0\nentropy = 0.278\nsamples = 936\nvalue = [45, 891]"] ;
603 -> 605 ;
606 [label="entropy = 0.0\nsamples = 2\nvalue = [2, 0]"] ;
605 -> 606 ;
607 [label="x[20] <= 0.5\nentropy = 0.269\nsamples = 934\nvalue = [43, 891]"] ;
605 -> 607 ;
608 [label="x[16] <= 0.5\nentropy = 0.287\nsamples = 837\nvalue = [42, 795]"] ;
607 -> 608 ;
609 [label="entropy = 0.252\nsamples = 713\nvalue = [30, 683]"] ;
608 -> 609 ;
610 [label="entropy = 0.459\nsamples = 124\nvalue = [12, 112]"] ;
608 -> 610 ;
611 [label="x[12] <= 0.5\nentropy = 0.083\nsamples = 97\nvalue = [1, 96]"] ;
607 -> 611 ;
612 [label="entropy = 0.0\nsamples = 81\nvalue = [0, 81]"] ;
611 -> 612 ;
613 [label="entropy = 0.337\nsamples = 16\nvalue = [1, 15]"] ;
611 -> 613 ;
614 [label="x[15] <= 0.5\nentropy = 0.137\nsamples = 830\nvalue = [16, 814]"] ;
602 -> 614 ;
615 [label="x[13] <= 0.5\nentropy = 0.159\nsamples = 689\nvalue = [16, 673]"] ;
614 -> 615 ;
616 [label="x[14] <= 0.5\nentropy = 0.17\nsamples = 633\nvalue = [16, 617]"] ;
615 -> 616 ;
617 [label="x[3] <= 12400.0\nentropy = 0.213\nsamples = 444\nvalue = [15, 429]"] ;
616 -> 617 ;
618 [label="entropy = 0.052\nsamples = 172\nvalue = [1, 171]"] ;
617 -> 618 ;
619 [label="entropy = 0.293\nsamples = 272\nvalue = [14, 258]"] ;
617 -> 619 ;
620 [label="x[5] <= 0.495\nentropy = 0.048\nsamples = 189\nvalue = [1, 188]"] ;
616 -> 620 ;
621 [label="entropy = 0.0\nsamples = 177\nvalue = [0, 177]"] ;
620 -> 621 ;
622 [label="entropy = 0.414\nsamples = 12\nvalue = [1, 11]"] ;
620 -> 622 ;
623 [label="entropy = 0.0\nsamples = 56\nvalue = [0, 56]"] ;
615 -> 623 ;
624 [label="entropy = 0.0\nsamples = 141\nvalue = [0, 141]"] ;
614 -> 624 ;
625 [label="x[2] <= 0.5\nentropy = 0.385\nsamples = 1010\nvalue = [76, 934]"] ;
601 -> 625 ;
626 [label="x[15] <= 0.5\nentropy = 0.235\nsamples = 130\nvalue = [5, 125]"] ;
625 -> 626 ;
627 [label="x[3] <= 17750.0\nentropy = 0.278\nsamples = 104\nvalue = [5, 99]"] ;
626 -> 627 ;
628 [label="entropy = 0.0\nsamples = 36\nvalue = [0, 36]"] ;
627 -> 628 ;
629 [label="x[1] <= 65002.0\nentropy = 0.379\nsamples = 68\nvalue = [5, 63]"] ;
627 -> 629 ;
630 [label="x[4] <= 13.795\nentropy = 0.496\nsamples = 46\nvalue = [5, 41]"] ;
629 -> 630 ;
631 [label="entropy = 0.614\nsamples = 33\nvalue = [5, 28]"] ;
630 -> 631 ;
632 [label="entropy = 0.0\nsamples = 13\nvalue = [0, 13]"] ;
630 -> 632 ;
633 [label="entropy = 0.0\nsamples = 22\nvalue = [0, 22]"] ;
629 -> 633 ;
634 [label="entropy = 0.0\nsamples = 26\nvalue = [0, 26]"] ;
626 -> 634 ;
635 [label="x[5] <= 0.355\nentropy = 0.405\nsamples = 880\nvalue = [71, 809]"] ;
625 -> 635 ;
636 [label="x[1] <= 55756.0\nentropy = 0.475\nsamples = 491\nvalue = [50, 441]"] ;
635 -> 636 ;
637 [label="x[2] <= 7.5\nentropy = 0.367\nsamples = 228\nvalue = [16, 212]"] ;
636 -> 637 ;
638 [label="x[4] <= 8.89\nentropy = 0.292\nsamples = 195\nvalue = [10, 185]"] ;
637 -> 638 ;
639 [label="entropy = 0.0\nsamples = 32\nvalue = [0, 32]"] ;
638 -> 639 ;
640 [label="entropy = 0.333\nsamples = 163\nvalue = [10, 153]"] ;
638 -> 640 ;
641 [label="x[1] <= 47964.0\nentropy = 0.684\nsamples = 33\nvalue = [6, 27]"] ;
637 -> 641 ;
642 [label="entropy = 0.918\nsamples = 15\nvalue = [5, 10]"] ;
641 -> 642 ;
643 [label="entropy = 0.31\nsamples = 18\nvalue = [1, 17]"] ;
641 -> 643 ;
644 [label="x[2] <= 9.5\nentropy = 0.555\nsamples = 263\nvalue = [34, 229]"] ;
636 -> 644 ;
645 [label="x[5] <= 0.345\nentropy = 0.59\nsamples = 239\nvalue = [34, 205]"] ;
644 -> 645 ;
646 [label="entropy = 0.524\nsamples = 220\nvalue = [26, 194]"] ;
645 -> 646 ;
647 [label="entropy = 0.982\nsamples = 19\nvalue = [8, 11]"] ;
645 -> 647 ;
648 [label="entropy = 0.0\nsamples = 24\nvalue = [0, 24]"] ;
644 -> 648 ;
649 [label="x[5] <= 0.515\nentropy = 0.303\nsamples = 389\nvalue = [21, 368]"] ;
635 -> 649 ;
650 [label="x[2] <= 11.5\nentropy = 0.293\nsamples = 388\nvalue = [20, 368]"] ;
649 -> 650 ;
651 [label="x[11] <= 0.5\nentropy = 0.262\nsamples = 360\nvalue = [16, 344]"] ;
650 -> 651 ;
652 [label="entropy = 0.291\nsamples = 294\nvalue = [15, 279]"] ;
651 -> 652 ;
653 [label="entropy = 0.113\nsamples = 66\nvalue = [1, 65]"] ;
651 -> 653 ;
654 [label="x[0] <= 32.5\nentropy = 0.592\nsamples = 28\nvalue = [4, 24]"] ;
650 -> 654 ;
655 [label="entropy = 0.837\nsamples = 15\nvalue = [4, 11]"] ;
654 -> 655 ;
656 [label="entropy = 0.0\nsamples = 13\nvalue = [0, 13]"] ;
654 -> 656 ;
657 [label="entropy = 0.0\nsamples = 1\nvalue = [1, 0]"] ;
649 -> 657 ;
658 [label="x[12] <= 0.5\nentropy = 0.026\nsamples = 393\nvalue = [1, 392]"] ;
600 -> 658 ;
659 [label="entropy = 0.0\nsamples = 343\nvalue = [0, 343]"] ;
658 -> 659 ;
660 [label="x[6] <= 2.5\nentropy = 0.141\nsamples = 50\nvalue = [1, 49]"] ;
658 -> 660 ;
661 [label="x[2] <= 8.0\nentropy = 0.503\nsamples = 9\nvalue = [1, 8]"] ;
660 -> 661 ;
662 [label="entropy = 0.0\nsamples = 8\nvalue = [0, 8]"] ;
661 -> 662 ;
663 [label="entropy = 0.0\nsamples = 1\nvalue = [1, 0]"] ;
661 -> 663 ;
664 [label="entropy = 0.0\nsamples = 41\nvalue = [0, 41]"] ;
660 -> 664 ;
665 [label="x[1] <= 33758.0\nentropy = 0.284\nsamples = 344\nvalue = [327, 17]"] ;
599 -> 665 ;
666 [label="x[4] <= 17.44\nentropy = 0.493\nsamples = 130\nvalue = [116, 14]"] ;
665 -> 666 ;
667 [label="x[16] <= 0.5\nentropy = 0.4\nsamples = 126\nvalue = [116, 10]"] ;
666 -> 667 ;
668 [label="x[0] <= 32.0\nentropy = 0.496\nsamples = 92\nvalue = [82, 10]"] ;
667 -> 668 ;
669 [label="x[5] <= 0.365\nentropy = 0.404\nsamples = 87\nvalue = [80, 7]"] ;
668 -> 669 ;
670 [label="x[5] <= 0.315\nentropy = 0.584\nsamples = 50\nvalue = [43.0, 7.0]"] ;
669 -> 670 ;
671 [label="x[1] <= 30599.0\nentropy = 0.985\nsamples = 7\nvalue = [4, 3]"] ;
670 -> 671 ;
672 [label="entropy = 0.971\nsamples = 5\nvalue = [2, 3]"] ;
671 -> 672 ;
673 [label="entropy = 0.0\nsamples = 2\nvalue = [2, 0]"] ;
671 -> 673 ;
674 [label="x[15] <= 0.5\nentropy = 0.446\nsamples = 43\nvalue = [39, 4]"] ;
670 -> 674 ;
675 [label="entropy = 0.533\nsamples = 33\nvalue = [29, 4]"] ;
674 -> 675 ;
676 [label="entropy = 0.0\nsamples = 10\nvalue = [10, 0]"] ;
674 -> 676 ;
677 [label="entropy = 0.0\nsamples = 37\nvalue = [37, 0]"] ;
669 -> 677 ;
678 [label="x[17] <= 0.5\nentropy = 0.971\nsamples = 5\nvalue = [2, 3]"] ;
668 -> 678 ;
679 [label="entropy = 0.0\nsamples = 3\nvalue = [0, 3]"] ;
678 -> 679 ;
680 [label="entropy = 0.0\nsamples = 2\nvalue = [2, 0]"] ;
678 -> 680 ;
681 [label="entropy = 0.0\nsamples = 34\nvalue = [34, 0]"] ;
667 -> 681 ;
682 [label="entropy = 0.0\nsamples = 4\nvalue = [0, 4]"] ;
666 -> 682 ;
683 [label="x[4] <= 13.53\nentropy = 0.106\nsamples = 214\nvalue = [211, 3]"] ;
665 -> 683 ;
684 [label="entropy = 0.0\nsamples = 172\nvalue = [172, 0]"] ;
683 -> 684 ;
685 [label="x[0] <= 45.0\nentropy = 0.371\nsamples = 42\nvalue = [39, 3]"] ;
683 -> 685 ;
686 [label="x[2] <= 2.5\nentropy = 0.281\nsamples = 41\nvalue = [39, 2]"] ;
685 -> 686 ;
687 [label="x[2] <= 1.5\nentropy = 0.567\nsamples = 15\nvalue = [13, 2]"] ;
686 -> 687 ;
688 [label="entropy = 0.0\nsamples = 9\nvalue = [9, 0]"] ;
687 -> 688 ;
689 [label="x[0] <= 25.5\nentropy = 0.918\nsamples = 6\nvalue = [4, 2]"] ;
687 -> 689 ;
690 [label="entropy = 0.0\nsamples = 3\nvalue = [3, 0]"] ;
689 -> 690 ;
691 [label="x[5] <= 0.32\nentropy = 0.918\nsamples = 3\nvalue = [1, 2]"] ;
689 -> 691 ;
692 [label="entropy = 0.0\nsamples = 1\nvalue = [1, 0]"] ;
691 -> 692 ;
693 [label="entropy = 0.0\nsamples = 2\nvalue = [0, 2]"] ;
691 -> 693 ;
694 [label="entropy = 0.0\nsamples = 26\nvalue = [26, 0]"] ;
686 -> 694 ;
695 [label="entropy = 0.0\nsamples = 1\nvalue = [0, 1]"] ;
685 -> 695 ;
696 [label="x[24] <= 0.5\nentropy = 0.648\nsamples = 1163\nvalue = [970, 193]"] ;
598 -> 696 ;
697 [label="x[11] <= 0.5\nentropy = 0.889\nsamples = 176\nvalue = [122.0, 54.0]"] ;
696 -> 697 ;
698 [label="x[1] <= 34500.0\nentropy = 0.749\nsamples = 145\nvalue = [114, 31]"] ;
697 -> 698 ;
699 [label="x[6] <= 2.5\nentropy = 0.971\nsamples = 20\nvalue = [12, 8]"] ;
698 -> 699 ;
700 [label="entropy = 0.0\nsamples = 5\nvalue = [5, 0]"] ;
699 -> 700 ;
701 [label="x[3] <= 12500.0\nentropy = 0.997\nsamples = 15\nvalue = [7, 8]"] ;
699 -> 701 ;
702 [label="x[1] <= 25900.0\nentropy = 0.961\nsamples = 13\nvalue = [5, 8]"] ;
701 -> 702 ;
703 [label="entropy = 0.0\nsamples = 2\nvalue = [2, 0]"] ;
702 -> 703 ;
704 [label="x[0] <= 28.5\nentropy = 0.845\nsamples = 11\nvalue = [3, 8]"] ;
702 -> 704 ;
705 [label="x[21] <= 0.5\nentropy = 0.985\nsamples = 7\nvalue = [3, 4]"] ;
704 -> 705 ;
706 [label="entropy = 0.971\nsamples = 5\nvalue = [3, 2]"] ;
705 -> 706 ;
707 [label="entropy = 0.0\nsamples = 2\nvalue = [0, 2]"] ;
705 -> 707 ;
708 [label="entropy = 0.0\nsamples = 4\nvalue = [0, 4]"] ;
704 -> 708 ;
709 [label="entropy = 0.0\nsamples = 2\nvalue = [2, 0]"] ;
701 -> 709 ;
710 [label="x[1] <= 42500.0\nentropy = 0.689\nsamples = 125\nvalue = [102, 23]"] ;
698 -> 710 ;
711 [label="x[5] <= 0.45\nentropy = 0.258\nsamples = 23\nvalue = [22, 1]"] ;
710 -> 711 ;
712 [label="entropy = 0.0\nsamples = 20\nvalue = [20, 0]"] ;
711 -> 712 ;
713 [label="x[4] <= 13.36\nentropy = 0.918\nsamples = 3\nvalue = [2, 1]"] ;
711 -> 713 ;
714 [label="entropy = 0.0\nsamples = 1\nvalue = [0, 1]"] ;
713 -> 714 ;
715 [label="entropy = 0.0\nsamples = 2\nvalue = [2, 0]"] ;
713 -> 715 ;
716 [label="x[3] <= 14600.0\nentropy = 0.752\nsamples = 102\nvalue = [80, 22]"] ;
710 -> 716 ;
717 [label="entropy = 0.0\nsamples = 2\nvalue = [0, 2]"] ;
716 -> 717 ;
718 [label="x[14] <= 0.5\nentropy = 0.722\nsamples = 100\nvalue = [80, 20]"] ;
716 -> 718 ;
719 [label="x[4] <= 16.735\nentropy = 0.569\nsamples = 82\nvalue = [71, 11]"] ;
718 -> 719 ;
720 [label="x[5] <= 0.345\nentropy = 0.639\nsamples = 68\nvalue = [57, 11]"] ;
719 -> 720 ;
721 [label="entropy = 0.79\nsamples = 38\nvalue = [29, 9]"] ;
720 -> 721 ;
722 [label="entropy = 0.353\nsamples = 30\nvalue = [28, 2]"] ;
720 -> 722 ;
723 [label="entropy = 0.0\nsamples = 14\nvalue = [14, 0]"] ;
719 -> 723 ;
724 [label="x[19] <= 0.5\nentropy = 1.0\nsamples = 18\nvalue = [9, 9]"] ;
718 -> 724 ;
725 [label="entropy = 0.0\nsamples = 7\nvalue = [0, 7]"] ;
724 -> 725 ;
726 [label="x[3] <= 22500.0\nentropy = 0.684\nsamples = 11\nvalue = [9, 2]"] ;
724 -> 726 ;
727 [label="entropy = 0.0\nsamples = 6\nvalue = [6, 0]"] ;
726 -> 727 ;
728 [label="entropy = 0.971\nsamples = 5\nvalue = [3, 2]"] ;
726 -> 728 ;
729 [label="x[4] <= 15.015\nentropy = 0.824\nsamples = 31\nvalue = [8, 23]"] ;
697 -> 729 ;
730 [label="x[0] <= 22.5\nentropy = 0.985\nsamples = 14\nvalue = [8, 6]"] ;
729 -> 730 ;
731 [label="entropy = 0.0\nsamples = 3\nvalue = [3, 0]"] ;
730 -> 731 ;
732 [label="x[20] <= 0.5\nentropy = 0.994\nsamples = 11\nvalue = [5, 6]"] ;
730 -> 732 ;
733 [label="x[4] <= 12.705\nentropy = 0.954\nsamples = 8\nvalue = [5, 3]"] ;
732 -> 733 ;
734 [label="entropy = 0.0\nsamples = 2\nvalue = [0, 2]"] ;
733 -> 734 ;
735 [label="x[0] <= 26.0\nentropy = 0.65\nsamples = 6\nvalue = [5, 1]"] ;
733 -> 735 ;
736 [label="x[0] <= 24.0\nentropy = 1.0\nsamples = 2\nvalue = [1, 1]"] ;
735 -> 736 ;
737 [label="entropy = 0.0\nsamples = 1\nvalue = [1, 0]"] ;
736 -> 737 ;
738 [label="entropy = 0.0\nsamples = 1\nvalue = [0, 1]"] ;
736 -> 738 ;
739 [label="entropy = 0.0\nsamples = 4\nvalue = [4, 0]"] ;
735 -> 739 ;
740 [label="entropy = 0.0\nsamples = 3\nvalue = [0, 3]"] ;
732 -> 740 ;
741 [label="entropy = 0.0\nsamples = 17\nvalue = [0, 17]"] ;
729 -> 741 ;
742 [label="x[4] <= 13.05\nentropy = 0.586\nsamples = 987\nvalue = [848, 139]"] ;
696 -> 742 ;
743 [label="x[16] <= 0.5\nentropy = 0.401\nsamples = 803\nvalue = [739, 64]"] ;
742 -> 743 ;
744 [label="x[4] <= 10.68\nentropy = 0.455\nsamples = 649\nvalue = [587, 62]"] ;
743 -> 744 ;
745 [label="x[2] <= 1.5\nentropy = 0.328\nsamples = 399\nvalue = [375, 24]"] ;
744 -> 745 ;
746 [label="entropy = 0.0\nsamples = 47\nvalue = [47, 0]"] ;
745 -> 746 ;
747 [label="x[6] <= 13.5\nentropy = 0.359\nsamples = 352\nvalue = [328, 24]"] ;
745 -> 747 ;
748 [label="x[6] <= 10.5\nentropy = 0.376\nsamples = 330\nvalue = [306, 24]"] ;
747 -> 748 ;
749 [label="x[1] <= 58500.0\nentropy = 0.332\nsamples = 311\nvalue = [292, 19]"] ;
748 -> 749 ;
750 [label="entropy = 0.406\nsamples = 210\nvalue = [193, 17]"] ;
749 -> 750 ;
751 [label="entropy = 0.14\nsamples = 101\nvalue = [99, 2]"] ;
749 -> 751 ;
752 [label="x[1] <= 32500.0\nentropy = 0.831\nsamples = 19\nvalue = [14, 5]"] ;
748 -> 752 ;
753 [label="entropy = 0.0\nsamples = 2\nvalue = [0, 2]"] ;
752 -> 753 ;
754 [label="entropy = 0.672\nsamples = 17\nvalue = [14, 3]"] ;
752 -> 754 ;
755 [label="entropy = 0.0\nsamples = 22\nvalue = [22, 0]"] ;
747 -> 755 ;
756 [label="x[4] <= 11.115\nentropy = 0.615\nsamples = 250\nvalue = [212, 38]"] ;
744 -> 756 ;
757 [label="x[0] <= 33.5\nentropy = 0.811\nsamples = 76\nvalue = [57, 19]"] ;
756 -> 757 ;
758 [label="x[5] <= 0.455\nentropy = 0.849\nsamples = 69\nvalue = [50, 19]"] ;
757 -> 758 ;
759 [label="x[5] <= 0.365\nentropy = 0.877\nsamples = 64\nvalue = [45, 19]"] ;
758 -> 759 ;
760 [label="entropy = 0.785\nsamples = 47\nvalue = [36, 11]"] ;
759 -> 760 ;
761 [label="entropy = 0.998\nsamples = 17\nvalue = [9, 8]"] ;
759 -> 761 ;
762 [label="entropy = 0.0\nsamples = 5\nvalue = [5, 0]"] ;
758 -> 762 ;
763 [label="entropy = 0.0\nsamples = 7\nvalue = [7, 0]"] ;
757 -> 763 ;
764 [label="x[2] <= 1.5\nentropy = 0.497\nsamples = 174\nvalue = [155, 19]"] ;
756 -> 764 ;
765 [label="x[3] <= 26500.0\nentropy = 0.826\nsamples = 27\nvalue = [20, 7]"] ;
764 -> 765 ;
766 [label="x[1] <= 34600.0\nentropy = 0.779\nsamples = 26\nvalue = [20, 6]"] ;
765 -> 766 ;
767 [label="entropy = 0.971\nsamples = 10\nvalue = [6, 4]"] ;
766 -> 767 ;
768 [label="entropy = 0.544\nsamples = 16\nvalue = [14, 2]"] ;
766 -> 768 ;
769 [label="entropy = 0.0\nsamples = 1\nvalue = [0, 1]"] ;
765 -> 769 ;
770 [label="x[2] <= 19.5\nentropy = 0.408\nsamples = 147\nvalue = [135.0, 12.0]"] ;
764 -> 770 ;
771 [label="x[6] <= 4.5\nentropy = 0.386\nsamples = 146\nvalue = [135, 11]"] ;
770 -> 771 ;
772 [label="entropy = 0.512\nsamples = 79\nvalue = [70, 9]"] ;
771 -> 772 ;
773 [label="entropy = 0.194\nsamples = 67\nvalue = [65, 2]"] ;
771 -> 773 ;
774 [label="entropy = 0.0\nsamples = 1\nvalue = [0, 1]"] ;
770 -> 774 ;
775 [label="x[19] <= 0.5\nentropy = 0.1\nsamples = 154\nvalue = [152, 2]"] ;
743 -> 775 ;
776 [label="x[4] <= 11.25\nentropy = 0.058\nsamples = 150\nvalue = [149, 1]"] ;
775 -> 776 ;
777 [label="entropy = 0.0\nsamples = 116\nvalue = [116, 0]"] ;
776 -> 777 ;
778 [label="x[3] <= 10287.5\nentropy = 0.191\nsamples = 34\nvalue = [33, 1]"] ;
776 -> 778 ;
779 [label="x[4] <= 11.89\nentropy = 1.0\nsamples = 2\nvalue = [1, 1]"] ;
778 -> 779 ;
780 [label="entropy = 0.0\nsamples = 1\nvalue = [0, 1]"] ;
779 -> 780 ;
781 [label="entropy = 0.0\nsamples = 1\nvalue = [1, 0]"] ;
779 -> 781 ;
782 [label="entropy = 0.0\nsamples = 32\nvalue = [32, 0]"] ;
778 -> 782 ;
783 [label="x[1] <= 59802.0\nentropy = 0.811\nsamples = 4\nvalue = [3, 1]"] ;
775 -> 783 ;
784 [label="entropy = 0.0\nsamples = 3\nvalue = [3, 0]"] ;
783 -> 784 ;
785 [label="entropy = 0.0\nsamples = 1\nvalue = [0, 1]"] ;
783 -> 785 ;
786 [label="x[1] <= 37600.0\nentropy = 0.975\nsamples = 184\nvalue = [109, 75]"] ;
742 -> 786 ;
787 [label="x[20] <= 0.5\nentropy = 0.909\nsamples = 37\nvalue = [12, 25]"] ;
786 -> 787 ;
788 [label="x[3] <= 15425.0\nentropy = 0.995\nsamples = 24\nvalue = [11, 13]"] ;
787 -> 788 ;
789 [label="x[11] <= 0.5\nentropy = 0.988\nsamples = 23\nvalue = [10.0, 13.0]"] ;
788 -> 789 ;
790 [label="x[1] <= 31000.0\nentropy = 0.977\nsamples = 17\nvalue = [10, 7]"] ;
789 -> 790 ;
791 [label="x[2] <= 4.5\nentropy = 0.764\nsamples = 9\nvalue = [7, 2]"] ;
790 -> 791 ;
792 [label="entropy = 1.0\nsamples = 4\nvalue = [2, 2]"] ;
791 -> 792 ;
793 [label="entropy = 0.0\nsamples = 5\nvalue = [5, 0]"] ;
791 -> 793 ;
794 [label="x[6] <= 6.0\nentropy = 0.954\nsamples = 8\nvalue = [3, 5]"] ;
790 -> 794 ;
795 [label="entropy = 0.65\nsamples = 6\nvalue = [1, 5]"] ;
794 -> 795 ;
796 [label="entropy = 0.0\nsamples = 2\nvalue = [2, 0]"] ;
794 -> 796 ;
797 [label="entropy = 0.0\nsamples = 6\nvalue = [0, 6]"] ;
789 -> 797 ;
798 [label="entropy = 0.0\nsamples = 1\nvalue = [1, 0]"] ;
788 -> 798 ;
799 [label="x[0] <= 23.5\nentropy = 0.391\nsamples = 13\nvalue = [1, 12]"] ;
787 -> 799 ;
800 [label="x[5] <= 0.375\nentropy = 0.918\nsamples = 3\nvalue = [1, 2]"] ;
799 -> 800 ;
801 [label="entropy = 0.0\nsamples = 1\nvalue = [1, 0]"] ;
800 -> 801 ;
802 [label="entropy = 0.0\nsamples = 2\nvalue = [0, 2]"] ;
800 -> 802 ;
803 [label="entropy = 0.0\nsamples = 10\nvalue = [0, 10]"] ;
799 -> 803 ;
804 [label="x[14] <= 0.5\nentropy = 0.925\nsamples = 147\nvalue = [97, 50]"] ;
786 -> 804 ;
805 [label="x[11] <= 0.5\nentropy = 0.885\nsamples = 132\nvalue = [92, 40]"] ;
804 -> 805 ;
806 [label="x[4] <= 13.135\nentropy = 0.722\nsamples = 105\nvalue = [84, 21]"] ;
805 -> 806 ;
807 [label="x[5] <= 0.365\nentropy = 0.811\nsamples = 4\nvalue = [1, 3]"] ;
806 -> 807 ;
808 [label="entropy = 0.0\nsamples = 1\nvalue = [1, 0]"] ;
807 -> 808 ;
809 [label="entropy = 0.0\nsamples = 3\nvalue = [0, 3]"] ;
807 -> 809 ;
810 [label="x[4] <= 13.475\nentropy = 0.676\nsamples = 101\nvalue = [83, 18]"] ;
806 -> 810 ;
811 [label="entropy = 0.0\nsamples = 7\nvalue = [7, 0]"] ;
810 -> 811 ;
812 [label="x[13] <= 0.5\nentropy = 0.705\nsamples = 94\nvalue = [76, 18]"] ;
810 -> 812 ;
813 [label="entropy = 0.634\nsamples = 75\nvalue = [63, 12]"] ;
812 -> 813 ;
814 [label="entropy = 0.9\nsamples = 19\nvalue = [13, 6]"] ;
812 -> 814 ;
815 [label="x[19] <= 0.5\nentropy = 0.877\nsamples = 27\nvalue = [8, 19]"] ;
805 -> 815 ;
816 [label="x[6] <= 3.5\nentropy = 0.485\nsamples = 19\nvalue = [2, 17]"] ;
815 -> 816 ;
817 [label="x[0] <= 24.0\nentropy = 0.918\nsamples = 6\nvalue = [2, 4]"] ;
816 -> 817 ;
818 [label="entropy = 0.0\nsamples = 3\nvalue = [0, 3]"] ;
817 -> 818 ;
819 [label="entropy = 0.918\nsamples = 3\nvalue = [2, 1]"] ;
817 -> 819 ;
820 [label="entropy = 0.0\nsamples = 13\nvalue = [0, 13]"] ;
816 -> 820 ;
821 [label="x[6] <= 2.5\nentropy = 0.811\nsamples = 8\nvalue = [6, 2]"] ;
815 -> 821 ;
822 [label="entropy = 0.0\nsamples = 3\nvalue = [3, 0]"] ;
821 -> 822 ;
823 [label="x[3] <= 22500.0\nentropy = 0.971\nsamples = 5\nvalue = [3, 2]"] ;
821 -> 823 ;
824 [label="entropy = 0.0\nsamples = 2\nvalue = [2, 0]"] ;
823 -> 824 ;
825 [label="entropy = 0.918\nsamples = 3\nvalue = [1, 2]"] ;
823 -> 825 ;
826 [label="x[19] <= 0.5\nentropy = 0.918\nsamples = 15\nvalue = [5, 10]"] ;
804 -> 826 ;
827 [label="entropy = 0.0\nsamples = 8\nvalue = [0, 8]"] ;
826 -> 827 ;
828 [label="x[4] <= 13.42\nentropy = 0.863\nsamples = 7\nvalue = [5, 2]"] ;
826 -> 828 ;
829 [label="x[6] <= 5.0\nentropy = 0.918\nsamples = 3\nvalue = [1, 2]"] ;
828 -> 829 ;
830 [label="entropy = 0.0\nsamples = 2\nvalue = [0, 2]"] ;
829 -> 830 ;
831 [label="entropy = 0.0\nsamples = 1\nvalue = [1, 0]"] ;
829 -> 831 ;
832 [label="entropy = 0.0\nsamples = 4\nvalue = [4, 0]"] ;
828 -> 832 ;
}