digraph Tree {
node [shape=box, fontname="helvetica"] ;
edge [fontname="helvetica"] ;
0 [label="x[5] <= 0.305\nentropy = 0.59\nsamples = 58645\nvalue = [50295, 8350]"] ;
1 [label="x[4] <= 14.04\nentropy = 0.449\nsamples = 53915\nvalue = [48860, 5055]"] ;
0 -> 1 [labeldistance=2.5, labelangle=45, headlabel="True"] ;
2 [label="x[1] <= 34999.5\nentropy = 0.253\nsamples = 46693\nvalue = [44716.0, 1977.0]"] ;
1 -> 2 ;
3 [label="x[1] <= 19984.0\nentropy = 0.545\nsamples = 4927\nvalue = [4308, 619]"] ;
2 -> 3 ;
4 [label="x[17] <= 0.5\nentropy = 0.98\nsamples = 211\nvalue = [123, 88]"] ;
3 -> 4 ;
5 [label="x[5] <= 0.155\nentropy = 1.0\nsamples = 174\nvalue = [89, 85]"] ;
4 -> 5 ;
6 [label="x[13] <= 0.5\nentropy = 0.61\nsamples = 80\nvalue = [68, 12]"] ;
5 -> 6 ;
7 [label="x[3] <= 2150.0\nentropy = 0.452\nsamples = 74\nvalue = [67, 7]"] ;
6 -> 7 ;
8 [label="x[3] <= 1550.0\nentropy = 0.283\nsamples = 61\nvalue = [58, 3]"] ;
7 -> 8 ;
9 [label="x[3] <= 1475.0\nentropy = 0.503\nsamples = 27\nvalue = [24, 3]"] ;
8 -> 9 ;
10 [label="entropy = 0.0\nsamples = 9\nvalue = [9, 0]"] ;
9 -> 10 ;
11 [label="entropy = 0.65\nsamples = 18\nvalue = [15, 3]"] ;
9 -> 11 ;
12 [label="entropy = 0.0\nsamples = 34\nvalue = [34, 0]"] ;
8 -> 12 ;
13 [label="x[2] <= 1.5\nentropy = 0.89\nsamples = 13\nvalue = [9, 4]"] ;
7 -> 13 ;
14 [label="entropy = 0.0\nsamples = 6\nvalue = [6, 0]"] ;
13 -> 14 ;
15 [label="x[4] <= 12.34\nentropy = 0.985\nsamples = 7\nvalue = [3, 4]"] ;
13 -> 15 ;
16 [label="entropy = 0.811\nsamples = 4\nvalue = [3, 1]"] ;
15 -> 16 ;
17 [label="entropy = 0.0\nsamples = 3\nvalue = [0, 3]"] ;
15 -> 17 ;
18 [label="x[1] <= 16680.0\nentropy = 0.65\nsamples = 6\nvalue = [1, 5]"] ;
6 -> 18 ;
19 [label="x[9] <= 0.5\nentropy = 1.0\nsamples = 2\nvalue = [1, 1]"] ;
18 -> 19 ;
20 [label="entropy = 0.0\nsamples = 1\nvalue = [0, 1]"] ;
19 -> 20 ;
21 [label="entropy = 0.0\nsamples = 1\nvalue = [1, 0]"] ;
19 -> 21 ;
22 [label="entropy = 0.0\nsamples = 4\nvalue = [0, 4]"] ;
18 -> 22 ;
23 [label="x[5] <= 0.265\nentropy = 0.766\nsamples = 94\nvalue = [21, 73]"] ;
5 -> 23 ;
24 [label="x[3] <= 2050.0\nentropy = 0.664\nsamples = 81\nvalue = [14, 67]"] ;
23 -> 24 ;
25 [label="entropy = 0.0\nsamples = 3\nvalue = [3, 0]"] ;
24 -> 25 ;
26 [label="x[10] <= 0.5\nentropy = 0.587\nsamples = 78\nvalue = [11, 67]"] ;
24 -> 26 ;
27 [label="x[3] <= 3125.0\nentropy = 0.863\nsamples = 7\nvalue = [5, 2]"] ;
26 -> 27 ;
28 [label="entropy = 0.0\nsamples = 2\nvalue = [0, 2]"] ;
27 -> 28 ;
29 [label="entropy = 0.0\nsamples = 5\nvalue = [5, 0]"] ;
27 -> 29 ;
30 [label="x[4] <= 10.57\nentropy = 0.418\nsamples = 71\nvalue = [6, 65]"] ;
26 -> 30 ;
31 [label="entropy = 0.918\nsamples = 3\nvalue = [2, 1]"] ;
30 -> 31 ;
32 [label="entropy = 0.323\nsamples = 68\nvalue = [4, 64]"] ;
30 -> 32 ;
33 [label="x[4] <= 12.085\nentropy = 0.996\nsamples = 13\nvalue = [7, 6]"] ;
23 -> 33 ;
34 [label="x[4] <= 10.805\nentropy = 0.764\nsamples = 9\nvalue = [7, 2]"] ;
33 -> 34 ;
35 [label="entropy = 0.0\nsamples = 4\nvalue = [4, 0]"] ;
34 -> 35 ;
36 [label="x[1] <= 17400.0\nentropy = 0.971\nsamples = 5\nvalue = [3, 2]"] ;
34 -> 36 ;
37 [label="entropy = 0.811\nsamples = 4\nvalue = [3, 1]"] ;
36 -> 37 ;
38 [label="entropy = 0.0\nsamples = 1\nvalue = [0, 1]"] ;
36 -> 38 ;
39 [label="entropy = 0.0\nsamples = 4\nvalue = [0, 4]"] ;
33 -> 39 ;
40 [label="x[0] <= 45.5\nentropy = 0.406\nsamples = 37\nvalue = [34, 3]"] ;
4 -> 40 ;
41 [label="x[5] <= 0.045\nentropy = 0.187\nsamples = 35\nvalue = [34, 1]"] ;
40 -> 41 ;
42 [label="entropy = 0.0\nsamples = 1\nvalue = [0, 1]"] ;
41 -> 42 ;
43 [label="entropy = 0.0\nsamples = 34\nvalue = [34, 0]"] ;
41 -> 43 ;
44 [label="entropy = 0.0\nsamples = 2\nvalue = [0, 2]"] ;
40 -> 44 ;
45 [label="x[3] <= 6662.5\nentropy = 0.508\nsamples = 4716\nvalue = [4185, 531]"] ;
3 -> 45 ;
46 [label="x[19] <= 0.5\nentropy = 0.447\nsamples = 3705\nvalue = [3360, 345]"] ;
45 -> 46 ;
47 [label="x[20] <= 0.5\nentropy = 0.403\nsamples = 2929\nvalue = [2694.0, 235.0]"] ;
46 -> 47 ;
48 [label="x[1] <= 33998.0\nentropy = 0.392\nsamples = 2915\nvalue = [2690, 225]"] ;
47 -> 48 ;
49 [label="x[13] <= 0.5\nentropy = 0.361\nsamples = 2783\nvalue = [2592, 191]"] ;
48 -> 49 ;
50 [label="x[4] <= 10.385\nentropy = 0.316\nsamples = 2674\nvalue = [2521, 153]"] ;
49 -> 50 ;
51 [label="entropy = 0.231\nsamples = 1599\nvalue = [1539.0, 60.0]"] ;
50 -> 51 ;
52 [label="entropy = 0.425\nsamples = 1075\nvalue = [982.0, 93.0]"] ;
50 -> 52 ;
53 [label="x[1] <= 31100.0\nentropy = 0.933\nsamples = 109\nvalue = [71, 38]"] ;
49 -> 53 ;
54 [label="entropy = 0.964\nsamples = 90\nvalue = [55.0, 35.0]"] ;
53 -> 54 ;
55 [label="entropy = 0.629\nsamples = 19\nvalue = [16, 3]"] ;
53 -> 55 ;
56 [label="x[1] <= 34054.0\nentropy = 0.823\nsamples = 132\nvalue = [98, 34]"] ;
48 -> 56 ;
57 [label="x[13] <= 0.5\nentropy = 0.898\nsamples = 105\nvalue = [72, 33]"] ;
56 -> 57 ;
58 [label="entropy = 0.849\nsamples = 98\nvalue = [71.0, 27.0]"] ;
57 -> 58 ;
59 [label="entropy = 0.592\nsamples = 7\nvalue = [1, 6]"] ;
57 -> 59 ;
60 [label="x[4] <= 7.78\nentropy = 0.229\nsamples = 27\nvalue = [26, 1]"] ;
56 -> 60 ;
61 [label="entropy = 0.592\nsamples = 7\nvalue = [6, 1]"] ;
60 -> 61 ;
62 [label="entropy = 0.0\nsamples = 20\nvalue = [20, 0]"] ;
60 -> 62 ;
63 [label="x[1] <= 24500.0\nentropy = 0.863\nsamples = 14\nvalue = [4, 10]"] ;
47 -> 63 ;
64 [label="entropy = 0.0\nsamples = 3\nvalue = [3, 0]"] ;
63 -> 64 ;
65 [label="x[2] <= 2.5\nentropy = 0.439\nsamples = 11\nvalue = [1, 10]"] ;
63 -> 65 ;
66 [label="entropy = 0.0\nsamples = 8\nvalue = [0, 8]"] ;
65 -> 66 ;
67 [label="x[6] <= 3.5\nentropy = 0.918\nsamples = 3\nvalue = [1, 2]"] ;
65 -> 67 ;
68 [label="entropy = 0.0\nsamples = 2\nvalue = [0, 2]"] ;
67 -> 68 ;
69 [label="entropy = 0.0\nsamples = 1\nvalue = [1, 0]"] ;
67 -> 69 ;
70 [label="x[13] <= 0.5\nentropy = 0.589\nsamples = 776\nvalue = [666, 110]"] ;
46 -> 70 ;
71 [label="x[1] <= 33948.0\nentropy = 0.482\nsamples = 729\nvalue = [653, 76]"] ;
70 -> 71 ;
72 [label="x[1] <= 28900.0\nentropy = 0.443\nsamples = 684\nvalue = [621, 63]"] ;
71 -> 72 ;
73 [label="x[4] <= 13.755\nentropy = 0.345\nsamples = 326\nvalue = [305, 21]"] ;
72 -> 73 ;
74 [label="entropy = 0.286\nsamples = 281\nvalue = [267, 14]"] ;
73 -> 74 ;
75 [label="entropy = 0.624\nsamples = 45\nvalue = [38, 7]"] ;
73 -> 75 ;
76 [label="x[6] <= 2.5\nentropy = 0.522\nsamples = 358\nvalue = [316, 42]"] ;
72 -> 76 ;
77 [label="entropy = 0.344\nsamples = 78\nvalue = [73, 5]"] ;
76 -> 77 ;
78 [label="entropy = 0.563\nsamples = 280\nvalue = [243, 37]"] ;
76 -> 78 ;
79 [label="x[3] <= 2250.0\nentropy = 0.867\nsamples = 45\nvalue = [32.0, 13.0]"] ;
71 -> 79 ;
80 [label="entropy = 0.0\nsamples = 4\nvalue = [4, 0]"] ;
79 -> 80 ;
81 [label="x[6] <= 2.5\nentropy = 0.901\nsamples = 41\nvalue = [28.0, 13.0]"] ;
79 -> 81 ;
82 [label="entropy = 0.954\nsamples = 8\nvalue = [3, 5]"] ;
81 -> 82 ;
83 [label="entropy = 0.799\nsamples = 33\nvalue = [25, 8]"] ;
81 -> 83 ;
84 [label="x[7] <= 0.5\nentropy = 0.851\nsamples = 47\nvalue = [13, 34]"] ;
70 -> 84 ;
85 [label="x[2] <= 1.5\nentropy = 0.337\nsamples = 32\nvalue = [2, 30]"] ;
84 -> 85 ;
86 [label="x[3] <= 6250.0\nentropy = 0.544\nsamples = 16\nvalue = [2, 14]"] ;
85 -> 86 ;
87 [label="entropy = 0.353\nsamples = 15\nvalue = [1, 14]"] ;
86 -> 87 ;
88 [label="entropy = 0.0\nsamples = 1\nvalue = [1, 0]"] ;
86 -> 88 ;
89 [label="entropy = 0.0\nsamples = 16\nvalue = [0, 16]"] ;
85 -> 89 ;
90 [label="x[1] <= 29500.0\nentropy = 0.837\nsamples = 15\nvalue = [11, 4]"] ;
84 -> 90 ;
91 [label="entropy = 0.0\nsamples = 7\nvalue = [7, 0]"] ;
90 -> 91 ;
92 [label="x[5] <= 0.165\nentropy = 1.0\nsamples = 8\nvalue = [4, 4]"] ;
90 -> 92 ;
93 [label="entropy = 0.918\nsamples = 6\nvalue = [2, 4]"] ;
92 -> 93 ;
94 [label="entropy = 0.0\nsamples = 2\nvalue = [2, 0]"] ;
92 -> 94 ;
95 [label="x[4] <= 11.07\nentropy = 0.689\nsamples = 1011\nvalue = [825, 186]"] ;
45 -> 95 ;
96 [label="x[13] <= 0.5\nentropy = 0.559\nsamples = 589\nvalue = [512.0, 77.0]"] ;
95 -> 96 ;
97 [label="x[6] <= 5.5\nentropy = 0.498\nsamples = 557\nvalue = [496, 61]"] ;
96 -> 97 ;
98 [label="x[7] <= 0.5\nentropy = 0.41\nsamples = 365\nvalue = [335, 30]"] ;
97 -> 98 ;
99 [label="x[9] <= 0.5\nentropy = 0.46\nsamples = 298\nvalue = [269, 29]"] ;
98 -> 99 ;
100 [label="entropy = 0.501\nsamples = 263\nvalue = [234.0, 29.0]"] ;
99 -> 100 ;
101 [label="entropy = 0.0\nsamples = 35\nvalue = [35, 0]"] ;
99 -> 101 ;
102 [label="x[4] <= 5.705\nentropy = 0.112\nsamples = 67\nvalue = [66, 1]"] ;
98 -> 102 ;
103 [label="entropy = 0.65\nsamples = 6\nvalue = [5, 1]"] ;
102 -> 103 ;
104 [label="entropy = 0.0\nsamples = 61\nvalue = [61, 0]"] ;
102 -> 104 ;
105 [label="x[11] <= 0.5\nentropy = 0.638\nsamples = 192\nvalue = [161, 31]"] ;
97 -> 105 ;
106 [label="x[3] <= 8937.5\nentropy = 0.548\nsamples = 166\nvalue = [145, 21]"] ;
105 -> 106 ;
107 [label="entropy = 0.425\nsamples = 127\nvalue = [116, 11]"] ;
106 -> 107 ;
108 [label="entropy = 0.821\nsamples = 39\nvalue = [29, 10]"] ;
106 -> 108 ;
109 [label="x[10] <= 0.5\nentropy = 0.961\nsamples = 26\nvalue = [16, 10]"] ;
105 -> 109 ;
110 [label="entropy = 0.0\nsamples = 4\nvalue = [4, 0]"] ;
109 -> 110 ;
111 [label="entropy = 0.994\nsamples = 22\nvalue = [12, 10]"] ;
109 -> 111 ;
112 [label="x[4] <= 7.5\nentropy = 1.0\nsamples = 32\nvalue = [16, 16]"] ;
96 -> 112 ;
113 [label="x[10] <= 0.5\nentropy = 0.811\nsamples = 8\nvalue = [2, 6]"] ;
112 -> 113 ;
114 [label="x[5] <= 0.275\nentropy = 0.918\nsamples = 3\nvalue = [2, 1]"] ;
113 -> 114 ;
115 [label="entropy = 0.0\nsamples = 2\nvalue = [2, 0]"] ;
114 -> 115 ;
116 [label="entropy = 0.0\nsamples = 1\nvalue = [0, 1]"] ;
114 -> 116 ;
117 [label="entropy = 0.0\nsamples = 5\nvalue = [0, 5]"] ;
113 -> 117 ;
118 [label="x[10] <= 0.5\nentropy = 0.98\nsamples = 24\nvalue = [14, 10]"] ;
112 -> 118 ;
119 [label="entropy = 0.0\nsamples = 10\nvalue = [10, 0]"] ;
118 -> 119 ;
120 [label="x[6] <= 3.5\nentropy = 0.863\nsamples = 14\nvalue = [4, 10]"] ;
118 -> 120 ;
121 [label="entropy = 0.0\nsamples = 6\nvalue = [0, 6]"] ;
120 -> 121 ;
122 [label="entropy = 1.0\nsamples = 8\nvalue = [4, 4]"] ;
120 -> 122 ;
123 [label="x[3] <= 9100.0\nentropy = 0.824\nsamples = 422\nvalue = [313, 109]"] ;
95 -> 123 ;
124 [label="x[1] <= 28900.0\nentropy = 0.787\nsamples = 370\nvalue = [283, 87]"] ;
123 -> 124 ;
125 [label="x[13] <= 0.5\nentropy = 0.529\nsamples = 100\nvalue = [88, 12]"] ;
124 -> 125 ;
126 [label="x[18] <= 0.5\nentropy = 0.385\nsamples = 93\nvalue = [86, 7]"] ;
125 -> 126 ;
127 [label="entropy = 0.551\nsamples = 47\nvalue = [41.0, 6.0]"] ;
126 -> 127 ;
128 [label="entropy = 0.151\nsamples = 46\nvalue = [45, 1]"] ;
126 -> 128 ;
129 [label="x[0] <= 28.0\nentropy = 0.863\nsamples = 7\nvalue = [2, 5]"] ;
125 -> 129 ;
130 [label="entropy = 0.0\nsamples = 4\nvalue = [0, 4]"] ;
129 -> 130 ;
131 [label="entropy = 0.918\nsamples = 3\nvalue = [2, 1]"] ;
129 -> 131 ;
132 [label="x[1] <= 29002.0\nentropy = 0.852\nsamples = 270\nvalue = [195, 75]"] ;
124 -> 132 ;
133 [label="entropy = 0.0\nsamples = 7\nvalue = [0, 7]"] ;
132 -> 133 ;
134 [label="x[13] <= 0.5\nentropy = 0.825\nsamples = 263\nvalue = [195, 68]"] ;
132 -> 134 ;
135 [label="entropy = 0.752\nsamples = 241\nvalue = [189, 52]"] ;
134 -> 135 ;
136 [label="entropy = 0.845\nsamples = 22\nvalue = [6, 16]"] ;
134 -> 136 ;
137 [label="x[4] <= 13.19\nentropy = 0.983\nsamples = 52\nvalue = [30.0, 22.0]"] ;
123 -> 137 ;
138 [label="x[1] <= 33620.0\nentropy = 1.0\nsamples = 43\nvalue = [22, 21]"] ;
137 -> 138 ;
139 [label="x[2] <= 5.5\nentropy = 0.787\nsamples = 17\nvalue = [13, 4]"] ;
138 -> 139 ;
140 [label="entropy = 0.592\nsamples = 14\nvalue = [12, 2]"] ;
139 -> 140 ;
141 [label="entropy = 0.918\nsamples = 3\nvalue = [1, 2]"] ;
139 -> 141 ;
142 [label="x[12] <= 0.5\nentropy = 0.931\nsamples = 26\nvalue = [9, 17]"] ;
138 -> 142 ;
143 [label="entropy = 0.982\nsamples = 19\nvalue = [8, 11]"] ;
142 -> 143 ;
144 [label="entropy = 0.592\nsamples = 7\nvalue = [1, 6]"] ;
142 -> 144 ;
145 [label="x[6] <= 3.5\nentropy = 0.503\nsamples = 9\nvalue = [8, 1]"] ;
137 -> 145 ;
146 [label="x[3] <= 9800.0\nentropy = 1.0\nsamples = 2\nvalue = [1, 1]"] ;
145 -> 146 ;
147 [label="entropy = 0.0\nsamples = 1\nvalue = [0, 1]"] ;
146 -> 147 ;
148 [label="entropy = 0.0\nsamples = 1\nvalue = [1, 0]"] ;
146 -> 148 ;
149 [label="entropy = 0.0\nsamples = 7\nvalue = [7, 0]"] ;
145 -> 149 ;
150 [label="x[17] <= 0.5\nentropy = 0.207\nsamples = 41766\nvalue = [40408, 1358]"] ;
2 -> 150 ;
151 [label="x[1] <= 59659.5\nentropy = 0.265\nsamples = 23552\nvalue = [22493, 1059]"] ;
150 -> 151 ;
152 [label="x[20] <= 0.5\nentropy = 0.347\nsamples = 9973\nvalue = [9325, 648]"] ;
151 -> 152 ;
153 [label="x[13] <= 0.5\nentropy = 0.33\nsamples = 9897\nvalue = [9298, 599]"] ;
152 -> 153 ;
154 [label="x[1] <= 58612.5\nentropy = 0.289\nsamples = 9173\nvalue = [8709, 464]"] ;
153 -> 154 ;
155 [label="x[16] <= 0.5\nentropy = 0.278\nsamples = 9065\nvalue = [8629, 436]"] ;
154 -> 155 ;
156 [label="x[4] <= 11.13\nentropy = 0.306\nsamples = 7400\nvalue = [6996, 404]"] ;
155 -> 156 ;
157 [label="entropy = 0.226\nsamples = 3099\nvalue = [2986, 113]"] ;
156 -> 157 ;
158 [label="entropy = 0.357\nsamples = 4301\nvalue = [4010, 291]"] ;
156 -> 158 ;
159 [label="x[9] <= 0.5\nentropy = 0.137\nsamples = 1665\nvalue = [1633, 32]"] ;
155 -> 159 ;
160 [label="entropy = 0.151\nsamples = 1474\nvalue = [1442.0, 32.0]"] ;
159 -> 160 ;
161 [label="entropy = 0.0\nsamples = 191\nvalue = [191, 0]"] ;
159 -> 161 ;
162 [label="x[1] <= 59052.0\nentropy = 0.826\nsamples = 108\nvalue = [80, 28]"] ;
154 -> 162 ;
163 [label="x[3] <= 15900.0\nentropy = 0.9\nsamples = 79\nvalue = [54, 25]"] ;
162 -> 163 ;
164 [label="entropy = 0.852\nsamples = 72\nvalue = [52, 20]"] ;
163 -> 164 ;
165 [label="entropy = 0.863\nsamples = 7\nvalue = [2, 5]"] ;
163 -> 165 ;
166 [label="x[0] <= 40.5\nentropy = 0.48\nsamples = 29\nvalue = [26, 3]"] ;
162 -> 166 ;
167 [label="entropy = 0.371\nsamples = 28\nvalue = [26, 2]"] ;
166 -> 167 ;
168 [label="entropy = 0.0\nsamples = 1\nvalue = [0, 1]"] ;
166 -> 168 ;
169 [label="x[10] <= 0.5\nentropy = 0.694\nsamples = 724\nvalue = [589, 135]"] ;
153 -> 169 ;
170 [label="x[9] <= 0.5\nentropy = 0.442\nsamples = 360\nvalue = [327, 33]"] ;
169 -> 170 ;
171 [label="x[0] <= 23.5\nentropy = 0.496\nsamples = 304\nvalue = [271, 33]"] ;
170 -> 171 ;
172 [label="entropy = 0.0\nsamples = 9\nvalue = [0, 9]"] ;
171 -> 172 ;
173 [label="entropy = 0.407\nsamples = 295\nvalue = [271, 24]"] ;
171 -> 173 ;
174 [label="entropy = 0.0\nsamples = 56\nvalue = [56, 0]"] ;
170 -> 174 ;
175 [label="x[1] <= 49950.0\nentropy = 0.856\nsamples = 364\nvalue = [262, 102]"] ;
169 -> 175 ;
176 [label="x[0] <= 25.5\nentropy = 0.922\nsamples = 86\nvalue = [29.0, 57.0]"] ;
175 -> 176 ;
177 [label="entropy = 0.567\nsamples = 30\nvalue = [4, 26]"] ;
176 -> 177 ;
178 [label="entropy = 0.992\nsamples = 56\nvalue = [25, 31]"] ;
176 -> 178 ;
179 [label="x[3] <= 15500.0\nentropy = 0.639\nsamples = 278\nvalue = [233, 45]"] ;
175 -> 179 ;
180 [label="entropy = 0.612\nsamples = 272\nvalue = [231, 41]"] ;
179 -> 180 ;
181 [label="entropy = 0.918\nsamples = 6\nvalue = [2, 4]"] ;
179 -> 181 ;
182 [label="x[2] <= 5.5\nentropy = 0.939\nsamples = 76\nvalue = [27, 49]"] ;
152 -> 182 ;
183 [label="x[10] <= 0.5\nentropy = 0.797\nsamples = 58\nvalue = [14, 44]"] ;
182 -> 183 ;
184 [label="x[0] <= 31.5\nentropy = 0.996\nsamples = 13\nvalue = [7, 6]"] ;
183 -> 184 ;
185 [label="x[13] <= 0.5\nentropy = 0.971\nsamples = 10\nvalue = [4, 6]"] ;
184 -> 185 ;
186 [label="entropy = 0.811\nsamples = 8\nvalue = [2, 6]"] ;
185 -> 186 ;
187 [label="entropy = 0.0\nsamples = 2\nvalue = [2, 0]"] ;
185 -> 187 ;
188 [label="entropy = 0.0\nsamples = 3\nvalue = [3, 0]"] ;
184 -> 188 ;
189 [label="x[0] <= 24.5\nentropy = 0.624\nsamples = 45\nvalue = [7, 38]"] ;
183 -> 189 ;
190 [label="x[11] <= 0.5\nentropy = 0.267\nsamples = 22\nvalue = [1, 21]"] ;
189 -> 190 ;
191 [label="entropy = 0.0\nsamples = 18\nvalue = [0, 18]"] ;
190 -> 191 ;
192 [label="entropy = 0.811\nsamples = 4\nvalue = [1, 3]"] ;
190 -> 192 ;
193 [label="x[0] <= 25.5\nentropy = 0.828\nsamples = 23\nvalue = [6, 17]"] ;
189 -> 193 ;
194 [label="entropy = 0.918\nsamples = 6\nvalue = [4, 2]"] ;
193 -> 194 ;
195 [label="entropy = 0.523\nsamples = 17\nvalue = [2, 15]"] ;
193 -> 195 ;
196 [label="x[15] <= 0.5\nentropy = 0.852\nsamples = 18\nvalue = [13, 5]"] ;
182 -> 196 ;
197 [label="x[13] <= 0.5\nentropy = 0.961\nsamples = 13\nvalue = [8, 5]"] ;
196 -> 197 ;
198 [label="x[11] <= 0.5\nentropy = 1.0\nsamples = 10\nvalue = [5, 5]"] ;
197 -> 198 ;
199 [label="entropy = 0.954\nsamples = 8\nvalue = [5, 3]"] ;
198 -> 199 ;
200 [label="entropy = 0.0\nsamples = 2\nvalue = [0, 2]"] ;
198 -> 200 ;
201 [label="entropy = 0.0\nsamples = 3\nvalue = [3, 0]"] ;
197 -> 201 ;
202 [label="entropy = 0.0\nsamples = 5\nvalue = [5, 0]"] ;
196 -> 202 ;
203 [label="x[16] <= 0.5\nentropy = 0.196\nsamples = 13579\nvalue = [13168, 411]"] ;
151 -> 203 ;
204 [label="x[20] <= 0.5\nentropy = 0.216\nsamples = 11279\nvalue = [10892, 387]"] ;
203 -> 204 ;
205 [label="x[9] <= 0.5\nentropy = 0.208\nsamples = 11233\nvalue = [10866, 367]"] ;
204 -> 205 ;
206 [label="x[1] <= 88027.5\nentropy = 0.213\nsamples = 10844\nvalue = [10477, 367]"] ;
205 -> 206 ;
207 [label="x[1] <= 60806.0\nentropy = 0.253\nsamples = 6901\nvalue = [6608, 293]"] ;
206 -> 207 ;
208 [label="entropy = 0.091\nsamples = 1636\nvalue = [1617, 19]"] ;
207 -> 208 ;
209 [label="entropy = 0.295\nsamples = 5265\nvalue = [4991, 274]"] ;
207 -> 209 ;
210 [label="x[2] <= 19.5\nentropy = 0.134\nsamples = 3943\nvalue = [3869, 74]"] ;
206 -> 210 ;
211 [label="entropy = 0.13\nsamples = 3928\nvalue = [3857, 71]"] ;
210 -> 211 ;
212 [label="entropy = 0.722\nsamples = 15\nvalue = [12, 3]"] ;
210 -> 212 ;
213 [label="entropy = 0.0\nsamples = 389\nvalue = [389, 0]"] ;
205 -> 213 ;
214 [label="x[13] <= 0.5\nentropy = 0.988\nsamples = 46\nvalue = [26.0, 20.0]"] ;
204 -> 214 ;
215 [label="x[2] <= 4.5\nentropy = 1.0\nsamples = 36\nvalue = [18, 18]"] ;
214 -> 215 ;
216 [label="x[1] <= 65014.0\nentropy = 0.874\nsamples = 17\nvalue = [5, 12]"] ;
215 -> 216 ;
217 [label="entropy = 0.0\nsamples = 2\nvalue = [2, 0]"] ;
216 -> 217 ;
218 [label="entropy = 0.722\nsamples = 15\nvalue = [3, 12]"] ;
216 -> 218 ;
219 [label="x[1] <= 68575.0\nentropy = 0.9\nsamples = 19\nvalue = [13, 6]"] ;
215 -> 219 ;
220 [label="entropy = 0.0\nsamples = 4\nvalue = [0, 4]"] ;
219 -> 220 ;
221 [label="entropy = 0.567\nsamples = 15\nvalue = [13, 2]"] ;
219 -> 221 ;
222 [label="x[2] <= 2.0\nentropy = 0.722\nsamples = 10\nvalue = [8, 2]"] ;
214 -> 222 ;
223 [label="entropy = 0.0\nsamples = 2\nvalue = [0, 2]"] ;
222 -> 223 ;
224 [label="entropy = 0.0\nsamples = 8\nvalue = [8, 0]"] ;
222 -> 224 ;
225 [label="x[3] <= 19875.0\nentropy = 0.084\nsamples = 2300\nvalue = [2276.0, 24.0]"] ;
203 -> 225 ;
226 [label="x[5] <= 0.055\nentropy = 0.06\nsamples = 2003\nvalue = [1989, 14]"] ;
225 -> 226 ;
227 [label="entropy = 0.0\nsamples = 306\nvalue = [306, 0]"] ;
226 -> 227 ;
228 [label="x[6] <= 10.5\nentropy = 0.069\nsamples = 1697\nvalue = [1683, 14]"] ;
226 -> 228 ;
229 [label="x[4] <= 13.53\nentropy = 0.076\nsamples = 1512\nvalue = [1498, 14]"] ;
228 -> 229 ;
230 [label="entropy = 0.056\nsamples = 1405\nvalue = [1396, 9]"] ;
229 -> 230 ;
231 [label="entropy = 0.272\nsamples = 107\nvalue = [102, 5]"] ;
229 -> 231 ;
232 [label="entropy = 0.0\nsamples = 185\nvalue = [185, 0]"] ;
228 -> 232 ;
233 [label="x[1] <= 128998.0\nentropy = 0.212\nsamples = 297\nvalue = [287, 10]"] ;
225 -> 233 ;
234 [label="x[2] <= 20.0\nentropy = 0.269\nsamples = 218\nvalue = [208, 10]"] ;
233 -> 234 ;
235 [label="x[7] <= 0.5\nentropy = 0.229\nsamples = 215\nvalue = [207, 8]"] ;
234 -> 235 ;
236 [label="entropy = 0.391\nsamples = 91\nvalue = [84, 7]"] ;
235 -> 236 ;
237 [label="entropy = 0.068\nsamples = 124\nvalue = [123, 1]"] ;
235 -> 237 ;
238 [label="x[1] <= 97500.0\nentropy = 0.918\nsamples = 3\nvalue = [1, 2]"] ;
234 -> 238 ;
239 [label="entropy = 0.0\nsamples = 1\nvalue = [1, 0]"] ;
238 -> 239 ;
240 [label="entropy = 0.0\nsamples = 2\nvalue = [0, 2]"] ;
238 -> 240 ;
241 [label="entropy = 0.0\nsamples = 79\nvalue = [79, 0]"] ;
233 -> 241 ;
242 [label="x[9] <= 0.5\nentropy = 0.121\nsamples = 18214\nvalue = [17915, 299]"] ;
150 -> 242 ;
243 [label="x[1] <= 59709.5\nentropy = 0.125\nsamples = 17359\nvalue = [17062, 297]"] ;
242 -> 243 ;
244 [label="x[4] <= 7.89\nentropy = 0.179\nsamples = 6801\nvalue = [6617, 184]"] ;
243 -> 244 ;
245 [label="x[1] <= 58633.5\nentropy = 0.141\nsamples = 5170\nvalue = [5067, 103]"] ;
244 -> 245 ;
246 [label="x[13] <= 0.5\nentropy = 0.133\nsamples = 5108\nvalue = [5013.0, 95.0]"] ;
245 -> 246 ;
247 [label="x[16] <= 0.5\nentropy = 0.112\nsamples = 4709\nvalue = [4639, 70]"] ;
246 -> 247 ;
248 [label="entropy = 0.128\nsamples = 3845\nvalue = [3777, 68]"] ;
247 -> 248 ;
249 [label="entropy = 0.024\nsamples = 864\nvalue = [862, 2]"] ;
247 -> 249 ;
250 [label="x[0] <= 23.5\nentropy = 0.338\nsamples = 399\nvalue = [374, 25]"] ;
246 -> 250 ;
251 [label="entropy = 0.0\nsamples = 4\nvalue = [0, 4]"] ;
250 -> 251 ;
252 [label="entropy = 0.3\nsamples = 395\nvalue = [374, 21]"] ;
250 -> 252 ;
253 [label="x[0] <= 25.5\nentropy = 0.555\nsamples = 62\nvalue = [54, 8]"] ;
245 -> 253 ;
254 [label="x[5] <= 0.075\nentropy = 0.211\nsamples = 30\nvalue = [29, 1]"] ;
253 -> 254 ;
255 [label="entropy = 0.414\nsamples = 12\nvalue = [11, 1]"] ;
254 -> 255 ;
256 [label="entropy = 0.0\nsamples = 18\nvalue = [18, 0]"] ;
254 -> 256 ;
257 [label="x[3] <= 1650.0\nentropy = 0.758\nsamples = 32\nvalue = [25, 7]"] ;
253 -> 257 ;
258 [label="entropy = 0.0\nsamples = 1\nvalue = [0, 1]"] ;
257 -> 258 ;
259 [label="entropy = 0.709\nsamples = 31\nvalue = [25, 6]"] ;
257 -> 259 ;
260 [label="x[12] <= 0.5\nentropy = 0.285\nsamples = 1631\nvalue = [1550, 81]"] ;
244 -> 260 ;
261 [label="x[7] <= 0.5\nentropy = 0.328\nsamples = 1246\nvalue = [1171, 75]"] ;
260 -> 261 ;
262 [label="x[2] <= 11.5\nentropy = 0.356\nsamples = 772\nvalue = [720, 52]"] ;
261 -> 262 ;
263 [label="entropy = 0.327\nsamples = 750\nvalue = [705, 45]"] ;
262 -> 263 ;
264 [label="entropy = 0.902\nsamples = 22\nvalue = [15.0, 7.0]"] ;
262 -> 264 ;
265 [label="x[1] <= 58325.0\nentropy = 0.28\nsamples = 474\nvalue = [451, 23]"] ;
261 -> 265 ;
266 [label="entropy = 0.256\nsamples = 466\nvalue = [446, 20]"] ;
265 -> 266 ;
267 [label="entropy = 0.954\nsamples = 8\nvalue = [5, 3]"] ;
265 -> 267 ;
268 [label="x[6] <= 6.5\nentropy = 0.116\nsamples = 385\nvalue = [379, 6]"] ;
260 -> 268 ;
269 [label="x[1] <= 39375.0\nentropy = 0.139\nsamples = 306\nvalue = [300, 6]"] ;
268 -> 269 ;
270 [label="entropy = 0.31\nsamples = 54\nvalue = [51, 3]"] ;
269 -> 270 ;
271 [label="entropy = 0.093\nsamples = 252\nvalue = [249, 3]"] ;
269 -> 271 ;
272 [label="entropy = 0.0\nsamples = 79\nvalue = [79, 0]"] ;
268 -> 272 ;
273 [label="x[5] <= 0.175\nentropy = 0.085\nsamples = 10558\nvalue = [10445, 113]"] ;
243 -> 273 ;
274 [label="x[16] <= 0.5\nentropy = 0.073\nsamples = 9062\nvalue = [8982, 80]"] ;
273 -> 274 ;
275 [label="x[4] <= 7.13\nentropy = 0.083\nsamples = 7526\nvalue = [7448, 78]"] ;
274 -> 275 ;
276 [label="x[0] <= 36.5\nentropy = 0.053\nsamples = 2858\nvalue = [2841, 17]"] ;
275 -> 276 ;
277 [label="entropy = 0.057\nsamples = 2606\nvalue = [2589, 17]"] ;
276 -> 277 ;
278 [label="entropy = 0.0\nsamples = 252\nvalue = [252, 0]"] ;
276 -> 278 ;
279 [label="x[1] <= 88256.0\nentropy = 0.101\nsamples = 4668\nvalue = [4607, 61]"] ;
275 -> 279 ;
280 [label="entropy = 0.125\nsamples = 2875\nvalue = [2826, 49]"] ;
279 -> 280 ;
281 [label="entropy = 0.058\nsamples = 1793\nvalue = [1781, 12]"] ;
279 -> 281 ;
282 [label="x[4] <= 9.505\nentropy = 0.014\nsamples = 1536\nvalue = [1534, 2]"] ;
274 -> 282 ;
283 [label="x[1] <= 107000.0\nentropy = 0.008\nsamples = 1509\nvalue = [1508, 1]"] ;
282 -> 283 ;
284 [label="entropy = 0.0\nsamples = 1213\nvalue = [1213, 0]"] ;
283 -> 284 ;
285 [label="entropy = 0.033\nsamples = 296\nvalue = [295, 1]"] ;
283 -> 285 ;
286 [label="x[1] <= 134000.0\nentropy = 0.229\nsamples = 27\nvalue = [26, 1]"] ;
282 -> 286 ;
287 [label="entropy = 0.0\nsamples = 26\nvalue = [26, 0]"] ;
286 -> 287 ;
288 [label="entropy = 0.0\nsamples = 1\nvalue = [0, 1]"] ;
286 -> 288 ;
289 [label="x[4] <= 8.435\nentropy = 0.153\nsamples = 1496\nvalue = [1463, 33]"] ;
273 -> 289 ;
290 [label="x[3] <= 14900.0\nentropy = 0.128\nsamples = 1252\nvalue = [1230, 22]"] ;
289 -> 290 ;
291 [label="x[4] <= 7.5\nentropy = 0.06\nsamples = 428\nvalue = [425, 3]"] ;
290 -> 291 ;
292 [label="entropy = 0.0\nsamples = 234\nvalue = [234, 0]"] ;
291 -> 292 ;
293 [label="entropy = 0.115\nsamples = 194\nvalue = [191, 3]"] ;
291 -> 293 ;
294 [label="x[6] <= 2.5\nentropy = 0.158\nsamples = 824\nvalue = [805, 19]"] ;
290 -> 294 ;
295 [label="entropy = 0.304\nsamples = 129\nvalue = [122, 7]"] ;
294 -> 295 ;
296 [label="entropy = 0.126\nsamples = 695\nvalue = [683, 12]"] ;
294 -> 296 ;
297 [label="x[6] <= 9.5\nentropy = 0.265\nsamples = 244\nvalue = [233, 11]"] ;
289 -> 297 ;
298 [label="x[3] <= 11100.0\nentropy = 0.304\nsamples = 203\nvalue = [192, 11]"] ;
297 -> 298 ;
299 [label="entropy = 1.0\nsamples = 4\nvalue = [2, 2]"] ;
298 -> 299 ;
300 [label="entropy = 0.266\nsamples = 199\nvalue = [190, 9]"] ;
298 -> 300 ;
301 [label="entropy = 0.0\nsamples = 41\nvalue = [41, 0]"] ;
297 -> 301 ;
302 [label="x[4] <= 7.815\nentropy = 0.024\nsamples = 855\nvalue = [853, 2]"] ;
242 -> 302 ;
303 [label="entropy = 0.0\nsamples = 609\nvalue = [609, 0]"] ;
302 -> 303 ;
304 [label="x[1] <= 44195.0\nentropy = 0.068\nsamples = 246\nvalue = [244, 2]"] ;
302 -> 304 ;
305 [label="x[3] <= 12375.0\nentropy = 0.258\nsamples = 46\nvalue = [44, 2]"] ;
304 -> 305 ;
306 [label="x[4] <= 7.89\nentropy = 0.154\nsamples = 45\nvalue = [44, 1]"] ;
305 -> 306 ;
307 [label="x[13] <= 0.5\nentropy = 0.469\nsamples = 10\nvalue = [9, 1]"] ;
306 -> 307 ;
308 [label="entropy = 0.0\nsamples = 9\nvalue = [9, 0]"] ;
307 -> 308 ;
309 [label="entropy = 0.0\nsamples = 1\nvalue = [0, 1]"] ;
307 -> 309 ;
310 [label="entropy = 0.0\nsamples = 35\nvalue = [35, 0]"] ;
306 -> 310 ;
311 [label="entropy = 0.0\nsamples = 1\nvalue = [0, 1]"] ;
305 -> 311 ;
312 [label="entropy = 0.0\nsamples = 200\nvalue = [200, 0]"] ;
304 -> 312 ;
313 [label="x[2] <= 2.5\nentropy = 0.984\nsamples = 7222\nvalue = [4144, 3078]"] ;
1 -> 313 ;
314 [label="x[19] <= 0.5\nentropy = 0.968\nsamples = 2736\nvalue = [1083, 1653]"] ;
313 -> 314 ;
315 [label="x[10] <= 0.5\nentropy = 0.726\nsamples = 1934\nvalue = [391, 1543]"] ;
314 -> 315 ;
316 [label="x[9] <= 0.5\nentropy = 0.931\nsamples = 508\nvalue = [332, 176]"] ;
315 -> 316 ;
317 [label="x[11] <= 0.5\nentropy = 0.985\nsamples = 393\nvalue = [225.0, 168.0]"] ;
316 -> 317 ;
318 [label="x[14] <= 0.5\nentropy = 0.918\nsamples = 336\nvalue = [224, 112]"] ;
317 -> 318 ;
319 [label="x[6] <= 4.5\nentropy = 0.698\nsamples = 271\nvalue = [220, 51]"] ;
318 -> 319 ;
320 [label="x[5] <= 0.115\nentropy = 0.835\nsamples = 128\nvalue = [94, 34]"] ;
319 -> 320 ;
321 [label="entropy = 0.519\nsamples = 43\nvalue = [38, 5]"] ;
320 -> 321 ;
322 [label="entropy = 0.926\nsamples = 85\nvalue = [56, 29]"] ;
320 -> 322 ;
323 [label="x[6] <= 24.0\nentropy = 0.526\nsamples = 143\nvalue = [126, 17]"] ;
319 -> 323 ;
324 [label="entropy = 0.489\nsamples = 141\nvalue = [126, 15]"] ;
323 -> 324 ;
325 [label="entropy = 0.0\nsamples = 2\nvalue = [0, 2]"] ;
323 -> 325 ;
326 [label="x[5] <= 0.165\nentropy = 0.334\nsamples = 65\nvalue = [4, 61]"] ;
318 -> 326 ;
327 [label="x[5] <= 0.145\nentropy = 0.567\nsamples = 30\nvalue = [4, 26]"] ;
326 -> 327 ;
328 [label="entropy = 0.381\nsamples = 27\nvalue = [2, 25]"] ;
327 -> 328 ;
329 [label="entropy = 0.918\nsamples = 3\nvalue = [2, 1]"] ;
327 -> 329 ;
330 [label="entropy = 0.0\nsamples = 35\nvalue = [0, 35]"] ;
326 -> 330 ;
331 [label="x[3] <= 17800.0\nentropy = 0.127\nsamples = 57\nvalue = [1, 56]"] ;
317 -> 331 ;
332 [label="entropy = 0.0\nsamples = 48\nvalue = [0, 48]"] ;
331 -> 332 ;
333 [label="x[6] <= 3.5\nentropy = 0.503\nsamples = 9\nvalue = [1, 8]"] ;
331 -> 333 ;
334 [label="x[3] <= 21500.0\nentropy = 1.0\nsamples = 2\nvalue = [1, 1]"] ;
333 -> 334 ;
335 [label="entropy = 0.0\nsamples = 1\nvalue = [1, 0]"] ;
334 -> 335 ;
336 [label="entropy = 0.0\nsamples = 1\nvalue = [0, 1]"] ;
334 -> 336 ;
337 [label="entropy = 0.0\nsamples = 7\nvalue = [0, 7]"] ;
333 -> 337 ;
338 [label="x[14] <= 0.5\nentropy = 0.364\nsamples = 115\nvalue = [107, 8]"] ;
316 -> 338 ;
339 [label="x[3] <= 2675.0\nentropy = 0.242\nsamples = 100\nvalue = [96, 4]"] ;
338 -> 339 ;
340 [label="x[4] <= 16.715\nentropy = 0.985\nsamples = 7\nvalue = [4, 3]"] ;
339 -> 340 ;
341 [label="x[0] <= 32.5\nentropy = 0.722\nsamples = 5\nvalue = [4, 1]"] ;
340 -> 341 ;
342 [label="entropy = 0.0\nsamples = 4\nvalue = [4, 0]"] ;
341 -> 342 ;
343 [label="entropy = 0.0\nsamples = 1\nvalue = [0, 1]"] ;
341 -> 343 ;
344 [label="entropy = 0.0\nsamples = 2\nvalue = [0, 2]"] ;
340 -> 344 ;
345 [label="x[11] <= 0.5\nentropy = 0.086\nsamples = 93\nvalue = [92, 1]"] ;
339 -> 345 ;
346 [label="entropy = 0.0\nsamples = 84\nvalue = [84, 0]"] ;
345 -> 346 ;
347 [label="x[0] <= 22.5\nentropy = 0.503\nsamples = 9\nvalue = [8, 1]"] ;
345 -> 347 ;
348 [label="entropy = 1.0\nsamples = 2\nvalue = [1, 1]"] ;
347 -> 348 ;
349 [label="entropy = 0.0\nsamples = 7\nvalue = [7, 0]"] ;
347 -> 349 ;
350 [label="x[5] <= 0.21\nentropy = 0.837\nsamples = 15\nvalue = [11, 4]"] ;
338 -> 350 ;
351 [label="x[4] <= 16.63\nentropy = 0.439\nsamples = 11\nvalue = [10, 1]"] ;
350 -> 351 ;
352 [label="entropy = 0.0\nsamples = 9\nvalue = [9, 0]"] ;
351 -> 352 ;
353 [label="x[5] <= 0.07\nentropy = 1.0\nsamples = 2\nvalue = [1, 1]"] ;
351 -> 353 ;
354 [label="entropy = 0.0\nsamples = 1\nvalue = [1, 0]"] ;
353 -> 354 ;
355 [label="entropy = 0.0\nsamples = 1\nvalue = [0, 1]"] ;
353 -> 355 ;
356 [label="x[1] <= 36060.0\nentropy = 0.811\nsamples = 4\nvalue = [1, 3]"] ;
350 -> 356 ;
357 [label="entropy = 0.0\nsamples = 2\nvalue = [0, 2]"] ;
356 -> 357 ;
358 [label="x[5] <= 0.27\nentropy = 1.0\nsamples = 2\nvalue = [1, 1]"] ;
356 -> 358 ;
359 [label="entropy = 0.0\nsamples = 1\nvalue = [1, 0]"] ;
358 -> 359 ;
360 [label="entropy = 0.0\nsamples = 1\nvalue = [0, 1]"] ;
358 -> 360 ;
361 [label="x[1] <= 109000.0\nentropy = 0.249\nsamples = 1426\nvalue = [59, 1367]"] ;
315 -> 361 ;
362 [label="x[3] <= 9900.0\nentropy = 0.206\nsamples = 1389\nvalue = [45.0, 1344.0]"] ;
361 -> 362 ;
363 [label="x[4] <= 21.9\nentropy = 0.151\nsamples = 965\nvalue = [21, 944]"] ;
362 -> 363 ;
364 [label="x[5] <= 0.205\nentropy = 0.146\nsamples = 964\nvalue = [20, 944]"] ;
363 -> 364 ;
365 [label="x[0] <= 63.0\nentropy = 0.172\nsamples = 783\nvalue = [20, 763]"] ;
364 -> 365 ;
366 [label="entropy = 0.165\nsamples = 782\nvalue = [19, 763]"] ;
365 -> 366 ;
367 [label="entropy = 0.0\nsamples = 1\nvalue = [1, 0]"] ;
365 -> 367 ;
368 [label="entropy = 0.0\nsamples = 181\nvalue = [0, 181]"] ;
364 -> 368 ;
369 [label="entropy = 0.0\nsamples = 1\nvalue = [1, 0]"] ;
363 -> 369 ;
370 [label="x[5] <= 0.155\nentropy = 0.314\nsamples = 424\nvalue = [24, 400]"] ;
362 -> 370 ;
371 [label="x[22] <= 0.5\nentropy = 0.559\nsamples = 46\nvalue = [6, 40]"] ;
370 -> 371 ;
372 [label="x[5] <= 0.125\nentropy = 0.439\nsamples = 44\nvalue = [4, 40]"] ;
371 -> 372 ;
373 [label="entropy = 0.0\nsamples = 14\nvalue = [0, 14]"] ;
372 -> 373 ;
374 [label="entropy = 0.567\nsamples = 30\nvalue = [4, 26]"] ;
372 -> 374 ;
375 [label="entropy = 0.0\nsamples = 2\nvalue = [2, 0]"] ;
371 -> 375 ;
376 [label="x[3] <= 22500.0\nentropy = 0.276\nsamples = 378\nvalue = [18, 360]"] ;
370 -> 376 ;
377 [label="x[3] <= 20837.5\nentropy = 0.293\nsamples = 349\nvalue = [18, 331]"] ;
376 -> 377 ;
378 [label="entropy = 0.283\nsamples = 346\nvalue = [17, 329]"] ;
377 -> 378 ;
379 [label="entropy = 0.918\nsamples = 3\nvalue = [1, 2]"] ;
377 -> 379 ;
380 [label="entropy = 0.0\nsamples = 29\nvalue = [0, 29]"] ;
376 -> 380 ;
381 [label="x[11] <= 0.5\nentropy = 0.957\nsamples = 37\nvalue = [14, 23]"] ;
361 -> 381 ;
382 [label="x[3] <= 6600.0\nentropy = 0.983\nsamples = 33\nvalue = [14, 19]"] ;
381 -> 382 ;
383 [label="x[1] <= 117375.0\nentropy = 0.65\nsamples = 6\nvalue = [5, 1]"] ;
382 -> 383 ;
384 [label="x[24] <= 0.5\nentropy = 1.0\nsamples = 2\nvalue = [1, 1]"] ;
383 -> 384 ;
385 [label="entropy = 0.0\nsamples = 1\nvalue = [0, 1]"] ;
384 -> 385 ;
386 [label="entropy = 0.0\nsamples = 1\nvalue = [1, 0]"] ;
384 -> 386 ;
387 [label="entropy = 0.0\nsamples = 4\nvalue = [4, 0]"] ;
383 -> 387 ;
388 [label="x[1] <= 136500.0\nentropy = 0.918\nsamples = 27\nvalue = [9, 18]"] ;
382 -> 388 ;
389 [label="x[12] <= 0.5\nentropy = 0.971\nsamples = 10\nvalue = [6, 4]"] ;
388 -> 389 ;
390 [label="entropy = 0.0\nsamples = 5\nvalue = [5, 0]"] ;
389 -> 390 ;
391 [label="entropy = 0.722\nsamples = 5\nvalue = [1, 4]"] ;
389 -> 391 ;
392 [label="x[4] <= 16.695\nentropy = 0.672\nsamples = 17\nvalue = [3, 14]"] ;
388 -> 392 ;
393 [label="entropy = 0.544\nsamples = 16\nvalue = [2, 14]"] ;
392 -> 393 ;
394 [label="entropy = 0.0\nsamples = 1\nvalue = [1, 0]"] ;
392 -> 394 ;
395 [label="entropy = 0.0\nsamples = 4\nvalue = [0, 4]"] ;
381 -> 395 ;
396 [label="x[9] <= 0.5\nentropy = 0.577\nsamples = 802\nvalue = [692, 110]"] ;
314 -> 396 ;
397 [label="x[1] <= 34450.0\nentropy = 0.599\nsamples = 754\nvalue = [644, 110]"] ;
396 -> 397 ;
398 [label="x[1] <= 19600.0\nentropy = 0.909\nsamples = 154\nvalue = [104, 50]"] ;
397 -> 398 ;
399 [label="x[1] <= 18500.0\nentropy = 0.934\nsamples = 20\nvalue = [7, 13]"] ;
398 -> 399 ;
400 [label="x[1] <= 12000.0\nentropy = 1.0\nsamples = 14\nvalue = [7, 7]"] ;
399 -> 400 ;
401 [label="entropy = 0.0\nsamples = 2\nvalue = [2, 0]"] ;
400 -> 401 ;
402 [label="x[0] <= 21.5\nentropy = 0.98\nsamples = 12\nvalue = [5, 7]"] ;
400 -> 402 ;
403 [label="entropy = 0.0\nsamples = 2\nvalue = [2, 0]"] ;
402 -> 403 ;
404 [label="entropy = 0.881\nsamples = 10\nvalue = [3, 7]"] ;
402 -> 404 ;
405 [label="entropy = 0.0\nsamples = 6\nvalue = [0, 6]"] ;
399 -> 405 ;
406 [label="x[13] <= 0.5\nentropy = 0.85\nsamples = 134\nvalue = [97, 37]"] ;
398 -> 406 ;
407 [label="x[0] <= 25.5\nentropy = 0.802\nsamples = 127\nvalue = [96, 31]"] ;
406 -> 407 ;
408 [label="x[1] <= 33800.0\nentropy = 0.65\nsamples = 78\nvalue = [65, 13]"] ;
407 -> 408 ;
409 [label="entropy = 0.576\nsamples = 73\nvalue = [63, 10]"] ;
408 -> 409 ;
410 [label="entropy = 0.971\nsamples = 5\nvalue = [2, 3]"] ;
408 -> 410 ;
411 [label="x[6] <= 20.0\nentropy = 0.949\nsamples = 49\nvalue = [31, 18]"] ;
407 -> 411 ;
412 [label="entropy = 0.925\nsamples = 47\nvalue = [31.0, 16.0]"] ;
411 -> 412 ;
413 [label="entropy = 0.0\nsamples = 2\nvalue = [0, 2]"] ;
411 -> 413 ;
414 [label="x[5] <= 0.155\nentropy = 0.592\nsamples = 7\nvalue = [1, 6]"] ;
406 -> 414 ;
415 [label="x[5] <= 0.13\nentropy = 1.0\nsamples = 2\nvalue = [1, 1]"] ;
414 -> 415 ;
416 [label="entropy = 0.0\nsamples = 1\nvalue = [0, 1]"] ;
415 -> 416 ;
417 [label="entropy = 0.0\nsamples = 1\nvalue = [1, 0]"] ;
415 -> 417 ;
418 [label="entropy = 0.0\nsamples = 5\nvalue = [0, 5]"] ;
414 -> 418 ;
419 [label="x[5] <= 0.045\nentropy = 0.469\nsamples = 600\nvalue = [540, 60]"] ;
397 -> 419 ;
420 [label="entropy = 0.0\nsamples = 50\nvalue = [50, 0]"] ;
419 -> 420 ;
421 [label="x[10] <= 0.5\nentropy = 0.497\nsamples = 550\nvalue = [490, 60]"] ;
419 -> 421 ;
422 [label="x[16] <= 0.5\nentropy = 0.579\nsamples = 152\nvalue = [131.0, 21.0]"] ;
421 -> 422 ;
423 [label="x[6] <= 11.5\nentropy = 0.663\nsamples = 122\nvalue = [101, 21]"] ;
422 -> 423 ;
424 [label="entropy = 0.734\nsamples = 102\nvalue = [81, 21]"] ;
423 -> 424 ;
425 [label="entropy = 0.0\nsamples = 20\nvalue = [20, 0]"] ;
423 -> 425 ;
426 [label="entropy = 0.0\nsamples = 30\nvalue = [30, 0]"] ;
422 -> 426 ;
427 [label="x[4] <= 14.95\nentropy = 0.463\nsamples = 398\nvalue = [359, 39]"] ;
421 -> 427 ;
428 [label="x[4] <= 14.31\nentropy = 0.383\nsamples = 335\nvalue = [310.0, 25.0]"] ;
427 -> 428 ;
429 [label="entropy = 0.492\nsamples = 205\nvalue = [183, 22]"] ;
428 -> 429 ;
430 [label="entropy = 0.158\nsamples = 130\nvalue = [127, 3]"] ;
428 -> 430 ;
431 [label="x[13] <= 0.5\nentropy = 0.764\nsamples = 63\nvalue = [49, 14]"] ;
427 -> 431 ;
432 [label="entropy = 0.636\nsamples = 56\nvalue = [47, 9]"] ;
431 -> 432 ;
433 [label="entropy = 0.863\nsamples = 7\nvalue = [2, 5]"] ;
431 -> 433 ;
434 [label="entropy = 0.0\nsamples = 48\nvalue = [48, 0]"] ;
396 -> 434 ;
435 [label="x[12] <= 0.5\nentropy = 0.902\nsamples = 4486\nvalue = [3061, 1425]"] ;
313 -> 435 ;
436 [label="x[16] <= 0.5\nentropy = 0.944\nsamples = 3554\nvalue = [2268, 1286]"] ;
435 -> 436 ;
437 [label="x[19] <= 0.5\nentropy = 0.986\nsamples = 2818\nvalue = [1607, 1211]"] ;
436 -> 437 ;
438 [label="x[14] <= 0.5\nentropy = 0.992\nsamples = 2016\nvalue = [904, 1112]"] ;
437 -> 438 ;
439 [label="x[13] <= 0.5\nentropy = 0.991\nsamples = 1451\nvalue = [807, 644]"] ;
438 -> 439 ;
440 [label="x[1] <= 54998.0\nentropy = 0.999\nsamples = 1036\nvalue = [501, 535]"] ;
439 -> 440 ;
441 [label="x[15] <= 0.5\nentropy = 0.964\nsamples = 456\nvalue = [177, 279]"] ;
440 -> 441 ;
442 [label="entropy = 0.329\nsamples = 232\nvalue = [14, 218]"] ;
441 -> 442 ;
443 [label="entropy = 0.845\nsamples = 224\nvalue = [163.0, 61.0]"] ;
441 -> 443 ;
444 [label="x[15] <= 0.5\nentropy = 0.99\nsamples = 580\nvalue = [324, 256]"] ;
440 -> 444 ;
445 [label="entropy = 0.446\nsamples = 237\nvalue = [22, 215]"] ;
444 -> 445 ;
446 [label="entropy = 0.528\nsamples = 343\nvalue = [302, 41]"] ;
444 -> 446 ;
447 [label="x[10] <= 0.5\nentropy = 0.831\nsamples = 415\nvalue = [306, 109]"] ;
439 -> 447 ;
448 [label="x[0] <= 23.5\nentropy = 0.62\nsamples = 214\nvalue = [181, 33]"] ;
447 -> 448 ;
449 [label="entropy = 0.0\nsamples = 9\nvalue = [0, 9]"] ;
448 -> 449 ;
450 [label="entropy = 0.521\nsamples = 205\nvalue = [181, 24]"] ;
448 -> 450 ;
451 [label="x[1] <= 49496.0\nentropy = 0.957\nsamples = 201\nvalue = [125.0, 76.0]"] ;
447 -> 451 ;
452 [label="entropy = 0.378\nsamples = 41\nvalue = [3, 38]"] ;
451 -> 452 ;
453 [label="entropy = 0.791\nsamples = 160\nvalue = [122, 38]"] ;
451 -> 453 ;
454 [label="x[7] <= 0.5\nentropy = 0.662\nsamples = 565\nvalue = [97, 468]"] ;
438 -> 454 ;
455 [label="x[9] <= 0.5\nentropy = 0.773\nsamples = 357\nvalue = [81, 276]"] ;
454 -> 455 ;
456 [label="x[25] <= 0.5\nentropy = 0.712\nsamples = 338\nvalue = [66, 272]"] ;
455 -> 456 ;
457 [label="entropy = 0.625\nsamples = 173\nvalue = [27, 146]"] ;
456 -> 457 ;
458 [label="entropy = 0.789\nsamples = 165\nvalue = [39, 126]"] ;
456 -> 458 ;
459 [label="x[3] <= 6900.0\nentropy = 0.742\nsamples = 19\nvalue = [15, 4]"] ;
455 -> 459 ;
460 [label="entropy = 0.0\nsamples = 8\nvalue = [8, 0]"] ;
459 -> 460 ;
461 [label="entropy = 0.946\nsamples = 11\nvalue = [7, 4]"] ;
459 -> 461 ;
462 [label="x[1] <= 109400.0\nentropy = 0.391\nsamples = 208\nvalue = [16, 192]"] ;
454 -> 462 ;
463 [label="x[17] <= 0.5\nentropy = 0.306\nsamples = 201\nvalue = [11, 190]"] ;
462 -> 463 ;
464 [label="entropy = 0.286\nsamples = 200\nvalue = [10, 190]"] ;
463 -> 464 ;
465 [label="entropy = 0.0\nsamples = 1\nvalue = [1, 0]"] ;
463 -> 465 ;
466 [label="x[20] <= 0.5\nentropy = 0.863\nsamples = 7\nvalue = [5, 2]"] ;
462 -> 466 ;
467 [label="entropy = 0.0\nsamples = 1\nvalue = [1, 0]"] ;
466 -> 467 ;
468 [label="entropy = 0.918\nsamples = 6\nvalue = [4, 2]"] ;
466 -> 468 ;
469 [label="x[1] <= 118650.0\nentropy = 0.539\nsamples = 802\nvalue = [703, 99]"] ;
437 -> 469 ;
470 [label="x[7] <= 0.5\nentropy = 0.56\nsamples = 756\nvalue = [657, 99]"] ;
469 -> 470 ;
471 [label="x[1] <= 64400.0\nentropy = 0.472\nsamples = 486\nvalue = [437, 49]"] ;
470 -> 471 ;
472 [label="x[3] <= 5900.0\nentropy = 0.55\nsamples = 369\nvalue = [322, 47]"] ;
471 -> 472 ;
473 [label="entropy = 0.388\nsamples = 184\nvalue = [170, 14]"] ;
472 -> 473 ;
474 [label="entropy = 0.677\nsamples = 185\nvalue = [152, 33]"] ;
472 -> 474 ;
475 [label="x[13] <= 0.5\nentropy = 0.125\nsamples = 117\nvalue = [115, 2]"] ;
471 -> 475 ;
476 [label="entropy = 0.158\nsamples = 87\nvalue = [85, 2]"] ;
475 -> 476 ;
477 [label="entropy = 0.0\nsamples = 30\nvalue = [30, 0]"] ;
475 -> 477 ;
478 [label="x[1] <= 37654.0\nentropy = 0.691\nsamples = 270\nvalue = [220, 50]"] ;
470 -> 478 ;
479 [label="x[5] <= 0.135\nentropy = 0.998\nsamples = 21\nvalue = [10, 11]"] ;
478 -> 479 ;
480 [label="entropy = 0.779\nsamples = 13\nvalue = [3, 10]"] ;
479 -> 480 ;
481 [label="entropy = 0.544\nsamples = 8\nvalue = [7, 1]"] ;
479 -> 481 ;
482 [label="x[3] <= 11100.0\nentropy = 0.626\nsamples = 249\nvalue = [210, 39]"] ;
478 -> 482 ;
483 [label="entropy = 0.48\nsamples = 174\nvalue = [156, 18]"] ;
482 -> 483 ;
484 [label="entropy = 0.855\nsamples = 75\nvalue = [54.0, 21.0]"] ;
482 -> 484 ;
485 [label="entropy = 0.0\nsamples = 46\nvalue = [46, 0]"] ;
469 -> 485 ;
486 [label="x[1] <= 59709.5\nentropy = 0.475\nsamples = 736\nvalue = [661, 75]"] ;
436 -> 486 ;
487 [label="x[9] <= 0.5\nentropy = 0.649\nsamples = 325\nvalue = [271, 54]"] ;
486 -> 487 ;
488 [label="x[4] <= 14.44\nentropy = 0.687\nsamples = 295\nvalue = [241, 54]"] ;
487 -> 488 ;
489 [label="x[10] <= 0.5\nentropy = 0.222\nsamples = 56\nvalue = [54, 2]"] ;
488 -> 489 ;
490 [label="x[2] <= 6.5\nentropy = 0.65\nsamples = 12\nvalue = [10, 2]"] ;
489 -> 490 ;
491 [label="entropy = 0.0\nsamples = 9\nvalue = [9, 0]"] ;
490 -> 491 ;
492 [label="entropy = 0.918\nsamples = 3\nvalue = [1, 2]"] ;
490 -> 492 ;
493 [label="entropy = 0.0\nsamples = 44\nvalue = [44, 0]"] ;
489 -> 493 ;
494 [label="x[1] <= 58325.0\nentropy = 0.756\nsamples = 239\nvalue = [187, 52]"] ;
488 -> 494 ;
495 [label="x[3] <= 12250.0\nentropy = 0.717\nsamples = 228\nvalue = [183, 45]"] ;
494 -> 495 ;
496 [label="entropy = 0.738\nsamples = 216\nvalue = [171, 45]"] ;
495 -> 496 ;
497 [label="entropy = 0.0\nsamples = 12\nvalue = [12, 0]"] ;
495 -> 497 ;
498 [label="x[2] <= 4.5\nentropy = 0.946\nsamples = 11\nvalue = [4, 7]"] ;
494 -> 498 ;
499 [label="entropy = 0.0\nsamples = 4\nvalue = [0, 4]"] ;
498 -> 499 ;
500 [label="entropy = 0.985\nsamples = 7\nvalue = [4, 3]"] ;
498 -> 500 ;
501 [label="entropy = 0.0\nsamples = 30\nvalue = [30, 0]"] ;
487 -> 501 ;
502 [label="x[1] <= 70436.0\nentropy = 0.291\nsamples = 411\nvalue = [390, 21]"] ;
486 -> 502 ;
503 [label="x[0] <= 30.5\nentropy = 0.06\nsamples = 142\nvalue = [141, 1]"] ;
502 -> 503 ;
504 [label="entropy = 0.0\nsamples = 110\nvalue = [110, 0]"] ;
503 -> 504 ;
505 [label="x[25] <= 0.5\nentropy = 0.201\nsamples = 32\nvalue = [31, 1]"] ;
503 -> 505 ;
506 [label="x[6] <= 8.0\nentropy = 0.391\nsamples = 13\nvalue = [12, 1]"] ;
505 -> 506 ;
507 [label="entropy = 1.0\nsamples = 2\nvalue = [1, 1]"] ;
506 -> 507 ;
508 [label="entropy = 0.0\nsamples = 11\nvalue = [11, 0]"] ;
506 -> 508 ;
509 [label="entropy = 0.0\nsamples = 19\nvalue = [19, 0]"] ;
505 -> 509 ;
510 [label="x[5] <= 0.195\nentropy = 0.382\nsamples = 269\nvalue = [249, 20]"] ;
502 -> 510 ;
511 [label="x[1] <= 117002.0\nentropy = 0.236\nsamples = 207\nvalue = [199, 8]"] ;
510 -> 511 ;
512 [label="x[20] <= 0.5\nentropy = 0.141\nsamples = 150\nvalue = [147, 3]"] ;
511 -> 512 ;
513 [label="entropy = 0.0\nsamples = 70\nvalue = [70, 0]"] ;
512 -> 513 ;
514 [label="entropy = 0.231\nsamples = 80\nvalue = [77, 3]"] ;
512 -> 514 ;
515 [label="x[3] <= 26500.0\nentropy = 0.429\nsamples = 57\nvalue = [52, 5]"] ;
511 -> 515 ;
516 [label="entropy = 0.371\nsamples = 56\nvalue = [52, 4]"] ;
515 -> 516 ;
517 [label="entropy = 0.0\nsamples = 1\nvalue = [0, 1]"] ;
515 -> 517 ;
518 [label="x[4] <= 16.735\nentropy = 0.709\nsamples = 62\nvalue = [50, 12]"] ;
510 -> 518 ;
519 [label="x[3] <= 15625.0\nentropy = 0.795\nsamples = 50\nvalue = [38, 12]"] ;
518 -> 519 ;
520 [label="entropy = 0.722\nsamples = 5\nvalue = [1, 4]"] ;
519 -> 520 ;
521 [label="entropy = 0.675\nsamples = 45\nvalue = [37, 8]"] ;
519 -> 521 ;
522 [label="entropy = 0.0\nsamples = 12\nvalue = [12, 0]"] ;
518 -> 522 ;
523 [label="x[1] <= 59700.0\nentropy = 0.608\nsamples = 932\nvalue = [793, 139]"] ;
435 -> 523 ;
524 [label="x[4] <= 16.305\nentropy = 0.741\nsamples = 453\nvalue = [358, 95]"] ;
523 -> 524 ;
525 [label="x[9] <= 0.5\nentropy = 0.64\nsamples = 357\nvalue = [299, 58]"] ;
524 -> 525 ;
526 [label="x[1] <= 56050.0\nentropy = 0.678\nsamples = 324\nvalue = [266, 58]"] ;
525 -> 526 ;
527 [label="x[19] <= 0.5\nentropy = 0.633\nsamples = 307\nvalue = [258.0, 49.0]"] ;
526 -> 527 ;
528 [label="x[4] <= 16.18\nentropy = 0.747\nsamples = 169\nvalue = [133, 36]"] ;
527 -> 528 ;
529 [label="entropy = 0.779\nsamples = 156\nvalue = [120, 36]"] ;
528 -> 529 ;
530 [label="entropy = 0.0\nsamples = 13\nvalue = [13, 0]"] ;
528 -> 530 ;
531 [label="x[6] <= 5.5\nentropy = 0.45\nsamples = 138\nvalue = [125, 13]"] ;
527 -> 531 ;
532 [label="entropy = 0.356\nsamples = 104\nvalue = [97, 7]"] ;
531 -> 532 ;
533 [label="entropy = 0.672\nsamples = 34\nvalue = [28, 6]"] ;
531 -> 533 ;
534 [label="x[0] <= 25.5\nentropy = 0.998\nsamples = 17\nvalue = [8, 9]"] ;
526 -> 534 ;
535 [label="x[6] <= 2.5\nentropy = 0.592\nsamples = 7\nvalue = [6, 1]"] ;
534 -> 535 ;
536 [label="entropy = 0.0\nsamples = 1\nvalue = [0, 1]"] ;
535 -> 536 ;
537 [label="entropy = 0.0\nsamples = 6\nvalue = [6, 0]"] ;
535 -> 537 ;
538 [label="x[1] <= 58288.5\nentropy = 0.722\nsamples = 10\nvalue = [2, 8]"] ;
534 -> 538 ;
539 [label="entropy = 0.918\nsamples = 6\nvalue = [2, 4]"] ;
538 -> 539 ;
540 [label="entropy = 0.0\nsamples = 4\nvalue = [0, 4]"] ;
538 -> 540 ;
541 [label="entropy = 0.0\nsamples = 33\nvalue = [33, 0]"] ;
525 -> 541 ;
542 [label="x[3] <= 4100.0\nentropy = 0.962\nsamples = 96\nvalue = [59, 37]"] ;
524 -> 542 ;
543 [label="x[6] <= 2.5\nentropy = 0.89\nsamples = 13\nvalue = [4, 9]"] ;
542 -> 543 ;
544 [label="entropy = 0.0\nsamples = 3\nvalue = [0, 3]"] ;
543 -> 544 ;
545 [label="x[0] <= 22.5\nentropy = 0.971\nsamples = 10\nvalue = [4, 6]"] ;
543 -> 545 ;
546 [label="entropy = 0.0\nsamples = 3\nvalue = [0, 3]"] ;
545 -> 546 ;
547 [label="x[0] <= 28.0\nentropy = 0.985\nsamples = 7\nvalue = [4, 3]"] ;
545 -> 547 ;
548 [label="entropy = 0.0\nsamples = 3\nvalue = [3, 0]"] ;
547 -> 548 ;
549 [label="entropy = 0.811\nsamples = 4\nvalue = [1, 3]"] ;
547 -> 549 ;
550 [label="x[1] <= 34450.0\nentropy = 0.922\nsamples = 83\nvalue = [55.0, 28.0]"] ;
542 -> 550 ;
551 [label="x[6] <= 9.0\nentropy = 0.722\nsamples = 10\nvalue = [2, 8]"] ;
550 -> 551 ;
552 [label="x[24] <= 0.5\nentropy = 0.503\nsamples = 9\nvalue = [1, 8]"] ;
551 -> 552 ;
553 [label="entropy = 0.918\nsamples = 3\nvalue = [1, 2]"] ;
552 -> 553 ;
554 [label="entropy = 0.0\nsamples = 6\nvalue = [0, 6]"] ;
552 -> 554 ;
555 [label="entropy = 0.0\nsamples = 1\nvalue = [1, 0]"] ;
551 -> 555 ;
556 [label="x[1] <= 59328.5\nentropy = 0.847\nsamples = 73\nvalue = [53, 20]"] ;
550 -> 556 ;
557 [label="x[3] <= 4900.0\nentropy = 0.817\nsamples = 71\nvalue = [53, 18]"] ;
556 -> 557 ;
558 [label="entropy = 0.0\nsamples = 5\nvalue = [5, 0]"] ;
557 -> 558 ;
559 [label="entropy = 0.845\nsamples = 66\nvalue = [48, 18]"] ;
557 -> 559 ;
560 [label="entropy = 0.0\nsamples = 2\nvalue = [0, 2]"] ;
556 -> 560 ;
561 [label="x[2] <= 15.5\nentropy = 0.443\nsamples = 479\nvalue = [435, 44]"] ;
523 -> 561 ;
562 [label="x[19] <= 0.5\nentropy = 0.412\nsamples = 471\nvalue = [432, 39]"] ;
561 -> 562 ;
563 [label="x[5] <= 0.225\nentropy = 0.487\nsamples = 312\nvalue = [279, 33]"] ;
562 -> 563 ;
564 [label="x[3] <= 1100.0\nentropy = 0.423\nsamples = 267\nvalue = [244, 23]"] ;
563 -> 564 ;
565 [label="entropy = 0.0\nsamples = 1\nvalue = [0, 1]"] ;
564 -> 565 ;
566 [label="x[1] <= 62700.0\nentropy = 0.412\nsamples = 266\nvalue = [244, 22]"] ;
564 -> 566 ;
567 [label="entropy = 0.0\nsamples = 53\nvalue = [53, 0]"] ;
566 -> 567 ;
568 [label="entropy = 0.479\nsamples = 213\nvalue = [191, 22]"] ;
566 -> 568 ;
569 [label="x[10] <= 0.5\nentropy = 0.764\nsamples = 45\nvalue = [35, 10]"] ;
563 -> 569 ;
570 [label="x[2] <= 11.0\nentropy = 0.469\nsamples = 20\nvalue = [18, 2]"] ;
569 -> 570 ;
571 [label="entropy = 0.31\nsamples = 18\nvalue = [17, 1]"] ;
570 -> 571 ;
572 [label="entropy = 1.0\nsamples = 2\nvalue = [1, 1]"] ;
570 -> 572 ;
573 [label="x[1] <= 83900.0\nentropy = 0.904\nsamples = 25\nvalue = [17, 8]"] ;
569 -> 573 ;
574 [label="entropy = 0.991\nsamples = 18\nvalue = [10, 8]"] ;
573 -> 574 ;
575 [label="entropy = 0.0\nsamples = 7\nvalue = [7, 0]"] ;
573 -> 575 ;
576 [label="x[4] <= 14.755\nentropy = 0.232\nsamples = 159\nvalue = [153, 6]"] ;
562 -> 576 ;
577 [label="x[2] <= 6.5\nentropy = 0.299\nsamples = 113\nvalue = [107, 6]"] ;
576 -> 577 ;
578 [label="x[3] <= 3600.0\nentropy = 0.409\nsamples = 61\nvalue = [56, 5]"] ;
577 -> 578 ;
579 [label="entropy = 0.811\nsamples = 12\nvalue = [9, 3]"] ;
578 -> 579 ;
580 [label="entropy = 0.246\nsamples = 49\nvalue = [47.0, 2.0]"] ;
578 -> 580 ;
581 [label="x[6] <= 9.5\nentropy = 0.137\nsamples = 52\nvalue = [51, 1]"] ;
577 -> 581 ;
582 [label="entropy = 0.0\nsamples = 46\nvalue = [46, 0]"] ;
581 -> 582 ;
583 [label="entropy = 0.65\nsamples = 6\nvalue = [5, 1]"] ;
581 -> 583 ;
584 [label="entropy = 0.0\nsamples = 46\nvalue = [46, 0]"] ;
576 -> 584 ;
585 [label="x[1] <= 70250.0\nentropy = 0.954\nsamples = 8\nvalue = [3, 5]"] ;
561 -> 585 ;
586 [label="entropy = 0.0\nsamples = 2\nvalue = [2, 0]"] ;
585 -> 586 ;
587 [label="x[6] <= 8.5\nentropy = 0.65\nsamples = 6\nvalue = [1, 5]"] ;
585 -> 587 ;
588 [label="x[9] <= 0.5\nentropy = 1.0\nsamples = 2\nvalue = [1, 1]"] ;
587 -> 588 ;
589 [label="entropy = 0.0\nsamples = 1\nvalue = [0, 1]"] ;
588 -> 589 ;
590 [label="entropy = 0.0\nsamples = 1\nvalue = [1, 0]"] ;
588 -> 590 ;
591 [label="entropy = 0.0\nsamples = 4\nvalue = [0, 4]"] ;
587 -> 591 ;
592 [label="x[7] <= 0.5\nentropy = 0.885\nsamples = 4730\nvalue = [1435, 3295]"] ;
0 -> 592 [labeldistance=2.5, labelangle=-45, headlabel="False"] ;
593 [label="x[9] <= 0.5\nentropy = 0.558\nsamples = 3567\nvalue = [465.0, 3102.0]"] ;
592 -> 593 ;
594 [label="x[3] <= 17362.5\nentropy = 0.255\nsamples = 3223\nvalue = [138, 3085]"] ;
593 -> 594 ;
595 [label="x[19] <= 0.5\nentropy = 0.204\nsamples = 2256\nvalue = [72, 2184]"] ;
594 -> 595 ;
596 [label="x[1] <= 10800.0\nentropy = 0.182\nsamples = 1779\nvalue = [49, 1730]"] ;
595 -> 596 ;
597 [label="entropy = 0.0\nsamples = 1\nvalue = [1, 0]"] ;
596 -> 597 ;
598 [label="x[15] <= 0.5\nentropy = 0.179\nsamples = 1778\nvalue = [48, 1730]"] ;
596 -> 598 ;
599 [label="x[13] <= 0.5\nentropy = 0.204\nsamples = 1470\nvalue = [47, 1423]"] ;
598 -> 599 ;
600 [label="x[1] <= 32534.0\nentropy = 0.216\nsamples = 1369\nvalue = [47.0, 1322.0]"] ;
599 -> 600 ;
601 [label="x[4] <= 14.44\nentropy = 0.163\nsamples = 668\nvalue = [16, 652]"] ;
600 -> 601 ;
602 [label="entropy = 0.192\nsamples = 543\nvalue = [16, 527]"] ;
601 -> 602 ;
603 [label="entropy = 0.0\nsamples = 125\nvalue = [0, 125]"] ;
601 -> 603 ;
604 [label="x[1] <= 32606.0\nentropy = 0.261\nsamples = 701\nvalue = [31, 670]"] ;
600 -> 604 ;
605 [label="entropy = 1.0\nsamples = 2\nvalue = [1, 1]"] ;
604 -> 605 ;
606 [label="entropy = 0.256\nsamples = 699\nvalue = [30, 669]"] ;
604 -> 606 ;
607 [label="entropy = 0.0\nsamples = 101\nvalue = [0, 101]"] ;
599 -> 607 ;
608 [label="x[17] <= 0.5\nentropy = 0.032\nsamples = 308\nvalue = [1, 307]"] ;
598 -> 608 ;
609 [label="entropy = 0.0\nsamples = 223\nvalue = [0, 223]"] ;
608 -> 609 ;
610 [label="x[1] <= 29528.0\nentropy = 0.092\nsamples = 85\nvalue = [1, 84]"] ;
608 -> 610 ;
611 [label="x[2] <= 8.5\nentropy = 0.258\nsamples = 23\nvalue = [1, 22]"] ;
610 -> 611 ;
612 [label="entropy = 0.0\nsamples = 22\nvalue = [0, 22]"] ;
611 -> 612 ;
613 [label="entropy = 0.0\nsamples = 1\nvalue = [1, 0]"] ;
611 -> 613 ;
614 [label="entropy = 0.0\nsamples = 62\nvalue = [0, 62]"] ;
610 -> 614 ;
615 [label="x[5] <= 0.365\nentropy = 0.279\nsamples = 477\nvalue = [23, 454]"] ;
595 -> 615 ;
616 [label="x[6] <= 3.5\nentropy = 0.376\nsamples = 302\nvalue = [22, 280]"] ;
615 -> 616 ;
617 [label="x[0] <= 23.5\nentropy = 0.216\nsamples = 116\nvalue = [4, 112]"] ;
616 -> 617 ;
618 [label="entropy = 0.0\nsamples = 58\nvalue = [0, 58]"] ;
617 -> 618 ;
619 [label="x[3] <= 12125.0\nentropy = 0.362\nsamples = 58\nvalue = [4, 54]"] ;
617 -> 619 ;
620 [label="x[1] <= 29502.0\nentropy = 0.513\nsamples = 35\nvalue = [4, 31]"] ;
619 -> 620 ;
621 [label="entropy = 0.0\nsamples = 16\nvalue = [0, 16]"] ;
620 -> 621 ;
622 [label="entropy = 0.742\nsamples = 19\nvalue = [4, 15]"] ;
620 -> 622 ;
623 [label="entropy = 0.0\nsamples = 23\nvalue = [0, 23]"] ;
619 -> 623 ;
624 [label="x[1] <= 33502.0\nentropy = 0.459\nsamples = 186\nvalue = [18, 168]"] ;
616 -> 624 ;
625 [label="x[0] <= 25.5\nentropy = 0.26\nsamples = 91\nvalue = [4, 87]"] ;
624 -> 625 ;
626 [label="entropy = 0.0\nsamples = 42\nvalue = [0, 42]"] ;
625 -> 626 ;
627 [label="x[6] <= 5.5\nentropy = 0.408\nsamples = 49\nvalue = [4.0, 45.0]"] ;
625 -> 627 ;
628 [label="entropy = 0.918\nsamples = 6\nvalue = [2, 4]"] ;
627 -> 628 ;
629 [label="entropy = 0.271\nsamples = 43\nvalue = [2, 41]"] ;
627 -> 629 ;
630 [label="x[4] <= 13.885\nentropy = 0.603\nsamples = 95\nvalue = [14.0, 81.0]"] ;
624 -> 630 ;
631 [label="x[6] <= 6.5\nentropy = 0.447\nsamples = 75\nvalue = [7, 68]"] ;
630 -> 631 ;
632 [label="entropy = 0.661\nsamples = 35\nvalue = [6.0, 29.0]"] ;
631 -> 632 ;
633 [label="entropy = 0.169\nsamples = 40\nvalue = [1, 39]"] ;
631 -> 633 ;
634 [label="x[2] <= 6.5\nentropy = 0.934\nsamples = 20\nvalue = [7, 13]"] ;
630 -> 634 ;
635 [label="entropy = 0.696\nsamples = 16\nvalue = [3, 13]"] ;
634 -> 635 ;
636 [label="entropy = 0.0\nsamples = 4\nvalue = [4, 0]"] ;
634 -> 636 ;
637 [label="x[12] <= 0.5\nentropy = 0.051\nsamples = 175\nvalue = [1, 174]"] ;
615 -> 637 ;
638 [label="entropy = 0.0\nsamples = 143\nvalue = [0, 143]"] ;
637 -> 638 ;
639 [label="x[1] <= 24498.0\nentropy = 0.201\nsamples = 32\nvalue = [1, 31]"] ;
637 -> 639 ;
640 [label="x[0] <= 26.0\nentropy = 1.0\nsamples = 2\nvalue = [1, 1]"] ;
639 -> 640 ;
641 [label="entropy = 0.0\nsamples = 1\nvalue = [0, 1]"] ;
640 -> 641 ;
642 [label="entropy = 0.0\nsamples = 1\nvalue = [1, 0]"] ;
640 -> 642 ;
643 [label="entropy = 0.0\nsamples = 30\nvalue = [0, 30]"] ;
639 -> 643 ;
644 [label="x[5] <= 0.365\nentropy = 0.359\nsamples = 967\nvalue = [66, 901]"] ;
594 -> 644 ;
645 [label="x[4] <= 13.795\nentropy = 0.451\nsamples = 498\nvalue = [47, 451]"] ;
644 -> 645 ;
646 [label="x[3] <= 17550.0\nentropy = 0.555\nsamples = 325\nvalue = [42, 283]"] ;
645 -> 646 ;
647 [label="x[1] <= 57988.5\nentropy = 1.0\nsamples = 6\nvalue = [3, 3]"] ;
646 -> 647 ;
648 [label="x[4] <= 11.24\nentropy = 0.811\nsamples = 4\nvalue = [3, 1]"] ;
647 -> 648 ;
649 [label="x[18] <= 0.5\nentropy = 1.0\nsamples = 2\nvalue = [1, 1]"] ;
648 -> 649 ;
650 [label="entropy = 0.0\nsamples = 1\nvalue = [1, 0]"] ;
649 -> 650 ;
651 [label="entropy = 0.0\nsamples = 1\nvalue = [0, 1]"] ;
649 -> 651 ;
652 [label="entropy = 0.0\nsamples = 2\nvalue = [2, 0]"] ;
648 -> 652 ;
653 [label="entropy = 0.0\nsamples = 2\nvalue = [0, 2]"] ;
647 -> 653 ;
654 [label="x[2] <= 3.5\nentropy = 0.536\nsamples = 319\nvalue = [39, 280]"] ;
646 -> 654 ;
655 [label="x[0] <= 22.5\nentropy = 0.637\nsamples = 149\nvalue = [24, 125]"] ;
654 -> 655 ;
656 [label="x[5] <= 0.355\nentropy = 0.964\nsamples = 18\nvalue = [7, 11]"] ;
655 -> 656 ;
657 [label="entropy = 1.0\nsamples = 14\nvalue = [7, 7]"] ;
656 -> 657 ;
658 [label="entropy = 0.0\nsamples = 4\nvalue = [0, 4]"] ;
656 -> 658 ;
659 [label="x[20] <= 0.5\nentropy = 0.557\nsamples = 131\nvalue = [17, 114]"] ;
655 -> 659 ;
660 [label="entropy = 0.521\nsamples = 128\nvalue = [15, 113]"] ;
659 -> 660 ;
661 [label="entropy = 0.918\nsamples = 3\nvalue = [2, 1]"] ;
659 -> 661 ;
662 [label="x[4] <= 9.535\nentropy = 0.431\nsamples = 170\nvalue = [15.0, 155.0]"] ;
654 -> 662 ;
663 [label="entropy = 0.0\nsamples = 34\nvalue = [0, 34]"] ;
662 -> 663 ;
664 [label="x[3] <= 20525.0\nentropy = 0.501\nsamples = 136\nvalue = [15, 121]"] ;
662 -> 664 ;
665 [label="entropy = 0.306\nsamples = 73\nvalue = [4, 69]"] ;
664 -> 665 ;
666 [label="entropy = 0.668\nsamples = 63\nvalue = [11, 52]"] ;
664 -> 666 ;
667 [label="x[24] <= 0.5\nentropy = 0.189\nsamples = 173\nvalue = [5, 168]"] ;
645 -> 667 ;
668 [label="x[14] <= 0.5\nentropy = 0.276\nsamples = 84\nvalue = [4, 80]"] ;
667 -> 668 ;
669 [label="x[6] <= 9.5\nentropy = 0.319\nsamples = 69\nvalue = [4, 65]"] ;
668 -> 669 ;
670 [label="x[0] <= 32.5\nentropy = 0.391\nsamples = 52\nvalue = [4, 48]"] ;
669 -> 670 ;
671 [label="entropy = 0.246\nsamples = 49\nvalue = [2.0, 47.0]"] ;
670 -> 671 ;
672 [label="entropy = 0.918\nsamples = 3\nvalue = [2, 1]"] ;
670 -> 672 ;
673 [label="entropy = 0.0\nsamples = 17\nvalue = [0, 17]"] ;
669 -> 673 ;
674 [label="entropy = 0.0\nsamples = 15\nvalue = [0, 15]"] ;
668 -> 674 ;
675 [label="x[3] <= 23500.0\nentropy = 0.089\nsamples = 89\nvalue = [1, 88]"] ;
667 -> 675 ;
676 [label="entropy = 0.0\nsamples = 57\nvalue = [0, 57]"] ;
675 -> 676 ;
677 [label="x[2] <= 7.5\nentropy = 0.201\nsamples = 32\nvalue = [1, 31]"] ;
675 -> 677 ;
678 [label="entropy = 0.0\nsamples = 24\nvalue = [0, 24]"] ;
677 -> 678 ;
679 [label="x[0] <= 24.5\nentropy = 0.544\nsamples = 8\nvalue = [1, 7]"] ;
677 -> 679 ;
680 [label="entropy = 0.918\nsamples = 3\nvalue = [1, 2]"] ;
679 -> 680 ;
681 [label="entropy = 0.0\nsamples = 5\nvalue = [0, 5]"] ;
679 -> 681 ;
682 [label="x[6] <= 9.5\nentropy = 0.245\nsamples = 469\nvalue = [19, 450]"] ;
644 -> 682 ;
683 [label="x[20] <= 0.5\nentropy = 0.28\nsamples = 392\nvalue = [19, 373]"] ;
682 -> 683 ;
684 [label="x[5] <= 0.375\nentropy = 0.32\nsamples = 310\nvalue = [18, 292]"] ;
683 -> 684 ;
685 [label="entropy = 0.0\nsamples = 57\nvalue = [0, 57]"] ;
684 -> 685 ;
686 [label="x[2] <= 11.5\nentropy = 0.37\nsamples = 253\nvalue = [18, 235]"] ;
684 -> 686 ;
687 [label="x[3] <= 17825.0\nentropy = 0.336\nsamples = 241\nvalue = [15, 226]"] ;
686 -> 687 ;
688 [label="entropy = 0.845\nsamples = 11\nvalue = [3, 8]"] ;
687 -> 688 ;
689 [label="entropy = 0.296\nsamples = 230\nvalue = [12, 218]"] ;
687 -> 689 ;
690 [label="x[5] <= 0.395\nentropy = 0.811\nsamples = 12\nvalue = [3, 9]"] ;
686 -> 690 ;
691 [label="entropy = 0.0\nsamples = 3\nvalue = [0, 3]"] ;
690 -> 691 ;
692 [label="entropy = 0.918\nsamples = 9\nvalue = [3, 6]"] ;
690 -> 692 ;
693 [label="x[1] <= 65104.5\nentropy = 0.095\nsamples = 82\nvalue = [1, 81]"] ;
683 -> 693 ;
694 [label="entropy = 0.0\nsamples = 68\nvalue = [0, 68]"] ;
693 -> 694 ;
695 [label="x[2] <= 4.5\nentropy = 0.371\nsamples = 14\nvalue = [1, 13]"] ;
693 -> 695 ;
696 [label="x[1] <= 65626.5\nentropy = 0.592\nsamples = 7\nvalue = [1, 6]"] ;
695 -> 696 ;
697 [label="entropy = 0.0\nsamples = 1\nvalue = [1, 0]"] ;
696 -> 697 ;
698 [label="entropy = 0.0\nsamples = 6\nvalue = [0, 6]"] ;
696 -> 698 ;
699 [label="entropy = 0.0\nsamples = 7\nvalue = [0, 7]"] ;
695 -> 699 ;
700 [label="entropy = 0.0\nsamples = 77\nvalue = [0, 77]"] ;
682 -> 700 ;
701 [label="x[21] <= 0.5\nentropy = 0.284\nsamples = 344\nvalue = [327, 17]"] ;
593 -> 701 ;
702 [label="x[3] <= 11750.0\nentropy = 0.236\nsamples = 336\nvalue = [323, 13]"] ;
701 -> 702 ;
703 [label="x[4] <= 15.975\nentropy = 0.497\nsamples = 101\nvalue = [90, 11]"] ;
702 -> 703 ;
704 [label="x[16] <= 0.5\nentropy = 0.411\nsamples = 97\nvalue = [89, 8]"] ;
703 -> 704 ;
705 [label="x[6] <= 10.5\nentropy = 0.518\nsamples = 69\nvalue = [61, 8]"] ;
704 -> 705 ;
706 [label="x[2] <= 15.0\nentropy = 0.439\nsamples = 66\nvalue = [60, 6]"] ;
705 -> 706 ;
707 [label="x[1] <= 27926.0\nentropy = 0.391\nsamples = 65\nvalue = [60, 5]"] ;
706 -> 707 ;
708 [label="entropy = 0.187\nsamples = 35\nvalue = [34, 1]"] ;
707 -> 708 ;
709 [label="entropy = 0.567\nsamples = 30\nvalue = [26, 4]"] ;
707 -> 709 ;
710 [label="entropy = 0.0\nsamples = 1\nvalue = [0, 1]"] ;
706 -> 710 ;
711 [label="x[13] <= 0.5\nentropy = 0.918\nsamples = 3\nvalue = [1, 2]"] ;
705 -> 711 ;
712 [label="entropy = 0.0\nsamples = 2\nvalue = [0, 2]"] ;
711 -> 712 ;
713 [label="entropy = 0.0\nsamples = 1\nvalue = [1, 0]"] ;
711 -> 713 ;
714 [label="entropy = 0.0\nsamples = 28\nvalue = [28, 0]"] ;
704 -> 714 ;
715 [label="x[13] <= 0.5\nentropy = 0.811\nsamples = 4\nvalue = [1, 3]"] ;
703 -> 715 ;
716 [label="entropy = 0.0\nsamples = 3\nvalue = [0, 3]"] ;
715 -> 716 ;
717 [label="entropy = 0.0\nsamples = 1\nvalue = [1, 0]"] ;
715 -> 717 ;
718 [label="x[11] <= 0.5\nentropy = 0.071\nsamples = 235\nvalue = [233, 2]"] ;
702 -> 718 ;
719 [label="x[20] <= 0.5\nentropy = 0.04\nsamples = 232\nvalue = [231, 1]"] ;
718 -> 719 ;
720 [label="entropy = 0.0\nsamples = 212\nvalue = [212, 0]"] ;
719 -> 720 ;
721 [label="x[0] <= 45.0\nentropy = 0.286\nsamples = 20\nvalue = [19, 1]"] ;
719 -> 721 ;
722 [label="entropy = 0.0\nsamples = 19\nvalue = [19, 0]"] ;
721 -> 722 ;
723 [label="entropy = 0.0\nsamples = 1\nvalue = [0, 1]"] ;
721 -> 723 ;
724 [label="x[2] <= 4.0\nentropy = 0.918\nsamples = 3\nvalue = [2, 1]"] ;
718 -> 724 ;
725 [label="entropy = 0.0\nsamples = 1\nvalue = [0, 1]"] ;
724 -> 725 ;
726 [label="entropy = 0.0\nsamples = 2\nvalue = [2, 0]"] ;
724 -> 726 ;
727 [label="x[25] <= 0.5\nentropy = 1.0\nsamples = 8\nvalue = [4, 4]"] ;
701 -> 727 ;
728 [label="x[3] <= 13000.0\nentropy = 0.722\nsamples = 5\nvalue = [4, 1]"] ;
727 -> 728 ;
729 [label="x[3] <= 10500.0\nentropy = 1.0\nsamples = 2\nvalue = [1, 1]"] ;
728 -> 729 ;
730 [label="entropy = 0.0\nsamples = 1\nvalue = [1, 0]"] ;
729 -> 730 ;
731 [label="entropy = 0.0\nsamples = 1\nvalue = [0, 1]"] ;
729 -> 731 ;
732 [label="entropy = 0.0\nsamples = 3\nvalue = [3, 0]"] ;
728 -> 732 ;
733 [label="entropy = 0.0\nsamples = 3\nvalue = [0, 3]"] ;
727 -> 733 ;
734 [label="x[11] <= 0.5\nentropy = 0.648\nsamples = 1163\nvalue = [970, 193]"] ;
592 -> 734 ;
735 [label="x[14] <= 0.5\nentropy = 0.569\nsamples = 962\nvalue = [833, 129]"] ;
734 -> 735 ;
736 [label="x[17] <= 0.5\nentropy = 0.489\nsamples = 800\nvalue = [715, 85]"] ;
735 -> 736 ;
737 [label="x[3] <= 9975.0\nentropy = 0.574\nsamples = 580\nvalue = [501, 79]"] ;
736 -> 737 ;
738 [label="x[6] <= 2.5\nentropy = 0.976\nsamples = 22\nvalue = [13, 9]"] ;
737 -> 738 ;
739 [label="x[1] <= 24500.0\nentropy = 0.592\nsamples = 7\nvalue = [1, 6]"] ;
738 -> 739 ;
740 [label="entropy = 0.0\nsamples = 1\nvalue = [1, 0]"] ;
739 -> 740 ;
741 [label="entropy = 0.0\nsamples = 6\nvalue = [0, 6]"] ;
739 -> 741 ;
742 [label="x[5] <= 0.315\nentropy = 0.722\nsamples = 15\nvalue = [12, 3]"] ;
738 -> 742 ;
743 [label="entropy = 0.0\nsamples = 2\nvalue = [0, 2]"] ;
742 -> 743 ;
744 [label="x[5] <= 0.435\nentropy = 0.391\nsamples = 13\nvalue = [12, 1]"] ;
742 -> 744 ;
745 [label="entropy = 0.0\nsamples = 12\nvalue = [12, 0]"] ;
744 -> 745 ;
746 [label="entropy = 0.0\nsamples = 1\nvalue = [0, 1]"] ;
744 -> 746 ;
747 [label="x[1] <= 106500.0\nentropy = 0.545\nsamples = 558\nvalue = [488, 70]"] ;
737 -> 747 ;
748 [label="x[18] <= 0.5\nentropy = 0.536\nsamples = 556\nvalue = [488, 68]"] ;
747 -> 748 ;
749 [label="x[3] <= 10912.5\nentropy = 0.638\nsamples = 254\nvalue = [213, 41]"] ;
748 -> 749 ;
750 [label="entropy = 0.0\nsamples = 8\nvalue = [8, 0]"] ;
749 -> 750 ;
751 [label="x[5] <= 0.335\nentropy = 0.65\nsamples = 246\nvalue = [205, 41]"] ;
749 -> 751 ;
752 [label="entropy = 0.484\nsamples = 86\nvalue = [77, 9]"] ;
751 -> 752 ;
753 [label="entropy = 0.722\nsamples = 160\nvalue = [128, 32]"] ;
751 -> 753 ;
754 [label="x[6] <= 13.5\nentropy = 0.434\nsamples = 302\nvalue = [275, 27]"] ;
748 -> 754 ;
755 [label="x[16] <= 0.5\nentropy = 0.462\nsamples = 276\nvalue = [249, 27]"] ;
754 -> 755 ;
756 [label="entropy = 0.573\nsamples = 199\nvalue = [172, 27]"] ;
755 -> 756 ;
757 [label="entropy = 0.0\nsamples = 77\nvalue = [77, 0]"] ;
755 -> 757 ;
758 [label="entropy = 0.0\nsamples = 26\nvalue = [26, 0]"] ;
754 -> 758 ;
759 [label="entropy = 0.0\nsamples = 2\nvalue = [0, 2]"] ;
747 -> 759 ;
760 [label="x[3] <= 18225.0\nentropy = 0.181\nsamples = 220\nvalue = [214, 6]"] ;
736 -> 760 ;
761 [label="x[3] <= 18100.0\nentropy = 0.278\nsamples = 125\nvalue = [119, 6]"] ;
760 -> 761 ;
762 [label="x[3] <= 14900.0\nentropy = 0.244\nsamples = 124\nvalue = [119, 5]"] ;
761 -> 762 ;
763 [label="x[6] <= 8.5\nentropy = 0.353\nsamples = 75\nvalue = [70, 5]"] ;
762 -> 763 ;
764 [label="x[2] <= 5.5\nentropy = 0.201\nsamples = 64\nvalue = [62, 2]"] ;
763 -> 764 ;
765 [label="entropy = 0.0\nsamples = 42\nvalue = [42, 0]"] ;
764 -> 765 ;
766 [label="entropy = 0.439\nsamples = 22\nvalue = [20, 2]"] ;
764 -> 766 ;
767 [label="x[5] <= 0.375\nentropy = 0.845\nsamples = 11\nvalue = [8, 3]"] ;
763 -> 767 ;
768 [label="entropy = 0.722\nsamples = 10\nvalue = [8, 2]"] ;
767 -> 768 ;
769 [label="entropy = 0.0\nsamples = 1\nvalue = [0, 1]"] ;
767 -> 769 ;
770 [label="entropy = 0.0\nsamples = 49\nvalue = [49, 0]"] ;
762 -> 770 ;
771 [label="entropy = 0.0\nsamples = 1\nvalue = [0, 1]"] ;
761 -> 771 ;
772 [label="entropy = 0.0\nsamples = 95\nvalue = [95, 0]"] ;
760 -> 772 ;
773 [label="x[25] <= 0.5\nentropy = 0.844\nsamples = 162\nvalue = [118, 44]"] ;
735 -> 773 ;
774 [label="x[20] <= 0.5\nentropy = 0.78\nsamples = 134\nvalue = [103, 31]"] ;
773 -> 774 ;
775 [label="x[0] <= 35.5\nentropy = 0.671\nsamples = 125\nvalue = [103, 22]"] ;
774 -> 775 ;
776 [label="x[4] <= 16.205\nentropy = 0.708\nsamples = 114\nvalue = [92, 22]"] ;
775 -> 776 ;
777 [label="x[4] <= 10.87\nentropy = 0.643\nsamples = 110\nvalue = [92, 18]"] ;
776 -> 777 ;
778 [label="x[3] <= 18312.5\nentropy = 0.488\nsamples = 66\nvalue = [59, 7]"] ;
777 -> 778 ;
779 [label="entropy = 0.262\nsamples = 45\nvalue = [43, 2]"] ;
778 -> 779 ;
780 [label="entropy = 0.792\nsamples = 21\nvalue = [16, 5]"] ;
778 -> 780 ;
781 [label="x[21] <= 0.5\nentropy = 0.811\nsamples = 44\nvalue = [33, 11]"] ;
777 -> 781 ;
782 [label="entropy = 0.782\nsamples = 43\nvalue = [33, 10]"] ;
781 -> 782 ;
783 [label="entropy = 0.0\nsamples = 1\nvalue = [0, 1]"] ;
781 -> 783 ;
784 [label="entropy = 0.0\nsamples = 4\nvalue = [0, 4]"] ;
776 -> 784 ;
785 [label="entropy = 0.0\nsamples = 11\nvalue = [11, 0]"] ;
775 -> 785 ;
786 [label="entropy = 0.0\nsamples = 9\nvalue = [0, 9]"] ;
774 -> 786 ;
787 [label="x[4] <= 15.59\nentropy = 0.996\nsamples = 28\nvalue = [15, 13]"] ;
773 -> 787 ;
788 [label="x[0] <= 24.5\nentropy = 0.742\nsamples = 19\nvalue = [15, 4]"] ;
787 -> 788 ;
789 [label="entropy = 0.0\nsamples = 6\nvalue = [6, 0]"] ;
788 -> 789 ;
790 [label="x[5] <= 0.335\nentropy = 0.89\nsamples = 13\nvalue = [9, 4]"] ;
788 -> 790 ;
791 [label="x[4] <= 13.18\nentropy = 0.971\nsamples = 5\nvalue = [2, 3]"] ;
790 -> 791 ;
792 [label="entropy = 0.0\nsamples = 2\nvalue = [0, 2]"] ;
791 -> 792 ;
793 [label="x[1] <= 63150.0\nentropy = 0.918\nsamples = 3\nvalue = [2, 1]"] ;
791 -> 793 ;
794 [label="entropy = 0.0\nsamples = 2\nvalue = [2, 0]"] ;
793 -> 794 ;
795 [label="entropy = 0.0\nsamples = 1\nvalue = [0, 1]"] ;
793 -> 795 ;
796 [label="x[3] <= 27500.0\nentropy = 0.544\nsamples = 8\nvalue = [7, 1]"] ;
790 -> 796 ;
797 [label="entropy = 0.0\nsamples = 6\nvalue = [6, 0]"] ;
796 -> 797 ;
798 [label="x[4] <= 13.46\nentropy = 1.0\nsamples = 2\nvalue = [1, 1]"] ;
796 -> 798 ;
799 [label="entropy = 0.0\nsamples = 1\nvalue = [1, 0]"] ;
798 -> 799 ;
800 [label="entropy = 0.0\nsamples = 1\nvalue = [0, 1]"] ;
798 -> 800 ;
801 [label="entropy = 0.0\nsamples = 9\nvalue = [0, 9]"] ;
787 -> 801 ;
802 [label="x[18] <= 0.5\nentropy = 0.903\nsamples = 201\nvalue = [137, 64]"] ;
734 -> 802 ;
803 [label="x[24] <= 0.5\nentropy = 0.993\nsamples = 129\nvalue = [71, 58]"] ;
802 -> 803 ;
804 [label="x[19] <= 0.5\nentropy = 0.824\nsamples = 31\nvalue = [8, 23]"] ;
803 -> 804 ;
805 [label="entropy = 0.0\nsamples = 18\nvalue = [0, 18]"] ;
804 -> 805 ;
806 [label="x[2] <= 1.5\nentropy = 0.961\nsamples = 13\nvalue = [8, 5]"] ;
804 -> 806 ;
807 [label="entropy = 0.0\nsamples = 1\nvalue = [0, 1]"] ;
806 -> 807 ;
808 [label="x[4] <= 15.34\nentropy = 0.918\nsamples = 12\nvalue = [8, 4]"] ;
806 -> 808 ;
809 [label="x[6] <= 3.5\nentropy = 0.722\nsamples = 10\nvalue = [8, 2]"] ;
808 -> 809 ;
810 [label="x[0] <= 24.0\nentropy = 0.971\nsamples = 5\nvalue = [3, 2]"] ;
809 -> 810 ;
811 [label="entropy = 0.0\nsamples = 2\nvalue = [2, 0]"] ;
810 -> 811 ;
812 [label="entropy = 0.918\nsamples = 3\nvalue = [1, 2]"] ;
810 -> 812 ;
813 [label="entropy = 0.0\nsamples = 5\nvalue = [5, 0]"] ;
809 -> 813 ;
814 [label="entropy = 0.0\nsamples = 2\nvalue = [0, 2]"] ;
808 -> 814 ;
815 [label="x[4] <= 11.025\nentropy = 0.94\nsamples = 98\nvalue = [63.0, 35.0]"] ;
803 -> 815 ;
816 [label="x[5] <= 0.325\nentropy = 0.297\nsamples = 57\nvalue = [54, 3]"] ;
815 -> 816 ;
817 [label="entropy = 0.0\nsamples = 14\nvalue = [14, 0]"] ;
816 -> 817 ;
818 [label="x[0] <= 34.5\nentropy = 0.365\nsamples = 43\nvalue = [40, 3]"] ;
816 -> 818 ;
819 [label="entropy = 0.0\nsamples = 37\nvalue = [37, 0]"] ;
818 -> 819 ;
820 [label="x[4] <= 6.49\nentropy = 1.0\nsamples = 6\nvalue = [3, 3]"] ;
818 -> 820 ;
821 [label="entropy = 0.0\nsamples = 2\nvalue = [2, 0]"] ;
820 -> 821 ;
822 [label="x[0] <= 37.0\nentropy = 0.811\nsamples = 4\nvalue = [1, 3]"] ;
820 -> 822 ;
823 [label="entropy = 0.0\nsamples = 2\nvalue = [0, 2]"] ;
822 -> 823 ;
824 [label="entropy = 1.0\nsamples = 2\nvalue = [1, 1]"] ;
822 -> 824 ;
825 [label="x[4] <= 14.49\nentropy = 0.759\nsamples = 41\nvalue = [9, 32]"] ;
815 -> 825 ;
826 [label="x[19] <= 0.5\nentropy = 0.997\nsamples = 15\nvalue = [7, 8]"] ;
825 -> 826 ;
827 [label="entropy = 0.0\nsamples = 4\nvalue = [0, 4]"] ;
826 -> 827 ;
828 [label="x[2] <= 4.0\nentropy = 0.946\nsamples = 11\nvalue = [7, 4]"] ;
826 -> 828 ;
829 [label="x[0] <= 26.5\nentropy = 0.971\nsamples = 5\nvalue = [2, 3]"] ;
828 -> 829 ;
830 [label="entropy = 0.0\nsamples = 2\nvalue = [0, 2]"] ;
829 -> 830 ;
831 [label="entropy = 0.918\nsamples = 3\nvalue = [2, 1]"] ;
829 -> 831 ;
832 [label="x[5] <= 0.4\nentropy = 0.65\nsamples = 6\nvalue = [5, 1]"] ;
828 -> 832 ;
833 [label="entropy = 0.0\nsamples = 4\nvalue = [4, 0]"] ;
832 -> 833 ;
834 [label="entropy = 1.0\nsamples = 2\nvalue = [1, 1]"] ;
832 -> 834 ;
835 [label="x[6] <= 3.5\nentropy = 0.391\nsamples = 26\nvalue = [2, 24]"] ;
825 -> 835 ;
836 [label="x[3] <= 15125.0\nentropy = 0.764\nsamples = 9\nvalue = [2, 7]"] ;
835 -> 836 ;
837 [label="entropy = 0.0\nsamples = 6\nvalue = [0, 6]"] ;
836 -> 837 ;
838 [label="x[20] <= 0.5\nentropy = 0.918\nsamples = 3\nvalue = [2, 1]"] ;
836 -> 838 ;
839 [label="entropy = 0.0\nsamples = 2\nvalue = [2, 0]"] ;
838 -> 839 ;
840 [label="entropy = 0.0\nsamples = 1\nvalue = [0, 1]"] ;
838 -> 840 ;
841 [label="entropy = 0.0\nsamples = 17\nvalue = [0, 17]"] ;
835 -> 841 ;
842 [label="x[2] <= 19.5\nentropy = 0.414\nsamples = 72\nvalue = [66, 6]"] ;
802 -> 842 ;
843 [label="x[0] <= 27.5\nentropy = 0.367\nsamples = 71\nvalue = [66, 5]"] ;
842 -> 843 ;
844 [label="x[1] <= 62000.0\nentropy = 0.562\nsamples = 38\nvalue = [33, 5]"] ;
843 -> 844 ;
845 [label="x[4] <= 11.055\nentropy = 0.677\nsamples = 28\nvalue = [23, 5]"] ;
844 -> 845 ;
846 [label="x[2] <= 10.0\nentropy = 0.792\nsamples = 21\nvalue = [16, 5]"] ;
845 -> 846 ;
847 [label="x[4] <= 10.865\nentropy = 0.722\nsamples = 20\nvalue = [16, 4]"] ;
846 -> 847 ;
848 [label="entropy = 0.0\nsamples = 13\nvalue = [13, 0]"] ;
847 -> 848 ;
849 [label="entropy = 0.985\nsamples = 7\nvalue = [3, 4]"] ;
847 -> 849 ;
850 [label="entropy = 0.0\nsamples = 1\nvalue = [0, 1]"] ;
846 -> 850 ;
851 [label="entropy = 0.0\nsamples = 7\nvalue = [7, 0]"] ;
845 -> 851 ;
852 [label="entropy = 0.0\nsamples = 10\nvalue = [10, 0]"] ;
844 -> 852 ;
853 [label="entropy = 0.0\nsamples = 33\nvalue = [33, 0]"] ;
843 -> 853 ;
854 [label="entropy = 0.0\nsamples = 1\nvalue = [0, 1]"] ;
842 -> 854 ;
}