digraph Tree {
node [shape=box, fontname="helvetica"] ;
edge [fontname="helvetica"] ;
0 [label="x[4] <= 14.365\nentropy = 0.59\nsamples = 58645\nvalue = [50295, 8350]"] ;
1 [label="x[5] <= 0.305\nentropy = 0.444\nsamples = 51856\nvalue = [47076, 4780]"] ;
0 -> 1 [labeldistance=2.5, labelangle=45, headlabel="True"] ;
2 [label="x[1] <= 34999.5\nentropy = 0.272\nsamples = 48044\nvalue = [45801, 2243]"] ;
1 -> 2 ;
3 [label="x[13] <= 0.5\nentropy = 0.571\nsamples = 5140\nvalue = [4447, 693]"] ;
2 -> 3 ;
4 [label="x[4] <= 11.1\nentropy = 0.506\nsamples = 4878\nvalue = [4332, 546]"] ;
3 -> 4 ;
5 [label="x[15] <= 0.5\nentropy = 0.349\nsamples = 2684\nvalue = [2508, 176]"] ;
4 -> 5 ;
6 [label="x[10] <= 0.5\nentropy = 0.312\nsamples = 2212\nvalue = [2088, 124]"] ;
5 -> 6 ;
7 [label="x[0] <= 23.5\nentropy = 0.098\nsamples = 473\nvalue = [467, 6]"] ;
6 -> 7 ;
8 [label="entropy = 0.0\nsamples = 184\nvalue = [184, 0]"] ;
7 -> 8 ;
9 [label="x[5] <= 0.045\nentropy = 0.146\nsamples = 289\nvalue = [283, 6]"] ;
7 -> 9 ;
10 [label="x[4] <= 9.81\nentropy = 0.544\nsamples = 16\nvalue = [14, 2]"] ;
9 -> 10 ;
11 [label="entropy = 0.0\nsamples = 12\nvalue = [12, 0]"] ;
10 -> 11 ;
12 [label="entropy = 1.0\nsamples = 4\nvalue = [2, 2]"] ;
10 -> 12 ;
13 [label="x[12] <= 0.5\nentropy = 0.11\nsamples = 273\nvalue = [269, 4]"] ;
9 -> 13 ;
14 [label="entropy = 0.079\nsamples = 207\nvalue = [205, 2]"] ;
13 -> 14 ;
15 [label="entropy = 0.196\nsamples = 66\nvalue = [64, 2]"] ;
13 -> 15 ;
16 [label="x[1] <= 33998.0\nentropy = 0.358\nsamples = 1739\nvalue = [1621, 118]"] ;
6 -> 16 ;
17 [label="x[0] <= 46.5\nentropy = 0.325\nsamples = 1648\nvalue = [1550, 98]"] ;
16 -> 17 ;
18 [label="x[4] <= 8.89\nentropy = 0.316\nsamples = 1628\nvalue = [1535, 93]"] ;
17 -> 18 ;
19 [label="entropy = 0.242\nsamples = 852\nvalue = [818, 34]"] ;
18 -> 19 ;
20 [label="entropy = 0.388\nsamples = 776\nvalue = [717.0, 59.0]"] ;
18 -> 20 ;
21 [label="x[5] <= 0.09\nentropy = 0.811\nsamples = 20\nvalue = [15, 5]"] ;
17 -> 21 ;
22 [label="entropy = 0.0\nsamples = 2\nvalue = [0, 2]"] ;
21 -> 22 ;
23 [label="entropy = 0.65\nsamples = 18\nvalue = [15, 3]"] ;
21 -> 23 ;
24 [label="x[0] <= 24.5\nentropy = 0.76\nsamples = 91\nvalue = [71, 20]"] ;
16 -> 24 ;
25 [label="x[3] <= 9500.0\nentropy = 0.439\nsamples = 33\nvalue = [30, 3]"] ;
24 -> 25 ;
26 [label="entropy = 0.235\nsamples = 26\nvalue = [25, 1]"] ;
25 -> 26 ;
27 [label="entropy = 0.863\nsamples = 7\nvalue = [5, 2]"] ;
25 -> 27 ;
28 [label="x[5] <= 0.035\nentropy = 0.873\nsamples = 58\nvalue = [41, 17]"] ;
24 -> 28 ;
29 [label="entropy = 0.0\nsamples = 1\nvalue = [0, 1]"] ;
28 -> 29 ;
30 [label="entropy = 0.856\nsamples = 57\nvalue = [41, 16]"] ;
28 -> 30 ;
31 [label="x[1] <= 28900.0\nentropy = 0.5\nsamples = 472\nvalue = [420, 52]"] ;
5 -> 31 ;
32 [label="x[5] <= 0.095\nentropy = 0.313\nsamples = 177\nvalue = [167, 10]"] ;
31 -> 32 ;
33 [label="x[5] <= 0.045\nentropy = 0.722\nsamples = 25\nvalue = [20, 5]"] ;
32 -> 33 ;
34 [label="entropy = 0.0\nsamples = 5\nvalue = [5, 0]"] ;
33 -> 34 ;
35 [label="x[4] <= 6.395\nentropy = 0.811\nsamples = 20\nvalue = [15, 5]"] ;
33 -> 35 ;
36 [label="entropy = 0.0\nsamples = 3\nvalue = [3, 0]"] ;
35 -> 36 ;
37 [label="entropy = 0.874\nsamples = 17\nvalue = [12, 5]"] ;
35 -> 37 ;
38 [label="x[3] <= 3800.0\nentropy = 0.209\nsamples = 152\nvalue = [147, 5]"] ;
32 -> 38 ;
39 [label="entropy = 0.0\nsamples = 34\nvalue = [34, 0]"] ;
38 -> 39 ;
40 [label="x[1] <= 15702.0\nentropy = 0.253\nsamples = 118\nvalue = [113, 5]"] ;
38 -> 40 ;
41 [label="entropy = 0.0\nsamples = 1\nvalue = [0, 1]"] ;
40 -> 41 ;
42 [label="entropy = 0.215\nsamples = 117\nvalue = [113, 4]"] ;
40 -> 42 ;
43 [label="x[1] <= 29071.0\nentropy = 0.59\nsamples = 295\nvalue = [253, 42]"] ;
31 -> 43 ;
44 [label="x[3] <= 4500.0\nentropy = 0.98\nsamples = 12\nvalue = [5, 7]"] ;
43 -> 44 ;
45 [label="x[3] <= 2750.0\nentropy = 0.918\nsamples = 6\nvalue = [4, 2]"] ;
44 -> 45 ;
46 [label="entropy = 1.0\nsamples = 4\nvalue = [2, 2]"] ;
45 -> 46 ;
47 [label="entropy = 0.0\nsamples = 2\nvalue = [2, 0]"] ;
45 -> 47 ;
48 [label="x[5] <= 0.205\nentropy = 0.65\nsamples = 6\nvalue = [1, 5]"] ;
44 -> 48 ;
49 [label="entropy = 0.918\nsamples = 3\nvalue = [1, 2]"] ;
48 -> 49 ;
50 [label="entropy = 0.0\nsamples = 3\nvalue = [0, 3]"] ;
48 -> 50 ;
51 [label="x[3] <= 6950.0\nentropy = 0.54\nsamples = 283\nvalue = [248, 35]"] ;
43 -> 51 ;
52 [label="x[1] <= 33998.0\nentropy = 0.443\nsamples = 196\nvalue = [178, 18]"] ;
51 -> 52 ;
53 [label="entropy = 0.387\nsamples = 185\nvalue = [171, 14]"] ;
52 -> 53 ;
54 [label="entropy = 0.946\nsamples = 11\nvalue = [7, 4]"] ;
52 -> 54 ;
55 [label="x[4] <= 7.7\nentropy = 0.713\nsamples = 87\nvalue = [70, 17]"] ;
51 -> 55 ;
56 [label="entropy = 0.871\nsamples = 24\nvalue = [17, 7]"] ;
55 -> 56 ;
57 [label="entropy = 0.631\nsamples = 63\nvalue = [53, 10]"] ;
55 -> 57 ;
58 [label="x[1] <= 19984.0\nentropy = 0.655\nsamples = 2194\nvalue = [1824, 370]"] ;
4 -> 58 ;
59 [label="x[5] <= 0.155\nentropy = 0.997\nsamples = 144\nvalue = [67, 77]"] ;
58 -> 59 ;
60 [label="x[20] <= 0.5\nentropy = 0.555\nsamples = 62\nvalue = [54, 8]"] ;
59 -> 60 ;
61 [label="x[6] <= 2.5\nentropy = 0.514\nsamples = 61\nvalue = [54, 7]"] ;
60 -> 61 ;
62 [label="x[2] <= 1.5\nentropy = 0.787\nsamples = 17\nvalue = [13, 4]"] ;
61 -> 62 ;
63 [label="entropy = 0.619\nsamples = 13\nvalue = [11, 2]"] ;
62 -> 63 ;
64 [label="entropy = 1.0\nsamples = 4\nvalue = [2, 2]"] ;
62 -> 64 ;
65 [label="x[7] <= 0.5\nentropy = 0.359\nsamples = 44\nvalue = [41, 3]"] ;
61 -> 65 ;
66 [label="entropy = 0.276\nsamples = 42\nvalue = [40, 2]"] ;
65 -> 66 ;
67 [label="entropy = 1.0\nsamples = 2\nvalue = [1, 1]"] ;
65 -> 67 ;
68 [label="entropy = 0.0\nsamples = 1\nvalue = [0, 1]"] ;
60 -> 68 ;
69 [label="x[5] <= 0.285\nentropy = 0.631\nsamples = 82\nvalue = [13, 69]"] ;
59 -> 69 ;
70 [label="x[10] <= 0.5\nentropy = 0.552\nsamples = 78\nvalue = [10, 68]"] ;
69 -> 70 ;
71 [label="x[3] <= 3125.0\nentropy = 0.65\nsamples = 6\nvalue = [5, 1]"] ;
70 -> 71 ;
72 [label="entropy = 1.0\nsamples = 2\nvalue = [1, 1]"] ;
71 -> 72 ;
73 [label="entropy = 0.0\nsamples = 4\nvalue = [4, 0]"] ;
71 -> 73 ;
74 [label="x[0] <= 37.5\nentropy = 0.364\nsamples = 72\nvalue = [5, 67]"] ;
70 -> 74 ;
75 [label="entropy = 0.261\nsamples = 68\nvalue = [3, 65]"] ;
74 -> 75 ;
76 [label="entropy = 1.0\nsamples = 4\nvalue = [2, 2]"] ;
74 -> 76 ;
77 [label="x[19] <= 0.5\nentropy = 0.811\nsamples = 4\nvalue = [3, 1]"] ;
69 -> 77 ;
78 [label="entropy = 0.0\nsamples = 2\nvalue = [2, 0]"] ;
77 -> 78 ;
79 [label="x[25] <= 0.5\nentropy = 1.0\nsamples = 2\nvalue = [1, 1]"] ;
77 -> 79 ;
80 [label="entropy = 0.0\nsamples = 1\nvalue = [0, 1]"] ;
79 -> 80 ;
81 [label="entropy = 0.0\nsamples = 1\nvalue = [1, 0]"] ;
79 -> 81 ;
82 [label="x[1] <= 33924.0\nentropy = 0.592\nsamples = 2050\nvalue = [1757, 293]"] ;
58 -> 82 ;
83 [label="x[9] <= 0.5\nentropy = 0.525\nsamples = 1881\nvalue = [1658, 223]"] ;
82 -> 83 ;
84 [label="x[4] <= 13.985\nentropy = 0.554\nsamples = 1731\nvalue = [1508.0, 223.0]"] ;
83 -> 84 ;
85 [label="x[20] <= 0.5\nentropy = 0.521\nsamples = 1553\nvalue = [1371, 182]"] ;
84 -> 85 ;
86 [label="entropy = 0.509\nsamples = 1539\nvalue = [1365, 174]"] ;
85 -> 86 ;
87 [label="entropy = 0.985\nsamples = 14\nvalue = [6, 8]"] ;
85 -> 87 ;
88 [label="x[19] <= 0.5\nentropy = 0.779\nsamples = 178\nvalue = [137, 41]"] ;
84 -> 88 ;
89 [label="entropy = 0.25\nsamples = 24\nvalue = [1, 23]"] ;
88 -> 89 ;
90 [label="entropy = 0.52\nsamples = 154\nvalue = [136, 18]"] ;
88 -> 90 ;
91 [label="entropy = 0.0\nsamples = 150\nvalue = [150, 0]"] ;
83 -> 91 ;
92 [label="x[4] <= 13.915\nentropy = 0.979\nsamples = 169\nvalue = [99, 70]"] ;
82 -> 92 ;
93 [label="x[4] <= 11.645\nentropy = 0.939\nsamples = 146\nvalue = [94, 52]"] ;
92 -> 93 ;
94 [label="x[0] <= 25.5\nentropy = 0.523\nsamples = 17\nvalue = [15, 2]"] ;
93 -> 94 ;
95 [label="entropy = 0.722\nsamples = 10\nvalue = [8, 2]"] ;
94 -> 95 ;
96 [label="entropy = 0.0\nsamples = 7\nvalue = [7, 0]"] ;
94 -> 96 ;
97 [label="x[4] <= 13.025\nentropy = 0.963\nsamples = 129\nvalue = [79, 50]"] ;
93 -> 97 ;
98 [label="entropy = 0.996\nsamples = 80\nvalue = [43, 37]"] ;
97 -> 98 ;
99 [label="entropy = 0.835\nsamples = 49\nvalue = [36, 13]"] ;
97 -> 99 ;
100 [label="x[5] <= 0.17\nentropy = 0.755\nsamples = 23\nvalue = [5, 18]"] ;
92 -> 100 ;
101 [label="x[6] <= 7.5\nentropy = 0.94\nsamples = 14\nvalue = [5, 9]"] ;
100 -> 101 ;
102 [label="entropy = 1.0\nsamples = 10\nvalue = [5, 5]"] ;
101 -> 102 ;
103 [label="entropy = 0.0\nsamples = 4\nvalue = [0, 4]"] ;
101 -> 103 ;
104 [label="entropy = 0.0\nsamples = 9\nvalue = [0, 9]"] ;
100 -> 104 ;
105 [label="x[7] <= 0.5\nentropy = 0.989\nsamples = 262\nvalue = [115, 147]"] ;
3 -> 105 ;
106 [label="x[19] <= 0.5\nentropy = 0.902\nsamples = 189\nvalue = [60, 129]"] ;
105 -> 106 ;
107 [label="x[6] <= 2.5\nentropy = 0.982\nsamples = 126\nvalue = [53, 73]"] ;
106 -> 107 ;
108 [label="x[10] <= 0.5\nentropy = 0.503\nsamples = 18\nvalue = [2, 16]"] ;
107 -> 108 ;
109 [label="entropy = 0.0\nsamples = 1\nvalue = [1, 0]"] ;
108 -> 109 ;
110 [label="x[0] <= 23.5\nentropy = 0.323\nsamples = 17\nvalue = [1, 16]"] ;
108 -> 110 ;
111 [label="entropy = 0.0\nsamples = 9\nvalue = [0, 9]"] ;
110 -> 111 ;
112 [label="x[4] <= 12.61\nentropy = 0.544\nsamples = 8\nvalue = [1, 7]"] ;
110 -> 112 ;
113 [label="entropy = 0.0\nsamples = 7\nvalue = [0, 7]"] ;
112 -> 113 ;
114 [label="entropy = 0.0\nsamples = 1\nvalue = [1, 0]"] ;
112 -> 114 ;
115 [label="x[10] <= 0.5\nentropy = 0.998\nsamples = 108\nvalue = [51, 57]"] ;
107 -> 115 ;
116 [label="x[4] <= 11.065\nentropy = 0.201\nsamples = 32\nvalue = [31, 1]"] ;
115 -> 116 ;
117 [label="entropy = 0.0\nsamples = 27\nvalue = [27, 0]"] ;
116 -> 117 ;
118 [label="x[3] <= 4000.0\nentropy = 0.722\nsamples = 5\nvalue = [4, 1]"] ;
116 -> 118 ;
119 [label="entropy = 0.0\nsamples = 1\nvalue = [0, 1]"] ;
118 -> 119 ;
120 [label="entropy = 0.0\nsamples = 4\nvalue = [4, 0]"] ;
118 -> 120 ;
121 [label="x[2] <= 12.0\nentropy = 0.831\nsamples = 76\nvalue = [20, 56]"] ;
115 -> 121 ;
122 [label="x[17] <= 0.5\nentropy = 0.8\nsamples = 74\nvalue = [18, 56]"] ;
121 -> 122 ;
123 [label="entropy = 0.592\nsamples = 42\nvalue = [6, 36]"] ;
122 -> 123 ;
124 [label="entropy = 0.954\nsamples = 32\nvalue = [12, 20]"] ;
122 -> 124 ;
125 [label="entropy = 0.0\nsamples = 2\nvalue = [2, 0]"] ;
121 -> 125 ;
126 [label="x[9] <= 0.5\nentropy = 0.503\nsamples = 63\nvalue = [7, 56]"] ;
106 -> 126 ;
127 [label="x[4] <= 13.485\nentropy = 0.219\nsamples = 57\nvalue = [2, 55]"] ;
126 -> 127 ;
128 [label="entropy = 0.0\nsamples = 28\nvalue = [0, 28]"] ;
127 -> 128 ;
129 [label="x[5] <= 0.225\nentropy = 0.362\nsamples = 29\nvalue = [2, 27]"] ;
127 -> 129 ;
130 [label="entropy = 0.0\nsamples = 21\nvalue = [0, 21]"] ;
129 -> 130 ;
131 [label="x[5] <= 0.235\nentropy = 0.811\nsamples = 8\nvalue = [2, 6]"] ;
129 -> 131 ;
132 [label="entropy = 0.0\nsamples = 1\nvalue = [1, 0]"] ;
131 -> 132 ;
133 [label="entropy = 0.592\nsamples = 7\nvalue = [1, 6]"] ;
131 -> 133 ;
134 [label="x[2] <= 0.5\nentropy = 0.65\nsamples = 6\nvalue = [5, 1]"] ;
126 -> 134 ;
135 [label="x[5] <= 0.215\nentropy = 1.0\nsamples = 2\nvalue = [1, 1]"] ;
134 -> 135 ;
136 [label="entropy = 0.0\nsamples = 1\nvalue = [1, 0]"] ;
135 -> 136 ;
137 [label="entropy = 0.0\nsamples = 1\nvalue = [0, 1]"] ;
135 -> 137 ;
138 [label="entropy = 0.0\nsamples = 4\nvalue = [4, 0]"] ;
134 -> 138 ;
139 [label="x[3] <= 9800.0\nentropy = 0.806\nsamples = 73\nvalue = [55, 18]"] ;
105 -> 139 ;
140 [label="x[1] <= 33995.0\nentropy = 0.77\nsamples = 71\nvalue = [55, 16]"] ;
139 -> 140 ;
141 [label="x[2] <= 0.5\nentropy = 0.722\nsamples = 65\nvalue = [52, 13]"] ;
140 -> 141 ;
142 [label="x[1] <= 26900.0\nentropy = 1.0\nsamples = 12\nvalue = [6, 6]"] ;
141 -> 142 ;
143 [label="entropy = 0.0\nsamples = 2\nvalue = [0, 2]"] ;
142 -> 143 ;
144 [label="x[3] <= 4150.0\nentropy = 0.971\nsamples = 10\nvalue = [6, 4]"] ;
142 -> 144 ;
145 [label="entropy = 0.722\nsamples = 5\nvalue = [1, 4]"] ;
144 -> 145 ;
146 [label="entropy = 0.0\nsamples = 5\nvalue = [5, 0]"] ;
144 -> 146 ;
147 [label="x[1] <= 30498.0\nentropy = 0.563\nsamples = 53\nvalue = [46, 7]"] ;
141 -> 147 ;
148 [label="x[3] <= 7500.0\nentropy = 0.711\nsamples = 36\nvalue = [29, 7]"] ;
147 -> 148 ;
149 [label="entropy = 0.614\nsamples = 33\nvalue = [28, 5]"] ;
148 -> 149 ;
150 [label="entropy = 0.918\nsamples = 3\nvalue = [1, 2]"] ;
148 -> 150 ;
151 [label="entropy = 0.0\nsamples = 17\nvalue = [17, 0]"] ;
147 -> 151 ;
152 [label="x[25] <= 0.5\nentropy = 1.0\nsamples = 6\nvalue = [3, 3]"] ;
140 -> 152 ;
153 [label="x[2] <= 4.0\nentropy = 0.918\nsamples = 3\nvalue = [1, 2]"] ;
152 -> 153 ;
154 [label="entropy = 0.0\nsamples = 1\nvalue = [1, 0]"] ;
153 -> 154 ;
155 [label="entropy = 0.0\nsamples = 2\nvalue = [0, 2]"] ;
153 -> 155 ;
156 [label="x[2] <= 1.5\nentropy = 0.918\nsamples = 3\nvalue = [2, 1]"] ;
152 -> 156 ;
157 [label="entropy = 0.0\nsamples = 1\nvalue = [0, 1]"] ;
156 -> 157 ;
158 [label="entropy = 0.0\nsamples = 2\nvalue = [2, 0]"] ;
156 -> 158 ;
159 [label="entropy = 0.0\nsamples = 2\nvalue = [0, 2]"] ;
139 -> 159 ;
160 [label="x[19] <= 0.5\nentropy = 0.224\nsamples = 42904\nvalue = [41354.0, 1550.0]"] ;
2 -> 160 ;
161 [label="x[20] <= 0.5\nentropy = 0.197\nsamples = 35006\nvalue = [33935, 1071]"] ;
160 -> 161 ;
162 [label="x[4] <= 7.89\nentropy = 0.173\nsamples = 34676\nvalue = [33782, 894]"] ;
161 -> 162 ;
163 [label="x[10] <= 0.5\nentropy = 0.099\nsamples = 14051\nvalue = [13871, 180]"] ;
162 -> 163 ;
164 [label="x[0] <= 21.5\nentropy = 0.071\nsamples = 9587\nvalue = [9505, 82]"] ;
163 -> 164 ;
165 [label="entropy = 0.0\nsamples = 208\nvalue = [208, 0]"] ;
164 -> 165 ;
166 [label="x[1] <= 86190.0\nentropy = 0.072\nsamples = 9379\nvalue = [9297.0, 82.0]"] ;
164 -> 166 ;
167 [label="x[3] <= 3562.5\nentropy = 0.084\nsamples = 6864\nvalue = [6792, 72]"] ;
166 -> 167 ;
168 [label="entropy = 0.052\nsamples = 853\nvalue = [848, 5]"] ;
167 -> 168 ;
169 [label="entropy = 0.088\nsamples = 6011\nvalue = [5944, 67]"] ;
167 -> 169 ;
170 [label="x[3] <= 1650.0\nentropy = 0.037\nsamples = 2515\nvalue = [2505.0, 10.0]"] ;
166 -> 170 ;
171 [label="entropy = 0.503\nsamples = 18\nvalue = [16, 2]"] ;
170 -> 171 ;
172 [label="entropy = 0.031\nsamples = 2497\nvalue = [2489, 8]"] ;
170 -> 172 ;
173 [label="x[13] <= 0.5\nentropy = 0.152\nsamples = 4464\nvalue = [4366, 98]"] ;
163 -> 173 ;
174 [label="x[5] <= 0.225\nentropy = 0.132\nsamples = 4077\nvalue = [4002, 75]"] ;
173 -> 174 ;
175 [label="x[16] <= 0.5\nentropy = 0.109\nsamples = 3538\nvalue = [3487, 51]"] ;
174 -> 175 ;
176 [label="entropy = 0.124\nsamples = 2904\nvalue = [2855, 49]"] ;
175 -> 176 ;
177 [label="entropy = 0.031\nsamples = 634\nvalue = [632, 2]"] ;
175 -> 177 ;
178 [label="x[0] <= 32.5\nentropy = 0.263\nsamples = 539\nvalue = [515, 24]"] ;
174 -> 178 ;
179 [label="entropy = 0.227\nsamples = 462\nvalue = [445, 17]"] ;
178 -> 179 ;
180 [label="entropy = 0.439\nsamples = 77\nvalue = [70, 7]"] ;
178 -> 180 ;
181 [label="x[1] <= 49500.0\nentropy = 0.325\nsamples = 387\nvalue = [364, 23]"] ;
173 -> 181 ;
182 [label="x[3] <= 6325.0\nentropy = 0.949\nsamples = 19\nvalue = [7, 12]"] ;
181 -> 182 ;
183 [label="entropy = 0.994\nsamples = 11\nvalue = [6, 5]"] ;
182 -> 183 ;
184 [label="entropy = 0.544\nsamples = 8\nvalue = [1, 7]"] ;
182 -> 184 ;
185 [label="x[0] <= 23.0\nentropy = 0.194\nsamples = 368\nvalue = [357, 11]"] ;
181 -> 185 ;
186 [label="entropy = 0.0\nsamples = 2\nvalue = [0, 2]"] ;
185 -> 186 ;
187 [label="entropy = 0.166\nsamples = 366\nvalue = [357, 9]"] ;
185 -> 187 ;
188 [label="x[1] <= 59510.0\nentropy = 0.217\nsamples = 20625\nvalue = [19911, 714]"] ;
162 -> 188 ;
189 [label="x[13] <= 0.5\nentropy = 0.287\nsamples = 8463\nvalue = [8038, 425]"] ;
188 -> 189 ;
190 [label="x[10] <= 0.5\nentropy = 0.256\nsamples = 7869\nvalue = [7531, 338]"] ;
189 -> 190 ;
191 [label="x[1] <= 58588.5\nentropy = 0.199\nsamples = 2691\nvalue = [2608, 83]"] ;
190 -> 191 ;
192 [label="entropy = 0.182\nsamples = 2648\nvalue = [2575, 73]"] ;
191 -> 192 ;
193 [label="entropy = 0.782\nsamples = 43\nvalue = [33, 10]"] ;
191 -> 193 ;
194 [label="x[1] <= 58629.0\nentropy = 0.283\nsamples = 5178\nvalue = [4923, 255]"] ;
190 -> 194 ;
195 [label="entropy = 0.273\nsamples = 5133\nvalue = [4892, 241]"] ;
194 -> 195 ;
196 [label="entropy = 0.894\nsamples = 45\nvalue = [31, 14]"] ;
194 -> 196 ;
197 [label="x[0] <= 23.5\nentropy = 0.601\nsamples = 594\nvalue = [507.0, 87.0]"] ;
189 -> 197 ;
198 [label="x[10] <= 0.5\nentropy = 0.414\nsamples = 12\nvalue = [1, 11]"] ;
197 -> 198 ;
199 [label="entropy = 0.918\nsamples = 3\nvalue = [1, 2]"] ;
198 -> 199 ;
200 [label="entropy = 0.0\nsamples = 9\nvalue = [0, 9]"] ;
198 -> 200 ;
201 [label="x[1] <= 44700.0\nentropy = 0.559\nsamples = 582\nvalue = [506, 76]"] ;
197 -> 201 ;
202 [label="entropy = 0.859\nsamples = 124\nvalue = [89, 35]"] ;
201 -> 202 ;
203 [label="entropy = 0.435\nsamples = 458\nvalue = [417, 41]"] ;
201 -> 203 ;
204 [label="x[16] <= 0.5\nentropy = 0.162\nsamples = 12162\nvalue = [11873, 289]"] ;
188 -> 204 ;
205 [label="x[1] <= 88027.5\nentropy = 0.181\nsamples = 10047\nvalue = [9772, 275]"] ;
204 -> 205 ;
206 [label="x[5] <= 0.255\nentropy = 0.219\nsamples = 6338\nvalue = [6116.0, 222.0]"] ;
205 -> 206 ;
207 [label="entropy = 0.203\nsamples = 5971\nvalue = [5781.0, 190.0]"] ;
206 -> 207 ;
208 [label="entropy = 0.427\nsamples = 367\nvalue = [335, 32]"] ;
206 -> 208 ;
209 [label="x[5] <= 0.205\nentropy = 0.108\nsamples = 3709\nvalue = [3656, 53]"] ;
205 -> 209 ;
210 [label="entropy = 0.085\nsamples = 3369\nvalue = [3333, 36]"] ;
209 -> 210 ;
211 [label="entropy = 0.286\nsamples = 340\nvalue = [323, 17]"] ;
209 -> 211 ;
212 [label="x[5] <= 0.185\nentropy = 0.057\nsamples = 2115\nvalue = [2101, 14]"] ;
204 -> 212 ;
213 [label="x[7] <= 0.5\nentropy = 0.03\nsamples = 1648\nvalue = [1643, 5]"] ;
212 -> 213 ;
214 [label="entropy = 0.058\nsamples = 742\nvalue = [737, 5]"] ;
213 -> 214 ;
215 [label="entropy = 0.0\nsamples = 906\nvalue = [906, 0]"] ;
213 -> 215 ;
216 [label="x[1] <= 107500.0\nentropy = 0.137\nsamples = 467\nvalue = [458, 9]"] ;
212 -> 216 ;
217 [label="entropy = 0.061\nsamples = 420\nvalue = [417, 3]"] ;
216 -> 217 ;
218 [label="entropy = 0.551\nsamples = 47\nvalue = [41.0, 6.0]"] ;
216 -> 218 ;
219 [label="x[2] <= 2.5\nentropy = 0.996\nsamples = 330\nvalue = [153, 177]"] ;
161 -> 219 ;
220 [label="x[10] <= 0.5\nentropy = 0.802\nsamples = 131\nvalue = [32, 99]"] ;
219 -> 220 ;
221 [label="x[9] <= 0.5\nentropy = 0.998\nsamples = 40\nvalue = [21, 19]"] ;
220 -> 221 ;
222 [label="x[0] <= 28.5\nentropy = 0.983\nsamples = 33\nvalue = [14, 19]"] ;
221 -> 222 ;
223 [label="x[14] <= 0.5\nentropy = 0.811\nsamples = 20\nvalue = [5, 15]"] ;
222 -> 223 ;
224 [label="entropy = 0.94\nsamples = 14\nvalue = [5, 9]"] ;
223 -> 224 ;
225 [label="entropy = 0.0\nsamples = 6\nvalue = [0, 6]"] ;
223 -> 225 ;
226 [label="x[3] <= 11000.0\nentropy = 0.89\nsamples = 13\nvalue = [9, 4]"] ;
222 -> 226 ;
227 [label="entropy = 0.503\nsamples = 9\nvalue = [8, 1]"] ;
226 -> 227 ;
228 [label="entropy = 0.811\nsamples = 4\nvalue = [1, 3]"] ;
226 -> 228 ;
229 [label="entropy = 0.0\nsamples = 7\nvalue = [7, 0]"] ;
221 -> 229 ;
230 [label="x[1] <= 79500.0\nentropy = 0.532\nsamples = 91\nvalue = [11, 80]"] ;
220 -> 230 ;
231 [label="x[11] <= 0.5\nentropy = 0.378\nsamples = 82\nvalue = [6, 76]"] ;
230 -> 231 ;
232 [label="x[6] <= 11.0\nentropy = 0.273\nsamples = 64\nvalue = [3, 61]"] ;
231 -> 232 ;
233 [label="entropy = 0.129\nsamples = 56\nvalue = [1, 55]"] ;
232 -> 233 ;
234 [label="entropy = 0.811\nsamples = 8\nvalue = [2, 6]"] ;
232 -> 234 ;
235 [label="x[6] <= 4.5\nentropy = 0.65\nsamples = 18\nvalue = [3, 15]"] ;
231 -> 235 ;
236 [label="entropy = 0.918\nsamples = 9\nvalue = [3, 6]"] ;
235 -> 236 ;
237 [label="entropy = 0.0\nsamples = 9\nvalue = [0, 9]"] ;
235 -> 237 ;
238 [label="x[3] <= 20500.0\nentropy = 0.991\nsamples = 9\nvalue = [5, 4]"] ;
230 -> 238 ;
239 [label="x[15] <= 0.5\nentropy = 0.918\nsamples = 6\nvalue = [2, 4]"] ;
238 -> 239 ;
240 [label="entropy = 0.722\nsamples = 5\nvalue = [1, 4]"] ;
239 -> 240 ;
241 [label="entropy = 0.0\nsamples = 1\nvalue = [1, 0]"] ;
239 -> 241 ;
242 [label="entropy = 0.0\nsamples = 3\nvalue = [3, 0]"] ;
238 -> 242 ;
243 [label="x[11] <= 0.5\nentropy = 0.966\nsamples = 199\nvalue = [121, 78]"] ;
219 -> 243 ;
244 [label="x[1] <= 59737.5\nentropy = 0.848\nsamples = 164\nvalue = [119, 45]"] ;
243 -> 244 ;
245 [label="x[14] <= 0.5\nentropy = 0.987\nsamples = 74\nvalue = [42, 32]"] ;
244 -> 245 ;
246 [label="x[3] <= 16687.5\nentropy = 0.811\nsamples = 48\nvalue = [36, 12]"] ;
245 -> 246 ;
247 [label="entropy = 0.785\nsamples = 47\nvalue = [36, 11]"] ;
246 -> 247 ;
248 [label="entropy = 0.0\nsamples = 1\nvalue = [0, 1]"] ;
246 -> 248 ;
249 [label="x[9] <= 0.5\nentropy = 0.779\nsamples = 26\nvalue = [6, 20]"] ;
245 -> 249 ;
250 [label="entropy = 0.722\nsamples = 25\nvalue = [5, 20]"] ;
249 -> 250 ;
251 [label="entropy = 0.0\nsamples = 1\nvalue = [1, 0]"] ;
249 -> 251 ;
252 [label="x[1] <= 102400.0\nentropy = 0.596\nsamples = 90\nvalue = [77.0, 13.0]"] ;
244 -> 252 ;
253 [label="x[14] <= 0.5\nentropy = 0.698\nsamples = 69\nvalue = [56, 13]"] ;
252 -> 253 ;
254 [label="entropy = 0.419\nsamples = 59\nvalue = [54, 5]"] ;
253 -> 254 ;
255 [label="entropy = 0.722\nsamples = 10\nvalue = [2, 8]"] ;
253 -> 255 ;
256 [label="entropy = 0.0\nsamples = 21\nvalue = [21, 0]"] ;
252 -> 256 ;
257 [label="x[9] <= 0.5\nentropy = 0.316\nsamples = 35\nvalue = [2, 33]"] ;
243 -> 257 ;
258 [label="x[3] <= 4500.0\nentropy = 0.191\nsamples = 34\nvalue = [1, 33]"] ;
257 -> 258 ;
259 [label="x[1] <= 52340.0\nentropy = 0.811\nsamples = 4\nvalue = [1, 3]"] ;
258 -> 259 ;
260 [label="entropy = 0.0\nsamples = 3\nvalue = [0, 3]"] ;
259 -> 260 ;
261 [label="entropy = 0.0\nsamples = 1\nvalue = [1, 0]"] ;
259 -> 261 ;
262 [label="entropy = 0.0\nsamples = 30\nvalue = [0, 30]"] ;
258 -> 262 ;
263 [label="entropy = 0.0\nsamples = 1\nvalue = [1, 0]"] ;
257 -> 263 ;
264 [label="x[9] <= 0.5\nentropy = 0.33\nsamples = 7898\nvalue = [7419, 479]"] ;
160 -> 264 ;
265 [label="x[13] <= 0.5\nentropy = 0.341\nsamples = 7525\nvalue = [7047, 478]"] ;
264 -> 265 ;
266 [label="x[10] <= 0.5\nentropy = 0.317\nsamples = 6645\nvalue = [6264, 381]"] ;
265 -> 266 ;
267 [label="x[16] <= 0.5\nentropy = 0.361\nsamples = 2389\nvalue = [2225, 164]"] ;
266 -> 267 ;
268 [label="x[5] <= 0.175\nentropy = 0.395\nsamples = 1938\nvalue = [1787, 151]"] ;
267 -> 268 ;
269 [label="x[1] <= 74954.5\nentropy = 0.354\nsamples = 1404\nvalue = [1310, 94]"] ;
268 -> 269 ;
270 [label="entropy = 0.479\nsamples = 728\nvalue = [653, 75]"] ;
269 -> 270 ;
271 [label="entropy = 0.185\nsamples = 676\nvalue = [657, 19]"] ;
269 -> 271 ;
272 [label="x[5] <= 0.295\nentropy = 0.49\nsamples = 534\nvalue = [477, 57]"] ;
268 -> 272 ;
273 [label="entropy = 0.5\nsamples = 518\nvalue = [461, 57]"] ;
272 -> 273 ;
274 [label="entropy = 0.0\nsamples = 16\nvalue = [16, 0]"] ;
272 -> 274 ;
275 [label="x[0] <= 36.5\nentropy = 0.188\nsamples = 451\nvalue = [438, 13]"] ;
267 -> 275 ;
276 [label="x[4] <= 13.53\nentropy = 0.203\nsamples = 411\nvalue = [398.0, 13.0]"] ;
275 -> 276 ;
277 [label="entropy = 0.112\nsamples = 267\nvalue = [263, 4]"] ;
276 -> 277 ;
278 [label="entropy = 0.337\nsamples = 144\nvalue = [135, 9]"] ;
276 -> 278 ;
279 [label="entropy = 0.0\nsamples = 40\nvalue = [40, 0]"] ;
275 -> 279 ;
280 [label="x[15] <= 0.5\nentropy = 0.291\nsamples = 4256\nvalue = [4039, 217]"] ;
266 -> 280 ;
281 [label="x[3] <= 15950.0\nentropy = 0.277\nsamples = 3532\nvalue = [3363, 169]"] ;
280 -> 281 ;
282 [label="x[1] <= 59100.0\nentropy = 0.264\nsamples = 3328\nvalue = [3179, 149]"] ;
281 -> 282 ;
283 [label="entropy = 0.321\nsamples = 2052\nvalue = [1932, 120]"] ;
282 -> 283 ;
284 [label="entropy = 0.156\nsamples = 1276\nvalue = [1247, 29]"] ;
282 -> 284 ;
285 [label="x[1] <= 59128.0\nentropy = 0.463\nsamples = 204\nvalue = [184, 20]"] ;
281 -> 285 ;
286 [label="entropy = 0.994\nsamples = 11\nvalue = [5, 6]"] ;
285 -> 286 ;
287 [label="entropy = 0.375\nsamples = 193\nvalue = [179.0, 14.0]"] ;
285 -> 287 ;
288 [label="x[5] <= 0.205\nentropy = 0.352\nsamples = 724\nvalue = [676, 48]"] ;
280 -> 288 ;
289 [label="x[1] <= 44070.0\nentropy = 0.293\nsamples = 563\nvalue = [534, 29]"] ;
288 -> 289 ;
290 [label="entropy = 0.568\nsamples = 112\nvalue = [97, 15]"] ;
289 -> 290 ;
291 [label="entropy = 0.2\nsamples = 451\nvalue = [437, 14]"] ;
289 -> 291 ;
292 [label="x[1] <= 54500.0\nentropy = 0.524\nsamples = 161\nvalue = [142, 19]"] ;
288 -> 292 ;
293 [label="entropy = 0.621\nsamples = 110\nvalue = [93, 17]"] ;
292 -> 293 ;
294 [label="entropy = 0.239\nsamples = 51\nvalue = [49, 2]"] ;
292 -> 294 ;
295 [label="x[0] <= 23.5\nentropy = 0.501\nsamples = 880\nvalue = [783, 97]"] ;
265 -> 295 ;
296 [label="x[3] <= 7750.0\nentropy = 0.414\nsamples = 24\nvalue = [2, 22]"] ;
295 -> 296 ;
297 [label="x[3] <= 7250.0\nentropy = 0.592\nsamples = 14\nvalue = [2, 12]"] ;
296 -> 297 ;
298 [label="x[4] <= 12.605\nentropy = 0.391\nsamples = 13\nvalue = [1, 12]"] ;
297 -> 298 ;
299 [label="entropy = 0.0\nsamples = 1\nvalue = [1, 0]"] ;
298 -> 299 ;
300 [label="entropy = 0.0\nsamples = 12\nvalue = [0, 12]"] ;
298 -> 300 ;
301 [label="entropy = 0.0\nsamples = 1\nvalue = [1, 0]"] ;
297 -> 301 ;
302 [label="entropy = 0.0\nsamples = 10\nvalue = [0, 10]"] ;
296 -> 302 ;
303 [label="x[5] <= 0.295\nentropy = 0.428\nsamples = 856\nvalue = [781, 75]"] ;
295 -> 303 ;
304 [label="x[1] <= 59274.0\nentropy = 0.417\nsamples = 844\nvalue = [773, 71]"] ;
303 -> 304 ;
305 [label="x[1] <= 49681.0\nentropy = 0.709\nsamples = 243\nvalue = [196, 47]"] ;
304 -> 305 ;
306 [label="entropy = 0.9\nsamples = 76\nvalue = [52, 24]"] ;
305 -> 306 ;
307 [label="entropy = 0.578\nsamples = 167\nvalue = [144, 23]"] ;
305 -> 307 ;
308 [label="x[1] <= 98678.0\nentropy = 0.242\nsamples = 601\nvalue = [577, 24]"] ;
304 -> 308 ;
309 [label="entropy = 0.31\nsamples = 413\nvalue = [390, 23]"] ;
308 -> 309 ;
310 [label="entropy = 0.048\nsamples = 188\nvalue = [187, 1]"] ;
308 -> 310 ;
311 [label="x[2] <= 5.5\nentropy = 0.918\nsamples = 12\nvalue = [8, 4]"] ;
303 -> 311 ;
312 [label="x[1] <= 60000.0\nentropy = 0.918\nsamples = 6\nvalue = [2, 4]"] ;
311 -> 312 ;
313 [label="entropy = 0.0\nsamples = 3\nvalue = [0, 3]"] ;
312 -> 313 ;
314 [label="entropy = 0.918\nsamples = 3\nvalue = [2, 1]"] ;
312 -> 314 ;
315 [label="entropy = 0.0\nsamples = 6\nvalue = [6, 0]"] ;
311 -> 315 ;
316 [label="x[0] <= 25.5\nentropy = 0.027\nsamples = 373\nvalue = [372, 1]"] ;
264 -> 316 ;
317 [label="x[1] <= 39500.0\nentropy = 0.055\nsamples = 159\nvalue = [158, 1]"] ;
316 -> 317 ;
318 [label="x[1] <= 38700.0\nentropy = 0.242\nsamples = 25\nvalue = [24, 1]"] ;
317 -> 318 ;
319 [label="entropy = 0.0\nsamples = 24\nvalue = [24, 0]"] ;
318 -> 319 ;
320 [label="entropy = 0.0\nsamples = 1\nvalue = [0, 1]"] ;
318 -> 320 ;
321 [label="entropy = 0.0\nsamples = 134\nvalue = [134, 0]"] ;
317 -> 321 ;
322 [label="entropy = 0.0\nsamples = 214\nvalue = [214, 0]"] ;
316 -> 322 ;
323 [label="x[2] <= 4.5\nentropy = 0.919\nsamples = 3812\nvalue = [1275, 2537]"] ;
1 -> 323 ;
324 [label="x[10] <= 0.5\nentropy = 0.831\nsamples = 2297\nvalue = [603, 1694]"] ;
323 -> 324 ;
325 [label="x[9] <= 0.5\nentropy = 0.461\nsamples = 574\nvalue = [518, 56]"] ;
324 -> 325 ;
326 [label="x[2] <= 3.5\nentropy = 0.539\nsamples = 405\nvalue = [355, 50]"] ;
325 -> 326 ;
327 [label="x[25] <= 0.5\nentropy = 0.593\nsamples = 314\nvalue = [269, 45]"] ;
326 -> 327 ;
328 [label="x[4] <= 10.375\nentropy = 0.552\nsamples = 281\nvalue = [245, 36]"] ;
327 -> 328 ;
329 [label="x[3] <= 16375.0\nentropy = 0.222\nsamples = 140\nvalue = [135, 5]"] ;
328 -> 329 ;
330 [label="x[1] <= 50800.0\nentropy = 0.334\nsamples = 81\nvalue = [76, 5]"] ;
329 -> 330 ;
331 [label="entropy = 0.286\nsamples = 80\nvalue = [76, 4]"] ;
330 -> 331 ;
332 [label="entropy = 0.0\nsamples = 1\nvalue = [0, 1]"] ;
330 -> 332 ;
333 [label="entropy = 0.0\nsamples = 59\nvalue = [59, 0]"] ;
329 -> 333 ;
334 [label="x[18] <= 0.5\nentropy = 0.76\nsamples = 141\nvalue = [110, 31]"] ;
328 -> 334 ;
335 [label="x[1] <= 74284.0\nentropy = 0.96\nsamples = 34\nvalue = [21, 13]"] ;
334 -> 335 ;
336 [label="entropy = 0.981\nsamples = 31\nvalue = [18, 13]"] ;
335 -> 336 ;
337 [label="entropy = 0.0\nsamples = 3\nvalue = [3, 0]"] ;
335 -> 337 ;
338 [label="x[3] <= 15500.0\nentropy = 0.654\nsamples = 107\nvalue = [89, 18]"] ;
334 -> 338 ;
339 [label="entropy = 0.845\nsamples = 44\nvalue = [32, 12]"] ;
338 -> 339 ;
340 [label="entropy = 0.454\nsamples = 63\nvalue = [57, 6]"] ;
338 -> 340 ;
341 [label="x[2] <= 2.5\nentropy = 0.845\nsamples = 33\nvalue = [24, 9]"] ;
327 -> 341 ;
342 [label="x[4] <= 13.35\nentropy = 0.918\nsamples = 21\nvalue = [14, 7]"] ;
341 -> 342 ;
343 [label="x[6] <= 7.0\nentropy = 0.996\nsamples = 13\nvalue = [7, 6]"] ;
342 -> 343 ;
344 [label="entropy = 0.881\nsamples = 10\nvalue = [7, 3]"] ;
343 -> 344 ;
345 [label="entropy = 0.0\nsamples = 3\nvalue = [0, 3]"] ;
343 -> 345 ;
346 [label="x[3] <= 15500.0\nentropy = 0.544\nsamples = 8\nvalue = [7, 1]"] ;
342 -> 346 ;
347 [label="entropy = 0.918\nsamples = 3\nvalue = [2, 1]"] ;
346 -> 347 ;
348 [label="entropy = 0.0\nsamples = 5\nvalue = [5, 0]"] ;
346 -> 348 ;
349 [label="x[1] <= 40500.0\nentropy = 0.65\nsamples = 12\nvalue = [10, 2]"] ;
341 -> 349 ;
350 [label="entropy = 0.0\nsamples = 2\nvalue = [0, 2]"] ;
349 -> 350 ;
351 [label="entropy = 0.0\nsamples = 10\nvalue = [10, 0]"] ;
349 -> 351 ;
352 [label="x[3] <= 24500.0\nentropy = 0.307\nsamples = 91\nvalue = [86, 5]"] ;
326 -> 352 ;
353 [label="x[0] <= 26.5\nentropy = 0.181\nsamples = 73\nvalue = [71, 2]"] ;
352 -> 353 ;
354 [label="x[6] <= 2.5\nentropy = 0.31\nsamples = 36\nvalue = [34, 2]"] ;
353 -> 354 ;
355 [label="x[13] <= 0.5\nentropy = 0.567\nsamples = 15\nvalue = [13, 2]"] ;
354 -> 355 ;
356 [label="entropy = 0.391\nsamples = 13\nvalue = [12, 1]"] ;
355 -> 356 ;
357 [label="entropy = 1.0\nsamples = 2\nvalue = [1, 1]"] ;
355 -> 357 ;
358 [label="entropy = 0.0\nsamples = 21\nvalue = [21, 0]"] ;
354 -> 358 ;
359 [label="entropy = 0.0\nsamples = 37\nvalue = [37, 0]"] ;
353 -> 359 ;
360 [label="x[24] <= 0.5\nentropy = 0.65\nsamples = 18\nvalue = [15, 3]"] ;
352 -> 360 ;
361 [label="x[1] <= 56500.0\nentropy = 0.918\nsamples = 3\nvalue = [1, 2]"] ;
360 -> 361 ;
362 [label="entropy = 0.0\nsamples = 1\nvalue = [1, 0]"] ;
361 -> 362 ;
363 [label="entropy = 0.0\nsamples = 2\nvalue = [0, 2]"] ;
361 -> 363 ;
364 [label="x[14] <= 0.5\nentropy = 0.353\nsamples = 15\nvalue = [14, 1]"] ;
360 -> 364 ;
365 [label="entropy = 0.0\nsamples = 12\nvalue = [12, 0]"] ;
364 -> 365 ;
366 [label="x[4] <= 8.4\nentropy = 0.918\nsamples = 3\nvalue = [2, 1]"] ;
364 -> 366 ;
367 [label="entropy = 0.0\nsamples = 1\nvalue = [0, 1]"] ;
366 -> 367 ;
368 [label="entropy = 0.0\nsamples = 2\nvalue = [2, 0]"] ;
366 -> 368 ;
369 [label="x[11] <= 0.5\nentropy = 0.221\nsamples = 169\nvalue = [163, 6]"] ;
325 -> 369 ;
370 [label="x[1] <= 29002.0\nentropy = 0.193\nsamples = 168\nvalue = [163, 5]"] ;
369 -> 370 ;
371 [label="x[0] <= 34.0\nentropy = 0.496\nsamples = 46\nvalue = [41, 5]"] ;
370 -> 371 ;
372 [label="x[5] <= 0.315\nentropy = 0.365\nsamples = 43\nvalue = [40, 3]"] ;
371 -> 372 ;
373 [label="x[3] <= 8500.0\nentropy = 0.811\nsamples = 4\nvalue = [1, 3]"] ;
372 -> 373 ;
374 [label="entropy = 1.0\nsamples = 2\nvalue = [1, 1]"] ;
373 -> 374 ;
375 [label="entropy = 0.0\nsamples = 2\nvalue = [0, 2]"] ;
373 -> 375 ;
376 [label="entropy = 0.0\nsamples = 39\nvalue = [39, 0]"] ;
372 -> 376 ;
377 [label="x[15] <= 0.5\nentropy = 0.918\nsamples = 3\nvalue = [1, 2]"] ;
371 -> 377 ;
378 [label="x[14] <= 0.5\nentropy = 1.0\nsamples = 2\nvalue = [1, 1]"] ;
377 -> 378 ;
379 [label="entropy = 0.0\nsamples = 1\nvalue = [1, 0]"] ;
378 -> 379 ;
380 [label="entropy = 0.0\nsamples = 1\nvalue = [0, 1]"] ;
378 -> 380 ;
381 [label="entropy = 0.0\nsamples = 1\nvalue = [0, 1]"] ;
377 -> 381 ;
382 [label="entropy = 0.0\nsamples = 122\nvalue = [122, 0]"] ;
370 -> 382 ;
383 [label="entropy = 0.0\nsamples = 1\nvalue = [0, 1]"] ;
369 -> 383 ;
384 [label="x[15] <= 0.5\nentropy = 0.284\nsamples = 1723\nvalue = [85, 1638]"] ;
324 -> 384 ;
385 [label="x[5] <= 0.365\nentropy = 0.315\nsamples = 1423\nvalue = [81, 1342]"] ;
384 -> 385 ;
386 [label="x[0] <= 21.5\nentropy = 0.379\nsamples = 856\nvalue = [63.0, 793.0]"] ;
385 -> 386 ;
387 [label="x[4] <= 8.92\nentropy = 0.736\nsamples = 29\nvalue = [6, 23]"] ;
386 -> 387 ;
388 [label="entropy = 0.0\nsamples = 5\nvalue = [0, 5]"] ;
387 -> 388 ;
389 [label="x[6] <= 3.5\nentropy = 0.811\nsamples = 24\nvalue = [6, 18]"] ;
387 -> 389 ;
390 [label="x[17] <= 0.5\nentropy = 0.544\nsamples = 16\nvalue = [2, 14]"] ;
389 -> 390 ;
391 [label="entropy = 0.353\nsamples = 15\nvalue = [1, 14]"] ;
390 -> 391 ;
392 [label="entropy = 0.0\nsamples = 1\nvalue = [1, 0]"] ;
390 -> 392 ;
393 [label="x[5] <= 0.335\nentropy = 1.0\nsamples = 8\nvalue = [4, 4]"] ;
389 -> 393 ;
394 [label="entropy = 0.722\nsamples = 5\nvalue = [4, 1]"] ;
393 -> 394 ;
395 [label="entropy = 0.0\nsamples = 3\nvalue = [0, 3]"] ;
393 -> 395 ;
396 [label="x[2] <= 0.5\nentropy = 0.362\nsamples = 827\nvalue = [57.0, 770.0]"] ;
386 -> 396 ;
397 [label="x[4] <= 7.89\nentropy = 0.264\nsamples = 201\nvalue = [9, 192]"] ;
396 -> 397 ;
398 [label="x[1] <= 25200.0\nentropy = 0.469\nsamples = 30\nvalue = [3, 27]"] ;
397 -> 398 ;
399 [label="entropy = 0.0\nsamples = 1\nvalue = [1, 0]"] ;
398 -> 399 ;
400 [label="entropy = 0.362\nsamples = 29\nvalue = [2, 27]"] ;
398 -> 400 ;
401 [label="x[4] <= 10.97\nentropy = 0.219\nsamples = 171\nvalue = [6, 165]"] ;
397 -> 401 ;
402 [label="entropy = 0.0\nsamples = 48\nvalue = [0, 48]"] ;
401 -> 402 ;
403 [label="entropy = 0.281\nsamples = 123\nvalue = [6, 117]"] ;
401 -> 403 ;
404 [label="x[0] <= 34.5\nentropy = 0.39\nsamples = 626\nvalue = [48, 578]"] ;
396 -> 404 ;
405 [label="x[0] <= 27.5\nentropy = 0.368\nsamples = 566\nvalue = [40, 526]"] ;
404 -> 405 ;
406 [label="entropy = 0.418\nsamples = 390\nvalue = [33, 357]"] ;
405 -> 406 ;
407 [label="entropy = 0.241\nsamples = 176\nvalue = [7, 169]"] ;
405 -> 407 ;
408 [label="x[3] <= 11200.0\nentropy = 0.567\nsamples = 60\nvalue = [8, 52]"] ;
404 -> 408 ;
409 [label="entropy = 0.286\nsamples = 20\nvalue = [1, 19]"] ;
408 -> 409 ;
410 [label="entropy = 0.669\nsamples = 40\nvalue = [7, 33]"] ;
408 -> 410 ;
411 [label="x[1] <= 39950.0\nentropy = 0.203\nsamples = 567\nvalue = [18, 549]"] ;
385 -> 411 ;
412 [label="x[5] <= 0.415\nentropy = 0.133\nsamples = 377\nvalue = [7, 370]"] ;
411 -> 412 ;
413 [label="x[3] <= 12375.0\nentropy = 0.047\nsamples = 191\nvalue = [1, 190]"] ;
412 -> 413 ;
414 [label="entropy = 0.0\nsamples = 137\nvalue = [0, 137]"] ;
413 -> 414 ;
415 [label="x[5] <= 0.395\nentropy = 0.133\nsamples = 54\nvalue = [1, 53]"] ;
413 -> 415 ;
416 [label="entropy = 0.0\nsamples = 28\nvalue = [0, 28]"] ;
415 -> 416 ;
417 [label="entropy = 0.235\nsamples = 26\nvalue = [1, 25]"] ;
415 -> 417 ;
418 [label="x[0] <= 28.5\nentropy = 0.206\nsamples = 186\nvalue = [6, 180]"] ;
412 -> 418 ;
419 [label="x[6] <= 3.5\nentropy = 0.258\nsamples = 138\nvalue = [6, 132]"] ;
418 -> 419 ;
420 [label="entropy = 0.108\nsamples = 70\nvalue = [1, 69]"] ;
419 -> 420 ;
421 [label="entropy = 0.379\nsamples = 68\nvalue = [5, 63]"] ;
419 -> 421 ;
422 [label="entropy = 0.0\nsamples = 48\nvalue = [0, 48]"] ;
418 -> 422 ;
423 [label="x[5] <= 0.495\nentropy = 0.319\nsamples = 190\nvalue = [11, 179]"] ;
411 -> 423 ;
424 [label="x[14] <= 0.5\nentropy = 0.282\nsamples = 184\nvalue = [9, 175]"] ;
423 -> 424 ;
425 [label="x[1] <= 50500.0\nentropy = 0.331\nsamples = 148\nvalue = [9, 139]"] ;
424 -> 425 ;
426 [label="entropy = 0.433\nsamples = 90\nvalue = [8, 82]"] ;
425 -> 426 ;
427 [label="entropy = 0.126\nsamples = 58\nvalue = [1, 57]"] ;
425 -> 427 ;
428 [label="entropy = 0.0\nsamples = 36\nvalue = [0, 36]"] ;
424 -> 428 ;
429 [label="x[17] <= 0.5\nentropy = 0.918\nsamples = 6\nvalue = [2, 4]"] ;
423 -> 429 ;
430 [label="x[11] <= 0.5\nentropy = 0.722\nsamples = 5\nvalue = [1, 4]"] ;
429 -> 430 ;
431 [label="entropy = 0.0\nsamples = 3\nvalue = [0, 3]"] ;
430 -> 431 ;
432 [label="entropy = 1.0\nsamples = 2\nvalue = [1, 1]"] ;
430 -> 432 ;
433 [label="entropy = 0.0\nsamples = 1\nvalue = [1, 0]"] ;
429 -> 433 ;
434 [label="x[1] <= 67998.0\nentropy = 0.102\nsamples = 300\nvalue = [4, 296]"] ;
384 -> 434 ;
435 [label="x[2] <= 3.5\nentropy = 0.034\nsamples = 283\nvalue = [1, 282]"] ;
434 -> 435 ;
436 [label="entropy = 0.0\nsamples = 233\nvalue = [0, 233]"] ;
435 -> 436 ;
437 [label="x[19] <= 0.5\nentropy = 0.141\nsamples = 50\nvalue = [1, 49]"] ;
435 -> 437 ;
438 [label="entropy = 0.0\nsamples = 37\nvalue = [0, 37]"] ;
437 -> 438 ;
439 [label="x[25] <= 0.5\nentropy = 0.391\nsamples = 13\nvalue = [1, 12]"] ;
437 -> 439 ;
440 [label="entropy = 0.0\nsamples = 7\nvalue = [0, 7]"] ;
439 -> 440 ;
441 [label="x[6] <= 5.5\nentropy = 0.65\nsamples = 6\nvalue = [1, 5]"] ;
439 -> 441 ;
442 [label="entropy = 0.918\nsamples = 3\nvalue = [1, 2]"] ;
441 -> 442 ;
443 [label="entropy = 0.0\nsamples = 3\nvalue = [0, 3]"] ;
441 -> 443 ;
444 [label="x[1] <= 69998.0\nentropy = 0.672\nsamples = 17\nvalue = [3, 14]"] ;
434 -> 444 ;
445 [label="entropy = 0.0\nsamples = 1\nvalue = [1, 0]"] ;
444 -> 445 ;
446 [label="x[3] <= 23000.0\nentropy = 0.544\nsamples = 16\nvalue = [2, 14]"] ;
444 -> 446 ;
447 [label="entropy = 0.0\nsamples = 1\nvalue = [1, 0]"] ;
446 -> 447 ;
448 [label="x[3] <= 32500.0\nentropy = 0.353\nsamples = 15\nvalue = [1, 14]"] ;
446 -> 448 ;
449 [label="entropy = 0.0\nsamples = 13\nvalue = [0, 13]"] ;
448 -> 449 ;
450 [label="x[0] <= 27.0\nentropy = 1.0\nsamples = 2\nvalue = [1, 1]"] ;
448 -> 450 ;
451 [label="entropy = 0.0\nsamples = 1\nvalue = [1, 0]"] ;
450 -> 451 ;
452 [label="entropy = 0.0\nsamples = 1\nvalue = [0, 1]"] ;
450 -> 452 ;
453 [label="x[9] <= 0.5\nentropy = 0.991\nsamples = 1515\nvalue = [672.0, 843.0]"] ;
323 -> 453 ;
454 [label="x[5] <= 0.375\nentropy = 0.968\nsamples = 1389\nvalue = [548, 841]"] ;
453 -> 454 ;
455 [label="x[10] <= 0.5\nentropy = 0.987\nsamples = 927\nvalue = [401, 526]"] ;
454 -> 455 ;
456 [label="x[17] <= 0.5\nentropy = 0.453\nsamples = 410\nvalue = [371, 39]"] ;
455 -> 456 ;
457 [label="x[2] <= 19.5\nentropy = 0.553\nsamples = 257\nvalue = [224, 33]"] ;
456 -> 457 ;
458 [label="x[1] <= 59200.0\nentropy = 0.534\nsamples = 255\nvalue = [224, 31]"] ;
457 -> 458 ;
459 [label="x[16] <= 0.5\nentropy = 0.684\nsamples = 121\nvalue = [99, 22]"] ;
458 -> 459 ;
460 [label="entropy = 0.764\nsamples = 99\nvalue = [77, 22]"] ;
459 -> 460 ;
461 [label="entropy = 0.0\nsamples = 22\nvalue = [22, 0]"] ;
459 -> 461 ;
462 [label="x[1] <= 73500.0\nentropy = 0.355\nsamples = 134\nvalue = [125, 9]"] ;
458 -> 462 ;
463 [label="entropy = 0.0\nsamples = 76\nvalue = [76, 0]"] ;
462 -> 463 ;
464 [label="entropy = 0.623\nsamples = 58\nvalue = [49, 9]"] ;
462 -> 464 ;
465 [label="entropy = 0.0\nsamples = 2\nvalue = [0, 2]"] ;
457 -> 465 ;
466 [label="x[0] <= 45.5\nentropy = 0.239\nsamples = 153\nvalue = [147, 6]"] ;
456 -> 466 ;
467 [label="x[3] <= 13362.5\nentropy = 0.211\nsamples = 150\nvalue = [145, 5]"] ;
466 -> 467 ;
468 [label="x[3] <= 13112.5\nentropy = 0.449\nsamples = 32\nvalue = [29, 3]"] ;
467 -> 468 ;
469 [label="entropy = 0.345\nsamples = 31\nvalue = [29, 2]"] ;
468 -> 469 ;
470 [label="entropy = 0.0\nsamples = 1\nvalue = [0, 1]"] ;
468 -> 470 ;
471 [label="x[2] <= 5.5\nentropy = 0.124\nsamples = 118\nvalue = [116, 2]"] ;
467 -> 471 ;
472 [label="entropy = 0.391\nsamples = 26\nvalue = [24, 2]"] ;
471 -> 472 ;
473 [label="entropy = 0.0\nsamples = 92\nvalue = [92, 0]"] ;
471 -> 473 ;
474 [label="x[4] <= 7.24\nentropy = 0.918\nsamples = 3\nvalue = [2, 1]"] ;
466 -> 474 ;
475 [label="entropy = 0.0\nsamples = 1\nvalue = [0, 1]"] ;
474 -> 475 ;
476 [label="entropy = 0.0\nsamples = 2\nvalue = [2, 0]"] ;
474 -> 476 ;
477 [label="x[4] <= 12.325\nentropy = 0.32\nsamples = 517\nvalue = [30, 487]"] ;
455 -> 477 ;
478 [label="x[5] <= 0.355\nentropy = 0.24\nsamples = 380\nvalue = [15, 365]"] ;
477 -> 478 ;
479 [label="x[1] <= 45102.0\nentropy = 0.28\nsamples = 289\nvalue = [14, 275]"] ;
478 -> 479 ;
480 [label="x[0] <= 26.5\nentropy = 0.162\nsamples = 169\nvalue = [4, 165]"] ;
479 -> 480 ;
481 [label="entropy = 0.218\nsamples = 115\nvalue = [4, 111]"] ;
480 -> 481 ;
482 [label="entropy = 0.0\nsamples = 54\nvalue = [0, 54]"] ;
480 -> 482 ;
483 [label="x[1] <= 46102.0\nentropy = 0.414\nsamples = 120\nvalue = [10, 110]"] ;
479 -> 483 ;
484 [label="entropy = 0.0\nsamples = 1\nvalue = [1, 0]"] ;
483 -> 484 ;
485 [label="entropy = 0.387\nsamples = 119\nvalue = [9, 110]"] ;
483 -> 485 ;
486 [label="x[1] <= 69498.0\nentropy = 0.087\nsamples = 91\nvalue = [1, 90]"] ;
478 -> 486 ;
487 [label="entropy = 0.0\nsamples = 82\nvalue = [0, 82]"] ;
486 -> 487 ;
488 [label="x[2] <= 10.5\nentropy = 0.503\nsamples = 9\nvalue = [1, 8]"] ;
486 -> 488 ;
489 [label="entropy = 0.0\nsamples = 8\nvalue = [0, 8]"] ;
488 -> 489 ;
490 [label="entropy = 0.0\nsamples = 1\nvalue = [1, 0]"] ;
488 -> 490 ;
491 [label="x[6] <= 8.5\nentropy = 0.498\nsamples = 137\nvalue = [15, 122]"] ;
477 -> 491 ;
492 [label="x[6] <= 4.5\nentropy = 0.568\nsamples = 112\nvalue = [15, 97]"] ;
491 -> 492 ;
493 [label="x[2] <= 7.5\nentropy = 0.466\nsamples = 91\nvalue = [9, 82]"] ;
492 -> 493 ;
494 [label="entropy = 0.214\nsamples = 59\nvalue = [2, 57]"] ;
493 -> 494 ;
495 [label="entropy = 0.758\nsamples = 32\nvalue = [7, 25]"] ;
493 -> 495 ;
496 [label="x[11] <= 0.5\nentropy = 0.863\nsamples = 21\nvalue = [6, 15]"] ;
492 -> 496 ;
497 [label="entropy = 0.918\nsamples = 18\nvalue = [6, 12]"] ;
496 -> 497 ;
498 [label="entropy = 0.0\nsamples = 3\nvalue = [0, 3]"] ;
496 -> 498 ;
499 [label="entropy = 0.0\nsamples = 25\nvalue = [0, 25]"] ;
491 -> 499 ;
500 [label="x[1] <= 33900.0\nentropy = 0.902\nsamples = 462\nvalue = [147, 315]"] ;
454 -> 500 ;
501 [label="x[10] <= 0.5\nentropy = 0.635\nsamples = 131\nvalue = [21, 110]"] ;
500 -> 501 ;
502 [label="x[6] <= 11.0\nentropy = 0.764\nsamples = 27\nvalue = [21, 6]"] ;
501 -> 502 ;
503 [label="x[4] <= 12.985\nentropy = 0.634\nsamples = 25\nvalue = [21, 4]"] ;
502 -> 503 ;
504 [label="x[6] <= 2.5\nentropy = 0.31\nsamples = 18\nvalue = [17, 1]"] ;
503 -> 504 ;
505 [label="entropy = 0.65\nsamples = 6\nvalue = [5, 1]"] ;
504 -> 505 ;
506 [label="entropy = 0.0\nsamples = 12\nvalue = [12, 0]"] ;
504 -> 506 ;
507 [label="x[15] <= 0.5\nentropy = 0.985\nsamples = 7\nvalue = [4, 3]"] ;
503 -> 507 ;
508 [label="entropy = 0.0\nsamples = 4\nvalue = [4, 0]"] ;
507 -> 508 ;
509 [label="entropy = 0.0\nsamples = 3\nvalue = [0, 3]"] ;
507 -> 509 ;
510 [label="entropy = 0.0\nsamples = 2\nvalue = [0, 2]"] ;
502 -> 510 ;
511 [label="entropy = 0.0\nsamples = 104\nvalue = [0, 104]"] ;
501 -> 511 ;
512 [label="x[10] <= 0.5\nentropy = 0.959\nsamples = 331\nvalue = [126.0, 205.0]"] ;
500 -> 512 ;
513 [label="x[7] <= 0.5\nentropy = 0.451\nsamples = 127\nvalue = [115, 12]"] ;
512 -> 513 ;
514 [label="entropy = 0.0\nsamples = 1\nvalue = [0, 1]"] ;
513 -> 514 ;
515 [label="x[3] <= 8500.0\nentropy = 0.427\nsamples = 126\nvalue = [115, 11]"] ;
513 -> 515 ;
516 [label="entropy = 0.0\nsamples = 1\nvalue = [0, 1]"] ;
515 -> 516 ;
517 [label="x[21] <= 0.5\nentropy = 0.402\nsamples = 125\nvalue = [115, 10]"] ;
515 -> 517 ;
518 [label="entropy = 0.375\nsamples = 124\nvalue = [115, 9]"] ;
517 -> 518 ;
519 [label="entropy = 0.0\nsamples = 1\nvalue = [0, 1]"] ;
517 -> 519 ;
520 [label="x[4] <= 11.05\nentropy = 0.303\nsamples = 204\nvalue = [11, 193]"] ;
512 -> 520 ;
521 [label="x[4] <= 10.605\nentropy = 0.396\nsamples = 115\nvalue = [9, 106]"] ;
520 -> 521 ;
522 [label="x[2] <= 6.5\nentropy = 0.235\nsamples = 78\nvalue = [3, 75]"] ;
521 -> 522 ;
523 [label="entropy = 0.0\nsamples = 37\nvalue = [0, 37]"] ;
522 -> 523 ;
524 [label="entropy = 0.378\nsamples = 41\nvalue = [3, 38]"] ;
522 -> 524 ;
525 [label="x[14] <= 0.5\nentropy = 0.639\nsamples = 37\nvalue = [6, 31]"] ;
521 -> 525 ;
526 [label="entropy = 0.696\nsamples = 32\nvalue = [6, 26]"] ;
525 -> 526 ;
527 [label="entropy = 0.0\nsamples = 5\nvalue = [0, 5]"] ;
525 -> 527 ;
528 [label="x[1] <= 47798.0\nentropy = 0.155\nsamples = 89\nvalue = [2, 87]"] ;
520 -> 528 ;
529 [label="entropy = 0.0\nsamples = 54\nvalue = [0, 54]"] ;
528 -> 529 ;
530 [label="x[16] <= 0.5\nentropy = 0.316\nsamples = 35\nvalue = [2, 33]"] ;
528 -> 530 ;
531 [label="entropy = 0.201\nsamples = 32\nvalue = [1, 31]"] ;
530 -> 531 ;
532 [label="entropy = 0.918\nsamples = 3\nvalue = [1, 2]"] ;
530 -> 532 ;
533 [label="x[1] <= 28400.0\nentropy = 0.118\nsamples = 126\nvalue = [124, 2]"] ;
453 -> 533 ;
534 [label="x[0] <= 27.0\nentropy = 0.454\nsamples = 21\nvalue = [19, 2]"] ;
533 -> 534 ;
535 [label="entropy = 0.0\nsamples = 13\nvalue = [13, 0]"] ;
534 -> 535 ;
536 [label="x[14] <= 0.5\nentropy = 0.811\nsamples = 8\nvalue = [6, 2]"] ;
534 -> 536 ;
537 [label="x[4] <= 8.4\nentropy = 0.592\nsamples = 7\nvalue = [6, 1]"] ;
536 -> 537 ;
538 [label="entropy = 0.0\nsamples = 1\nvalue = [0, 1]"] ;
537 -> 538 ;
539 [label="entropy = 0.0\nsamples = 6\nvalue = [6, 0]"] ;
537 -> 539 ;
540 [label="entropy = 0.0\nsamples = 1\nvalue = [0, 1]"] ;
536 -> 540 ;
541 [label="entropy = 0.0\nsamples = 105\nvalue = [105, 0]"] ;
533 -> 541 ;
542 [label="x[10] <= 0.5\nentropy = 0.998\nsamples = 6789\nvalue = [3219.0, 3570.0]"] ;
0 -> 542 [labeldistance=2.5, labelangle=-45, headlabel="False"] ;
543 [label="x[14] <= 0.5\nentropy = 0.893\nsamples = 2559\nvalue = [1765.0, 794.0]"] ;
542 -> 543 ;
544 [label="x[9] <= 0.5\nentropy = 0.782\nsamples = 2160\nvalue = [1658, 502]"] ;
543 -> 544 ;
545 [label="x[16] <= 0.5\nentropy = 0.842\nsamples = 1807\nvalue = [1319.0, 488.0]"] ;
544 -> 545 ;
546 [label="x[11] <= 0.5\nentropy = 0.9\nsamples = 1447\nvalue = [990.0, 457.0]"] ;
545 -> 546 ;
547 [label="x[3] <= 8450.0\nentropy = 0.634\nsamples = 1095\nvalue = [920, 175]"] ;
546 -> 547 ;
548 [label="x[5] <= 0.115\nentropy = 0.75\nsamples = 415\nvalue = [326, 89]"] ;
547 -> 548 ;
549 [label="x[1] <= 94079.0\nentropy = 0.617\nsamples = 281\nvalue = [238, 43]"] ;
548 -> 549 ;
550 [label="x[1] <= 59700.0\nentropy = 0.704\nsamples = 225\nvalue = [182, 43]"] ;
549 -> 550 ;
551 [label="entropy = 0.884\nsamples = 86\nvalue = [60, 26]"] ;
550 -> 551 ;
552 [label="entropy = 0.536\nsamples = 139\nvalue = [122, 17]"] ;
550 -> 552 ;
553 [label="entropy = 0.0\nsamples = 56\nvalue = [56, 0]"] ;
549 -> 553 ;
554 [label="x[4] <= 19.445\nentropy = 0.928\nsamples = 134\nvalue = [88, 46]"] ;
548 -> 554 ;
555 [label="x[4] <= 14.5\nentropy = 0.908\nsamples = 130\nvalue = [88, 42]"] ;
554 -> 555 ;
556 [label="entropy = 0.0\nsamples = 3\nvalue = [0, 3]"] ;
555 -> 556 ;
557 [label="entropy = 0.89\nsamples = 127\nvalue = [88, 39]"] ;
555 -> 557 ;
558 [label="entropy = 0.0\nsamples = 4\nvalue = [0, 4]"] ;
554 -> 558 ;
559 [label="x[3] <= 8950.0\nentropy = 0.548\nsamples = 680\nvalue = [594, 86]"] ;
547 -> 559 ;
560 [label="entropy = 0.0\nsamples = 12\nvalue = [12, 0]"] ;
559 -> 560 ;
561 [label="x[5] <= 0.155\nentropy = 0.554\nsamples = 668\nvalue = [582.0, 86.0]"] ;
559 -> 561 ;
562 [label="x[0] <= 48.5\nentropy = 0.328\nsamples = 166\nvalue = [156, 10]"] ;
561 -> 562 ;
563 [label="entropy = 0.26\nsamples = 159\nvalue = [152.0, 7.0]"] ;
562 -> 563 ;
564 [label="entropy = 0.985\nsamples = 7\nvalue = [4, 3]"] ;
562 -> 564 ;
565 [label="x[1] <= 59080.0\nentropy = 0.613\nsamples = 502\nvalue = [426, 76]"] ;
561 -> 565 ;
566 [label="entropy = 0.803\nsamples = 143\nvalue = [108, 35]"] ;
565 -> 566 ;
567 [label="entropy = 0.512\nsamples = 359\nvalue = [318, 41]"] ;
565 -> 567 ;
568 [label="x[19] <= 0.5\nentropy = 0.72\nsamples = 352\nvalue = [70, 282]"] ;
546 -> 568 ;
569 [label="x[22] <= 0.5\nentropy = 0.24\nsamples = 278\nvalue = [11, 267]"] ;
568 -> 569 ;
570 [label="x[0] <= 25.5\nentropy = 0.225\nsamples = 275\nvalue = [10, 265]"] ;
569 -> 570 ;
571 [label="x[2] <= 8.5\nentropy = 0.065\nsamples = 129\nvalue = [1, 128]"] ;
570 -> 571 ;
572 [label="entropy = 0.0\nsamples = 110\nvalue = [0, 110]"] ;
571 -> 572 ;
573 [label="entropy = 0.297\nsamples = 19\nvalue = [1, 18]"] ;
571 -> 573 ;
574 [label="x[5] <= 0.035\nentropy = 0.334\nsamples = 146\nvalue = [9, 137]"] ;
570 -> 574 ;
575 [label="entropy = 0.971\nsamples = 5\nvalue = [2, 3]"] ;
574 -> 575 ;
576 [label="entropy = 0.285\nsamples = 141\nvalue = [7, 134]"] ;
574 -> 576 ;
577 [label="x[2] <= 6.5\nentropy = 0.918\nsamples = 3\nvalue = [1, 2]"] ;
569 -> 577 ;
578 [label="entropy = 0.0\nsamples = 2\nvalue = [0, 2]"] ;
577 -> 578 ;
579 [label="entropy = 0.0\nsamples = 1\nvalue = [1, 0]"] ;
577 -> 579 ;
580 [label="x[1] <= 35500.0\nentropy = 0.727\nsamples = 74\nvalue = [59, 15]"] ;
568 -> 580 ;
581 [label="entropy = 0.0\nsamples = 4\nvalue = [0, 4]"] ;
580 -> 581 ;
582 [label="x[3] <= 23000.0\nentropy = 0.627\nsamples = 70\nvalue = [59, 11]"] ;
580 -> 582 ;
583 [label="x[3] <= 12125.0\nentropy = 0.564\nsamples = 68\nvalue = [59, 9]"] ;
582 -> 583 ;
584 [label="entropy = 0.696\nsamples = 48\nvalue = [39, 9]"] ;
583 -> 584 ;
585 [label="entropy = 0.0\nsamples = 20\nvalue = [20, 0]"] ;
583 -> 585 ;
586 [label="entropy = 0.0\nsamples = 2\nvalue = [0, 2]"] ;
582 -> 586 ;
587 [label="x[5] <= 0.085\nentropy = 0.423\nsamples = 360\nvalue = [329, 31]"] ;
545 -> 587 ;
588 [label="entropy = 0.0\nsamples = 69\nvalue = [69, 0]"] ;
587 -> 588 ;
589 [label="x[25] <= 0.5\nentropy = 0.489\nsamples = 291\nvalue = [260, 31]"] ;
587 -> 589 ;
590 [label="x[2] <= 6.5\nentropy = 0.359\nsamples = 132\nvalue = [123, 9]"] ;
589 -> 590 ;
591 [label="x[1] <= 95750.0\nentropy = 0.499\nsamples = 82\nvalue = [73, 9]"] ;
590 -> 591 ;
592 [label="x[5] <= 0.095\nentropy = 0.569\nsamples = 67\nvalue = [58.0, 9.0]"] ;
591 -> 592 ;
593 [label="entropy = 1.0\nsamples = 4\nvalue = [2, 2]"] ;
592 -> 593 ;
594 [label="entropy = 0.503\nsamples = 63\nvalue = [56, 7]"] ;
592 -> 594 ;
595 [label="entropy = 0.0\nsamples = 15\nvalue = [15, 0]"] ;
591 -> 595 ;
596 [label="entropy = 0.0\nsamples = 50\nvalue = [50, 0]"] ;
590 -> 596 ;
597 [label="x[19] <= 0.5\nentropy = 0.58\nsamples = 159\nvalue = [137, 22]"] ;
589 -> 597 ;
598 [label="x[0] <= 21.5\nentropy = 0.662\nsamples = 128\nvalue = [106, 22]"] ;
597 -> 598 ;
599 [label="x[5] <= 0.105\nentropy = 0.811\nsamples = 4\nvalue = [1, 3]"] ;
598 -> 599 ;
600 [label="entropy = 0.0\nsamples = 1\nvalue = [1, 0]"] ;
599 -> 600 ;
601 [label="entropy = 0.0\nsamples = 3\nvalue = [0, 3]"] ;
599 -> 601 ;
602 [label="x[4] <= 14.9\nentropy = 0.618\nsamples = 124\nvalue = [105, 19]"] ;
598 -> 602 ;
603 [label="entropy = 0.918\nsamples = 24\nvalue = [16, 8]"] ;
602 -> 603 ;
604 [label="entropy = 0.5\nsamples = 100\nvalue = [89, 11]"] ;
602 -> 604 ;
605 [label="entropy = 0.0\nsamples = 31\nvalue = [31, 0]"] ;
597 -> 605 ;
606 [label="x[21] <= 0.5\nentropy = 0.241\nsamples = 353\nvalue = [339, 14]"] ;
544 -> 606 ;
607 [label="x[1] <= 18960.0\nentropy = 0.116\nsamples = 321\nvalue = [316, 5]"] ;
606 -> 607 ;
608 [label="x[4] <= 15.67\nentropy = 0.971\nsamples = 5\nvalue = [3, 2]"] ;
607 -> 608 ;
609 [label="entropy = 0.0\nsamples = 2\nvalue = [2, 0]"] ;
608 -> 609 ;
610 [label="x[4] <= 16.42\nentropy = 0.918\nsamples = 3\nvalue = [1, 2]"] ;
608 -> 610 ;
611 [label="entropy = 0.0\nsamples = 1\nvalue = [0, 1]"] ;
610 -> 611 ;
612 [label="x[12] <= 0.5\nentropy = 1.0\nsamples = 2\nvalue = [1, 1]"] ;
610 -> 612 ;
613 [label="entropy = 0.0\nsamples = 1\nvalue = [0, 1]"] ;
612 -> 613 ;
614 [label="entropy = 0.0\nsamples = 1\nvalue = [1, 0]"] ;
612 -> 614 ;
615 [label="x[23] <= 0.5\nentropy = 0.077\nsamples = 316\nvalue = [313, 3]"] ;
607 -> 615 ;
616 [label="x[0] <= 22.5\nentropy = 0.056\nsamples = 314\nvalue = [312, 2]"] ;
615 -> 616 ;
617 [label="x[2] <= 4.5\nentropy = 0.222\nsamples = 56\nvalue = [54, 2]"] ;
616 -> 617 ;
618 [label="x[4] <= 15.22\nentropy = 0.353\nsamples = 30\nvalue = [28, 2]"] ;
617 -> 618 ;
619 [label="entropy = 0.0\nsamples = 14\nvalue = [14, 0]"] ;
618 -> 619 ;
620 [label="entropy = 0.544\nsamples = 16\nvalue = [14, 2]"] ;
618 -> 620 ;
621 [label="entropy = 0.0\nsamples = 26\nvalue = [26, 0]"] ;
617 -> 621 ;
622 [label="entropy = 0.0\nsamples = 258\nvalue = [258, 0]"] ;
616 -> 622 ;
623 [label="x[0] <= 24.0\nentropy = 1.0\nsamples = 2\nvalue = [1, 1]"] ;
615 -> 623 ;
624 [label="entropy = 0.0\nsamples = 1\nvalue = [1, 0]"] ;
623 -> 624 ;
625 [label="entropy = 0.0\nsamples = 1\nvalue = [0, 1]"] ;
623 -> 625 ;
626 [label="x[3] <= 3125.0\nentropy = 0.857\nsamples = 32\nvalue = [23, 9]"] ;
606 -> 626 ;
627 [label="entropy = 0.0\nsamples = 2\nvalue = [0, 2]"] ;
626 -> 627 ;
628 [label="x[11] <= 0.5\nentropy = 0.784\nsamples = 30\nvalue = [23, 7]"] ;
626 -> 628 ;
629 [label="x[3] <= 11500.0\nentropy = 0.677\nsamples = 28\nvalue = [23, 5]"] ;
628 -> 629 ;
630 [label="x[1] <= 33502.0\nentropy = 0.874\nsamples = 17\nvalue = [12, 5]"] ;
629 -> 630 ;
631 [label="x[16] <= 0.5\nentropy = 0.985\nsamples = 7\nvalue = [3, 4]"] ;
630 -> 631 ;
632 [label="entropy = 0.722\nsamples = 5\nvalue = [1, 4]"] ;
631 -> 632 ;
633 [label="entropy = 0.0\nsamples = 2\nvalue = [2, 0]"] ;
631 -> 633 ;
634 [label="x[3] <= 6000.0\nentropy = 0.469\nsamples = 10\nvalue = [9, 1]"] ;
630 -> 634 ;
635 [label="entropy = 0.811\nsamples = 4\nvalue = [3, 1]"] ;
634 -> 635 ;
636 [label="entropy = 0.0\nsamples = 6\nvalue = [6, 0]"] ;
634 -> 636 ;
637 [label="entropy = 0.0\nsamples = 11\nvalue = [11, 0]"] ;
629 -> 637 ;
638 [label="entropy = 0.0\nsamples = 2\nvalue = [0, 2]"] ;
628 -> 638 ;
639 [label="x[9] <= 0.5\nentropy = 0.839\nsamples = 399\nvalue = [107, 292]"] ;
543 -> 639 ;
640 [label="x[4] <= 14.81\nentropy = 0.687\nsamples = 344\nvalue = [63, 281]"] ;
639 -> 640 ;
641 [label="x[20] <= 0.5\nentropy = 0.981\nsamples = 55\nvalue = [32, 23]"] ;
640 -> 641 ;
642 [label="x[0] <= 27.5\nentropy = 0.33\nsamples = 33\nvalue = [31, 2]"] ;
641 -> 642 ;
643 [label="entropy = 0.0\nsamples = 17\nvalue = [17, 0]"] ;
642 -> 643 ;
644 [label="x[2] <= 6.5\nentropy = 0.544\nsamples = 16\nvalue = [14, 2]"] ;
642 -> 644 ;
645 [label="entropy = 0.0\nsamples = 9\nvalue = [9, 0]"] ;
644 -> 645 ;
646 [label="x[0] <= 28.5\nentropy = 0.863\nsamples = 7\nvalue = [5, 2]"] ;
644 -> 646 ;
647 [label="entropy = 0.0\nsamples = 1\nvalue = [0, 1]"] ;
646 -> 647 ;
648 [label="x[0] <= 31.5\nentropy = 0.65\nsamples = 6\nvalue = [5, 1]"] ;
646 -> 648 ;
649 [label="entropy = 0.0\nsamples = 5\nvalue = [5, 0]"] ;
648 -> 649 ;
650 [label="entropy = 0.0\nsamples = 1\nvalue = [0, 1]"] ;
648 -> 650 ;
651 [label="x[1] <= 114000.0\nentropy = 0.267\nsamples = 22\nvalue = [1, 21]"] ;
641 -> 651 ;
652 [label="entropy = 0.0\nsamples = 21\nvalue = [0, 21]"] ;
651 -> 652 ;
653 [label="entropy = 0.0\nsamples = 1\nvalue = [1, 0]"] ;
651 -> 653 ;
654 [label="x[19] <= 0.5\nentropy = 0.492\nsamples = 289\nvalue = [31, 258]"] ;
640 -> 654 ;
655 [label="x[2] <= 1.5\nentropy = 0.345\nsamples = 264\nvalue = [17, 247]"] ;
654 -> 655 ;
656 [label="entropy = 0.0\nsamples = 35\nvalue = [0, 35]"] ;
655 -> 656 ;
657 [label="x[1] <= 114400.0\nentropy = 0.382\nsamples = 229\nvalue = [17, 212]"] ;
655 -> 657 ;
658 [label="x[2] <= 4.5\nentropy = 0.337\nsamples = 224\nvalue = [14, 210]"] ;
657 -> 658 ;
659 [label="x[5] <= 0.205\nentropy = 0.476\nsamples = 88\nvalue = [9, 79]"] ;
658 -> 659 ;
660 [label="entropy = 0.58\nsamples = 65\nvalue = [9, 56]"] ;
659 -> 660 ;
661 [label="entropy = 0.0\nsamples = 23\nvalue = [0, 23]"] ;
659 -> 661 ;
662 [label="x[0] <= 29.5\nentropy = 0.227\nsamples = 136\nvalue = [5, 131]"] ;
658 -> 662 ;
663 [label="entropy = 0.0\nsamples = 97\nvalue = [0, 97]"] ;
662 -> 663 ;
664 [label="entropy = 0.552\nsamples = 39\nvalue = [5, 34]"] ;
662 -> 664 ;
665 [label="x[4] <= 15.66\nentropy = 0.971\nsamples = 5\nvalue = [3, 2]"] ;
657 -> 665 ;
666 [label="entropy = 0.0\nsamples = 3\nvalue = [3, 0]"] ;
665 -> 666 ;
667 [label="entropy = 0.0\nsamples = 2\nvalue = [0, 2]"] ;
665 -> 667 ;
668 [label="x[0] <= 33.5\nentropy = 0.99\nsamples = 25\nvalue = [14.0, 11.0]"] ;
654 -> 668 ;
669 [label="x[5] <= 0.335\nentropy = 1.0\nsamples = 22\nvalue = [11, 11]"] ;
668 -> 669 ;
670 [label="x[2] <= 1.5\nentropy = 0.993\nsamples = 20\nvalue = [9, 11]"] ;
669 -> 670 ;
671 [label="entropy = 0.0\nsamples = 3\nvalue = [3, 0]"] ;
670 -> 671 ;
672 [label="x[24] <= 0.5\nentropy = 0.937\nsamples = 17\nvalue = [6, 11]"] ;
670 -> 672 ;
673 [label="entropy = 0.991\nsamples = 9\nvalue = [4, 5]"] ;
672 -> 673 ;
674 [label="entropy = 0.811\nsamples = 8\nvalue = [2, 6]"] ;
672 -> 674 ;
675 [label="entropy = 0.0\nsamples = 2\nvalue = [2, 0]"] ;
669 -> 675 ;
676 [label="entropy = 0.0\nsamples = 3\nvalue = [3, 0]"] ;
668 -> 676 ;
677 [label="x[3] <= 5400.0\nentropy = 0.722\nsamples = 55\nvalue = [44, 11]"] ;
639 -> 677 ;
678 [label="x[4] <= 16.63\nentropy = 0.235\nsamples = 26\nvalue = [25, 1]"] ;
677 -> 678 ;
679 [label="entropy = 0.0\nsamples = 23\nvalue = [23, 0]"] ;
678 -> 679 ;
680 [label="x[3] <= 4200.0\nentropy = 0.918\nsamples = 3\nvalue = [2, 1]"] ;
678 -> 680 ;
681 [label="entropy = 0.0\nsamples = 2\nvalue = [2, 0]"] ;
680 -> 681 ;
682 [label="entropy = 0.0\nsamples = 1\nvalue = [0, 1]"] ;
680 -> 682 ;
683 [label="x[21] <= 0.5\nentropy = 0.929\nsamples = 29\nvalue = [19, 10]"] ;
677 -> 683 ;
684 [label="x[20] <= 0.5\nentropy = 0.84\nsamples = 26\nvalue = [19, 7]"] ;
683 -> 684 ;
685 [label="entropy = 0.0\nsamples = 6\nvalue = [6, 0]"] ;
684 -> 685 ;
686 [label="x[2] <= 5.5\nentropy = 0.934\nsamples = 20\nvalue = [13, 7]"] ;
684 -> 686 ;
687 [label="x[24] <= 0.5\nentropy = 1.0\nsamples = 12\nvalue = [6, 6]"] ;
686 -> 687 ;
688 [label="x[5] <= 0.24\nentropy = 0.918\nsamples = 9\nvalue = [6, 3]"] ;
687 -> 688 ;
689 [label="entropy = 1.0\nsamples = 6\nvalue = [3, 3]"] ;
688 -> 689 ;
690 [label="entropy = 0.0\nsamples = 3\nvalue = [3, 0]"] ;
688 -> 690 ;
691 [label="entropy = 0.0\nsamples = 3\nvalue = [0, 3]"] ;
687 -> 691 ;
692 [label="x[2] <= 11.5\nentropy = 0.544\nsamples = 8\nvalue = [7, 1]"] ;
686 -> 692 ;
693 [label="entropy = 0.0\nsamples = 7\nvalue = [7, 0]"] ;
692 -> 693 ;
694 [label="entropy = 0.0\nsamples = 1\nvalue = [0, 1]"] ;
692 -> 694 ;
695 [label="entropy = 0.0\nsamples = 3\nvalue = [0, 3]"] ;
683 -> 695 ;
696 [label="x[2] <= 2.5\nentropy = 0.928\nsamples = 4230\nvalue = [1454, 2776]"] ;
542 -> 696 ;
697 [label="x[4] <= 14.805\nentropy = 0.567\nsamples = 1924\nvalue = [257, 1667]"] ;
696 -> 697 ;
698 [label="x[19] <= 0.5\nentropy = 0.93\nsamples = 393\nvalue = [136, 257]"] ;
697 -> 698 ;
699 [label="x[3] <= 4650.0\nentropy = 0.206\nsamples = 247\nvalue = [8, 239]"] ;
698 -> 699 ;
700 [label="x[3] <= 4250.0\nentropy = 0.439\nsamples = 55\nvalue = [5, 50]"] ;
699 -> 700 ;
701 [label="x[24] <= 0.5\nentropy = 0.318\nsamples = 52\nvalue = [3, 49]"] ;
700 -> 701 ;
702 [label="x[3] <= 1250.0\nentropy = 0.503\nsamples = 27\nvalue = [3, 24]"] ;
701 -> 702 ;
703 [label="entropy = 0.0\nsamples = 1\nvalue = [1, 0]"] ;
702 -> 703 ;
704 [label="x[3] <= 3950.0\nentropy = 0.391\nsamples = 26\nvalue = [2, 24]"] ;
702 -> 704 ;
705 [label="entropy = 0.0\nsamples = 15\nvalue = [0, 15]"] ;
704 -> 705 ;
706 [label="entropy = 0.684\nsamples = 11\nvalue = [2, 9]"] ;
704 -> 706 ;
707 [label="entropy = 0.0\nsamples = 25\nvalue = [0, 25]"] ;
701 -> 707 ;
708 [label="x[14] <= 0.5\nentropy = 0.918\nsamples = 3\nvalue = [2, 1]"] ;
700 -> 708 ;
709 [label="entropy = 0.0\nsamples = 2\nvalue = [2, 0]"] ;
708 -> 709 ;
710 [label="entropy = 0.0\nsamples = 1\nvalue = [0, 1]"] ;
708 -> 710 ;
711 [label="x[1] <= 59502.0\nentropy = 0.116\nsamples = 192\nvalue = [3, 189]"] ;
699 -> 711 ;
712 [label="entropy = 0.0\nsamples = 145\nvalue = [0, 145]"] ;
711 -> 712 ;
713 [label="x[5] <= 0.185\nentropy = 0.342\nsamples = 47\nvalue = [3.0, 44.0]"] ;
711 -> 713 ;
714 [label="x[25] <= 0.5\nentropy = 0.592\nsamples = 21\nvalue = [3, 18]"] ;
713 -> 714 ;
715 [label="entropy = 0.0\nsamples = 10\nvalue = [0, 10]"] ;
714 -> 715 ;
716 [label="x[4] <= 14.44\nentropy = 0.845\nsamples = 11\nvalue = [3, 8]"] ;
714 -> 716 ;
717 [label="entropy = 0.918\nsamples = 3\nvalue = [2, 1]"] ;
716 -> 717 ;
718 [label="entropy = 0.544\nsamples = 8\nvalue = [1, 7]"] ;
716 -> 718 ;
719 [label="entropy = 0.0\nsamples = 26\nvalue = [0, 26]"] ;
713 -> 719 ;
720 [label="x[1] <= 34500.0\nentropy = 0.539\nsamples = 146\nvalue = [128, 18]"] ;
698 -> 720 ;
721 [label="x[16] <= 0.5\nentropy = 0.9\nsamples = 38\nvalue = [26, 12]"] ;
720 -> 721 ;
722 [label="x[5] <= 0.335\nentropy = 0.961\nsamples = 26\nvalue = [16, 10]"] ;
721 -> 722 ;
723 [label="x[6] <= 11.0\nentropy = 0.887\nsamples = 23\nvalue = [16, 7]"] ;
722 -> 723 ;
724 [label="x[13] <= 0.5\nentropy = 0.792\nsamples = 21\nvalue = [16, 5]"] ;
723 -> 724 ;
725 [label="entropy = 0.722\nsamples = 20\nvalue = [16, 4]"] ;
724 -> 725 ;
726 [label="entropy = 0.0\nsamples = 1\nvalue = [0, 1]"] ;
724 -> 726 ;
727 [label="entropy = 0.0\nsamples = 2\nvalue = [0, 2]"] ;
723 -> 727 ;
728 [label="entropy = 0.0\nsamples = 3\nvalue = [0, 3]"] ;
722 -> 728 ;
729 [label="x[1] <= 21000.0\nentropy = 0.65\nsamples = 12\nvalue = [10, 2]"] ;
721 -> 729 ;
730 [label="entropy = 0.0\nsamples = 1\nvalue = [0, 1]"] ;
729 -> 730 ;
731 [label="x[5] <= 0.32\nentropy = 0.439\nsamples = 11\nvalue = [10, 1]"] ;
729 -> 731 ;
732 [label="entropy = 0.0\nsamples = 10\nvalue = [10, 0]"] ;
731 -> 732 ;
733 [label="entropy = 0.0\nsamples = 1\nvalue = [0, 1]"] ;
731 -> 733 ;
734 [label="x[5] <= 0.305\nentropy = 0.31\nsamples = 108\nvalue = [102, 6]"] ;
720 -> 734 ;
735 [label="x[0] <= 52.0\nentropy = 0.137\nsamples = 104\nvalue = [102, 2]"] ;
734 -> 735 ;
736 [label="x[3] <= 2250.0\nentropy = 0.079\nsamples = 103\nvalue = [102.0, 1.0]"] ;
735 -> 736 ;
737 [label="x[5] <= 0.045\nentropy = 0.439\nsamples = 11\nvalue = [10, 1]"] ;
736 -> 737 ;
738 [label="entropy = 0.0\nsamples = 8\nvalue = [8, 0]"] ;
737 -> 738 ;
739 [label="entropy = 0.918\nsamples = 3\nvalue = [2, 1]"] ;
737 -> 739 ;
740 [label="entropy = 0.0\nsamples = 92\nvalue = [92, 0]"] ;
736 -> 740 ;
741 [label="entropy = 0.0\nsamples = 1\nvalue = [0, 1]"] ;
735 -> 741 ;
742 [label="entropy = 0.0\nsamples = 4\nvalue = [0, 4]"] ;
734 -> 742 ;
743 [label="x[5] <= 0.305\nentropy = 0.399\nsamples = 1531\nvalue = [121, 1410]"] ;
697 -> 743 ;
744 [label="x[19] <= 0.5\nentropy = 0.458\nsamples = 1255\nvalue = [121.0, 1134.0]"] ;
743 -> 744 ;
745 [label="x[1] <= 109000.0\nentropy = 0.242\nsamples = 1154\nvalue = [46.0, 1108.0]"] ;
744 -> 745 ;
746 [label="x[1] <= 39998.0\nentropy = 0.196\nsamples = 1122\nvalue = [34, 1088]"] ;
745 -> 746 ;
747 [label="x[0] <= 62.0\nentropy = 0.067\nsamples = 504\nvalue = [4, 500]"] ;
746 -> 747 ;
748 [label="x[25] <= 0.5\nentropy = 0.053\nsamples = 502\nvalue = [3, 499]"] ;
747 -> 748 ;
749 [label="entropy = 0.102\nsamples = 226\nvalue = [3, 223]"] ;
748 -> 749 ;
750 [label="entropy = 0.0\nsamples = 276\nvalue = [0, 276]"] ;
748 -> 750 ;
751 [label="x[2] <= 1.0\nentropy = 1.0\nsamples = 2\nvalue = [1, 1]"] ;
747 -> 751 ;
752 [label="entropy = 0.0\nsamples = 1\nvalue = [1, 0]"] ;
751 -> 752 ;
753 [label="entropy = 0.0\nsamples = 1\nvalue = [0, 1]"] ;
751 -> 753 ;
754 [label="x[15] <= 0.5\nentropy = 0.28\nsamples = 618\nvalue = [30, 588]"] ;
746 -> 754 ;
755 [label="x[4] <= 20.525\nentropy = 0.228\nsamples = 514\nvalue = [19, 495]"] ;
754 -> 755 ;
756 [label="entropy = 0.211\nsamples = 510\nvalue = [17, 493]"] ;
755 -> 756 ;
757 [label="entropy = 1.0\nsamples = 4\nvalue = [2, 2]"] ;
755 -> 757 ;
758 [label="x[0] <= 23.5\nentropy = 0.487\nsamples = 104\nvalue = [11, 93]"] ;
754 -> 758 ;
759 [label="entropy = 0.0\nsamples = 28\nvalue = [0, 28]"] ;
758 -> 759 ;
760 [label="entropy = 0.597\nsamples = 76\nvalue = [11, 65]"] ;
758 -> 760 ;
761 [label="x[4] <= 16.62\nentropy = 0.954\nsamples = 32\nvalue = [12, 20]"] ;
745 -> 761 ;
762 [label="x[4] <= 15.995\nentropy = 0.702\nsamples = 21\nvalue = [4, 17]"] ;
761 -> 762 ;
763 [label="x[5] <= 0.095\nentropy = 0.863\nsamples = 14\nvalue = [4, 10]"] ;
762 -> 763 ;
764 [label="entropy = 0.918\nsamples = 6\nvalue = [4, 2]"] ;
763 -> 764 ;
765 [label="entropy = 0.0\nsamples = 8\nvalue = [0, 8]"] ;
763 -> 765 ;
766 [label="entropy = 0.0\nsamples = 7\nvalue = [0, 7]"] ;
762 -> 766 ;
767 [label="x[3] <= 5500.0\nentropy = 0.845\nsamples = 11\nvalue = [8, 3]"] ;
761 -> 767 ;
768 [label="x[1] <= 112375.0\nentropy = 0.918\nsamples = 3\nvalue = [1, 2]"] ;
767 -> 768 ;
769 [label="entropy = 0.0\nsamples = 1\nvalue = [1, 0]"] ;
768 -> 769 ;
770 [label="entropy = 0.0\nsamples = 2\nvalue = [0, 2]"] ;
768 -> 770 ;
771 [label="x[3] <= 27500.0\nentropy = 0.544\nsamples = 8\nvalue = [7, 1]"] ;
767 -> 771 ;
772 [label="entropy = 0.0\nsamples = 7\nvalue = [7, 0]"] ;
771 -> 772 ;
773 [label="entropy = 0.0\nsamples = 1\nvalue = [0, 1]"] ;
771 -> 773 ;
774 [label="x[2] <= 1.5\nentropy = 0.823\nsamples = 101\nvalue = [75, 26]"] ;
744 -> 774 ;
775 [label="x[3] <= 7100.0\nentropy = 0.912\nsamples = 58\nvalue = [39, 19]"] ;
774 -> 775 ;
776 [label="x[13] <= 0.5\nentropy = 0.997\nsamples = 32\nvalue = [17, 15]"] ;
775 -> 776 ;
777 [label="x[3] <= 1250.0\nentropy = 0.967\nsamples = 28\nvalue = [17, 11]"] ;
776 -> 777 ;
778 [label="entropy = 0.0\nsamples = 3\nvalue = [3, 0]"] ;
777 -> 778 ;
779 [label="entropy = 0.99\nsamples = 25\nvalue = [14.0, 11.0]"] ;
777 -> 779 ;
780 [label="entropy = 0.0\nsamples = 4\nvalue = [0, 4]"] ;
776 -> 780 ;
781 [label="x[3] <= 12900.0\nentropy = 0.619\nsamples = 26\nvalue = [22, 4]"] ;
775 -> 781 ;
782 [label="x[0] <= 30.5\nentropy = 0.297\nsamples = 19\nvalue = [18, 1]"] ;
781 -> 782 ;
783 [label="entropy = 0.0\nsamples = 16\nvalue = [16, 0]"] ;
782 -> 783 ;
784 [label="entropy = 0.918\nsamples = 3\nvalue = [2, 1]"] ;
782 -> 784 ;
785 [label="x[6] <= 6.5\nentropy = 0.985\nsamples = 7\nvalue = [4, 3]"] ;
781 -> 785 ;
786 [label="entropy = 0.0\nsamples = 3\nvalue = [0, 3]"] ;
785 -> 786 ;
787 [label="entropy = 0.0\nsamples = 4\nvalue = [4, 0]"] ;
785 -> 787 ;
788 [label="x[5] <= 0.135\nentropy = 0.641\nsamples = 43\nvalue = [36.0, 7.0]"] ;
774 -> 788 ;
789 [label="entropy = 0.0\nsamples = 19\nvalue = [19, 0]"] ;
788 -> 789 ;
790 [label="x[3] <= 5200.0\nentropy = 0.871\nsamples = 24\nvalue = [17, 7]"] ;
788 -> 790 ;
791 [label="x[0] <= 21.5\nentropy = 0.811\nsamples = 4\nvalue = [1, 3]"] ;
790 -> 791 ;
792 [label="entropy = 0.0\nsamples = 1\nvalue = [1, 0]"] ;
791 -> 792 ;
793 [label="entropy = 0.0\nsamples = 3\nvalue = [0, 3]"] ;
791 -> 793 ;
794 [label="x[5] <= 0.215\nentropy = 0.722\nsamples = 20\nvalue = [16, 4]"] ;
790 -> 794 ;
795 [label="entropy = 0.946\nsamples = 11\nvalue = [7, 4]"] ;
794 -> 795 ;
796 [label="entropy = 0.0\nsamples = 9\nvalue = [9, 0]"] ;
794 -> 796 ;
797 [label="entropy = 0.0\nsamples = 276\nvalue = [0, 276]"] ;
743 -> 797 ;
798 [label="x[11] <= 0.5\nentropy = 0.999\nsamples = 2306\nvalue = [1197.0, 1109.0]"] ;
696 -> 798 ;
799 [label="x[14] <= 0.5\nentropy = 0.98\nsamples = 1937\nvalue = [1130, 807]"] ;
798 -> 799 ;
800 [label="x[1] <= 44954.0\nentropy = 0.893\nsamples = 1464\nvalue = [1011, 453]"] ;
799 -> 800 ;
801 [label="x[13] <= 0.5\nentropy = 0.995\nsamples = 447\nvalue = [243, 204]"] ;
800 -> 801 ;
802 [label="x[4] <= 15.475\nentropy = 0.974\nsamples = 403\nvalue = [240.0, 163.0]"] ;
801 -> 802 ;
803 [label="x[3] <= 8275.0\nentropy = 0.891\nsamples = 198\nvalue = [137, 61]"] ;
802 -> 803 ;
804 [label="x[4] <= 14.73\nentropy = 0.698\nsamples = 138\nvalue = [112, 26]"] ;
803 -> 804 ;
805 [label="entropy = 0.402\nsamples = 50\nvalue = [46, 4]"] ;
804 -> 805 ;
806 [label="entropy = 0.811\nsamples = 88\nvalue = [66, 22]"] ;
804 -> 806 ;
807 [label="x[5] <= 0.285\nentropy = 0.98\nsamples = 60\nvalue = [25, 35]"] ;
803 -> 807 ;
808 [label="entropy = 0.918\nsamples = 30\nvalue = [20, 10]"] ;
807 -> 808 ;
809 [label="entropy = 0.65\nsamples = 30\nvalue = [5, 25]"] ;
807 -> 809 ;
810 [label="x[3] <= 13112.5\nentropy = 1.0\nsamples = 205\nvalue = [103, 102]"] ;
802 -> 810 ;
811 [label="x[5] <= 0.305\nentropy = 0.993\nsamples = 188\nvalue = [103, 85]"] ;
810 -> 811 ;
812 [label="entropy = 0.962\nsamples = 166\nvalue = [102, 64]"] ;
811 -> 812 ;
813 [label="entropy = 0.267\nsamples = 22\nvalue = [1, 21]"] ;
811 -> 813 ;
814 [label="entropy = 0.0\nsamples = 17\nvalue = [0, 17]"] ;
810 -> 814 ;
815 [label="x[0] <= 31.5\nentropy = 0.359\nsamples = 44\nvalue = [3, 41]"] ;
801 -> 815 ;
816 [label="entropy = 0.0\nsamples = 36\nvalue = [0, 36]"] ;
815 -> 816 ;
817 [label="x[20] <= 0.5\nentropy = 0.954\nsamples = 8\nvalue = [3, 5]"] ;
815 -> 817 ;
818 [label="entropy = 0.0\nsamples = 2\nvalue = [2, 0]"] ;
817 -> 818 ;
819 [label="x[0] <= 41.5\nentropy = 0.65\nsamples = 6\nvalue = [1, 5]"] ;
817 -> 819 ;
820 [label="entropy = 0.0\nsamples = 3\nvalue = [0, 3]"] ;
819 -> 820 ;
821 [label="entropy = 0.918\nsamples = 3\nvalue = [1, 2]"] ;
819 -> 821 ;
822 [label="x[3] <= 17225.0\nentropy = 0.803\nsamples = 1017\nvalue = [768, 249]"] ;
800 -> 822 ;
823 [label="x[5] <= 0.275\nentropy = 0.655\nsamples = 812\nvalue = [675, 137]"] ;
822 -> 823 ;
824 [label="x[1] <= 59780.0\nentropy = 0.622\nsamples = 781\nvalue = [660.0, 121.0]"] ;
823 -> 824 ;
825 [label="x[13] <= 0.5\nentropy = 0.735\nsamples = 310\nvalue = [246, 64]"] ;
824 -> 825 ;
826 [label="entropy = 0.666\nsamples = 259\nvalue = [214, 45]"] ;
825 -> 826 ;
827 [label="entropy = 0.953\nsamples = 51\nvalue = [32, 19]"] ;
825 -> 827 ;
828 [label="x[16] <= 0.5\nentropy = 0.532\nsamples = 471\nvalue = [414, 57]"] ;
824 -> 828 ;
829 [label="entropy = 0.582\nsamples = 359\nvalue = [309, 50]"] ;
828 -> 829 ;
830 [label="entropy = 0.337\nsamples = 112\nvalue = [105, 7]"] ;
828 -> 830 ;
831 [label="x[4] <= 15.405\nentropy = 0.999\nsamples = 31\nvalue = [15, 16]"] ;
823 -> 831 ;
832 [label="x[6] <= 5.0\nentropy = 0.722\nsamples = 10\nvalue = [8, 2]"] ;
831 -> 832 ;
833 [label="entropy = 1.0\nsamples = 4\nvalue = [2, 2]"] ;
832 -> 833 ;
834 [label="entropy = 0.0\nsamples = 6\nvalue = [6, 0]"] ;
832 -> 834 ;
835 [label="x[5] <= 0.305\nentropy = 0.918\nsamples = 21\nvalue = [7, 14]"] ;
831 -> 835 ;
836 [label="entropy = 0.997\nsamples = 15\nvalue = [7, 8]"] ;
835 -> 836 ;
837 [label="entropy = 0.0\nsamples = 6\nvalue = [0, 6]"] ;
835 -> 837 ;
838 [label="x[0] <= 22.5\nentropy = 0.994\nsamples = 205\nvalue = [93.0, 112.0]"] ;
822 -> 838 ;
839 [label="x[1] <= 64626.5\nentropy = 0.629\nsamples = 19\nvalue = [3, 16]"] ;
838 -> 839 ;
840 [label="entropy = 0.0\nsamples = 9\nvalue = [0, 9]"] ;
839 -> 840 ;
841 [label="x[4] <= 15.085\nentropy = 0.881\nsamples = 10\nvalue = [3, 7]"] ;
839 -> 841 ;
842 [label="entropy = 0.0\nsamples = 4\nvalue = [0, 4]"] ;
841 -> 842 ;
843 [label="entropy = 1.0\nsamples = 6\nvalue = [3, 3]"] ;
841 -> 843 ;
844 [label="x[5] <= 0.305\nentropy = 0.999\nsamples = 186\nvalue = [90, 96]"] ;
838 -> 844 ;
845 [label="x[6] <= 14.0\nentropy = 0.711\nsamples = 108\nvalue = [87, 21]"] ;
844 -> 845 ;
846 [label="entropy = 0.592\nsamples = 98\nvalue = [84, 14]"] ;
845 -> 846 ;
847 [label="entropy = 0.881\nsamples = 10\nvalue = [3, 7]"] ;
845 -> 847 ;
848 [label="x[6] <= 3.5\nentropy = 0.235\nsamples = 78\nvalue = [3, 75]"] ;
844 -> 848 ;
849 [label="entropy = 0.516\nsamples = 26\nvalue = [3, 23]"] ;
848 -> 849 ;
850 [label="entropy = 0.0\nsamples = 52\nvalue = [0, 52]"] ;
848 -> 850 ;
851 [label="x[19] <= 0.5\nentropy = 0.814\nsamples = 473\nvalue = [119.0, 354.0]"] ;
799 -> 851 ;
852 [label="x[5] <= 0.285\nentropy = 0.609\nsamples = 408\nvalue = [61, 347]"] ;
851 -> 852 ;
853 [label="x[6] <= 2.5\nentropy = 0.719\nsamples = 297\nvalue = [59, 238]"] ;
852 -> 853 ;
854 [label="x[3] <= 10400.0\nentropy = 0.431\nsamples = 68\nvalue = [6, 62]"] ;
853 -> 854 ;
855 [label="x[1] <= 35500.0\nentropy = 0.536\nsamples = 49\nvalue = [6, 43]"] ;
854 -> 855 ;
856 [label="entropy = 0.0\nsamples = 18\nvalue = [0, 18]"] ;
855 -> 856 ;
857 [label="entropy = 0.709\nsamples = 31\nvalue = [6, 25]"] ;
855 -> 857 ;
858 [label="entropy = 0.0\nsamples = 19\nvalue = [0, 19]"] ;
854 -> 858 ;
859 [label="x[2] <= 4.5\nentropy = 0.781\nsamples = 229\nvalue = [53, 176]"] ;
853 -> 859 ;
860 [label="x[3] <= 1450.0\nentropy = 0.896\nsamples = 96\nvalue = [30, 66]"] ;
859 -> 860 ;
861 [label="entropy = 0.0\nsamples = 2\nvalue = [2, 0]"] ;
860 -> 861 ;
862 [label="entropy = 0.879\nsamples = 94\nvalue = [28, 66]"] ;
860 -> 862 ;
863 [label="x[1] <= 100598.0\nentropy = 0.664\nsamples = 133\nvalue = [23, 110]"] ;
859 -> 863 ;
864 [label="entropy = 0.635\nsamples = 131\nvalue = [21, 110]"] ;
863 -> 864 ;
865 [label="entropy = 0.0\nsamples = 2\nvalue = [2, 0]"] ;
863 -> 865 ;
866 [label="x[6] <= 7.5\nentropy = 0.13\nsamples = 111\nvalue = [2, 109]"] ;
852 -> 866 ;
867 [label="entropy = 0.0\nsamples = 74\nvalue = [0, 74]"] ;
866 -> 867 ;
868 [label="x[5] <= 0.335\nentropy = 0.303\nsamples = 37\nvalue = [2, 35]"] ;
866 -> 868 ;
869 [label="x[4] <= 15.08\nentropy = 0.544\nsamples = 16\nvalue = [2, 14]"] ;
868 -> 869 ;
870 [label="entropy = 0.0\nsamples = 4\nvalue = [0, 4]"] ;
869 -> 870 ;
871 [label="entropy = 0.65\nsamples = 12\nvalue = [2, 10]"] ;
869 -> 871 ;
872 [label="entropy = 0.0\nsamples = 21\nvalue = [0, 21]"] ;
868 -> 872 ;
873 [label="x[5] <= 0.235\nentropy = 0.493\nsamples = 65\nvalue = [58, 7]"] ;
851 -> 873 ;
874 [label="x[5] <= 0.125\nentropy = 0.301\nsamples = 56\nvalue = [53, 3]"] ;
873 -> 874 ;
875 [label="x[2] <= 12.5\nentropy = 0.469\nsamples = 30\nvalue = [27, 3]"] ;
874 -> 875 ;
876 [label="x[3] <= 3350.0\nentropy = 0.362\nsamples = 29\nvalue = [27, 2]"] ;
875 -> 876 ;
877 [label="entropy = 0.65\nsamples = 12\nvalue = [10, 2]"] ;
876 -> 877 ;
878 [label="entropy = 0.0\nsamples = 17\nvalue = [17, 0]"] ;
876 -> 878 ;
879 [label="entropy = 0.0\nsamples = 1\nvalue = [0, 1]"] ;
875 -> 879 ;
880 [label="entropy = 0.0\nsamples = 26\nvalue = [26, 0]"] ;
874 -> 880 ;
881 [label="x[4] <= 15.615\nentropy = 0.991\nsamples = 9\nvalue = [5, 4]"] ;
873 -> 881 ;
882 [label="x[2] <= 9.5\nentropy = 0.954\nsamples = 8\nvalue = [5, 3]"] ;
881 -> 882 ;
883 [label="x[3] <= 12400.0\nentropy = 0.65\nsamples = 6\nvalue = [5, 1]"] ;
882 -> 883 ;
884 [label="entropy = 0.0\nsamples = 5\nvalue = [5, 0]"] ;
883 -> 884 ;
885 [label="entropy = 0.0\nsamples = 1\nvalue = [0, 1]"] ;
883 -> 885 ;
886 [label="entropy = 0.0\nsamples = 2\nvalue = [0, 2]"] ;
882 -> 886 ;
887 [label="entropy = 0.0\nsamples = 1\nvalue = [0, 1]"] ;
881 -> 887 ;
888 [label="x[19] <= 0.5\nentropy = 0.684\nsamples = 369\nvalue = [67, 302]"] ;
798 -> 888 ;
889 [label="x[4] <= 18.12\nentropy = 0.196\nsamples = 297\nvalue = [9, 288]"] ;
888 -> 889 ;
890 [label="x[4] <= 15.005\nentropy = 0.166\nsamples = 286\nvalue = [7, 279]"] ;
889 -> 890 ;
891 [label="x[24] <= 0.5\nentropy = 0.34\nsamples = 79\nvalue = [5, 74]"] ;
890 -> 891 ;
892 [label="x[1] <= 131000.0\nentropy = 0.511\nsamples = 44\nvalue = [5, 39]"] ;
891 -> 892 ;
893 [label="x[5] <= 0.205\nentropy = 0.446\nsamples = 43\nvalue = [4, 39]"] ;
892 -> 893 ;
894 [label="entropy = 0.235\nsamples = 26\nvalue = [1, 25]"] ;
893 -> 894 ;
895 [label="entropy = 0.672\nsamples = 17\nvalue = [3, 14]"] ;
893 -> 895 ;
896 [label="entropy = 0.0\nsamples = 1\nvalue = [1, 0]"] ;
892 -> 896 ;
897 [label="entropy = 0.0\nsamples = 35\nvalue = [0, 35]"] ;
891 -> 897 ;
898 [label="x[4] <= 16.47\nentropy = 0.079\nsamples = 207\nvalue = [2, 205]"] ;
890 -> 898 ;
899 [label="entropy = 0.0\nsamples = 150\nvalue = [0, 150]"] ;
898 -> 899 ;
900 [label="x[1] <= 48500.0\nentropy = 0.219\nsamples = 57\nvalue = [2, 55]"] ;
898 -> 900 ;
901 [label="x[5] <= 0.21\nentropy = 0.371\nsamples = 28\nvalue = [2, 26]"] ;
900 -> 901 ;
902 [label="entropy = 0.811\nsamples = 8\nvalue = [2, 6]"] ;
901 -> 902 ;
903 [label="entropy = 0.0\nsamples = 20\nvalue = [0, 20]"] ;
901 -> 903 ;
904 [label="entropy = 0.0\nsamples = 29\nvalue = [0, 29]"] ;
900 -> 904 ;
905 [label="x[5] <= 0.195\nentropy = 0.684\nsamples = 11\nvalue = [2, 9]"] ;
889 -> 905 ;
906 [label="x[20] <= 0.5\nentropy = 0.918\nsamples = 6\nvalue = [2, 4]"] ;
905 -> 906 ;
907 [label="x[3] <= 7500.0\nentropy = 0.722\nsamples = 5\nvalue = [1, 4]"] ;
906 -> 907 ;
908 [label="entropy = 0.0\nsamples = 3\nvalue = [0, 3]"] ;
907 -> 908 ;
909 [label="x[5] <= 0.16\nentropy = 1.0\nsamples = 2\nvalue = [1, 1]"] ;
907 -> 909 ;
910 [label="entropy = 0.0\nsamples = 1\nvalue = [0, 1]"] ;
909 -> 910 ;
911 [label="entropy = 0.0\nsamples = 1\nvalue = [1, 0]"] ;
909 -> 911 ;
912 [label="entropy = 0.0\nsamples = 1\nvalue = [1, 0]"] ;
906 -> 912 ;
913 [label="entropy = 0.0\nsamples = 5\nvalue = [0, 5]"] ;
905 -> 913 ;
914 [label="x[5] <= 0.305\nentropy = 0.711\nsamples = 72\nvalue = [58, 14]"] ;
888 -> 914 ;
915 [label="x[4] <= 14.755\nentropy = 0.569\nsamples = 67\nvalue = [58.0, 9.0]"] ;
914 -> 915 ;
916 [label="entropy = 0.0\nsamples = 30\nvalue = [30, 0]"] ;
915 -> 916 ;
917 [label="x[0] <= 23.5\nentropy = 0.8\nsamples = 37\nvalue = [28, 9]"] ;
915 -> 917 ;
918 [label="entropy = 0.0\nsamples = 14\nvalue = [14, 0]"] ;
917 -> 918 ;
919 [label="x[0] <= 30.5\nentropy = 0.966\nsamples = 23\nvalue = [14, 9]"] ;
917 -> 919 ;
920 [label="x[25] <= 0.5\nentropy = 0.985\nsamples = 21\nvalue = [12, 9]"] ;
919 -> 920 ;
921 [label="entropy = 0.996\nsamples = 13\nvalue = [6, 7]"] ;
920 -> 921 ;
922 [label="entropy = 0.811\nsamples = 8\nvalue = [6, 2]"] ;
920 -> 922 ;
923 [label="entropy = 0.0\nsamples = 2\nvalue = [2, 0]"] ;
919 -> 923 ;
924 [label="entropy = 0.0\nsamples = 5\nvalue = [0, 5]"] ;
914 -> 924 ;
}