digraph Tree {
node [shape=box, fontname="helvetica"] ;
edge [fontname="helvetica"] ;
0 [label="x[10] <= 0.5\nentropy = 0.59\nsamples = 58645\nvalue = [50295, 8350]"] ;
1 [label="x[4] <= 14.04\nentropy = 0.307\nsamples = 28051\nvalue = [26510, 1541]"] ;
0 -> 1 [labeldistance=2.5, labelangle=45, headlabel="True"] ;
2 [label="x[4] <= 11.13\nentropy = 0.179\nsamples = 25031\nvalue = [24356, 675]"] ;
1 -> 2 ;
3 [label="x[5] <= 0.255\nentropy = 0.11\nsamples = 17986\nvalue = [17722, 264]"] ;
2 -> 3 ;
4 [label="x[7] <= 0.5\nentropy = 0.092\nsamples = 16446\nvalue = [16252, 194]"] ;
3 -> 4 ;
5 [label="x[1] <= 36060.0\nentropy = 0.028\nsamples = 1413\nvalue = [1409, 4]"] ;
4 -> 5 ;
6 [label="x[4] <= 7.95\nentropy = 0.101\nsamples = 303\nvalue = [299, 4]"] ;
5 -> 6 ;
7 [label="x[3] <= 1900.0\nentropy = 0.169\nsamples = 160\nvalue = [156, 4]"] ;
6 -> 7 ;
8 [label="x[1] <= 24500.0\nentropy = 0.592\nsamples = 14\nvalue = [12, 2]"] ;
7 -> 8 ;
9 [label="x[12] <= 0.5\nentropy = 1.0\nsamples = 4\nvalue = [2, 2]"] ;
8 -> 9 ;
10 [label="entropy = 0.918\nsamples = 3\nvalue = [1, 2]"] ;
9 -> 10 ;
11 [label="entropy = 0.0\nsamples = 1\nvalue = [1, 0]"] ;
9 -> 11 ;
12 [label="entropy = 0.0\nsamples = 10\nvalue = [10, 0]"] ;
8 -> 12 ;
13 [label="x[11] <= 0.5\nentropy = 0.104\nsamples = 146\nvalue = [144, 2]"] ;
7 -> 13 ;
14 [label="x[2] <= 2.5\nentropy = 0.06\nsamples = 143\nvalue = [142, 1]"] ;
13 -> 14 ;
15 [label="entropy = 0.135\nsamples = 53\nvalue = [52, 1]"] ;
14 -> 15 ;
16 [label="entropy = 0.0\nsamples = 90\nvalue = [90, 0]"] ;
14 -> 16 ;
17 [label="x[8] <= 0.5\nentropy = 0.918\nsamples = 3\nvalue = [2, 1]"] ;
13 -> 17 ;
18 [label="entropy = 1.0\nsamples = 2\nvalue = [1, 1]"] ;
17 -> 18 ;
19 [label="entropy = 0.0\nsamples = 1\nvalue = [1, 0]"] ;
17 -> 19 ;
20 [label="entropy = 0.0\nsamples = 143\nvalue = [143, 0]"] ;
6 -> 20 ;
21 [label="entropy = 0.0\nsamples = 1110\nvalue = [1110, 0]"] ;
5 -> 21 ;
22 [label="x[1] <= 88148.0\nentropy = 0.098\nsamples = 15033\nvalue = [14843, 190]"] ;
4 -> 22 ;
23 [label="x[4] <= 7.89\nentropy = 0.115\nsamples = 10653\nvalue = [10489, 164]"] ;
22 -> 23 ;
24 [label="x[16] <= 0.5\nentropy = 0.087\nsamples = 6482\nvalue = [6411, 71]"] ;
23 -> 24 ;
25 [label="x[1] <= 75290.5\nentropy = 0.102\nsamples = 5363\nvalue = [5292, 71]"] ;
24 -> 25 ;
26 [label="x[13] <= 0.5\nentropy = 0.086\nsamples = 4520\nvalue = [4471, 49]"] ;
25 -> 26 ;
27 [label="entropy = 0.07\nsamples = 3903\nvalue = [3870, 33]"] ;
26 -> 27 ;
28 [label="entropy = 0.174\nsamples = 617\nvalue = [601, 16]"] ;
26 -> 28 ;
29 [label="x[6] <= 3.5\nentropy = 0.174\nsamples = 843\nvalue = [821, 22]"] ;
25 -> 29 ;
30 [label="entropy = 0.084\nsamples = 287\nvalue = [284.0, 3.0]"] ;
29 -> 30 ;
31 [label="entropy = 0.215\nsamples = 556\nvalue = [537, 19]"] ;
29 -> 31 ;
32 [label="entropy = 0.0\nsamples = 1119\nvalue = [1119, 0]"] ;
24 -> 32 ;
33 [label="x[16] <= 0.5\nentropy = 0.154\nsamples = 4171\nvalue = [4078, 93]"] ;
23 -> 33 ;
34 [label="x[3] <= 3150.0\nentropy = 0.175\nsamples = 3422\nvalue = [3332, 90]"] ;
33 -> 34 ;
35 [label="x[2] <= 0.5\nentropy = 0.078\nsamples = 312\nvalue = [309, 3]"] ;
34 -> 35 ;
36 [label="entropy = 0.454\nsamples = 21\nvalue = [19, 2]"] ;
35 -> 36 ;
37 [label="entropy = 0.033\nsamples = 291\nvalue = [290, 1]"] ;
35 -> 37 ;
38 [label="x[2] <= 20.5\nentropy = 0.184\nsamples = 3110\nvalue = [3023, 87]"] ;
34 -> 38 ;
39 [label="entropy = 0.181\nsamples = 3104\nvalue = [3019, 85]"] ;
38 -> 39 ;
40 [label="entropy = 0.918\nsamples = 6\nvalue = [4, 2]"] ;
38 -> 40 ;
41 [label="x[0] <= 43.5\nentropy = 0.038\nsamples = 749\nvalue = [746.0, 3.0]"] ;
33 -> 41 ;
42 [label="x[1] <= 49350.0\nentropy = 0.027\nsamples = 729\nvalue = [727.0, 2.0]"] ;
41 -> 42 ;
43 [label="entropy = 0.091\nsamples = 172\nvalue = [170, 2]"] ;
42 -> 43 ;
44 [label="entropy = 0.0\nsamples = 557\nvalue = [557, 0]"] ;
42 -> 44 ;
45 [label="x[5] <= 0.165\nentropy = 0.286\nsamples = 20\nvalue = [19, 1]"] ;
41 -> 45 ;
46 [label="entropy = 0.0\nsamples = 14\nvalue = [14, 0]"] ;
45 -> 46 ;
47 [label="entropy = 0.65\nsamples = 6\nvalue = [5, 1]"] ;
45 -> 47 ;
48 [label="x[5] <= 0.225\nentropy = 0.052\nsamples = 4380\nvalue = [4354, 26]"] ;
22 -> 48 ;
49 [label="x[13] <= 0.5\nentropy = 0.043\nsamples = 4286\nvalue = [4266, 20]"] ;
48 -> 49 ;
50 [label="x[3] <= 1600.0\nentropy = 0.034\nsamples = 3662\nvalue = [3649, 13]"] ;
49 -> 50 ;
51 [label="x[4] <= 7.595\nentropy = 0.381\nsamples = 27\nvalue = [25, 2]"] ;
50 -> 51 ;
52 [label="entropy = 0.684\nsamples = 11\nvalue = [9, 2]"] ;
51 -> 52 ;
53 [label="entropy = 0.0\nsamples = 16\nvalue = [16, 0]"] ;
51 -> 53 ;
54 [label="x[3] <= 17812.5\nentropy = 0.03\nsamples = 3635\nvalue = [3624, 11]"] ;
50 -> 54 ;
55 [label="entropy = 0.02\nsamples = 3128\nvalue = [3122, 6]"] ;
54 -> 55 ;
56 [label="entropy = 0.08\nsamples = 507\nvalue = [502, 5]"] ;
54 -> 56 ;
57 [label="x[0] <= 23.5\nentropy = 0.089\nsamples = 624\nvalue = [617, 7]"] ;
49 -> 57 ;
58 [label="entropy = 0.0\nsamples = 1\nvalue = [0, 1]"] ;
57 -> 58 ;
59 [label="x[17] <= 0.5\nentropy = 0.078\nsamples = 623\nvalue = [617, 6]"] ;
57 -> 59 ;
60 [label="entropy = 0.155\nsamples = 222\nvalue = [217, 5]"] ;
59 -> 60 ;
61 [label="entropy = 0.025\nsamples = 401\nvalue = [400, 1]"] ;
59 -> 61 ;
62 [label="x[2] <= 13.5\nentropy = 0.342\nsamples = 94\nvalue = [88.0, 6.0]"] ;
48 -> 62 ;
63 [label="x[0] <= 24.5\nentropy = 0.215\nsamples = 88\nvalue = [85, 3]"] ;
62 -> 63 ;
64 [label="x[0] <= 23.5\nentropy = 0.371\nsamples = 28\nvalue = [26, 2]"] ;
63 -> 64 ;
65 [label="entropy = 0.0\nsamples = 17\nvalue = [17, 0]"] ;
64 -> 65 ;
66 [label="entropy = 0.684\nsamples = 11\nvalue = [9, 2]"] ;
64 -> 66 ;
67 [label="x[4] <= 11.05\nentropy = 0.122\nsamples = 60\nvalue = [59, 1]"] ;
63 -> 67 ;
68 [label="entropy = 0.0\nsamples = 56\nvalue = [56, 0]"] ;
67 -> 68 ;
69 [label="entropy = 0.811\nsamples = 4\nvalue = [3, 1]"] ;
67 -> 69 ;
70 [label="x[1] <= 90900.0\nentropy = 1.0\nsamples = 6\nvalue = [3, 3]"] ;
62 -> 70 ;
71 [label="entropy = 0.0\nsamples = 1\nvalue = [1, 0]"] ;
70 -> 71 ;
72 [label="x[6] <= 8.0\nentropy = 0.971\nsamples = 5\nvalue = [2, 3]"] ;
70 -> 72 ;
73 [label="entropy = 0.0\nsamples = 1\nvalue = [1, 0]"] ;
72 -> 73 ;
74 [label="entropy = 0.811\nsamples = 4\nvalue = [1, 3]"] ;
72 -> 74 ;
75 [label="x[9] <= 0.5\nentropy = 0.267\nsamples = 1540\nvalue = [1470, 70]"] ;
3 -> 75 ;
76 [label="x[1] <= 34087.0\nentropy = 0.3\nsamples = 1242\nvalue = [1176, 66]"] ;
75 -> 76 ;
77 [label="x[0] <= 34.5\nentropy = 0.475\nsamples = 147\nvalue = [132, 15]"] ;
76 -> 77 ;
78 [label="x[0] <= 25.5\nentropy = 0.375\nsamples = 138\nvalue = [128, 10]"] ;
77 -> 78 ;
79 [label="x[2] <= 2.5\nentropy = 0.267\nsamples = 88\nvalue = [84, 4]"] ;
78 -> 79 ;
80 [label="entropy = 0.0\nsamples = 27\nvalue = [27, 0]"] ;
79 -> 80 ;
81 [label="x[1] <= 28900.0\nentropy = 0.349\nsamples = 61\nvalue = [57, 4]"] ;
79 -> 81 ;
82 [label="entropy = 0.0\nsamples = 25\nvalue = [25, 0]"] ;
81 -> 82 ;
83 [label="entropy = 0.503\nsamples = 36\nvalue = [32, 4]"] ;
81 -> 83 ;
84 [label="x[4] <= 10.97\nentropy = 0.529\nsamples = 50\nvalue = [44, 6]"] ;
78 -> 84 ;
85 [label="x[0] <= 27.5\nentropy = 0.426\nsamples = 46\nvalue = [42, 4]"] ;
84 -> 85 ;
86 [label="entropy = 0.0\nsamples = 17\nvalue = [17, 0]"] ;
85 -> 86 ;
87 [label="entropy = 0.579\nsamples = 29\nvalue = [25, 4]"] ;
85 -> 87 ;
88 [label="x[15] <= 0.5\nentropy = 1.0\nsamples = 4\nvalue = [2, 2]"] ;
84 -> 88 ;
89 [label="entropy = 0.918\nsamples = 3\nvalue = [1, 2]"] ;
88 -> 89 ;
90 [label="entropy = 0.0\nsamples = 1\nvalue = [1, 0]"] ;
88 -> 90 ;
91 [label="x[6] <= 13.5\nentropy = 0.991\nsamples = 9\nvalue = [4, 5]"] ;
77 -> 91 ;
92 [label="entropy = 0.0\nsamples = 5\nvalue = [0, 5]"] ;
91 -> 92 ;
93 [label="entropy = 0.0\nsamples = 4\nvalue = [4, 0]"] ;
91 -> 93 ;
94 [label="x[16] <= 0.5\nentropy = 0.272\nsamples = 1095\nvalue = [1044, 51]"] ;
76 -> 94 ;
95 [label="x[3] <= 18100.0\nentropy = 0.311\nsamples = 896\nvalue = [846, 50]"] ;
94 -> 95 ;
96 [label="x[4] <= 10.605\nentropy = 0.249\nsamples = 530\nvalue = [508, 22]"] ;
95 -> 96 ;
97 [label="x[6] <= 9.5\nentropy = 0.192\nsamples = 441\nvalue = [428, 13]"] ;
96 -> 97 ;
98 [label="entropy = 0.161\nsamples = 383\nvalue = [374, 9]"] ;
97 -> 98 ;
99 [label="entropy = 0.362\nsamples = 58\nvalue = [54, 4]"] ;
97 -> 99 ;
100 [label="x[0] <= 26.5\nentropy = 0.473\nsamples = 89\nvalue = [80, 9]"] ;
96 -> 100 ;
101 [label="entropy = 0.162\nsamples = 42\nvalue = [41, 1]"] ;
100 -> 101 ;
102 [label="entropy = 0.658\nsamples = 47\nvalue = [39, 8]"] ;
100 -> 102 ;
103 [label="x[18] <= 0.5\nentropy = 0.39\nsamples = 366\nvalue = [338, 28]"] ;
95 -> 103 ;
104 [label="x[2] <= 16.0\nentropy = 0.288\nsamples = 159\nvalue = [151, 8]"] ;
103 -> 104 ;
105 [label="entropy = 0.235\nsamples = 156\nvalue = [150, 6]"] ;
104 -> 105 ;
106 [label="entropy = 0.918\nsamples = 3\nvalue = [1, 2]"] ;
104 -> 106 ;
107 [label="x[1] <= 64350.0\nentropy = 0.458\nsamples = 207\nvalue = [187, 20]"] ;
103 -> 107 ;
108 [label="entropy = 0.791\nsamples = 59\nvalue = [45, 14]"] ;
107 -> 108 ;
109 [label="entropy = 0.245\nsamples = 148\nvalue = [142, 6]"] ;
107 -> 109 ;
110 [label="x[7] <= 0.5\nentropy = 0.046\nsamples = 199\nvalue = [198, 1]"] ;
94 -> 110 ;
111 [label="entropy = 0.0\nsamples = 1\nvalue = [0, 1]"] ;
110 -> 111 ;
112 [label="entropy = 0.0\nsamples = 198\nvalue = [198, 0]"] ;
110 -> 112 ;
113 [label="x[1] <= 28902.0\nentropy = 0.103\nsamples = 298\nvalue = [294, 4]"] ;
75 -> 113 ;
114 [label="x[3] <= 8900.0\nentropy = 0.247\nsamples = 73\nvalue = [70, 3]"] ;
113 -> 114 ;
115 [label="entropy = 0.0\nsamples = 47\nvalue = [47, 0]"] ;
114 -> 115 ;
116 [label="x[6] <= 4.5\nentropy = 0.516\nsamples = 26\nvalue = [23, 3]"] ;
114 -> 116 ;
117 [label="entropy = 0.0\nsamples = 18\nvalue = [18, 0]"] ;
116 -> 117 ;
118 [label="x[4] <= 9.695\nentropy = 0.954\nsamples = 8\nvalue = [5, 3]"] ;
116 -> 118 ;
119 [label="x[5] <= 0.325\nentropy = 1.0\nsamples = 6\nvalue = [3, 3]"] ;
118 -> 119 ;
120 [label="entropy = 0.0\nsamples = 1\nvalue = [0, 1]"] ;
119 -> 120 ;
121 [label="entropy = 0.971\nsamples = 5\nvalue = [3, 2]"] ;
119 -> 121 ;
122 [label="entropy = 0.0\nsamples = 2\nvalue = [2, 0]"] ;
118 -> 122 ;
123 [label="x[2] <= 7.5\nentropy = 0.041\nsamples = 225\nvalue = [224, 1]"] ;
113 -> 123 ;
124 [label="entropy = 0.0\nsamples = 172\nvalue = [172, 0]"] ;
123 -> 124 ;
125 [label="x[2] <= 8.5\nentropy = 0.135\nsamples = 53\nvalue = [52, 1]"] ;
123 -> 125 ;
126 [label="x[12] <= 0.5\nentropy = 0.353\nsamples = 15\nvalue = [14, 1]"] ;
125 -> 126 ;
127 [label="entropy = 0.0\nsamples = 9\nvalue = [9, 0]"] ;
126 -> 127 ;
128 [label="x[3] <= 12750.0\nentropy = 0.65\nsamples = 6\nvalue = [5, 1]"] ;
126 -> 128 ;
129 [label="entropy = 1.0\nsamples = 2\nvalue = [1, 1]"] ;
128 -> 129 ;
130 [label="entropy = 0.0\nsamples = 4\nvalue = [4, 0]"] ;
128 -> 130 ;
131 [label="entropy = 0.0\nsamples = 38\nvalue = [38, 0]"] ;
125 -> 131 ;
132 [label="x[20] <= 0.5\nentropy = 0.321\nsamples = 7045\nvalue = [6634, 411]"] ;
2 -> 132 ;
133 [label="x[9] <= 0.5\nentropy = 0.31\nsamples = 6980\nvalue = [6592, 388]"] ;
132 -> 133 ;
134 [label="x[5] <= 0.225\nentropy = 0.339\nsamples = 6008\nvalue = [5630, 378]"] ;
133 -> 134 ;
135 [label="x[1] <= 79699.5\nentropy = 0.297\nsamples = 4972\nvalue = [4711, 261]"] ;
134 -> 135 ;
136 [label="x[19] <= 0.5\nentropy = 0.394\nsamples = 2793\nvalue = [2576, 217]"] ;
135 -> 136 ;
137 [label="x[1] <= 44332.0\nentropy = 0.311\nsamples = 1465\nvalue = [1383, 82]"] ;
136 -> 137 ;
138 [label="x[1] <= 43750.0\nentropy = 0.515\nsamples = 235\nvalue = [208, 27]"] ;
137 -> 138 ;
139 [label="entropy = 0.465\nsamples = 223\nvalue = [201, 22]"] ;
138 -> 139 ;
140 [label="entropy = 0.98\nsamples = 12\nvalue = [7, 5]"] ;
138 -> 140 ;
141 [label="x[16] <= 0.5\nentropy = 0.264\nsamples = 1230\nvalue = [1175, 55]"] ;
137 -> 141 ;
142 [label="entropy = 0.3\nsamples = 1034\nvalue = [979, 55]"] ;
141 -> 142 ;
143 [label="entropy = 0.0\nsamples = 196\nvalue = [196, 0]"] ;
141 -> 143 ;
144 [label="x[1] <= 75870.0\nentropy = 0.474\nsamples = 1328\nvalue = [1193, 135]"] ;
136 -> 144 ;
145 [label="x[5] <= 0.045\nentropy = 0.459\nsamples = 1280\nvalue = [1156, 124]"] ;
144 -> 145 ;
146 [label="entropy = 0.204\nsamples = 94\nvalue = [91.0, 3.0]"] ;
145 -> 146 ;
147 [label="entropy = 0.475\nsamples = 1186\nvalue = [1065, 121]"] ;
145 -> 147 ;
148 [label="x[13] <= 0.5\nentropy = 0.777\nsamples = 48\nvalue = [37, 11]"] ;
144 -> 148 ;
149 [label="entropy = 0.61\nsamples = 40\nvalue = [34, 6]"] ;
148 -> 149 ;
150 [label="entropy = 0.954\nsamples = 8\nvalue = [3, 5]"] ;
148 -> 150 ;
151 [label="x[1] <= 99925.5\nentropy = 0.143\nsamples = 2179\nvalue = [2135.0, 44.0]"] ;
135 -> 151 ;
152 [label="x[1] <= 80082.0\nentropy = 0.207\nsamples = 892\nvalue = [863.0, 29.0]"] ;
151 -> 152 ;
153 [label="entropy = 0.0\nsamples = 191\nvalue = [191, 0]"] ;
152 -> 153 ;
154 [label="x[4] <= 13.085\nentropy = 0.249\nsamples = 701\nvalue = [672, 29]"] ;
152 -> 154 ;
155 [label="entropy = 0.182\nsamples = 507\nvalue = [493, 14]"] ;
154 -> 155 ;
156 [label="entropy = 0.393\nsamples = 194\nvalue = [179, 15]"] ;
154 -> 156 ;
157 [label="x[1] <= 106991.0\nentropy = 0.092\nsamples = 1287\nvalue = [1272.0, 15.0]"] ;
151 -> 157 ;
158 [label="entropy = 0.0\nsamples = 301\nvalue = [301, 0]"] ;
157 -> 158 ;
159 [label="x[1] <= 108900.0\nentropy = 0.114\nsamples = 986\nvalue = [971, 15]"] ;
157 -> 159 ;
160 [label="entropy = 0.516\nsamples = 26\nvalue = [23, 3]"] ;
159 -> 160 ;
161 [label="entropy = 0.097\nsamples = 960\nvalue = [948, 12]"] ;
159 -> 161 ;
162 [label="x[1] <= 59350.0\nentropy = 0.509\nsamples = 1036\nvalue = [919, 117]"] ;
134 -> 162 ;
163 [label="x[2] <= 1.5\nentropy = 0.624\nsamples = 514\nvalue = [434, 80]"] ;
162 -> 163 ;
164 [label="x[3] <= 10200.0\nentropy = 0.841\nsamples = 89\nvalue = [65, 24]"] ;
163 -> 164 ;
165 [label="x[0] <= 32.0\nentropy = 0.974\nsamples = 32\nvalue = [19, 13]"] ;
164 -> 165 ;
166 [label="entropy = 0.906\nsamples = 28\nvalue = [19, 9]"] ;
165 -> 166 ;
167 [label="entropy = 0.0\nsamples = 4\nvalue = [0, 4]"] ;
165 -> 167 ;
168 [label="x[1] <= 35000.0\nentropy = 0.708\nsamples = 57\nvalue = [46, 11]"] ;
164 -> 168 ;
169 [label="entropy = 0.918\nsamples = 6\nvalue = [2, 4]"] ;
168 -> 169 ;
170 [label="entropy = 0.577\nsamples = 51\nvalue = [44.0, 7.0]"] ;
168 -> 170 ;
171 [label="x[16] <= 0.5\nentropy = 0.562\nsamples = 425\nvalue = [369.0, 56.0]"] ;
163 -> 171 ;
172 [label="x[6] <= 14.5\nentropy = 0.616\nsamples = 354\nvalue = [300, 54]"] ;
171 -> 172 ;
173 [label="entropy = 0.634\nsamples = 338\nvalue = [284.0, 54.0]"] ;
172 -> 173 ;
174 [label="entropy = 0.0\nsamples = 16\nvalue = [16, 0]"] ;
172 -> 174 ;
175 [label="x[2] <= 3.5\nentropy = 0.185\nsamples = 71\nvalue = [69, 2]"] ;
171 -> 175 ;
176 [label="entropy = 0.503\nsamples = 18\nvalue = [16, 2]"] ;
175 -> 176 ;
177 [label="entropy = 0.0\nsamples = 53\nvalue = [53, 0]"] ;
175 -> 177 ;
178 [label="x[6] <= 5.5\nentropy = 0.369\nsamples = 522\nvalue = [485, 37]"] ;
162 -> 178 ;
179 [label="x[1] <= 60500.0\nentropy = 0.447\nsamples = 300\nvalue = [272, 28]"] ;
178 -> 179 ;
180 [label="entropy = 0.0\nsamples = 46\nvalue = [46, 0]"] ;
179 -> 180 ;
181 [label="x[1] <= 61300.0\nentropy = 0.501\nsamples = 254\nvalue = [226, 28]"] ;
179 -> 181 ;
182 [label="entropy = 0.0\nsamples = 4\nvalue = [0, 4]"] ;
181 -> 182 ;
183 [label="entropy = 0.456\nsamples = 250\nvalue = [226, 24]"] ;
181 -> 183 ;
184 [label="x[1] <= 69500.0\nentropy = 0.245\nsamples = 222\nvalue = [213, 9]"] ;
178 -> 184 ;
185 [label="entropy = 0.0\nsamples = 79\nvalue = [79, 0]"] ;
184 -> 185 ;
186 [label="x[6] <= 15.5\nentropy = 0.339\nsamples = 143\nvalue = [134, 9]"] ;
184 -> 186 ;
187 [label="entropy = 0.296\nsamples = 134\nvalue = [127, 7]"] ;
186 -> 187 ;
188 [label="entropy = 0.764\nsamples = 9\nvalue = [7, 2]"] ;
186 -> 188 ;
189 [label="x[14] <= 0.5\nentropy = 0.083\nsamples = 972\nvalue = [962, 10]"] ;
133 -> 189 ;
190 [label="x[5] <= 0.145\nentropy = 0.062\nsamples = 819\nvalue = [813, 6]"] ;
189 -> 190 ;
191 [label="entropy = 0.0\nsamples = 351\nvalue = [351, 0]"] ;
190 -> 191 ;
192 [label="x[3] <= 3100.0\nentropy = 0.099\nsamples = 468\nvalue = [462, 6]"] ;
190 -> 192 ;
193 [label="x[18] <= 0.5\nentropy = 0.971\nsamples = 5\nvalue = [3, 2]"] ;
192 -> 193 ;
194 [label="entropy = 0.0\nsamples = 2\nvalue = [2, 0]"] ;
193 -> 194 ;
195 [label="x[2] <= 0.5\nentropy = 0.918\nsamples = 3\nvalue = [1, 2]"] ;
193 -> 195 ;
196 [label="entropy = 0.0\nsamples = 1\nvalue = [1, 0]"] ;
195 -> 196 ;
197 [label="entropy = 0.0\nsamples = 2\nvalue = [0, 2]"] ;
195 -> 197 ;
198 [label="x[0] <= 21.5\nentropy = 0.072\nsamples = 463\nvalue = [459, 4]"] ;
192 -> 198 ;
199 [label="x[1] <= 24498.0\nentropy = 0.503\nsamples = 18\nvalue = [16, 2]"] ;
198 -> 199 ;
200 [label="entropy = 0.918\nsamples = 6\nvalue = [4, 2]"] ;
199 -> 200 ;
201 [label="entropy = 0.0\nsamples = 12\nvalue = [12, 0]"] ;
199 -> 201 ;
202 [label="x[11] <= 0.5\nentropy = 0.042\nsamples = 445\nvalue = [443, 2]"] ;
198 -> 202 ;
203 [label="entropy = 0.023\nsamples = 444\nvalue = [443, 1]"] ;
202 -> 203 ;
204 [label="entropy = 0.0\nsamples = 1\nvalue = [0, 1]"] ;
202 -> 204 ;
205 [label="x[1] <= 29500.0\nentropy = 0.175\nsamples = 153\nvalue = [149, 4]"] ;
189 -> 205 ;
206 [label="x[5] <= 0.28\nentropy = 0.529\nsamples = 25\nvalue = [22, 3]"] ;
205 -> 206 ;
207 [label="entropy = 0.0\nsamples = 18\nvalue = [18, 0]"] ;
206 -> 207 ;
208 [label="x[6] <= 4.5\nentropy = 0.985\nsamples = 7\nvalue = [4, 3]"] ;
206 -> 208 ;
209 [label="x[5] <= 0.32\nentropy = 0.722\nsamples = 5\nvalue = [4, 1]"] ;
208 -> 209 ;
210 [label="entropy = 0.0\nsamples = 1\nvalue = [0, 1]"] ;
209 -> 210 ;
211 [label="entropy = 0.0\nsamples = 4\nvalue = [4, 0]"] ;
209 -> 211 ;
212 [label="entropy = 0.0\nsamples = 2\nvalue = [0, 2]"] ;
208 -> 212 ;
213 [label="x[4] <= 11.42\nentropy = 0.066\nsamples = 128\nvalue = [127, 1]"] ;
205 -> 213 ;
214 [label="x[6] <= 3.5\nentropy = 0.371\nsamples = 14\nvalue = [13, 1]"] ;
213 -> 214 ;
215 [label="x[2] <= 9.0\nentropy = 0.592\nsamples = 7\nvalue = [6, 1]"] ;
214 -> 215 ;
216 [label="entropy = 0.0\nsamples = 5\nvalue = [5, 0]"] ;
215 -> 216 ;
217 [label="entropy = 1.0\nsamples = 2\nvalue = [1, 1]"] ;
215 -> 217 ;
218 [label="entropy = 0.0\nsamples = 7\nvalue = [7, 0]"] ;
214 -> 218 ;
219 [label="entropy = 0.0\nsamples = 114\nvalue = [114, 0]"] ;
213 -> 219 ;
220 [label="x[9] <= 0.5\nentropy = 0.937\nsamples = 65\nvalue = [42, 23]"] ;
132 -> 220 ;
221 [label="x[1] <= 111000.0\nentropy = 0.977\nsamples = 56\nvalue = [33, 23]"] ;
220 -> 221 ;
222 [label="x[14] <= 0.5\nentropy = 0.993\nsamples = 51\nvalue = [28.0, 23.0]"] ;
221 -> 222 ;
223 [label="x[1] <= 95000.0\nentropy = 0.956\nsamples = 45\nvalue = [28, 17]"] ;
222 -> 223 ;
224 [label="x[11] <= 0.5\nentropy = 0.918\nsamples = 42\nvalue = [28, 14]"] ;
223 -> 224 ;
225 [label="x[6] <= 3.5\nentropy = 0.672\nsamples = 34\nvalue = [28, 6]"] ;
224 -> 225 ;
226 [label="entropy = 0.0\nsamples = 10\nvalue = [10, 0]"] ;
225 -> 226 ;
227 [label="entropy = 0.811\nsamples = 24\nvalue = [18, 6]"] ;
225 -> 227 ;
228 [label="entropy = 0.0\nsamples = 8\nvalue = [0, 8]"] ;
224 -> 228 ;
229 [label="entropy = 0.0\nsamples = 3\nvalue = [0, 3]"] ;
223 -> 229 ;
230 [label="entropy = 0.0\nsamples = 6\nvalue = [0, 6]"] ;
222 -> 230 ;
231 [label="entropy = 0.0\nsamples = 5\nvalue = [5, 0]"] ;
221 -> 231 ;
232 [label="entropy = 0.0\nsamples = 9\nvalue = [9, 0]"] ;
220 -> 232 ;
233 [label="x[11] <= 0.5\nentropy = 0.864\nsamples = 3020\nvalue = [2154.0, 866.0]"] ;
1 -> 233 ;
234 [label="x[9] <= 0.5\nentropy = 0.753\nsamples = 2580\nvalue = [2023, 557]"] ;
233 -> 234 ;
235 [label="x[14] <= 0.5\nentropy = 0.812\nsamples = 2140\nvalue = [1604, 536]"] ;
234 -> 235 ;
236 [label="x[1] <= 59709.5\nentropy = 0.57\nsamples = 1729\nvalue = [1496, 233]"] ;
235 -> 236 ;
237 [label="x[19] <= 0.5\nentropy = 0.801\nsamples = 566\nvalue = [428, 138]"] ;
236 -> 237 ;
238 [label="x[15] <= 0.5\nentropy = 0.859\nsamples = 400\nvalue = [287.0, 113.0]"] ;
237 -> 238 ;
239 [label="x[1] <= 58325.0\nentropy = 0.794\nsamples = 301\nvalue = [229, 72]"] ;
238 -> 239 ;
240 [label="x[3] <= 3612.5\nentropy = 0.756\nsamples = 285\nvalue = [223, 62]"] ;
239 -> 240 ;
241 [label="entropy = 0.33\nsamples = 33\nvalue = [31, 2]"] ;
240 -> 241 ;
242 [label="entropy = 0.792\nsamples = 252\nvalue = [192, 60]"] ;
240 -> 242 ;
243 [label="x[0] <= 34.0\nentropy = 0.954\nsamples = 16\nvalue = [6, 10]"] ;
239 -> 243 ;
244 [label="entropy = 0.994\nsamples = 11\nvalue = [6, 5]"] ;
243 -> 244 ;
245 [label="entropy = 0.0\nsamples = 5\nvalue = [0, 5]"] ;
243 -> 245 ;
246 [label="x[2] <= 2.5\nentropy = 0.979\nsamples = 99\nvalue = [58, 41]"] ;
238 -> 246 ;
247 [label="x[1] <= 41500.0\nentropy = 0.967\nsamples = 28\nvalue = [11, 17]"] ;
246 -> 247 ;
248 [label="entropy = 0.918\nsamples = 12\nvalue = [8, 4]"] ;
247 -> 248 ;
249 [label="entropy = 0.696\nsamples = 16\nvalue = [3, 13]"] ;
247 -> 249 ;
250 [label="x[1] <= 27998.0\nentropy = 0.923\nsamples = 71\nvalue = [47, 24]"] ;
246 -> 250 ;
251 [label="entropy = 0.0\nsamples = 4\nvalue = [0, 4]"] ;
250 -> 251 ;
252 [label="entropy = 0.879\nsamples = 67\nvalue = [47, 20]"] ;
250 -> 252 ;
253 [label="x[1] <= 58200.0\nentropy = 0.611\nsamples = 166\nvalue = [141.0, 25.0]"] ;
237 -> 253 ;
254 [label="x[3] <= 7937.5\nentropy = 0.565\nsamples = 158\nvalue = [137.0, 21.0]"] ;
253 -> 254 ;
255 [label="x[13] <= 0.5\nentropy = 0.417\nsamples = 95\nvalue = [87, 8]"] ;
254 -> 255 ;
256 [label="entropy = 0.238\nsamples = 77\nvalue = [74, 3]"] ;
255 -> 256 ;
257 [label="entropy = 0.852\nsamples = 18\nvalue = [13, 5]"] ;
255 -> 257 ;
258 [label="x[1] <= 56502.0\nentropy = 0.734\nsamples = 63\nvalue = [50, 13]"] ;
254 -> 258 ;
259 [label="entropy = 0.709\nsamples = 62\nvalue = [50, 12]"] ;
258 -> 259 ;
260 [label="entropy = 0.0\nsamples = 1\nvalue = [0, 1]"] ;
258 -> 260 ;
261 [label="x[25] <= 0.5\nentropy = 1.0\nsamples = 8\nvalue = [4, 4]"] ;
253 -> 261 ;
262 [label="x[1] <= 59300.0\nentropy = 0.918\nsamples = 6\nvalue = [2, 4]"] ;
261 -> 262 ;
263 [label="entropy = 0.722\nsamples = 5\nvalue = [1, 4]"] ;
262 -> 263 ;
264 [label="entropy = 0.0\nsamples = 1\nvalue = [1, 0]"] ;
262 -> 264 ;
265 [label="entropy = 0.0\nsamples = 2\nvalue = [2, 0]"] ;
261 -> 265 ;
266 [label="x[6] <= 24.0\nentropy = 0.408\nsamples = 1163\nvalue = [1068, 95]"] ;
236 -> 266 ;
267 [label="x[1] <= 118500.0\nentropy = 0.397\nsamples = 1158\nvalue = [1067, 91]"] ;
266 -> 267 ;
268 [label="x[1] <= 62100.0\nentropy = 0.441\nsamples = 941\nvalue = [855, 86]"] ;
267 -> 268 ;
269 [label="x[6] <= 3.5\nentropy = 0.121\nsamples = 122\nvalue = [120, 2]"] ;
268 -> 269 ;
270 [label="entropy = 0.31\nsamples = 36\nvalue = [34, 2]"] ;
269 -> 270 ;
271 [label="entropy = 0.0\nsamples = 86\nvalue = [86, 0]"] ;
269 -> 271 ;
272 [label="x[13] <= 0.5\nentropy = 0.477\nsamples = 819\nvalue = [735, 84]"] ;
268 -> 272 ;
273 [label="entropy = 0.404\nsamples = 634\nvalue = [583, 51]"] ;
272 -> 273 ;
274 [label="entropy = 0.677\nsamples = 185\nvalue = [152, 33]"] ;
272 -> 274 ;
275 [label="x[5] <= 0.345\nentropy = 0.158\nsamples = 217\nvalue = [212, 5]"] ;
267 -> 275 ;
276 [label="x[20] <= 0.5\nentropy = 0.133\nsamples = 216\nvalue = [212, 4]"] ;
275 -> 276 ;
277 [label="entropy = 0.0\nsamples = 104\nvalue = [104, 0]"] ;
276 -> 277 ;
278 [label="entropy = 0.222\nsamples = 112\nvalue = [108, 4]"] ;
276 -> 278 ;
279 [label="entropy = 0.0\nsamples = 1\nvalue = [0, 1]"] ;
275 -> 279 ;
280 [label="x[4] <= 14.745\nentropy = 0.722\nsamples = 5\nvalue = [1, 4]"] ;
266 -> 280 ;
281 [label="entropy = 0.0\nsamples = 1\nvalue = [1, 0]"] ;
280 -> 281 ;
282 [label="entropy = 0.0\nsamples = 4\nvalue = [0, 4]"] ;
280 -> 282 ;
283 [label="x[19] <= 0.5\nentropy = 0.831\nsamples = 411\nvalue = [108, 303]"] ;
235 -> 283 ;
284 [label="x[3] <= 3850.0\nentropy = 0.356\nsamples = 297\nvalue = [20, 277]"] ;
283 -> 284 ;
285 [label="entropy = 0.0\nsamples = 27\nvalue = [0, 27]"] ;
284 -> 285 ;
286 [label="x[5] <= 0.055\nentropy = 0.381\nsamples = 270\nvalue = [20, 250]"] ;
284 -> 286 ;
287 [label="x[21] <= 0.5\nentropy = 1.0\nsamples = 6\nvalue = [3, 3]"] ;
286 -> 287 ;
288 [label="x[6] <= 3.5\nentropy = 0.971\nsamples = 5\nvalue = [2, 3]"] ;
287 -> 288 ;
289 [label="entropy = 0.0\nsamples = 2\nvalue = [0, 2]"] ;
288 -> 289 ;
290 [label="entropy = 0.918\nsamples = 3\nvalue = [2, 1]"] ;
288 -> 290 ;
291 [label="entropy = 0.0\nsamples = 1\nvalue = [1, 0]"] ;
287 -> 291 ;
292 [label="x[0] <= 35.5\nentropy = 0.345\nsamples = 264\nvalue = [17, 247]"] ;
286 -> 292 ;
293 [label="x[5] <= 0.215\nentropy = 0.377\nsamples = 233\nvalue = [17, 216]"] ;
292 -> 293 ;
294 [label="entropy = 0.443\nsamples = 163\nvalue = [15, 148]"] ;
293 -> 294 ;
295 [label="entropy = 0.187\nsamples = 70\nvalue = [2, 68]"] ;
293 -> 295 ;
296 [label="entropy = 0.0\nsamples = 31\nvalue = [0, 31]"] ;
292 -> 296 ;
297 [label="x[4] <= 15.01\nentropy = 0.775\nsamples = 114\nvalue = [88, 26]"] ;
283 -> 297 ;
298 [label="x[4] <= 14.685\nentropy = 0.654\nsamples = 89\nvalue = [74, 15]"] ;
297 -> 298 ;
299 [label="x[4] <= 14.195\nentropy = 0.755\nsamples = 69\nvalue = [54, 15]"] ;
298 -> 299 ;
300 [label="entropy = 0.0\nsamples = 2\nvalue = [0, 2]"] ;
299 -> 300 ;
301 [label="x[5] <= 0.165\nentropy = 0.71\nsamples = 67\nvalue = [54, 13]"] ;
299 -> 301 ;
302 [label="entropy = 0.849\nsamples = 40\nvalue = [29, 11]"] ;
301 -> 302 ;
303 [label="entropy = 0.381\nsamples = 27\nvalue = [25, 2]"] ;
301 -> 303 ;
304 [label="entropy = 0.0\nsamples = 20\nvalue = [20, 0]"] ;
298 -> 304 ;
305 [label="x[5] <= 0.335\nentropy = 0.99\nsamples = 25\nvalue = [14.0, 11.0]"] ;
297 -> 305 ;
306 [label="x[2] <= 1.5\nentropy = 0.999\nsamples = 23\nvalue = [12, 11]"] ;
305 -> 306 ;
307 [label="entropy = 0.0\nsamples = 3\nvalue = [3, 0]"] ;
306 -> 307 ;
308 [label="x[3] <= 14500.0\nentropy = 0.993\nsamples = 20\nvalue = [9, 11]"] ;
306 -> 308 ;
309 [label="entropy = 0.94\nsamples = 14\nvalue = [9, 5]"] ;
308 -> 309 ;
310 [label="entropy = 0.0\nsamples = 6\nvalue = [0, 6]"] ;
308 -> 310 ;
311 [label="entropy = 0.0\nsamples = 2\nvalue = [2, 0]"] ;
305 -> 311 ;
312 [label="x[21] <= 0.5\nentropy = 0.277\nsamples = 440\nvalue = [419, 21]"] ;
234 -> 312 ;
313 [label="x[14] <= 0.5\nentropy = 0.18\nsamples = 406\nvalue = [395, 11]"] ;
312 -> 313 ;
314 [label="x[1] <= 30626.0\nentropy = 0.072\nsamples = 348\nvalue = [345, 3]"] ;
313 -> 314 ;
315 [label="x[23] <= 0.5\nentropy = 0.294\nsamples = 58\nvalue = [55, 3]"] ;
314 -> 315 ;
316 [label="x[1] <= 30126.0\nentropy = 0.219\nsamples = 57\nvalue = [55, 2]"] ;
315 -> 316 ;
317 [label="x[6] <= 15.5\nentropy = 0.129\nsamples = 56\nvalue = [55, 1]"] ;
316 -> 317 ;
318 [label="entropy = 0.0\nsamples = 54\nvalue = [54, 0]"] ;
317 -> 318 ;
319 [label="entropy = 1.0\nsamples = 2\nvalue = [1, 1]"] ;
317 -> 319 ;
320 [label="entropy = 0.0\nsamples = 1\nvalue = [0, 1]"] ;
316 -> 320 ;
321 [label="entropy = 0.0\nsamples = 1\nvalue = [0, 1]"] ;
315 -> 321 ;
322 [label="entropy = 0.0\nsamples = 290\nvalue = [290, 0]"] ;
314 -> 322 ;
323 [label="x[20] <= 0.5\nentropy = 0.579\nsamples = 58\nvalue = [50, 8]"] ;
313 -> 323 ;
324 [label="entropy = 0.0\nsamples = 22\nvalue = [22, 0]"] ;
323 -> 324 ;
325 [label="x[3] <= 4400.0\nentropy = 0.764\nsamples = 36\nvalue = [28, 8]"] ;
323 -> 325 ;
326 [label="entropy = 0.0\nsamples = 9\nvalue = [9, 0]"] ;
325 -> 326 ;
327 [label="x[1] <= 207362.5\nentropy = 0.877\nsamples = 27\nvalue = [19, 8]"] ;
325 -> 327 ;
328 [label="x[1] <= 65050.0\nentropy = 0.84\nsamples = 26\nvalue = [19, 7]"] ;
327 -> 328 ;
329 [label="entropy = 0.934\nsamples = 20\nvalue = [13, 7]"] ;
328 -> 329 ;
330 [label="entropy = 0.0\nsamples = 6\nvalue = [6, 0]"] ;
328 -> 330 ;
331 [label="entropy = 0.0\nsamples = 1\nvalue = [0, 1]"] ;
327 -> 331 ;
332 [label="x[0] <= 22.5\nentropy = 0.874\nsamples = 34\nvalue = [24, 10]"] ;
312 -> 332 ;
333 [label="entropy = 0.0\nsamples = 4\nvalue = [4, 0]"] ;
332 -> 333 ;
334 [label="x[2] <= 2.5\nentropy = 0.918\nsamples = 30\nvalue = [20, 10]"] ;
332 -> 334 ;
335 [label="x[1] <= 39500.0\nentropy = 0.994\nsamples = 11\nvalue = [5, 6]"] ;
334 -> 335 ;
336 [label="entropy = 0.0\nsamples = 4\nvalue = [0, 4]"] ;
335 -> 336 ;
337 [label="x[3] <= 18750.0\nentropy = 0.863\nsamples = 7\nvalue = [5, 2]"] ;
335 -> 337 ;
338 [label="entropy = 0.0\nsamples = 5\nvalue = [5, 0]"] ;
337 -> 338 ;
339 [label="entropy = 0.0\nsamples = 2\nvalue = [0, 2]"] ;
337 -> 339 ;
340 [label="x[1] <= 34600.0\nentropy = 0.742\nsamples = 19\nvalue = [15, 4]"] ;
334 -> 340 ;
341 [label="x[1] <= 25512.0\nentropy = 0.918\nsamples = 3\nvalue = [1, 2]"] ;
340 -> 341 ;
342 [label="entropy = 0.0\nsamples = 1\nvalue = [1, 0]"] ;
341 -> 342 ;
343 [label="entropy = 0.0\nsamples = 2\nvalue = [0, 2]"] ;
341 -> 343 ;
344 [label="x[13] <= 0.5\nentropy = 0.544\nsamples = 16\nvalue = [14, 2]"] ;
340 -> 344 ;
345 [label="x[4] <= 16.175\nentropy = 0.684\nsamples = 11\nvalue = [9, 2]"] ;
344 -> 345 ;
346 [label="entropy = 0.0\nsamples = 1\nvalue = [0, 1]"] ;
345 -> 346 ;
347 [label="entropy = 0.469\nsamples = 10\nvalue = [9, 1]"] ;
345 -> 347 ;
348 [label="entropy = 0.0\nsamples = 5\nvalue = [5, 0]"] ;
344 -> 348 ;
349 [label="x[20] <= 0.5\nentropy = 0.878\nsamples = 440\nvalue = [131, 309]"] ;
233 -> 349 ;
350 [label="x[21] <= 0.5\nentropy = 0.974\nsamples = 158\nvalue = [94.0, 64.0]"] ;
349 -> 350 ;
351 [label="x[1] <= 44500.0\nentropy = 0.773\nsamples = 119\nvalue = [92, 27]"] ;
350 -> 351 ;
352 [label="x[5] <= 0.31\nentropy = 0.995\nsamples = 24\nvalue = [11, 13]"] ;
351 -> 352 ;
353 [label="x[1] <= 43500.0\nentropy = 0.993\nsamples = 20\nvalue = [11, 9]"] ;
352 -> 353 ;
354 [label="x[0] <= 40.5\nentropy = 0.937\nsamples = 17\nvalue = [11, 6]"] ;
353 -> 354 ;
355 [label="x[6] <= 2.5\nentropy = 0.837\nsamples = 15\nvalue = [11, 4]"] ;
354 -> 355 ;
356 [label="entropy = 0.971\nsamples = 5\nvalue = [2, 3]"] ;
355 -> 356 ;
357 [label="entropy = 0.469\nsamples = 10\nvalue = [9, 1]"] ;
355 -> 357 ;
358 [label="entropy = 0.0\nsamples = 2\nvalue = [0, 2]"] ;
354 -> 358 ;
359 [label="entropy = 0.0\nsamples = 3\nvalue = [0, 3]"] ;
353 -> 359 ;
360 [label="entropy = 0.0\nsamples = 4\nvalue = [0, 4]"] ;
352 -> 360 ;
361 [label="x[5] <= 0.095\nentropy = 0.603\nsamples = 95\nvalue = [81.0, 14.0]"] ;
351 -> 361 ;
362 [label="entropy = 0.0\nsamples = 27\nvalue = [27, 0]"] ;
361 -> 362 ;
363 [label="x[5] <= 0.41\nentropy = 0.734\nsamples = 68\nvalue = [54, 14]"] ;
361 -> 363 ;
364 [label="x[3] <= 22925.0\nentropy = 0.71\nsamples = 67\nvalue = [54, 13]"] ;
363 -> 364 ;
365 [label="x[1] <= 87000.0\nentropy = 0.616\nsamples = 59\nvalue = [50, 9]"] ;
364 -> 365 ;
366 [label="entropy = 0.705\nsamples = 47\nvalue = [38, 9]"] ;
365 -> 366 ;
367 [label="entropy = 0.0\nsamples = 12\nvalue = [12, 0]"] ;
365 -> 367 ;
368 [label="x[1] <= 103368.0\nentropy = 1.0\nsamples = 8\nvalue = [4, 4]"] ;
364 -> 368 ;
369 [label="entropy = 0.722\nsamples = 5\nvalue = [1, 4]"] ;
368 -> 369 ;
370 [label="entropy = 0.0\nsamples = 3\nvalue = [3, 0]"] ;
368 -> 370 ;
371 [label="entropy = 0.0\nsamples = 1\nvalue = [0, 1]"] ;
363 -> 371 ;
372 [label="x[2] <= 8.0\nentropy = 0.292\nsamples = 39\nvalue = [2, 37]"] ;
350 -> 372 ;
373 [label="entropy = 0.0\nsamples = 27\nvalue = [0, 27]"] ;
372 -> 373 ;
374 [label="x[0] <= 26.5\nentropy = 0.65\nsamples = 12\nvalue = [2, 10]"] ;
372 -> 374 ;
375 [label="x[3] <= 13750.0\nentropy = 0.918\nsamples = 6\nvalue = [2, 4]"] ;
374 -> 375 ;
376 [label="entropy = 0.0\nsamples = 3\nvalue = [0, 3]"] ;
375 -> 376 ;
377 [label="x[6] <= 3.0\nentropy = 0.918\nsamples = 3\nvalue = [2, 1]"] ;
375 -> 377 ;
378 [label="entropy = 0.0\nsamples = 1\nvalue = [1, 0]"] ;
377 -> 378 ;
379 [label="x[3] <= 15500.0\nentropy = 1.0\nsamples = 2\nvalue = [1, 1]"] ;
377 -> 379 ;
380 [label="entropy = 0.0\nsamples = 1\nvalue = [1, 0]"] ;
379 -> 380 ;
381 [label="entropy = 0.0\nsamples = 1\nvalue = [0, 1]"] ;
379 -> 381 ;
382 [label="entropy = 0.0\nsamples = 6\nvalue = [0, 6]"] ;
374 -> 382 ;
383 [label="x[9] <= 0.5\nentropy = 0.561\nsamples = 282\nvalue = [37, 245]"] ;
349 -> 383 ;
384 [label="x[0] <= 25.5\nentropy = 0.203\nsamples = 252\nvalue = [8, 244]"] ;
383 -> 384 ;
385 [label="entropy = 0.0\nsamples = 125\nvalue = [0, 125]"] ;
384 -> 385 ;
386 [label="x[4] <= 16.305\nentropy = 0.339\nsamples = 127\nvalue = [8, 119]"] ;
384 -> 386 ;
387 [label="x[0] <= 28.5\nentropy = 0.394\nsamples = 103\nvalue = [8.0, 95.0]"] ;
386 -> 387 ;
388 [label="x[1] <= 55000.0\nentropy = 0.552\nsamples = 39\nvalue = [5, 34]"] ;
387 -> 388 ;
389 [label="entropy = 0.0\nsamples = 11\nvalue = [0, 11]"] ;
388 -> 389 ;
390 [label="x[3] <= 19000.0\nentropy = 0.677\nsamples = 28\nvalue = [5, 23]"] ;
388 -> 390 ;
391 [label="entropy = 0.755\nsamples = 23\nvalue = [5, 18]"] ;
390 -> 391 ;
392 [label="entropy = 0.0\nsamples = 5\nvalue = [0, 5]"] ;
390 -> 392 ;
393 [label="x[3] <= 2100.0\nentropy = 0.273\nsamples = 64\nvalue = [3, 61]"] ;
387 -> 393 ;
394 [label="entropy = 0.0\nsamples = 1\nvalue = [1, 0]"] ;
393 -> 394 ;
395 [label="x[4] <= 15.005\nentropy = 0.203\nsamples = 63\nvalue = [2, 61]"] ;
393 -> 395 ;
396 [label="entropy = 0.371\nsamples = 28\nvalue = [2, 26]"] ;
395 -> 396 ;
397 [label="entropy = 0.0\nsamples = 35\nvalue = [0, 35]"] ;
395 -> 397 ;
398 [label="entropy = 0.0\nsamples = 24\nvalue = [0, 24]"] ;
386 -> 398 ;
399 [label="x[2] <= 1.0\nentropy = 0.211\nsamples = 30\nvalue = [29, 1]"] ;
383 -> 399 ;
400 [label="x[5] <= 0.085\nentropy = 0.592\nsamples = 7\nvalue = [6, 1]"] ;
399 -> 400 ;
401 [label="entropy = 0.0\nsamples = 1\nvalue = [0, 1]"] ;
400 -> 401 ;
402 [label="entropy = 0.0\nsamples = 6\nvalue = [6, 0]"] ;
400 -> 402 ;
403 [label="entropy = 0.0\nsamples = 23\nvalue = [23, 0]"] ;
399 -> 403 ;
404 [label="x[4] <= 14.4\nentropy = 0.765\nsamples = 30594\nvalue = [23785, 6809]"] ;
0 -> 404 [labeldistance=2.5, labelangle=-45, headlabel="False"] ;
405 [label="x[5] <= 0.305\nentropy = 0.617\nsamples = 26367\nvalue = [22333, 4034]"] ;
404 -> 405 ;
406 [label="x[4] <= 11.1\nentropy = 0.357\nsamples = 23818\nvalue = [22207.0, 1611.0]"] ;
405 -> 406 ;
407 [label="x[13] <= 0.5\nentropy = 0.257\nsamples = 13305\nvalue = [12730, 575]"] ;
406 -> 407 ;
408 [label="x[1] <= 34897.5\nentropy = 0.232\nsamples = 12310\nvalue = [11846, 464]"] ;
407 -> 408 ;
409 [label="x[1] <= 33998.0\nentropy = 0.397\nsamples = 2089\nvalue = [1925, 164]"] ;
408 -> 409 ;
410 [label="x[3] <= 6987.5\nentropy = 0.363\nsamples = 1979\nvalue = [1842, 137]"] ;
409 -> 410 ;
411 [label="x[1] <= 19100.0\nentropy = 0.316\nsamples = 1629\nvalue = [1536, 93]"] ;
410 -> 411 ;
412 [label="x[3] <= 2900.0\nentropy = 0.722\nsamples = 45\nvalue = [36, 9]"] ;
411 -> 412 ;
413 [label="entropy = 0.201\nsamples = 32\nvalue = [31, 1]"] ;
412 -> 413 ;
414 [label="entropy = 0.961\nsamples = 13\nvalue = [5, 8]"] ;
412 -> 414 ;
415 [label="x[17] <= 0.5\nentropy = 0.299\nsamples = 1584\nvalue = [1500, 84]"] ;
411 -> 415 ;
416 [label="entropy = 0.373\nsamples = 653\nvalue = [606, 47]"] ;
415 -> 416 ;
417 [label="entropy = 0.241\nsamples = 931\nvalue = [894, 37]"] ;
415 -> 417 ;
418 [label="x[2] <= 14.5\nentropy = 0.546\nsamples = 350\nvalue = [306, 44]"] ;
410 -> 418 ;
419 [label="x[6] <= 2.5\nentropy = 0.531\nsamples = 348\nvalue = [306, 42]"] ;
418 -> 419 ;
420 [label="entropy = 0.264\nsamples = 67\nvalue = [64, 3]"] ;
419 -> 420 ;
421 [label="entropy = 0.581\nsamples = 281\nvalue = [242, 39]"] ;
419 -> 421 ;
422 [label="entropy = 0.0\nsamples = 2\nvalue = [0, 2]"] ;
418 -> 422 ;
423 [label="x[4] <= 7.67\nentropy = 0.804\nsamples = 110\nvalue = [83, 27]"] ;
409 -> 423 ;
424 [label="x[2] <= 5.5\nentropy = 0.963\nsamples = 31\nvalue = [19, 12]"] ;
423 -> 424 ;
425 [label="x[16] <= 0.5\nentropy = 0.994\nsamples = 22\nvalue = [12, 10]"] ;
424 -> 425 ;
426 [label="entropy = 0.971\nsamples = 20\nvalue = [12, 8]"] ;
425 -> 426 ;
427 [label="entropy = 0.0\nsamples = 2\nvalue = [0, 2]"] ;
425 -> 427 ;
428 [label="x[0] <= 24.5\nentropy = 0.764\nsamples = 9\nvalue = [7, 2]"] ;
424 -> 428 ;
429 [label="entropy = 0.0\nsamples = 4\nvalue = [4, 0]"] ;
428 -> 429 ;
430 [label="entropy = 0.971\nsamples = 5\nvalue = [3, 2]"] ;
428 -> 430 ;
431 [label="x[5] <= 0.2\nentropy = 0.701\nsamples = 79\nvalue = [64.0, 15.0]"] ;
423 -> 431 ;
432 [label="x[4] <= 8.92\nentropy = 0.529\nsamples = 50\nvalue = [44, 6]"] ;
431 -> 432 ;
433 [label="entropy = 0.0\nsamples = 15\nvalue = [15, 0]"] ;
432 -> 433 ;
434 [label="entropy = 0.661\nsamples = 35\nvalue = [29.0, 6.0]"] ;
432 -> 434 ;
435 [label="x[0] <= 32.5\nentropy = 0.894\nsamples = 29\nvalue = [20, 9]"] ;
431 -> 435 ;
436 [label="entropy = 0.811\nsamples = 24\nvalue = [18, 6]"] ;
435 -> 436 ;
437 [label="entropy = 0.971\nsamples = 5\nvalue = [2, 3]"] ;
435 -> 437 ;
438 [label="x[3] <= 12750.0\nentropy = 0.191\nsamples = 10221\nvalue = [9921, 300]"] ;
408 -> 438 ;
439 [label="x[4] <= 7.89\nentropy = 0.175\nsamples = 9053\nvalue = [8816, 237]"] ;
438 -> 439 ;
440 [label="x[16] <= 0.5\nentropy = 0.113\nsamples = 3707\nvalue = [3651, 56]"] ;
439 -> 440 ;
441 [label="x[2] <= 10.5\nentropy = 0.128\nsamples = 3052\nvalue = [2998, 54]"] ;
440 -> 441 ;
442 [label="entropy = 0.115\nsamples = 2915\nvalue = [2870, 45]"] ;
441 -> 442 ;
443 [label="entropy = 0.35\nsamples = 137\nvalue = [128, 9]"] ;
441 -> 443 ;
444 [label="x[4] <= 7.215\nentropy = 0.03\nsamples = 655\nvalue = [653, 2]"] ;
440 -> 444 ;
445 [label="entropy = 0.0\nsamples = 335\nvalue = [335, 0]"] ;
444 -> 445 ;
446 [label="entropy = 0.055\nsamples = 320\nvalue = [318, 2]"] ;
444 -> 446 ;
447 [label="x[15] <= 0.5\nentropy = 0.213\nsamples = 5346\nvalue = [5165, 181]"] ;
439 -> 447 ;
448 [label="x[6] <= 2.5\nentropy = 0.186\nsamples = 4437\nvalue = [4311, 126]"] ;
447 -> 448 ;
449 [label="entropy = 0.08\nsamples = 904\nvalue = [895, 9]"] ;
448 -> 449 ;
450 [label="entropy = 0.21\nsamples = 3533\nvalue = [3416, 117]"] ;
448 -> 450 ;
451 [label="x[0] <= 22.5\nentropy = 0.329\nsamples = 909\nvalue = [854, 55]"] ;
447 -> 451 ;
452 [label="entropy = 0.5\nsamples = 118\nvalue = [105, 13]"] ;
451 -> 452 ;
453 [label="entropy = 0.299\nsamples = 791\nvalue = [749, 42]"] ;
451 -> 453 ;
454 [label="x[5] <= 0.265\nentropy = 0.303\nsamples = 1168\nvalue = [1105, 63]"] ;
438 -> 454 ;
455 [label="x[1] <= 268650.0\nentropy = 0.234\nsamples = 891\nvalue = [857, 34]"] ;
454 -> 455 ;
456 [label="x[6] <= 13.5\nentropy = 0.229\nsamples = 888\nvalue = [855, 33]"] ;
455 -> 456 ;
457 [label="entropy = 0.208\nsamples = 824\nvalue = [797, 27]"] ;
456 -> 457 ;
458 [label="entropy = 0.449\nsamples = 64\nvalue = [58, 6]"] ;
456 -> 458 ;
459 [label="x[6] <= 6.5\nentropy = 0.918\nsamples = 3\nvalue = [2, 1]"] ;
455 -> 459 ;
460 [label="entropy = 0.0\nsamples = 2\nvalue = [2, 0]"] ;
459 -> 460 ;
461 [label="entropy = 0.0\nsamples = 1\nvalue = [0, 1]"] ;
459 -> 461 ;
462 [label="x[4] <= 6.835\nentropy = 0.484\nsamples = 277\nvalue = [248, 29]"] ;
454 -> 462 ;
463 [label="entropy = 0.0\nsamples = 26\nvalue = [26, 0]"] ;
462 -> 463 ;
464 [label="x[2] <= 8.5\nentropy = 0.516\nsamples = 251\nvalue = [222, 29]"] ;
462 -> 464 ;
465 [label="entropy = 0.541\nsamples = 234\nvalue = [205, 29]"] ;
464 -> 465 ;
466 [label="entropy = 0.0\nsamples = 17\nvalue = [17, 0]"] ;
464 -> 466 ;
467 [label="x[0] <= 23.5\nentropy = 0.505\nsamples = 995\nvalue = [884, 111]"] ;
407 -> 467 ;
468 [label="x[5] <= 0.165\nentropy = 0.605\nsamples = 27\nvalue = [4, 23]"] ;
467 -> 468 ;
469 [label="x[3] <= 4300.0\nentropy = 0.787\nsamples = 17\nvalue = [4, 13]"] ;
468 -> 469 ;
470 [label="entropy = 0.0\nsamples = 10\nvalue = [0, 10]"] ;
469 -> 470 ;
471 [label="x[2] <= 5.5\nentropy = 0.985\nsamples = 7\nvalue = [4, 3]"] ;
469 -> 471 ;
472 [label="x[6] <= 2.5\nentropy = 0.722\nsamples = 5\nvalue = [4, 1]"] ;
471 -> 472 ;
473 [label="entropy = 0.0\nsamples = 3\nvalue = [3, 0]"] ;
472 -> 473 ;
474 [label="entropy = 1.0\nsamples = 2\nvalue = [1, 1]"] ;
472 -> 474 ;
475 [label="entropy = 0.0\nsamples = 2\nvalue = [0, 2]"] ;
471 -> 475 ;
476 [label="entropy = 0.0\nsamples = 10\nvalue = [0, 10]"] ;
468 -> 476 ;
477 [label="x[1] <= 49950.0\nentropy = 0.439\nsamples = 968\nvalue = [880, 88]"] ;
467 -> 477 ;
478 [label="x[5] <= 0.135\nentropy = 0.967\nsamples = 99\nvalue = [39, 60]"] ;
477 -> 478 ;
479 [label="x[1] <= 44700.0\nentropy = 0.997\nsamples = 32\nvalue = [17, 15]"] ;
478 -> 479 ;
480 [label="x[1] <= 41144.0\nentropy = 0.976\nsamples = 22\nvalue = [9, 13]"] ;
479 -> 480 ;
481 [label="entropy = 1.0\nsamples = 18\nvalue = [9, 9]"] ;
480 -> 481 ;
482 [label="entropy = 0.0\nsamples = 4\nvalue = [0, 4]"] ;
480 -> 482 ;
483 [label="x[6] <= 6.5\nentropy = 0.722\nsamples = 10\nvalue = [8, 2]"] ;
479 -> 483 ;
484 [label="entropy = 0.971\nsamples = 5\nvalue = [3, 2]"] ;
483 -> 484 ;
485 [label="entropy = 0.0\nsamples = 5\nvalue = [5, 0]"] ;
483 -> 485 ;
486 [label="x[5] <= 0.215\nentropy = 0.913\nsamples = 67\nvalue = [22, 45]"] ;
478 -> 486 ;
487 [label="x[4] <= 10.49\nentropy = 0.734\nsamples = 34\nvalue = [7, 27]"] ;
486 -> 487 ;
488 [label="entropy = 0.811\nsamples = 28\nvalue = [7, 21]"] ;
487 -> 488 ;
489 [label="entropy = 0.0\nsamples = 6\nvalue = [0, 6]"] ;
487 -> 489 ;
490 [label="x[2] <= 2.5\nentropy = 0.994\nsamples = 33\nvalue = [15, 18]"] ;
486 -> 490 ;
491 [label="entropy = 0.779\nsamples = 13\nvalue = [3, 10]"] ;
490 -> 491 ;
492 [label="entropy = 0.971\nsamples = 20\nvalue = [12, 8]"] ;
490 -> 492 ;
493 [label="x[4] <= 7.5\nentropy = 0.205\nsamples = 869\nvalue = [841.0, 28.0]"] ;
477 -> 493 ;
494 [label="x[5] <= 0.215\nentropy = 0.038\nsamples = 244\nvalue = [243, 1]"] ;
493 -> 494 ;
495 [label="entropy = 0.0\nsamples = 219\nvalue = [219, 0]"] ;
494 -> 495 ;
496 [label="x[6] <= 15.0\nentropy = 0.242\nsamples = 25\nvalue = [24, 1]"] ;
494 -> 496 ;
497 [label="entropy = 0.0\nsamples = 24\nvalue = [24, 0]"] ;
496 -> 497 ;
498 [label="entropy = 0.0\nsamples = 1\nvalue = [0, 1]"] ;
496 -> 498 ;
499 [label="x[2] <= 3.5\nentropy = 0.257\nsamples = 625\nvalue = [598, 27]"] ;
493 -> 499 ;
500 [label="x[0] <= 32.5\nentropy = 0.192\nsamples = 339\nvalue = [329, 10]"] ;
499 -> 500 ;
501 [label="entropy = 0.231\nsamples = 266\nvalue = [256, 10]"] ;
500 -> 501 ;
502 [label="entropy = 0.0\nsamples = 73\nvalue = [73, 0]"] ;
500 -> 502 ;
503 [label="x[1] <= 51300.0\nentropy = 0.325\nsamples = 286\nvalue = [269, 17]"] ;
499 -> 503 ;
504 [label="entropy = 0.0\nsamples = 33\nvalue = [33, 0]"] ;
503 -> 504 ;
505 [label="entropy = 0.355\nsamples = 253\nvalue = [236, 17]"] ;
503 -> 505 ;
506 [label="x[13] <= 0.5\nentropy = 0.464\nsamples = 10513\nvalue = [9477, 1036]"] ;
406 -> 506 ;
507 [label="x[20] <= 0.5\nentropy = 0.419\nsamples = 9575\nvalue = [8763, 812]"] ;
506 -> 507 ;
508 [label="x[5] <= 0.165\nentropy = 0.367\nsamples = 9357\nvalue = [8699, 658]"] ;
507 -> 508 ;
509 [label="x[3] <= 5450.0\nentropy = 0.305\nsamples = 5529\nvalue = [5228, 301]"] ;
508 -> 509 ;
510 [label="x[1] <= 39689.5\nentropy = 0.354\nsamples = 3217\nvalue = [3002.0, 215.0]"] ;
509 -> 510 ;
511 [label="x[16] <= 0.5\nentropy = 0.495\nsamples = 1235\nvalue = [1101, 134]"] ;
510 -> 511 ;
512 [label="entropy = 0.527\nsamples = 1023\nvalue = [901, 122]"] ;
511 -> 512 ;
513 [label="entropy = 0.314\nsamples = 212\nvalue = [200, 12]"] ;
511 -> 513 ;
514 [label="x[5] <= 0.105\nentropy = 0.246\nsamples = 1982\nvalue = [1901, 81]"] ;
510 -> 514 ;
515 [label="entropy = 0.217\nsamples = 1738\nvalue = [1678.0, 60.0]"] ;
514 -> 515 ;
516 [label="entropy = 0.423\nsamples = 244\nvalue = [223, 21]"] ;
514 -> 516 ;
517 [label="x[1] <= 79950.0\nentropy = 0.229\nsamples = 2312\nvalue = [2226, 86]"] ;
509 -> 517 ;
518 [label="x[16] <= 0.5\nentropy = 0.282\nsamples = 1510\nvalue = [1436, 74]"] ;
517 -> 518 ;
519 [label="entropy = 0.307\nsamples = 1272\nvalue = [1202, 70]"] ;
518 -> 519 ;
520 [label="entropy = 0.123\nsamples = 238\nvalue = [234, 4]"] ;
518 -> 520 ;
521 [label="x[1] <= 122500.0\nentropy = 0.112\nsamples = 802\nvalue = [790, 12]"] ;
517 -> 521 ;
522 [label="entropy = 0.054\nsamples = 651\nvalue = [647, 4]"] ;
521 -> 522 ;
523 [label="entropy = 0.299\nsamples = 151\nvalue = [143, 8]"] ;
521 -> 523 ;
524 [label="x[2] <= 3.5\nentropy = 0.447\nsamples = 3828\nvalue = [3471, 357]"] ;
508 -> 524 ;
525 [label="x[3] <= 4487.5\nentropy = 0.508\nsamples = 2235\nvalue = [1983, 252]"] ;
524 -> 525 ;
526 [label="x[1] <= 19984.0\nentropy = 0.928\nsamples = 96\nvalue = [33, 63]"] ;
525 -> 526 ;
527 [label="entropy = 0.349\nsamples = 61\nvalue = [4, 57]"] ;
526 -> 527 ;
528 [label="entropy = 0.661\nsamples = 35\nvalue = [29.0, 6.0]"] ;
526 -> 528 ;
529 [label="x[5] <= 0.235\nentropy = 0.431\nsamples = 2139\nvalue = [1950, 189]"] ;
525 -> 529 ;
530 [label="entropy = 0.359\nsamples = 1319\nvalue = [1229, 90]"] ;
529 -> 530 ;
531 [label="entropy = 0.531\nsamples = 820\nvalue = [721, 99]"] ;
529 -> 531 ;
532 [label="x[11] <= 0.5\nentropy = 0.35\nsamples = 1593\nvalue = [1488.0, 105.0]"] ;
524 -> 532 ;
533 [label="x[5] <= 0.255\nentropy = 0.337\nsamples = 1348\nvalue = [1264, 84]"] ;
532 -> 533 ;
534 [label="entropy = 0.283\nsamples = 1059\nvalue = [1007, 52]"] ;
533 -> 534 ;
535 [label="entropy = 0.502\nsamples = 289\nvalue = [257, 32]"] ;
533 -> 535 ;
536 [label="x[5] <= 0.255\nentropy = 0.422\nsamples = 245\nvalue = [224, 21]"] ;
532 -> 536 ;
537 [label="entropy = 0.293\nsamples = 194\nvalue = [184, 10]"] ;
536 -> 537 ;
538 [label="entropy = 0.752\nsamples = 51\nvalue = [40, 11]"] ;
536 -> 538 ;
539 [label="x[1] <= 54998.0\nentropy = 0.873\nsamples = 218\nvalue = [64, 154]"] ;
507 -> 539 ;
540 [label="x[2] <= 2.5\nentropy = 0.687\nsamples = 153\nvalue = [28.0, 125.0]"] ;
539 -> 540 ;
541 [label="x[5] <= 0.095\nentropy = 0.331\nsamples = 82\nvalue = [5, 77]"] ;
540 -> 541 ;
542 [label="x[11] <= 0.5\nentropy = 0.811\nsamples = 8\nvalue = [2, 6]"] ;
541 -> 542 ;
543 [label="entropy = 0.0\nsamples = 5\nvalue = [0, 5]"] ;
542 -> 543 ;
544 [label="entropy = 0.918\nsamples = 3\nvalue = [2, 1]"] ;
542 -> 544 ;
545 [label="x[4] <= 13.415\nentropy = 0.245\nsamples = 74\nvalue = [3, 71]"] ;
541 -> 545 ;
546 [label="entropy = 0.559\nsamples = 23\nvalue = [3, 20]"] ;
545 -> 546 ;
547 [label="entropy = 0.0\nsamples = 51\nvalue = [0, 51]"] ;
545 -> 547 ;
548 [label="x[11] <= 0.5\nentropy = 0.909\nsamples = 71\nvalue = [23, 48]"] ;
540 -> 548 ;
549 [label="x[15] <= 0.5\nentropy = 0.997\nsamples = 47\nvalue = [22, 25]"] ;
548 -> 549 ;
550 [label="entropy = 0.949\nsamples = 38\nvalue = [14, 24]"] ;
549 -> 550 ;
551 [label="entropy = 0.503\nsamples = 9\nvalue = [8, 1]"] ;
549 -> 551 ;
552 [label="x[4] <= 12.89\nentropy = 0.25\nsamples = 24\nvalue = [1, 23]"] ;
548 -> 552 ;
553 [label="entropy = 0.918\nsamples = 3\nvalue = [1, 2]"] ;
552 -> 553 ;
554 [label="entropy = 0.0\nsamples = 21\nvalue = [0, 21]"] ;
552 -> 554 ;
555 [label="x[0] <= 24.5\nentropy = 0.992\nsamples = 65\nvalue = [36, 29]"] ;
539 -> 555 ;
556 [label="x[14] <= 0.5\nentropy = 0.959\nsamples = 21\nvalue = [8, 13]"] ;
555 -> 556 ;
557 [label="x[2] <= 2.5\nentropy = 0.998\nsamples = 17\nvalue = [8, 9]"] ;
556 -> 557 ;
558 [label="entropy = 0.544\nsamples = 8\nvalue = [1, 7]"] ;
557 -> 558 ;
559 [label="entropy = 0.764\nsamples = 9\nvalue = [7, 2]"] ;
557 -> 559 ;
560 [label="entropy = 0.0\nsamples = 4\nvalue = [0, 4]"] ;
556 -> 560 ;
561 [label="x[2] <= 2.5\nentropy = 0.946\nsamples = 44\nvalue = [28, 16]"] ;
555 -> 561 ;
562 [label="x[0] <= 32.5\nentropy = 0.837\nsamples = 15\nvalue = [4, 11]"] ;
561 -> 562 ;
563 [label="entropy = 0.971\nsamples = 10\nvalue = [4, 6]"] ;
562 -> 563 ;
564 [label="entropy = 0.0\nsamples = 5\nvalue = [0, 5]"] ;
562 -> 564 ;
565 [label="x[14] <= 0.5\nentropy = 0.663\nsamples = 29\nvalue = [24, 5]"] ;
561 -> 565 ;
566 [label="entropy = 0.258\nsamples = 23\nvalue = [22, 1]"] ;
565 -> 566 ;
567 [label="entropy = 0.918\nsamples = 6\nvalue = [2, 4]"] ;
565 -> 567 ;
568 [label="x[3] <= 10175.0\nentropy = 0.793\nsamples = 938\nvalue = [714, 224]"] ;
506 -> 568 ;
569 [label="x[0] <= 23.5\nentropy = 0.909\nsamples = 598\nvalue = [404, 194]"] ;
568 -> 569 ;
570 [label="x[1] <= 70984.0\nentropy = 0.286\nsamples = 40\nvalue = [2, 38]"] ;
569 -> 570 ;
571 [label="entropy = 0.0\nsamples = 36\nvalue = [0, 36]"] ;
570 -> 571 ;
572 [label="x[2] <= 1.0\nentropy = 1.0\nsamples = 4\nvalue = [2, 2]"] ;
570 -> 572 ;
573 [label="entropy = 0.0\nsamples = 1\nvalue = [0, 1]"] ;
572 -> 573 ;
574 [label="x[19] <= 0.5\nentropy = 0.918\nsamples = 3\nvalue = [2, 1]"] ;
572 -> 574 ;
575 [label="entropy = 0.0\nsamples = 1\nvalue = [0, 1]"] ;
574 -> 575 ;
576 [label="entropy = 0.0\nsamples = 2\nvalue = [2, 0]"] ;
574 -> 576 ;
577 [label="x[1] <= 49681.0\nentropy = 0.855\nsamples = 558\nvalue = [402.0, 156.0]"] ;
569 -> 577 ;
578 [label="x[2] <= 3.5\nentropy = 0.7\nsamples = 132\nvalue = [25, 107]"] ;
577 -> 578 ;
579 [label="x[1] <= 39998.0\nentropy = 0.555\nsamples = 93\nvalue = [12, 81]"] ;
578 -> 579 ;
580 [label="entropy = 0.326\nsamples = 67\nvalue = [4, 63]"] ;
579 -> 580 ;
581 [label="entropy = 0.89\nsamples = 26\nvalue = [8, 18]"] ;
579 -> 581 ;
582 [label="x[4] <= 14.265\nentropy = 0.918\nsamples = 39\nvalue = [13, 26]"] ;
578 -> 582 ;
583 [label="entropy = 0.878\nsamples = 37\nvalue = [11, 26]"] ;
582 -> 583 ;
584 [label="entropy = 0.0\nsamples = 2\nvalue = [2, 0]"] ;
582 -> 584 ;
585 [label="x[1] <= 54126.0\nentropy = 0.515\nsamples = 426\nvalue = [377, 49]"] ;
577 -> 585 ;
586 [label="x[20] <= 0.5\nentropy = 0.739\nsamples = 115\nvalue = [91, 24]"] ;
585 -> 586 ;
587 [label="entropy = 0.718\nsamples = 111\nvalue = [89, 22]"] ;
586 -> 587 ;
588 [label="entropy = 1.0\nsamples = 4\nvalue = [2, 2]"] ;
586 -> 588 ;
589 [label="x[18] <= 0.5\nentropy = 0.404\nsamples = 311\nvalue = [286, 25]"] ;
585 -> 589 ;
590 [label="entropy = 0.282\nsamples = 184\nvalue = [175, 9]"] ;
589 -> 590 ;
591 [label="entropy = 0.546\nsamples = 127\nvalue = [111, 16]"] ;
589 -> 591 ;
592 [label="x[5] <= 0.195\nentropy = 0.431\nsamples = 340\nvalue = [310.0, 30.0]"] ;
568 -> 592 ;
593 [label="x[2] <= 1.5\nentropy = 0.109\nsamples = 139\nvalue = [137, 2]"] ;
592 -> 593 ;
594 [label="x[1] <= 160000.0\nentropy = 0.316\nsamples = 35\nvalue = [33, 2]"] ;
593 -> 594 ;
595 [label="x[0] <= 33.5\nentropy = 0.206\nsamples = 31\nvalue = [30, 1]"] ;
594 -> 595 ;
596 [label="entropy = 0.0\nsamples = 23\nvalue = [23, 0]"] ;
595 -> 596 ;
597 [label="entropy = 0.544\nsamples = 8\nvalue = [7, 1]"] ;
595 -> 597 ;
598 [label="x[5] <= 0.135\nentropy = 0.811\nsamples = 4\nvalue = [3, 1]"] ;
594 -> 598 ;
599 [label="entropy = 0.0\nsamples = 3\nvalue = [3, 0]"] ;
598 -> 599 ;
600 [label="entropy = 0.0\nsamples = 1\nvalue = [0, 1]"] ;
598 -> 600 ;
601 [label="entropy = 0.0\nsamples = 104\nvalue = [104, 0]"] ;
593 -> 601 ;
602 [label="x[3] <= 12750.0\nentropy = 0.582\nsamples = 201\nvalue = [173, 28]"] ;
592 -> 602 ;
603 [label="x[1] <= 46998.0\nentropy = 0.169\nsamples = 40\nvalue = [39, 1]"] ;
602 -> 603 ;
604 [label="x[24] <= 0.5\nentropy = 0.918\nsamples = 3\nvalue = [2, 1]"] ;
603 -> 604 ;
605 [label="entropy = 0.0\nsamples = 1\nvalue = [0, 1]"] ;
604 -> 605 ;
606 [label="entropy = 0.0\nsamples = 2\nvalue = [2, 0]"] ;
604 -> 606 ;
607 [label="entropy = 0.0\nsamples = 37\nvalue = [37, 0]"] ;
603 -> 607 ;
608 [label="x[1] <= 59500.0\nentropy = 0.652\nsamples = 161\nvalue = [134.0, 27.0]"] ;
602 -> 608 ;
609 [label="x[5] <= 0.285\nentropy = 0.998\nsamples = 19\nvalue = [10, 9]"] ;
608 -> 609 ;
610 [label="entropy = 0.89\nsamples = 13\nvalue = [9, 4]"] ;
609 -> 610 ;
611 [label="entropy = 0.65\nsamples = 6\nvalue = [1, 5]"] ;
609 -> 611 ;
612 [label="x[3] <= 13112.5\nentropy = 0.548\nsamples = 142\nvalue = [124.0, 18.0]"] ;
608 -> 612 ;
613 [label="entropy = 0.0\nsamples = 2\nvalue = [0, 2]"] ;
612 -> 613 ;
614 [label="entropy = 0.513\nsamples = 140\nvalue = [124, 16]"] ;
612 -> 614 ;
615 [label="x[5] <= 0.365\nentropy = 0.284\nsamples = 2549\nvalue = [126, 2423]"] ;
405 -> 615 ;
616 [label="x[4] <= 7.215\nentropy = 0.346\nsamples = 1499\nvalue = [97.0, 1402.0]"] ;
615 -> 616 ;
617 [label="x[1] <= 24500.0\nentropy = 0.136\nsamples = 105\nvalue = [2, 103]"] ;
616 -> 617 ;
618 [label="x[2] <= 1.0\nentropy = 0.918\nsamples = 3\nvalue = [1, 2]"] ;
617 -> 618 ;
619 [label="entropy = 0.0\nsamples = 1\nvalue = [1, 0]"] ;
618 -> 619 ;
620 [label="entropy = 0.0\nsamples = 2\nvalue = [0, 2]"] ;
618 -> 620 ;
621 [label="x[1] <= 61922.0\nentropy = 0.079\nsamples = 102\nvalue = [1, 101]"] ;
617 -> 621 ;
622 [label="entropy = 0.0\nsamples = 94\nvalue = [0, 94]"] ;
621 -> 622 ;
623 [label="x[1] <= 63922.0\nentropy = 0.544\nsamples = 8\nvalue = [1, 7]"] ;
621 -> 623 ;
624 [label="entropy = 0.0\nsamples = 1\nvalue = [1, 0]"] ;
623 -> 624 ;
625 [label="entropy = 0.0\nsamples = 7\nvalue = [0, 7]"] ;
623 -> 625 ;
626 [label="x[0] <= 42.5\nentropy = 0.359\nsamples = 1394\nvalue = [95, 1299]"] ;
616 -> 626 ;
627 [label="x[3] <= 17287.5\nentropy = 0.365\nsamples = 1364\nvalue = [95.0, 1269.0]"] ;
626 -> 627 ;
628 [label="x[3] <= 10450.0\nentropy = 0.293\nsamples = 1028\nvalue = [53, 975]"] ;
627 -> 628 ;
629 [label="x[16] <= 0.5\nentropy = 0.225\nsamples = 440\nvalue = [16, 424]"] ;
628 -> 629 ;
630 [label="x[1] <= 10800.0\nentropy = 0.178\nsamples = 373\nvalue = [10, 363]"] ;
629 -> 630 ;
631 [label="entropy = 0.0\nsamples = 1\nvalue = [1, 0]"] ;
630 -> 631 ;
632 [label="entropy = 0.164\nsamples = 372\nvalue = [9, 363]"] ;
630 -> 632 ;
633 [label="x[0] <= 21.5\nentropy = 0.435\nsamples = 67\nvalue = [6, 61]"] ;
629 -> 633 ;
634 [label="entropy = 0.0\nsamples = 1\nvalue = [1, 0]"] ;
633 -> 634 ;
635 [label="entropy = 0.387\nsamples = 66\nvalue = [5, 61]"] ;
633 -> 635 ;
636 [label="x[3] <= 12050.0\nentropy = 0.339\nsamples = 588\nvalue = [37, 551]"] ;
628 -> 636 ;
637 [label="x[1] <= 35112.0\nentropy = 0.454\nsamples = 210\nvalue = [20, 190]"] ;
636 -> 637 ;
638 [label="entropy = 0.588\nsamples = 99\nvalue = [14, 85]"] ;
637 -> 638 ;
639 [label="entropy = 0.303\nsamples = 111\nvalue = [6, 105]"] ;
637 -> 639 ;
640 [label="x[2] <= 1.5\nentropy = 0.265\nsamples = 378\nvalue = [17, 361]"] ;
636 -> 640 ;
641 [label="entropy = 0.082\nsamples = 98\nvalue = [1.0, 97.0]"] ;
640 -> 641 ;
642 [label="entropy = 0.316\nsamples = 280\nvalue = [16, 264]"] ;
640 -> 642 ;
643 [label="x[3] <= 17550.0\nentropy = 0.544\nsamples = 336\nvalue = [42, 294]"] ;
627 -> 643 ;
644 [label="x[0] <= 24.5\nentropy = 1.0\nsamples = 6\nvalue = [3, 3]"] ;
643 -> 644 ;
645 [label="entropy = 0.0\nsamples = 3\nvalue = [3, 0]"] ;
644 -> 645 ;
646 [label="entropy = 0.0\nsamples = 3\nvalue = [0, 3]"] ;
644 -> 646 ;
647 [label="x[1] <= 29800.0\nentropy = 0.524\nsamples = 330\nvalue = [39, 291]"] ;
643 -> 647 ;
648 [label="entropy = 0.0\nsamples = 1\nvalue = [1, 0]"] ;
647 -> 648 ;
649 [label="x[1] <= 57496.0\nentropy = 0.516\nsamples = 329\nvalue = [38, 291]"] ;
647 -> 649 ;
650 [label="entropy = 0.289\nsamples = 79\nvalue = [4, 75]"] ;
649 -> 650 ;
651 [label="entropy = 0.574\nsamples = 250\nvalue = [34, 216]"] ;
649 -> 651 ;
652 [label="entropy = 0.0\nsamples = 30\nvalue = [0, 30]"] ;
626 -> 652 ;
653 [label="x[3] <= 17250.0\nentropy = 0.182\nsamples = 1050\nvalue = [29, 1021]"] ;
615 -> 653 ;
654 [label="x[4] <= 11.115\nentropy = 0.115\nsamples = 714\nvalue = [11, 703]"] ;
653 -> 654 ;
655 [label="x[15] <= 0.5\nentropy = 0.176\nsamples = 379\nvalue = [10, 369]"] ;
654 -> 655 ;
656 [label="x[1] <= 32750.0\nentropy = 0.203\nsamples = 316\nvalue = [10, 306]"] ;
655 -> 656 ;
657 [label="x[3] <= 11987.5\nentropy = 0.116\nsamples = 193\nvalue = [3, 190]"] ;
656 -> 657 ;
658 [label="entropy = 0.0\nsamples = 67\nvalue = [0, 67]"] ;
657 -> 658 ;
659 [label="x[2] <= 2.5\nentropy = 0.162\nsamples = 126\nvalue = [3, 123]"] ;
657 -> 659 ;
660 [label="entropy = 0.27\nsamples = 65\nvalue = [3, 62]"] ;
659 -> 660 ;
661 [label="entropy = 0.0\nsamples = 61\nvalue = [0, 61]"] ;
659 -> 661 ;
662 [label="x[6] <= 16.5\nentropy = 0.315\nsamples = 123\nvalue = [7, 116]"] ;
656 -> 662 ;
663 [label="x[5] <= 0.425\nentropy = 0.285\nsamples = 121\nvalue = [6, 115]"] ;
662 -> 663 ;
664 [label="entropy = 0.314\nsamples = 106\nvalue = [6, 100]"] ;
663 -> 664 ;
665 [label="entropy = 0.0\nsamples = 15\nvalue = [0, 15]"] ;
663 -> 665 ;
666 [label="x[2] <= 2.5\nentropy = 1.0\nsamples = 2\nvalue = [1, 1]"] ;
662 -> 666 ;
667 [label="entropy = 0.0\nsamples = 1\nvalue = [0, 1]"] ;
666 -> 667 ;
668 [label="entropy = 0.0\nsamples = 1\nvalue = [1, 0]"] ;
666 -> 668 ;
669 [label="entropy = 0.0\nsamples = 63\nvalue = [0, 63]"] ;
655 -> 669 ;
670 [label="x[25] <= 0.5\nentropy = 0.029\nsamples = 335\nvalue = [1, 334]"] ;
654 -> 670 ;
671 [label="entropy = 0.0\nsamples = 244\nvalue = [0, 244]"] ;
670 -> 671 ;
672 [label="x[3] <= 10312.5\nentropy = 0.087\nsamples = 91\nvalue = [1, 90]"] ;
670 -> 672 ;
673 [label="x[12] <= 0.5\nentropy = 0.276\nsamples = 21\nvalue = [1, 20]"] ;
672 -> 673 ;
674 [label="entropy = 0.0\nsamples = 19\nvalue = [0, 19]"] ;
673 -> 674 ;
675 [label="x[4] <= 13.875\nentropy = 1.0\nsamples = 2\nvalue = [1, 1]"] ;
673 -> 675 ;
676 [label="entropy = 0.0\nsamples = 1\nvalue = [1, 0]"] ;
675 -> 676 ;
677 [label="entropy = 0.0\nsamples = 1\nvalue = [0, 1]"] ;
675 -> 677 ;
678 [label="entropy = 0.0\nsamples = 70\nvalue = [0, 70]"] ;
672 -> 678 ;
679 [label="x[5] <= 0.375\nentropy = 0.301\nsamples = 336\nvalue = [18, 318]"] ;
653 -> 679 ;
680 [label="entropy = 0.0\nsamples = 58\nvalue = [0, 58]"] ;
679 -> 680 ;
681 [label="x[0] <= 34.5\nentropy = 0.346\nsamples = 278\nvalue = [18, 260]"] ;
679 -> 681 ;
682 [label="x[2] <= 6.5\nentropy = 0.383\nsamples = 241\nvalue = [18, 223]"] ;
681 -> 682 ;
683 [label="x[5] <= 0.495\nentropy = 0.306\nsamples = 183\nvalue = [10, 173]"] ;
682 -> 683 ;
684 [label="x[6] <= 5.5\nentropy = 0.248\nsamples = 170\nvalue = [7, 163]"] ;
683 -> 684 ;
685 [label="entropy = 0.319\nsamples = 121\nvalue = [7, 114]"] ;
684 -> 685 ;
686 [label="entropy = 0.0\nsamples = 49\nvalue = [0, 49]"] ;
684 -> 686 ;
687 [label="x[1] <= 49000.0\nentropy = 0.779\nsamples = 13\nvalue = [3, 10]"] ;
683 -> 687 ;
688 [label="entropy = 0.439\nsamples = 11\nvalue = [1, 10]"] ;
687 -> 688 ;
689 [label="entropy = 0.0\nsamples = 2\nvalue = [2, 0]"] ;
687 -> 689 ;
690 [label="x[3] <= 17825.0\nentropy = 0.579\nsamples = 58\nvalue = [8, 50]"] ;
682 -> 690 ;
691 [label="entropy = 0.0\nsamples = 1\nvalue = [1, 0]"] ;
690 -> 691 ;
692 [label="x[0] <= 30.5\nentropy = 0.537\nsamples = 57\nvalue = [7, 50]"] ;
690 -> 692 ;
693 [label="entropy = 0.463\nsamples = 51\nvalue = [5, 46]"] ;
692 -> 693 ;
694 [label="entropy = 0.918\nsamples = 6\nvalue = [2, 4]"] ;
692 -> 694 ;
695 [label="entropy = 0.0\nsamples = 37\nvalue = [0, 37]"] ;
681 -> 695 ;
696 [label="x[20] <= 0.5\nentropy = 0.928\nsamples = 4227\nvalue = [1452, 2775]"] ;
404 -> 696 ;
697 [label="x[19] <= 0.5\nentropy = 0.999\nsamples = 1357\nvalue = [658, 699]"] ;
696 -> 697 ;
698 [label="x[11] <= 0.5\nentropy = 0.735\nsamples = 750\nvalue = [155, 595]"] ;
697 -> 698 ;
699 [label="x[5] <= 0.305\nentropy = 0.789\nsamples = 652\nvalue = [154, 498]"] ;
698 -> 699 ;
700 [label="x[2] <= 2.5\nentropy = 0.894\nsamples = 492\nvalue = [153, 339]"] ;
699 -> 700 ;
701 [label="x[3] <= 5800.0\nentropy = 0.363\nsamples = 246\nvalue = [17, 229]"] ;
700 -> 701 ;
702 [label="x[1] <= 104000.0\nentropy = 0.089\nsamples = 89\nvalue = [1, 88]"] ;
701 -> 702 ;
703 [label="entropy = 0.0\nsamples = 87\nvalue = [0, 87]"] ;
702 -> 703 ;
704 [label="x[24] <= 0.5\nentropy = 1.0\nsamples = 2\nvalue = [1, 1]"] ;
702 -> 704 ;
705 [label="entropy = 0.0\nsamples = 1\nvalue = [0, 1]"] ;
704 -> 705 ;
706 [label="entropy = 0.0\nsamples = 1\nvalue = [1, 0]"] ;
704 -> 706 ;
707 [label="x[1] <= 98927.5\nentropy = 0.475\nsamples = 157\nvalue = [16, 141]"] ;
701 -> 707 ;
708 [label="x[0] <= 60.5\nentropy = 0.314\nsamples = 141\nvalue = [8, 133]"] ;
707 -> 708 ;
709 [label="entropy = 0.286\nsamples = 140\nvalue = [7, 133]"] ;
708 -> 709 ;
710 [label="entropy = 0.0\nsamples = 1\nvalue = [1, 0]"] ;
708 -> 710 ;
711 [label="x[1] <= 139000.0\nentropy = 1.0\nsamples = 16\nvalue = [8, 8]"] ;
707 -> 711 ;
712 [label="entropy = 0.961\nsamples = 13\nvalue = [5, 8]"] ;
711 -> 712 ;
713 [label="entropy = 0.0\nsamples = 3\nvalue = [3, 0]"] ;
711 -> 713 ;
714 [label="x[3] <= 18100.0\nentropy = 0.992\nsamples = 246\nvalue = [136, 110]"] ;
700 -> 714 ;
715 [label="x[1] <= 92000.0\nentropy = 0.998\nsamples = 218\nvalue = [114, 104]"] ;
714 -> 715 ;
716 [label="x[0] <= 22.5\nentropy = 0.998\nsamples = 197\nvalue = [94, 103]"] ;
715 -> 716 ;
717 [label="entropy = 0.858\nsamples = 39\nvalue = [11, 28]"] ;
716 -> 717 ;
718 [label="entropy = 0.998\nsamples = 158\nvalue = [83, 75]"] ;
716 -> 718 ;
719 [label="x[2] <= 10.0\nentropy = 0.276\nsamples = 21\nvalue = [20, 1]"] ;
715 -> 719 ;
720 [label="entropy = 0.0\nsamples = 19\nvalue = [19, 0]"] ;
719 -> 720 ;
721 [label="entropy = 1.0\nsamples = 2\nvalue = [1, 1]"] ;
719 -> 721 ;
722 [label="x[5] <= 0.215\nentropy = 0.75\nsamples = 28\nvalue = [22, 6]"] ;
714 -> 722 ;
723 [label="entropy = 0.0\nsamples = 12\nvalue = [12, 0]"] ;
722 -> 723 ;
724 [label="x[1] <= 89000.0\nentropy = 0.954\nsamples = 16\nvalue = [10, 6]"] ;
722 -> 724 ;
725 [label="entropy = 0.971\nsamples = 10\nvalue = [4, 6]"] ;
724 -> 725 ;
726 [label="entropy = 0.0\nsamples = 6\nvalue = [6, 0]"] ;
724 -> 726 ;
727 [label="x[2] <= 8.5\nentropy = 0.055\nsamples = 160\nvalue = [1, 159]"] ;
699 -> 727 ;
728 [label="entropy = 0.0\nsamples = 145\nvalue = [0, 145]"] ;
727 -> 728 ;
729 [label="x[0] <= 24.5\nentropy = 0.353\nsamples = 15\nvalue = [1, 14]"] ;
727 -> 729 ;
730 [label="entropy = 0.0\nsamples = 1\nvalue = [1, 0]"] ;
729 -> 730 ;
731 [label="entropy = 0.0\nsamples = 14\nvalue = [0, 14]"] ;
729 -> 731 ;
732 [label="x[4] <= 18.715\nentropy = 0.082\nsamples = 98\nvalue = [1.0, 97.0]"] ;
698 -> 732 ;
733 [label="entropy = 0.0\nsamples = 84\nvalue = [0, 84]"] ;
732 -> 733 ;
734 [label="x[2] <= 2.5\nentropy = 0.371\nsamples = 14\nvalue = [1, 13]"] ;
732 -> 734 ;
735 [label="entropy = 0.0\nsamples = 10\nvalue = [0, 10]"] ;
734 -> 735 ;
736 [label="x[2] <= 3.5\nentropy = 0.811\nsamples = 4\nvalue = [1, 3]"] ;
734 -> 736 ;
737 [label="entropy = 0.0\nsamples = 1\nvalue = [1, 0]"] ;
736 -> 737 ;
738 [label="entropy = 0.0\nsamples = 3\nvalue = [0, 3]"] ;
736 -> 738 ;
739 [label="x[5] <= 0.305\nentropy = 0.661\nsamples = 607\nvalue = [503.0, 104.0]"] ;
697 -> 739 ;
740 [label="x[1] <= 49155.0\nentropy = 0.563\nsamples = 576\nvalue = [500, 76]"] ;
739 -> 740 ;
741 [label="x[2] <= 1.5\nentropy = 0.704\nsamples = 293\nvalue = [237.0, 56.0]"] ;
740 -> 741 ;
742 [label="x[3] <= 7750.0\nentropy = 0.863\nsamples = 77\nvalue = [55, 22]"] ;
741 -> 742 ;
743 [label="x[13] <= 0.5\nentropy = 0.924\nsamples = 62\nvalue = [41, 21]"] ;
742 -> 743 ;
744 [label="x[5] <= 0.035\nentropy = 0.856\nsamples = 57\nvalue = [41, 16]"] ;
743 -> 744 ;
745 [label="entropy = 0.0\nsamples = 5\nvalue = [5, 0]"] ;
744 -> 745 ;
746 [label="entropy = 0.89\nsamples = 52\nvalue = [36, 16]"] ;
744 -> 746 ;
747 [label="entropy = 0.0\nsamples = 5\nvalue = [0, 5]"] ;
743 -> 747 ;
748 [label="x[3] <= 12900.0\nentropy = 0.353\nsamples = 15\nvalue = [14, 1]"] ;
742 -> 748 ;
749 [label="entropy = 0.0\nsamples = 14\nvalue = [14, 0]"] ;
748 -> 749 ;
750 [label="entropy = 0.0\nsamples = 1\nvalue = [0, 1]"] ;
748 -> 750 ;
751 [label="x[13] <= 0.5\nentropy = 0.628\nsamples = 216\nvalue = [182, 34]"] ;
741 -> 751 ;
752 [label="x[16] <= 0.5\nentropy = 0.59\nsamples = 211\nvalue = [181, 30]"] ;
751 -> 752 ;
753 [label="x[2] <= 7.5\nentropy = 0.501\nsamples = 181\nvalue = [161, 20]"] ;
752 -> 753 ;
754 [label="entropy = 0.391\nsamples = 156\nvalue = [144, 12]"] ;
753 -> 754 ;
755 [label="entropy = 0.904\nsamples = 25\nvalue = [17, 8]"] ;
753 -> 755 ;
756 [label="x[6] <= 2.5\nentropy = 0.918\nsamples = 30\nvalue = [20, 10]"] ;
752 -> 756 ;
757 [label="entropy = 0.994\nsamples = 11\nvalue = [6, 5]"] ;
756 -> 757 ;
758 [label="entropy = 0.831\nsamples = 19\nvalue = [14, 5]"] ;
756 -> 758 ;
759 [label="x[3] <= 9000.0\nentropy = 0.722\nsamples = 5\nvalue = [1, 4]"] ;
751 -> 759 ;
760 [label="entropy = 0.0\nsamples = 4\nvalue = [0, 4]"] ;
759 -> 760 ;
761 [label="entropy = 0.0\nsamples = 1\nvalue = [1, 0]"] ;
759 -> 761 ;
762 [label="x[4] <= 14.595\nentropy = 0.368\nsamples = 283\nvalue = [263, 20]"] ;
740 -> 762 ;
763 [label="entropy = 0.0\nsamples = 1\nvalue = [0, 1]"] ;
762 -> 763 ;
764 [label="x[3] <= 12650.0\nentropy = 0.356\nsamples = 282\nvalue = [263, 19]"] ;
762 -> 764 ;
765 [label="x[3] <= 6237.5\nentropy = 0.307\nsamples = 237\nvalue = [224, 13]"] ;
764 -> 765 ;
766 [label="x[3] <= 5337.5\nentropy = 0.417\nsamples = 107\nvalue = [98, 9]"] ;
765 -> 766 ;
767 [label="entropy = 0.279\nsamples = 83\nvalue = [79, 4]"] ;
766 -> 767 ;
768 [label="entropy = 0.738\nsamples = 24\nvalue = [19, 5]"] ;
766 -> 768 ;
769 [label="x[0] <= 24.5\nentropy = 0.198\nsamples = 130\nvalue = [126, 4]"] ;
765 -> 769 ;
770 [label="entropy = 0.371\nsamples = 56\nvalue = [52, 4]"] ;
769 -> 770 ;
771 [label="entropy = 0.0\nsamples = 74\nvalue = [74, 0]"] ;
769 -> 771 ;
772 [label="x[4] <= 14.685\nentropy = 0.567\nsamples = 45\nvalue = [39, 6]"] ;
764 -> 772 ;
773 [label="entropy = 0.0\nsamples = 14\nvalue = [14, 0]"] ;
772 -> 773 ;
774 [label="x[3] <= 12900.0\nentropy = 0.709\nsamples = 31\nvalue = [25, 6]"] ;
772 -> 774 ;
775 [label="entropy = 0.0\nsamples = 1\nvalue = [0, 1]"] ;
774 -> 775 ;
776 [label="entropy = 0.65\nsamples = 30\nvalue = [25, 5]"] ;
774 -> 776 ;
777 [label="x[6] <= 14.0\nentropy = 0.459\nsamples = 31\nvalue = [3, 28]"] ;
739 -> 777 ;
778 [label="x[0] <= 24.5\nentropy = 0.353\nsamples = 30\nvalue = [2, 28]"] ;
777 -> 778 ;
779 [label="entropy = 0.0\nsamples = 14\nvalue = [0, 14]"] ;
778 -> 779 ;
780 [label="x[2] <= 4.5\nentropy = 0.544\nsamples = 16\nvalue = [2, 14]"] ;
778 -> 780 ;
781 [label="x[4] <= 14.755\nentropy = 0.684\nsamples = 11\nvalue = [2, 9]"] ;
780 -> 781 ;
782 [label="x[3] <= 18000.0\nentropy = 0.971\nsamples = 5\nvalue = [2, 3]"] ;
781 -> 782 ;
783 [label="entropy = 0.811\nsamples = 4\nvalue = [1, 3]"] ;
782 -> 783 ;
784 [label="entropy = 0.0\nsamples = 1\nvalue = [1, 0]"] ;
782 -> 784 ;
785 [label="entropy = 0.0\nsamples = 6\nvalue = [0, 6]"] ;
781 -> 785 ;
786 [label="entropy = 0.0\nsamples = 5\nvalue = [0, 5]"] ;
780 -> 786 ;
787 [label="entropy = 0.0\nsamples = 1\nvalue = [1, 0]"] ;
777 -> 787 ;
788 [label="x[11] <= 0.5\nentropy = 0.851\nsamples = 2870\nvalue = [794, 2076]"] ;
696 -> 788 ;
789 [label="x[2] <= 2.5\nentropy = 0.913\nsamples = 2392\nvalue = [784, 1608]"] ;
788 -> 789 ;
790 [label="x[0] <= 22.5\nentropy = 0.211\nsamples = 1052\nvalue = [35, 1017]"] ;
789 -> 790 ;
791 [label="x[4] <= 14.675\nentropy = 0.052\nsamples = 170\nvalue = [1, 169]"] ;
790 -> 791 ;
792 [label="x[5] <= 0.095\nentropy = 0.276\nsamples = 21\nvalue = [1, 20]"] ;
791 -> 792 ;
793 [label="x[1] <= 53700.0\nentropy = 0.918\nsamples = 3\nvalue = [1, 2]"] ;
792 -> 793 ;
794 [label="entropy = 0.0\nsamples = 1\nvalue = [1, 0]"] ;
793 -> 794 ;
795 [label="entropy = 0.0\nsamples = 2\nvalue = [0, 2]"] ;
793 -> 795 ;
796 [label="entropy = 0.0\nsamples = 18\nvalue = [0, 18]"] ;
792 -> 796 ;
797 [label="entropy = 0.0\nsamples = 149\nvalue = [0, 149]"] ;
791 -> 797 ;
798 [label="x[1] <= 74900.0\nentropy = 0.236\nsamples = 882\nvalue = [34, 848]"] ;
790 -> 798 ;
799 [label="x[5] <= 0.305\nentropy = 0.172\nsamples = 779\nvalue = [20, 759]"] ;
798 -> 799 ;
800 [label="x[1] <= 39998.0\nentropy = 0.202\nsamples = 636\nvalue = [20, 616]"] ;
799 -> 800 ;
801 [label="x[3] <= 1100.0\nentropy = 0.118\nsamples = 314\nvalue = [5, 309]"] ;
800 -> 801 ;
802 [label="entropy = 0.811\nsamples = 4\nvalue = [1, 3]"] ;
801 -> 802 ;
803 [label="entropy = 0.099\nsamples = 310\nvalue = [4, 306]"] ;
801 -> 803 ;
804 [label="x[1] <= 60780.0\nentropy = 0.272\nsamples = 322\nvalue = [15, 307]"] ;
800 -> 804 ;
805 [label="entropy = 0.326\nsamples = 252\nvalue = [15, 237]"] ;
804 -> 805 ;
806 [label="entropy = 0.0\nsamples = 70\nvalue = [0, 70]"] ;
804 -> 806 ;
807 [label="entropy = 0.0\nsamples = 143\nvalue = [0, 143]"] ;
799 -> 807 ;
808 [label="x[1] <= 75452.5\nentropy = 0.573\nsamples = 103\nvalue = [14, 89]"] ;
798 -> 808 ;
809 [label="x[4] <= 15.82\nentropy = 0.918\nsamples = 9\nvalue = [6, 3]"] ;
808 -> 809 ;
810 [label="entropy = 0.0\nsamples = 2\nvalue = [0, 2]"] ;
809 -> 810 ;
811 [label="x[0] <= 32.5\nentropy = 0.592\nsamples = 7\nvalue = [6, 1]"] ;
809 -> 811 ;
812 [label="entropy = 0.0\nsamples = 5\nvalue = [5, 0]"] ;
811 -> 812 ;
813 [label="entropy = 1.0\nsamples = 2\nvalue = [1, 1]"] ;
811 -> 813 ;
814 [label="x[3] <= 15900.0\nentropy = 0.42\nsamples = 94\nvalue = [8, 86]"] ;
808 -> 814 ;
815 [label="x[0] <= 31.5\nentropy = 0.658\nsamples = 47\nvalue = [8, 39]"] ;
814 -> 815 ;
816 [label="entropy = 0.485\nsamples = 38\nvalue = [4, 34]"] ;
815 -> 816 ;
817 [label="entropy = 0.991\nsamples = 9\nvalue = [4, 5]"] ;
815 -> 817 ;
818 [label="entropy = 0.0\nsamples = 47\nvalue = [0, 47]"] ;
814 -> 818 ;
819 [label="x[14] <= 0.5\nentropy = 0.99\nsamples = 1340\nvalue = [749, 591]"] ;
789 -> 819 ;
820 [label="x[5] <= 0.305\nentropy = 0.896\nsamples = 1010\nvalue = [694, 316]"] ;
819 -> 820 ;
821 [label="x[1] <= 46577.0\nentropy = 0.771\nsamples = 889\nvalue = [688, 201]"] ;
820 -> 821 ;
822 [label="x[13] <= 0.5\nentropy = 0.95\nsamples = 284\nvalue = [179, 105]"] ;
821 -> 822 ;
823 [label="x[1] <= 43600.0\nentropy = 0.888\nsamples = 255\nvalue = [177, 78]"] ;
822 -> 823 ;
824 [label="entropy = 0.845\nsamples = 209\nvalue = [152.0, 57.0]"] ;
823 -> 824 ;
825 [label="entropy = 0.995\nsamples = 46\nvalue = [25, 21]"] ;
823 -> 825 ;
826 [label="x[6] <= 15.5\nentropy = 0.362\nsamples = 29\nvalue = [2, 27]"] ;
822 -> 826 ;
827 [label="entropy = 0.222\nsamples = 28\nvalue = [1, 27]"] ;
826 -> 827 ;
828 [label="entropy = 0.0\nsamples = 1\nvalue = [1, 0]"] ;
826 -> 828 ;
829 [label="x[16] <= 0.5\nentropy = 0.631\nsamples = 605\nvalue = [509, 96]"] ;
821 -> 829 ;
830 [label="x[0] <= 22.5\nentropy = 0.68\nsamples = 450\nvalue = [369, 81]"] ;
829 -> 830 ;
831 [label="entropy = 0.896\nsamples = 48\nvalue = [33, 15]"] ;
830 -> 831 ;
832 [label="entropy = 0.644\nsamples = 402\nvalue = [336, 66]"] ;
830 -> 832 ;
833 [label="x[2] <= 19.5\nentropy = 0.459\nsamples = 155\nvalue = [140, 15]"] ;
829 -> 833 ;
834 [label="entropy = 0.419\nsamples = 153\nvalue = [140, 13]"] ;
833 -> 834 ;
835 [label="entropy = 0.0\nsamples = 2\nvalue = [0, 2]"] ;
833 -> 835 ;
836 [label="x[4] <= 15.575\nentropy = 0.285\nsamples = 121\nvalue = [6, 115]"] ;
820 -> 836 ;
837 [label="x[0] <= 27.5\nentropy = 0.474\nsamples = 59\nvalue = [6, 53]"] ;
836 -> 837 ;
838 [label="x[3] <= 11000.0\nentropy = 0.672\nsamples = 34\nvalue = [6, 28]"] ;
837 -> 838 ;
839 [label="entropy = 0.0\nsamples = 8\nvalue = [0, 8]"] ;
838 -> 839 ;
840 [label="entropy = 0.779\nsamples = 26\nvalue = [6, 20]"] ;
838 -> 840 ;
841 [label="entropy = 0.0\nsamples = 25\nvalue = [0, 25]"] ;
837 -> 841 ;
842 [label="entropy = 0.0\nsamples = 62\nvalue = [0, 62]"] ;
836 -> 842 ;
843 [label="x[5] <= 0.285\nentropy = 0.65\nsamples = 330\nvalue = [55, 275]"] ;
819 -> 843 ;
844 [label="x[1] <= 53500.0\nentropy = 0.756\nsamples = 248\nvalue = [54, 194]"] ;
843 -> 844 ;
845 [label="x[5] <= 0.275\nentropy = 0.897\nsamples = 147\nvalue = [46, 101]"] ;
844 -> 845 ;
846 [label="x[1] <= 35640.0\nentropy = 0.873\nsamples = 143\nvalue = [42, 101]"] ;
845 -> 846 ;
847 [label="entropy = 0.656\nsamples = 65\nvalue = [11, 54]"] ;
846 -> 847 ;
848 [label="entropy = 0.969\nsamples = 78\nvalue = [31.0, 47.0]"] ;
846 -> 848 ;
849 [label="entropy = 0.0\nsamples = 4\nvalue = [4, 0]"] ;
845 -> 849 ;
850 [label="x[1] <= 70900.0\nentropy = 0.399\nsamples = 101\nvalue = [8, 93]"] ;
844 -> 850 ;
851 [label="x[1] <= 60600.0\nentropy = 0.24\nsamples = 76\nvalue = [3, 73]"] ;
850 -> 851 ;
852 [label="entropy = 0.359\nsamples = 44\nvalue = [3, 41]"] ;
851 -> 852 ;
853 [label="entropy = 0.0\nsamples = 32\nvalue = [0, 32]"] ;
851 -> 853 ;
854 [label="x[0] <= 33.0\nentropy = 0.722\nsamples = 25\nvalue = [5, 20]"] ;
850 -> 854 ;
855 [label="entropy = 0.773\nsamples = 22\nvalue = [5, 17]"] ;
854 -> 855 ;
856 [label="entropy = 0.0\nsamples = 3\nvalue = [0, 3]"] ;
854 -> 856 ;
857 [label="x[4] <= 15.205\nentropy = 0.095\nsamples = 82\nvalue = [1, 81]"] ;
843 -> 857 ;
858 [label="x[4] <= 15.125\nentropy = 0.229\nsamples = 27\nvalue = [1, 26]"] ;
857 -> 858 ;
859 [label="entropy = 0.0\nsamples = 24\nvalue = [0, 24]"] ;
858 -> 859 ;
860 [label="x[6] <= 11.5\nentropy = 0.918\nsamples = 3\nvalue = [1, 2]"] ;
858 -> 860 ;
861 [label="entropy = 0.0\nsamples = 2\nvalue = [0, 2]"] ;
860 -> 861 ;
862 [label="entropy = 0.0\nsamples = 1\nvalue = [1, 0]"] ;
860 -> 862 ;
863 [label="entropy = 0.0\nsamples = 55\nvalue = [0, 55]"] ;
857 -> 863 ;
864 [label="x[3] <= 19800.0\nentropy = 0.147\nsamples = 478\nvalue = [10, 468]"] ;
788 -> 864 ;
865 [label="x[4] <= 17.915\nentropy = 0.119\nsamples = 434\nvalue = [7, 427]"] ;
864 -> 865 ;
866 [label="x[2] <= 3.5\nentropy = 0.106\nsamples = 430\nvalue = [6, 424]"] ;
865 -> 866 ;
867 [label="x[5] <= 0.055\nentropy = 0.037\nsamples = 256\nvalue = [1, 255]"] ;
866 -> 867 ;
868 [label="x[4] <= 15.675\nentropy = 0.337\nsamples = 16\nvalue = [1, 15]"] ;
867 -> 868 ;
869 [label="entropy = 0.0\nsamples = 11\nvalue = [0, 11]"] ;
868 -> 869 ;
870 [label="x[4] <= 15.995\nentropy = 0.722\nsamples = 5\nvalue = [1, 4]"] ;
868 -> 870 ;
871 [label="entropy = 0.0\nsamples = 1\nvalue = [1, 0]"] ;
870 -> 871 ;
872 [label="entropy = 0.0\nsamples = 4\nvalue = [0, 4]"] ;
870 -> 872 ;
873 [label="entropy = 0.0\nsamples = 240\nvalue = [0, 240]"] ;
867 -> 873 ;
874 [label="x[5] <= 0.185\nentropy = 0.188\nsamples = 174\nvalue = [5, 169]"] ;
866 -> 874 ;
875 [label="x[4] <= 15.005\nentropy = 0.083\nsamples = 97\nvalue = [1, 96]"] ;
874 -> 875 ;
876 [label="x[5] <= 0.065\nentropy = 0.216\nsamples = 29\nvalue = [1, 28]"] ;
875 -> 876 ;
877 [label="entropy = 0.65\nsamples = 6\nvalue = [1, 5]"] ;
876 -> 877 ;
878 [label="entropy = 0.0\nsamples = 23\nvalue = [0, 23]"] ;
876 -> 878 ;
879 [label="entropy = 0.0\nsamples = 68\nvalue = [0, 68]"] ;
875 -> 879 ;
880 [label="x[1] <= 68725.0\nentropy = 0.295\nsamples = 77\nvalue = [4, 73]"] ;
874 -> 880 ;
881 [label="x[5] <= 0.275\nentropy = 0.242\nsamples = 75\nvalue = [3, 72]"] ;
880 -> 881 ;
882 [label="entropy = 0.414\nsamples = 36\nvalue = [3, 33]"] ;
881 -> 882 ;
883 [label="entropy = 0.0\nsamples = 39\nvalue = [0, 39]"] ;
881 -> 883 ;
884 [label="x[5] <= 0.205\nentropy = 1.0\nsamples = 2\nvalue = [1, 1]"] ;
880 -> 884 ;
885 [label="entropy = 0.0\nsamples = 1\nvalue = [0, 1]"] ;
884 -> 885 ;
886 [label="entropy = 0.0\nsamples = 1\nvalue = [1, 0]"] ;
884 -> 886 ;
887 [label="x[2] <= 6.5\nentropy = 0.811\nsamples = 4\nvalue = [1, 3]"] ;
865 -> 887 ;
888 [label="entropy = 0.0\nsamples = 3\nvalue = [0, 3]"] ;
887 -> 888 ;
889 [label="entropy = 0.0\nsamples = 1\nvalue = [1, 0]"] ;
887 -> 889 ;
890 [label="x[4] <= 14.9\nentropy = 0.359\nsamples = 44\nvalue = [3, 41]"] ;
864 -> 890 ;
891 [label="x[1] <= 95450.0\nentropy = 0.722\nsamples = 15\nvalue = [3, 12]"] ;
890 -> 891 ;
892 [label="x[3] <= 21250.0\nentropy = 0.391\nsamples = 13\nvalue = [1, 12]"] ;
891 -> 892 ;
893 [label="x[0] <= 31.0\nentropy = 0.722\nsamples = 5\nvalue = [1, 4]"] ;
892 -> 893 ;
894 [label="entropy = 0.0\nsamples = 4\nvalue = [0, 4]"] ;
893 -> 894 ;
895 [label="entropy = 0.0\nsamples = 1\nvalue = [1, 0]"] ;
893 -> 895 ;
896 [label="entropy = 0.0\nsamples = 8\nvalue = [0, 8]"] ;
892 -> 896 ;
897 [label="entropy = 0.0\nsamples = 2\nvalue = [2, 0]"] ;
891 -> 897 ;
898 [label="entropy = 0.0\nsamples = 29\nvalue = [0, 29]"] ;
890 -> 898 ;
}