digraph Tree {
node [shape=box, fontname="helvetica"] ;
edge [fontname="helvetica"] ;
0 [label="x[5] <= 0.305\nentropy = 0.59\nsamples = 58645\nvalue = [50295, 8350]"] ;
1 [label="x[4] <= 14.04\nentropy = 0.449\nsamples = 53915\nvalue = [48860, 5055]"] ;
0 -> 1 [labeldistance=2.5, labelangle=45, headlabel="True"] ;
2 [label="x[1] <= 34999.5\nentropy = 0.253\nsamples = 46693\nvalue = [44716.0, 1977.0]"] ;
1 -> 2 ;
3 [label="x[4] <= 11.1\nentropy = 0.545\nsamples = 4927\nvalue = [4308, 619]"] ;
2 -> 3 ;
4 [label="x[10] <= 0.5\nentropy = 0.407\nsamples = 2813\nvalue = [2584, 229]"] ;
3 -> 4 ;
5 [label="x[7] <= 0.5\nentropy = 0.188\nsamples = 661\nvalue = [642, 19]"] ;
4 -> 5 ;
6 [label="x[5] <= 0.075\nentropy = 0.091\nsamples = 260\nvalue = [257, 3]"] ;
5 -> 6 ;
7 [label="x[15] <= 0.5\nentropy = 0.503\nsamples = 18\nvalue = [16, 2]"] ;
6 -> 7 ;
8 [label="entropy = 0.0\nsamples = 11\nvalue = [11, 0]"] ;
7 -> 8 ;
9 [label="x[0] <= 30.0\nentropy = 0.863\nsamples = 7\nvalue = [5, 2]"] ;
7 -> 9 ;
10 [label="x[0] <= 24.0\nentropy = 1.0\nsamples = 4\nvalue = [2, 2]"] ;
9 -> 10 ;
11 [label="entropy = 0.918\nsamples = 3\nvalue = [2, 1]"] ;
10 -> 11 ;
12 [label="entropy = 0.0\nsamples = 1\nvalue = [0, 1]"] ;
10 -> 12 ;
13 [label="entropy = 0.0\nsamples = 3\nvalue = [3, 0]"] ;
9 -> 13 ;
14 [label="x[11] <= 0.5\nentropy = 0.039\nsamples = 242\nvalue = [241, 1]"] ;
6 -> 14 ;
15 [label="entropy = 0.0\nsamples = 240\nvalue = [240, 0]"] ;
14 -> 15 ;
16 [label="x[9] <= 0.5\nentropy = 1.0\nsamples = 2\nvalue = [1, 1]"] ;
14 -> 16 ;
17 [label="entropy = 0.0\nsamples = 1\nvalue = [1, 0]"] ;
16 -> 17 ;
18 [label="entropy = 0.0\nsamples = 1\nvalue = [0, 1]"] ;
16 -> 18 ;
19 [label="x[6] <= 5.5\nentropy = 0.242\nsamples = 401\nvalue = [385, 16]"] ;
5 -> 19 ;
20 [label="x[1] <= 25100.0\nentropy = 0.135\nsamples = 265\nvalue = [260, 5]"] ;
19 -> 20 ;
21 [label="x[13] <= 0.5\nentropy = 0.371\nsamples = 42\nvalue = [39, 3]"] ;
20 -> 21 ;
22 [label="x[5] <= 0.05\nentropy = 0.286\nsamples = 40\nvalue = [38, 2]"] ;
21 -> 22 ;
23 [label="entropy = 1.0\nsamples = 4\nvalue = [2, 2]"] ;
22 -> 23 ;
24 [label="entropy = 0.0\nsamples = 36\nvalue = [36, 0]"] ;
22 -> 24 ;
25 [label="x[3] <= 5375.0\nentropy = 1.0\nsamples = 2\nvalue = [1, 1]"] ;
21 -> 25 ;
26 [label="entropy = 0.0\nsamples = 1\nvalue = [0, 1]"] ;
25 -> 26 ;
27 [label="entropy = 0.0\nsamples = 1\nvalue = [1, 0]"] ;
25 -> 27 ;
28 [label="x[15] <= 0.5\nentropy = 0.074\nsamples = 223\nvalue = [221, 2]"] ;
20 -> 28 ;
29 [label="entropy = 0.0\nsamples = 190\nvalue = [190, 0]"] ;
28 -> 29 ;
30 [label="x[4] <= 7.43\nentropy = 0.33\nsamples = 33\nvalue = [31, 2]"] ;
28 -> 30 ;
31 [label="entropy = 0.65\nsamples = 12\nvalue = [10, 2]"] ;
30 -> 31 ;
32 [label="entropy = 0.0\nsamples = 21\nvalue = [21, 0]"] ;
30 -> 32 ;
33 [label="x[4] <= 6.465\nentropy = 0.405\nsamples = 136\nvalue = [125, 11]"] ;
19 -> 33 ;
34 [label="entropy = 0.0\nsamples = 20\nvalue = [20, 0]"] ;
33 -> 34 ;
35 [label="x[13] <= 0.5\nentropy = 0.452\nsamples = 116\nvalue = [105, 11]"] ;
33 -> 35 ;
36 [label="x[6] <= 6.5\nentropy = 0.305\nsamples = 92\nvalue = [87, 5]"] ;
35 -> 36 ;
37 [label="entropy = 0.696\nsamples = 16\nvalue = [13, 3]"] ;
36 -> 37 ;
38 [label="entropy = 0.176\nsamples = 76\nvalue = [74, 2]"] ;
36 -> 38 ;
39 [label="x[2] <= 17.5\nentropy = 0.811\nsamples = 24\nvalue = [18, 6]"] ;
35 -> 39 ;
40 [label="entropy = 0.755\nsamples = 23\nvalue = [18, 5]"] ;
39 -> 40 ;
41 [label="entropy = 0.0\nsamples = 1\nvalue = [0, 1]"] ;
39 -> 41 ;
42 [label="x[5] <= 0.225\nentropy = 0.461\nsamples = 2152\nvalue = [1942, 210]"] ;
4 -> 42 ;
43 [label="x[12] <= 0.5\nentropy = 0.412\nsamples = 1608\nvalue = [1475, 133]"] ;
42 -> 43 ;
44 [label="x[1] <= 33106.0\nentropy = 0.442\nsamples = 1221\nvalue = [1109, 112]"] ;
43 -> 44 ;
45 [label="x[6] <= 20.0\nentropy = 0.394\nsamples = 1120\nvalue = [1033, 87]"] ;
44 -> 45 ;
46 [label="x[13] <= 0.5\nentropy = 0.383\nsamples = 1110\nvalue = [1027, 83]"] ;
45 -> 46 ;
47 [label="entropy = 0.31\nsamples = 1078\nvalue = [1018, 60]"] ;
46 -> 47 ;
48 [label="entropy = 0.857\nsamples = 32\nvalue = [9, 23]"] ;
46 -> 48 ;
49 [label="x[5] <= 0.1\nentropy = 0.971\nsamples = 10\nvalue = [6, 4]"] ;
45 -> 49 ;
50 [label="entropy = 0.0\nsamples = 2\nvalue = [0, 2]"] ;
49 -> 50 ;
51 [label="entropy = 0.811\nsamples = 8\nvalue = [6, 2]"] ;
49 -> 51 ;
52 [label="x[6] <= 7.5\nentropy = 0.807\nsamples = 101\nvalue = [76, 25]"] ;
44 -> 52 ;
53 [label="x[13] <= 0.5\nentropy = 0.684\nsamples = 66\nvalue = [54, 12]"] ;
52 -> 53 ;
54 [label="entropy = 0.525\nsamples = 59\nvalue = [52, 7]"] ;
53 -> 54 ;
55 [label="entropy = 0.863\nsamples = 7\nvalue = [2, 5]"] ;
53 -> 55 ;
56 [label="x[4] <= 9.77\nentropy = 0.952\nsamples = 35\nvalue = [22, 13]"] ;
52 -> 56 ;
57 [label="entropy = 0.998\nsamples = 19\nvalue = [9, 10]"] ;
56 -> 57 ;
58 [label="entropy = 0.696\nsamples = 16\nvalue = [13, 3]"] ;
56 -> 58 ;
59 [label="x[0] <= 22.5\nentropy = 0.304\nsamples = 387\nvalue = [366, 21]"] ;
43 -> 59 ;
60 [label="x[6] <= 3.5\nentropy = 0.106\nsamples = 143\nvalue = [141, 2]"] ;
59 -> 60 ;
61 [label="entropy = 0.0\nsamples = 103\nvalue = [103, 0]"] ;
60 -> 61 ;
62 [label="x[18] <= 0.5\nentropy = 0.286\nsamples = 40\nvalue = [38, 2]"] ;
60 -> 62 ;
63 [label="entropy = 0.0\nsamples = 23\nvalue = [23, 0]"] ;
62 -> 63 ;
64 [label="entropy = 0.523\nsamples = 17\nvalue = [15, 2]"] ;
62 -> 64 ;
65 [label="x[2] <= 5.5\nentropy = 0.395\nsamples = 244\nvalue = [225, 19]"] ;
59 -> 65 ;
66 [label="x[1] <= 31388.5\nentropy = 0.442\nsamples = 207\nvalue = [188, 19]"] ;
65 -> 66 ;
67 [label="entropy = 0.35\nsamples = 167\nvalue = [156.0, 11.0]"] ;
66 -> 67 ;
68 [label="entropy = 0.722\nsamples = 40\nvalue = [32, 8]"] ;
66 -> 68 ;
69 [label="entropy = 0.0\nsamples = 37\nvalue = [37, 0]"] ;
65 -> 69 ;
70 [label="x[3] <= 6225.0\nentropy = 0.588\nsamples = 544\nvalue = [467, 77]"] ;
42 -> 70 ;
71 [label="x[3] <= 4612.5\nentropy = 0.334\nsamples = 130\nvalue = [122, 8]"] ;
70 -> 71 ;
72 [label="x[4] <= 10.805\nentropy = 1.0\nsamples = 6\nvalue = [3, 3]"] ;
71 -> 72 ;
73 [label="x[3] <= 4250.0\nentropy = 0.811\nsamples = 4\nvalue = [3, 1]"] ;
72 -> 73 ;
74 [label="entropy = 0.0\nsamples = 3\nvalue = [3, 0]"] ;
73 -> 74 ;
75 [label="entropy = 0.0\nsamples = 1\nvalue = [0, 1]"] ;
73 -> 75 ;
76 [label="entropy = 0.0\nsamples = 2\nvalue = [0, 2]"] ;
72 -> 76 ;
77 [label="x[2] <= 1.5\nentropy = 0.244\nsamples = 124\nvalue = [119, 5]"] ;
71 -> 77 ;
78 [label="x[4] <= 9.285\nentropy = 0.489\nsamples = 47\nvalue = [42, 5]"] ;
77 -> 78 ;
79 [label="entropy = 0.0\nsamples = 23\nvalue = [23, 0]"] ;
78 -> 79 ;
80 [label="entropy = 0.738\nsamples = 24\nvalue = [19, 5]"] ;
78 -> 80 ;
81 [label="entropy = 0.0\nsamples = 77\nvalue = [77, 0]"] ;
77 -> 81 ;
82 [label="x[14] <= 0.5\nentropy = 0.65\nsamples = 414\nvalue = [345, 69]"] ;
70 -> 82 ;
83 [label="x[13] <= 0.5\nentropy = 0.716\nsamples = 294\nvalue = [236, 58]"] ;
82 -> 83 ;
84 [label="x[16] <= 0.5\nentropy = 0.633\nsamples = 276\nvalue = [232.0, 44.0]"] ;
83 -> 84 ;
85 [label="entropy = 0.683\nsamples = 226\nvalue = [185, 41]"] ;
84 -> 85 ;
86 [label="entropy = 0.327\nsamples = 50\nvalue = [47, 3]"] ;
84 -> 86 ;
87 [label="x[0] <= 33.0\nentropy = 0.764\nsamples = 18\nvalue = [4, 14]"] ;
83 -> 87 ;
88 [label="entropy = 0.567\nsamples = 15\nvalue = [2, 13]"] ;
87 -> 88 ;
89 [label="entropy = 0.918\nsamples = 3\nvalue = [2, 1]"] ;
87 -> 89 ;
90 [label="x[4] <= 10.62\nentropy = 0.442\nsamples = 120\nvalue = [109, 11]"] ;
82 -> 90 ;
91 [label="x[1] <= 33998.0\nentropy = 0.493\nsamples = 102\nvalue = [91, 11]"] ;
90 -> 91 ;
92 [label="entropy = 0.38\nsamples = 95\nvalue = [88.0, 7.0]"] ;
91 -> 92 ;
93 [label="entropy = 0.985\nsamples = 7\nvalue = [3, 4]"] ;
91 -> 93 ;
94 [label="entropy = 0.0\nsamples = 18\nvalue = [18, 0]"] ;
90 -> 94 ;
95 [label="x[9] <= 0.5\nentropy = 0.69\nsamples = 2114\nvalue = [1724, 390]"] ;
3 -> 95 ;
96 [label="x[20] <= 0.5\nentropy = 0.719\nsamples = 1949\nvalue = [1562, 387]"] ;
95 -> 96 ;
97 [label="x[13] <= 0.5\nentropy = 0.705\nsamples = 1925\nvalue = [1556, 369]"] ;
96 -> 97 ;
98 [label="x[1] <= 19984.0\nentropy = 0.634\nsamples = 1819\nvalue = [1528, 291]"] ;
97 -> 98 ;
99 [label="x[7] <= 0.5\nentropy = 0.993\nsamples = 115\nvalue = [52.0, 63.0]"] ;
98 -> 99 ;
100 [label="x[4] <= 13.415\nentropy = 0.987\nsamples = 111\nvalue = [48, 63]"] ;
99 -> 100 ;
101 [label="entropy = 0.998\nsamples = 86\nvalue = [41, 45]"] ;
100 -> 101 ;
102 [label="entropy = 0.855\nsamples = 25\nvalue = [7.0, 18.0]"] ;
100 -> 102 ;
103 [label="entropy = 0.0\nsamples = 4\nvalue = [4, 0]"] ;
99 -> 103 ;
104 [label="x[1] <= 33924.0\nentropy = 0.568\nsamples = 1704\nvalue = [1476.0, 228.0]"] ;
98 -> 104 ;
105 [label="x[1] <= 28900.0\nentropy = 0.513\nsamples = 1564\nvalue = [1385, 179]"] ;
104 -> 105 ;
106 [label="entropy = 0.411\nsamples = 643\nvalue = [590, 53]"] ;
105 -> 106 ;
107 [label="entropy = 0.576\nsamples = 921\nvalue = [795, 126]"] ;
105 -> 107 ;
108 [label="x[3] <= 6200.0\nentropy = 0.934\nsamples = 140\nvalue = [91, 49]"] ;
104 -> 108 ;
109 [label="entropy = 0.857\nsamples = 89\nvalue = [64, 25]"] ;
108 -> 109 ;
110 [label="entropy = 0.998\nsamples = 51\nvalue = [27, 24]"] ;
108 -> 110 ;
111 [label="x[10] <= 0.5\nentropy = 0.833\nsamples = 106\nvalue = [28, 78]"] ;
97 -> 111 ;
112 [label="x[1] <= 28900.0\nentropy = 0.907\nsamples = 31\nvalue = [21, 10]"] ;
111 -> 112 ;
113 [label="entropy = 0.0\nsamples = 8\nvalue = [8, 0]"] ;
112 -> 113 ;
114 [label="x[4] <= 13.705\nentropy = 0.988\nsamples = 23\nvalue = [13.0, 10.0]"] ;
112 -> 114 ;
115 [label="entropy = 0.998\nsamples = 19\nvalue = [9, 10]"] ;
114 -> 115 ;
116 [label="entropy = 0.0\nsamples = 4\nvalue = [4, 0]"] ;
114 -> 116 ;
117 [label="x[1] <= 32448.0\nentropy = 0.447\nsamples = 75\nvalue = [7, 68]"] ;
111 -> 117 ;
118 [label="x[2] <= 7.5\nentropy = 0.503\nsamples = 63\nvalue = [7, 56]"] ;
117 -> 118 ;
119 [label="entropy = 0.414\nsamples = 60\nvalue = [5, 55]"] ;
118 -> 119 ;
120 [label="entropy = 0.918\nsamples = 3\nvalue = [2, 1]"] ;
118 -> 120 ;
121 [label="entropy = 0.0\nsamples = 12\nvalue = [0, 12]"] ;
117 -> 121 ;
122 [label="x[5] <= 0.105\nentropy = 0.811\nsamples = 24\nvalue = [6, 18]"] ;
96 -> 122 ;
123 [label="entropy = 0.0\nsamples = 2\nvalue = [2, 0]"] ;
122 -> 123 ;
124 [label="x[1] <= 31800.0\nentropy = 0.684\nsamples = 22\nvalue = [4, 18]"] ;
122 -> 124 ;
125 [label="x[24] <= 0.5\nentropy = 0.918\nsamples = 12\nvalue = [4, 8]"] ;
124 -> 125 ;
126 [label="x[1] <= 24500.0\nentropy = 0.991\nsamples = 9\nvalue = [4, 5]"] ;
125 -> 126 ;
127 [label="entropy = 0.0\nsamples = 2\nvalue = [2, 0]"] ;
126 -> 127 ;
128 [label="entropy = 0.863\nsamples = 7\nvalue = [2, 5]"] ;
126 -> 128 ;
129 [label="entropy = 0.0\nsamples = 3\nvalue = [0, 3]"] ;
125 -> 129 ;
130 [label="entropy = 0.0\nsamples = 10\nvalue = [0, 10]"] ;
124 -> 130 ;
131 [label="x[1] <= 19000.0\nentropy = 0.131\nsamples = 165\nvalue = [162, 3]"] ;
95 -> 131 ;
132 [label="x[1] <= 17400.0\nentropy = 0.722\nsamples = 10\nvalue = [8, 2]"] ;
131 -> 132 ;
133 [label="entropy = 0.0\nsamples = 7\nvalue = [7, 0]"] ;
132 -> 133 ;
134 [label="x[6] <= 3.5\nentropy = 0.918\nsamples = 3\nvalue = [1, 2]"] ;
132 -> 134 ;
135 [label="entropy = 0.0\nsamples = 2\nvalue = [0, 2]"] ;
134 -> 135 ;
136 [label="entropy = 0.0\nsamples = 1\nvalue = [1, 0]"] ;
134 -> 136 ;
137 [label="x[13] <= 0.5\nentropy = 0.056\nsamples = 155\nvalue = [154, 1]"] ;
131 -> 137 ;
138 [label="entropy = 0.0\nsamples = 147\nvalue = [147, 0]"] ;
137 -> 138 ;
139 [label="x[1] <= 24500.0\nentropy = 0.544\nsamples = 8\nvalue = [7, 1]"] ;
137 -> 139 ;
140 [label="entropy = 0.0\nsamples = 1\nvalue = [0, 1]"] ;
139 -> 140 ;
141 [label="entropy = 0.0\nsamples = 7\nvalue = [7, 0]"] ;
139 -> 141 ;
142 [label="x[17] <= 0.5\nentropy = 0.207\nsamples = 41766\nvalue = [40408, 1358]"] ;
2 -> 142 ;
143 [label="x[1] <= 59659.5\nentropy = 0.265\nsamples = 23552\nvalue = [22493, 1059]"] ;
142 -> 143 ;
144 [label="x[20] <= 0.5\nentropy = 0.347\nsamples = 9973\nvalue = [9325, 648]"] ;
143 -> 144 ;
145 [label="x[16] <= 0.5\nentropy = 0.33\nsamples = 9897\nvalue = [9298, 599]"] ;
144 -> 145 ;
146 [label="x[13] <= 0.5\nentropy = 0.361\nsamples = 8216\nvalue = [7652, 564]"] ;
145 -> 146 ;
147 [label="x[1] <= 58612.5\nentropy = 0.316\nsamples = 7492\nvalue = [7063, 429]"] ;
146 -> 147 ;
148 [label="x[19] <= 0.5\nentropy = 0.306\nsamples = 7400\nvalue = [6996, 404]"] ;
147 -> 148 ;
149 [label="entropy = 0.271\nsamples = 4998\nvalue = [4766, 232]"] ;
148 -> 149 ;
150 [label="entropy = 0.372\nsamples = 2402\nvalue = [2230, 172]"] ;
148 -> 150 ;
151 [label="x[5] <= 0.045\nentropy = 0.844\nsamples = 92\nvalue = [67, 25]"] ;
147 -> 151 ;
152 [label="entropy = 0.0\nsamples = 8\nvalue = [8, 0]"] ;
151 -> 152 ;
153 [label="entropy = 0.878\nsamples = 84\nvalue = [59.0, 25.0]"] ;
151 -> 153 ;
154 [label="x[1] <= 49950.0\nentropy = 0.694\nsamples = 724\nvalue = [589, 135]"] ;
146 -> 154 ;
155 [label="x[10] <= 0.5\nentropy = 0.88\nsamples = 244\nvalue = [171, 73]"] ;
154 -> 155 ;
156 [label="entropy = 0.473\nsamples = 158\nvalue = [142, 16]"] ;
155 -> 156 ;
157 [label="entropy = 0.922\nsamples = 86\nvalue = [29.0, 57.0]"] ;
155 -> 157 ;
158 [label="x[4] <= 11.24\nentropy = 0.555\nsamples = 480\nvalue = [418.0, 62.0]"] ;
154 -> 158 ;
159 [label="entropy = 0.271\nsamples = 194\nvalue = [185, 9]"] ;
158 -> 159 ;
160 [label="entropy = 0.692\nsamples = 286\nvalue = [233, 53]"] ;
158 -> 160 ;
161 [label="x[1] <= 58900.0\nentropy = 0.146\nsamples = 1681\nvalue = [1646, 35]"] ;
145 -> 161 ;
162 [label="x[4] <= 12.225\nentropy = 0.137\nsamples = 1669\nvalue = [1637, 32]"] ;
161 -> 162 ;
163 [label="x[2] <= 21.5\nentropy = 0.079\nsamples = 1129\nvalue = [1118, 11]"] ;
162 -> 163 ;
164 [label="entropy = 0.073\nsamples = 1125\nvalue = [1115, 10]"] ;
163 -> 164 ;
165 [label="entropy = 0.811\nsamples = 4\nvalue = [3, 1]"] ;
163 -> 165 ;
166 [label="x[9] <= 0.5\nentropy = 0.237\nsamples = 540\nvalue = [519, 21]"] ;
162 -> 166 ;
167 [label="entropy = 0.262\nsamples = 473\nvalue = [452, 21]"] ;
166 -> 167 ;
168 [label="entropy = 0.0\nsamples = 67\nvalue = [67, 0]"] ;
166 -> 168 ;
169 [label="x[4] <= 13.895\nentropy = 0.811\nsamples = 12\nvalue = [9, 3]"] ;
161 -> 169 ;
170 [label="x[4] <= 13.645\nentropy = 0.469\nsamples = 10\nvalue = [9, 1]"] ;
169 -> 170 ;
171 [label="entropy = 0.0\nsamples = 7\nvalue = [7, 0]"] ;
170 -> 171 ;
172 [label="entropy = 0.918\nsamples = 3\nvalue = [2, 1]"] ;
170 -> 172 ;
173 [label="entropy = 0.0\nsamples = 2\nvalue = [0, 2]"] ;
169 -> 173 ;
174 [label="x[2] <= 5.5\nentropy = 0.939\nsamples = 76\nvalue = [27, 49]"] ;
144 -> 174 ;
175 [label="x[9] <= 0.5\nentropy = 0.797\nsamples = 58\nvalue = [14, 44]"] ;
174 -> 175 ;
176 [label="x[2] <= 0.5\nentropy = 0.75\nsamples = 56\nvalue = [12, 44]"] ;
175 -> 176 ;
177 [label="entropy = 0.0\nsamples = 10\nvalue = [0, 10]"] ;
176 -> 177 ;
178 [label="x[7] <= 0.5\nentropy = 0.828\nsamples = 46\nvalue = [12, 34]"] ;
176 -> 178 ;
179 [label="entropy = 0.679\nsamples = 39\nvalue = [7, 32]"] ;
178 -> 179 ;
180 [label="entropy = 0.863\nsamples = 7\nvalue = [5, 2]"] ;
178 -> 180 ;
181 [label="entropy = 0.0\nsamples = 2\nvalue = [2, 0]"] ;
175 -> 181 ;
182 [label="x[3] <= 5800.0\nentropy = 0.852\nsamples = 18\nvalue = [13, 5]"] ;
174 -> 182 ;
183 [label="entropy = 0.0\nsamples = 6\nvalue = [6, 0]"] ;
182 -> 183 ;
184 [label="x[11] <= 0.5\nentropy = 0.98\nsamples = 12\nvalue = [7, 5]"] ;
182 -> 184 ;
185 [label="x[5] <= 0.18\nentropy = 0.881\nsamples = 10\nvalue = [7, 3]"] ;
184 -> 185 ;
186 [label="entropy = 1.0\nsamples = 6\nvalue = [3, 3]"] ;
185 -> 186 ;
187 [label="entropy = 0.0\nsamples = 4\nvalue = [4, 0]"] ;
185 -> 187 ;
188 [label="entropy = 0.0\nsamples = 2\nvalue = [0, 2]"] ;
184 -> 188 ;
189 [label="x[20] <= 0.5\nentropy = 0.196\nsamples = 13579\nvalue = [13168, 411]"] ;
143 -> 189 ;
190 [label="x[9] <= 0.5\nentropy = 0.189\nsamples = 13525\nvalue = [13134, 391]"] ;
189 -> 190 ;
191 [label="x[1] <= 79946.0\nentropy = 0.195\nsamples = 12984\nvalue = [12593, 391]"] ;
190 -> 191 ;
192 [label="x[1] <= 60806.0\nentropy = 0.242\nsamples = 6557\nvalue = [6295, 262]"] ;
191 -> 192 ;
193 [label="x[4] <= 11.94\nentropy = 0.087\nsamples = 1929\nvalue = [1908, 21]"] ;
192 -> 193 ;
194 [label="entropy = 0.06\nsamples = 1140\nvalue = [1132, 8]"] ;
193 -> 194 ;
195 [label="entropy = 0.121\nsamples = 789\nvalue = [776, 13]"] ;
193 -> 195 ;
196 [label="x[1] <= 76625.5\nentropy = 0.295\nsamples = 4628\nvalue = [4387.0, 241.0]"] ;
192 -> 196 ;
197 [label="entropy = 0.263\nsamples = 4313\nvalue = [4121, 192]"] ;
196 -> 197 ;
198 [label="entropy = 0.624\nsamples = 315\nvalue = [266, 49]"] ;
196 -> 198 ;
199 [label="x[1] <= 80022.0\nentropy = 0.142\nsamples = 6427\nvalue = [6298, 129]"] ;
191 -> 199 ;
200 [label="x[3] <= 19500.0\nentropy = 0.016\nsamples = 668\nvalue = [667, 1]"] ;
199 -> 200 ;
201 [label="entropy = 0.0\nsamples = 604\nvalue = [604, 0]"] ;
200 -> 201 ;
202 [label="entropy = 0.116\nsamples = 64\nvalue = [63, 1]"] ;
200 -> 202 ;
203 [label="x[5] <= 0.205\nentropy = 0.154\nsamples = 5759\nvalue = [5631.0, 128.0]"] ;
199 -> 203 ;
204 [label="entropy = 0.12\nsamples = 5075\nvalue = [4992, 83]"] ;
203 -> 204 ;
205 [label="entropy = 0.35\nsamples = 684\nvalue = [639, 45]"] ;
203 -> 205 ;
206 [label="entropy = 0.0\nsamples = 541\nvalue = [541, 0]"] ;
190 -> 206 ;
207 [label="x[11] <= 0.5\nentropy = 0.951\nsamples = 54\nvalue = [34, 20]"] ;
189 -> 207 ;
208 [label="x[5] <= 0.11\nentropy = 0.851\nsamples = 47\nvalue = [34, 13]"] ;
207 -> 208 ;
209 [label="x[4] <= 13.77\nentropy = 0.31\nsamples = 18\nvalue = [17, 1]"] ;
208 -> 209 ;
210 [label="entropy = 0.0\nsamples = 17\nvalue = [17, 0]"] ;
209 -> 210 ;
211 [label="entropy = 0.0\nsamples = 1\nvalue = [0, 1]"] ;
209 -> 211 ;
212 [label="x[0] <= 23.5\nentropy = 0.978\nsamples = 29\nvalue = [17, 12]"] ;
208 -> 212 ;
213 [label="entropy = 0.0\nsamples = 3\nvalue = [0, 3]"] ;
212 -> 213 ;
214 [label="x[1] <= 104000.0\nentropy = 0.931\nsamples = 26\nvalue = [17, 9]"] ;
212 -> 214 ;
215 [label="entropy = 0.998\nsamples = 19\nvalue = [10, 9]"] ;
214 -> 215 ;
216 [label="entropy = 0.0\nsamples = 7\nvalue = [7, 0]"] ;
214 -> 216 ;
217 [label="entropy = 0.0\nsamples = 7\nvalue = [0, 7]"] ;
207 -> 217 ;
218 [label="x[4] <= 7.89\nentropy = 0.121\nsamples = 18214\nvalue = [17915, 299]"] ;
142 -> 218 ;
219 [label="x[10] <= 0.5\nentropy = 0.099\nsamples = 14044\nvalue = [13864, 180]"] ;
218 -> 219 ;
220 [label="x[1] <= 86190.0\nentropy = 0.071\nsamples = 9583\nvalue = [9501, 82]"] ;
219 -> 220 ;
221 [label="x[1] <= 75300.0\nentropy = 0.082\nsamples = 7041\nvalue = [6969, 72]"] ;
220 -> 221 ;
222 [label="x[16] <= 0.5\nentropy = 0.069\nsamples = 6013\nvalue = [5963.0, 50.0]"] ;
221 -> 222 ;
223 [label="x[1] <= 59711.5\nentropy = 0.083\nsamples = 4861\nvalue = [4811.0, 50.0]"] ;
222 -> 223 ;
224 [label="entropy = 0.112\nsamples = 2465\nvalue = [2428, 37]"] ;
223 -> 224 ;
225 [label="entropy = 0.049\nsamples = 2396\nvalue = [2383, 13]"] ;
223 -> 225 ;
226 [label="entropy = 0.0\nsamples = 1152\nvalue = [1152, 0]"] ;
222 -> 226 ;
227 [label="x[6] <= 3.5\nentropy = 0.149\nsamples = 1028\nvalue = [1006, 22]"] ;
221 -> 227 ;
228 [label="x[4] <= 7.46\nentropy = 0.074\nsamples = 333\nvalue = [330, 3]"] ;
227 -> 228 ;
229 [label="entropy = 0.0\nsamples = 191\nvalue = [191, 0]"] ;
228 -> 229 ;
230 [label="entropy = 0.148\nsamples = 142\nvalue = [139, 3]"] ;
228 -> 230 ;
231 [label="x[11] <= 0.5\nentropy = 0.181\nsamples = 695\nvalue = [676, 19]"] ;
227 -> 231 ;
232 [label="entropy = 0.144\nsamples = 587\nvalue = [575, 12]"] ;
231 -> 232 ;
233 [label="entropy = 0.346\nsamples = 108\nvalue = [101, 7]"] ;
231 -> 233 ;
234 [label="x[1] <= 96806.5\nentropy = 0.037\nsamples = 2542\nvalue = [2532, 10]"] ;
220 -> 234 ;
235 [label="entropy = 0.0\nsamples = 722\nvalue = [722, 0]"] ;
234 -> 235 ;
236 [label="x[4] <= 7.585\nentropy = 0.049\nsamples = 1820\nvalue = [1810, 10]"] ;
234 -> 236 ;
237 [label="x[5] <= 0.245\nentropy = 0.057\nsamples = 1510\nvalue = [1500, 10]"] ;
236 -> 237 ;
238 [label="entropy = 0.053\nsamples = 1500\nvalue = [1491, 9]"] ;
237 -> 238 ;
239 [label="entropy = 0.469\nsamples = 10\nvalue = [9, 1]"] ;
237 -> 239 ;
240 [label="entropy = 0.0\nsamples = 310\nvalue = [310, 0]"] ;
236 -> 240 ;
241 [label="x[13] <= 0.5\nentropy = 0.152\nsamples = 4461\nvalue = [4363.0, 98.0]"] ;
219 -> 241 ;
242 [label="x[5] <= 0.225\nentropy = 0.132\nsamples = 4074\nvalue = [3999, 75]"] ;
241 -> 242 ;
243 [label="x[0] <= 49.5\nentropy = 0.109\nsamples = 3536\nvalue = [3485, 51]"] ;
242 -> 243 ;
244 [label="x[4] <= 7.215\nentropy = 0.103\nsamples = 3503\nvalue = [3456, 47]"] ;
243 -> 244 ;
245 [label="entropy = 0.07\nsamples = 1676\nvalue = [1662, 14]"] ;
244 -> 245 ;
246 [label="entropy = 0.13\nsamples = 1827\nvalue = [1794, 33]"] ;
244 -> 246 ;
247 [label="x[3] <= 19000.0\nentropy = 0.533\nsamples = 33\nvalue = [29, 4]"] ;
243 -> 247 ;
248 [label="entropy = 0.449\nsamples = 32\nvalue = [29, 3]"] ;
247 -> 248 ;
249 [label="entropy = 0.0\nsamples = 1\nvalue = [0, 1]"] ;
247 -> 249 ;
250 [label="x[2] <= 19.5\nentropy = 0.263\nsamples = 538\nvalue = [514, 24]"] ;
242 -> 250 ;
251 [label="x[3] <= 9537.5\nentropy = 0.255\nsamples = 537\nvalue = [514.0, 23.0]"] ;
250 -> 251 ;
252 [label="entropy = 0.0\nsamples = 53\nvalue = [53, 0]"] ;
251 -> 252 ;
253 [label="entropy = 0.276\nsamples = 484\nvalue = [461, 23]"] ;
251 -> 253 ;
254 [label="entropy = 0.0\nsamples = 1\nvalue = [0, 1]"] ;
250 -> 254 ;
255 [label="x[1] <= 49500.0\nentropy = 0.325\nsamples = 387\nvalue = [364, 23]"] ;
241 -> 255 ;
256 [label="x[0] <= 24.5\nentropy = 0.949\nsamples = 19\nvalue = [7, 12]"] ;
255 -> 256 ;
257 [label="entropy = 0.0\nsamples = 4\nvalue = [0, 4]"] ;
256 -> 257 ;
258 [label="x[3] <= 6325.0\nentropy = 0.997\nsamples = 15\nvalue = [7, 8]"] ;
256 -> 258 ;
259 [label="entropy = 0.918\nsamples = 9\nvalue = [6, 3]"] ;
258 -> 259 ;
260 [label="entropy = 0.65\nsamples = 6\nvalue = [1, 5]"] ;
258 -> 260 ;
261 [label="x[4] <= 7.43\nentropy = 0.194\nsamples = 368\nvalue = [357, 11]"] ;
255 -> 261 ;
262 [label="x[0] <= 22.5\nentropy = 0.077\nsamples = 213\nvalue = [211, 2]"] ;
261 -> 262 ;
263 [label="entropy = 0.0\nsamples = 1\nvalue = [0, 1]"] ;
262 -> 263 ;
264 [label="entropy = 0.043\nsamples = 212\nvalue = [211, 1]"] ;
262 -> 264 ;
265 [label="x[0] <= 29.5\nentropy = 0.32\nsamples = 155\nvalue = [146, 9]"] ;
261 -> 265 ;
266 [label="entropy = 0.428\nsamples = 103\nvalue = [94, 9]"] ;
265 -> 266 ;
267 [label="entropy = 0.0\nsamples = 52\nvalue = [52, 0]"] ;
265 -> 267 ;
268 [label="x[9] <= 0.5\nentropy = 0.187\nsamples = 4170\nvalue = [4051, 119]"] ;
218 -> 268 ;
269 [label="x[14] <= 0.5\nentropy = 0.194\nsamples = 3975\nvalue = [3856, 119]"] ;
268 -> 269 ;
270 [label="x[1] <= 59260.0\nentropy = 0.168\nsamples = 3305\nvalue = [3223, 82]"] ;
269 -> 270 ;
271 [label="x[15] <= 0.5\nentropy = 0.242\nsamples = 1301\nvalue = [1249, 52]"] ;
270 -> 271 ;
272 [label="x[13] <= 0.5\nentropy = 0.202\nsamples = 1018\nvalue = [986.0, 32.0]"] ;
271 -> 272 ;
273 [label="entropy = 0.166\nsamples = 899\nvalue = [877, 22]"] ;
272 -> 273 ;
274 [label="entropy = 0.416\nsamples = 119\nvalue = [109, 10]"] ;
272 -> 274 ;
275 [label="x[1] <= 37350.0\nentropy = 0.368\nsamples = 283\nvalue = [263, 20]"] ;
271 -> 275 ;
276 [label="entropy = 0.826\nsamples = 27\nvalue = [20, 7]"] ;
275 -> 276 ;
277 [label="entropy = 0.29\nsamples = 256\nvalue = [243, 13]"] ;
275 -> 277 ;
278 [label="x[2] <= 8.5\nentropy = 0.112\nsamples = 2004\nvalue = [1974, 30]"] ;
270 -> 278 ;
279 [label="x[5] <= 0.175\nentropy = 0.126\nsamples = 1622\nvalue = [1594.0, 28.0]"] ;
278 -> 279 ;
280 [label="entropy = 0.096\nsamples = 1303\nvalue = [1287, 16]"] ;
279 -> 280 ;
281 [label="entropy = 0.231\nsamples = 319\nvalue = [307, 12]"] ;
279 -> 281 ;
282 [label="x[6] <= 8.5\nentropy = 0.047\nsamples = 382\nvalue = [380, 2]"] ;
278 -> 282 ;
283 [label="entropy = 0.0\nsamples = 256\nvalue = [256, 0]"] ;
282 -> 283 ;
284 [label="entropy = 0.118\nsamples = 126\nvalue = [124, 2]"] ;
282 -> 284 ;
285 [label="x[1] <= 58825.0\nentropy = 0.308\nsamples = 670\nvalue = [633, 37]"] ;
269 -> 285 ;
286 [label="x[4] <= 8.765\nentropy = 0.436\nsamples = 323\nvalue = [294, 29]"] ;
285 -> 286 ;
287 [label="x[1] <= 53750.0\nentropy = 0.315\nsamples = 176\nvalue = [166, 10]"] ;
286 -> 287 ;
288 [label="entropy = 0.148\nsamples = 142\nvalue = [139, 3]"] ;
287 -> 288 ;
289 [label="entropy = 0.734\nsamples = 34\nvalue = [27, 7]"] ;
287 -> 289 ;
290 [label="x[5] <= 0.265\nentropy = 0.555\nsamples = 147\nvalue = [128, 19]"] ;
286 -> 290 ;
291 [label="entropy = 0.501\nsamples = 136\nvalue = [121, 15]"] ;
290 -> 291 ;
292 [label="entropy = 0.946\nsamples = 11\nvalue = [7, 4]"] ;
290 -> 292 ;
293 [label="x[3] <= 17500.0\nentropy = 0.158\nsamples = 347\nvalue = [339.0, 8.0]"] ;
285 -> 293 ;
294 [label="x[5] <= 0.115\nentropy = 0.118\nsamples = 314\nvalue = [309, 5]"] ;
293 -> 294 ;
295 [label="entropy = 0.177\nsamples = 188\nvalue = [183, 5]"] ;
294 -> 295 ;
296 [label="entropy = 0.0\nsamples = 126\nvalue = [126, 0]"] ;
294 -> 296 ;
297 [label="x[5] <= 0.185\nentropy = 0.439\nsamples = 33\nvalue = [30, 3]"] ;
293 -> 297 ;
298 [label="entropy = 0.65\nsamples = 12\nvalue = [10, 2]"] ;
297 -> 298 ;
299 [label="entropy = 0.276\nsamples = 21\nvalue = [20, 1]"] ;
297 -> 299 ;
300 [label="entropy = 0.0\nsamples = 195\nvalue = [195, 0]"] ;
268 -> 300 ;
301 [label="x[19] <= 0.5\nentropy = 0.984\nsamples = 7222\nvalue = [4144, 3078]"] ;
1 -> 301 ;
302 [label="x[14] <= 0.5\nentropy = 0.991\nsamples = 5091\nvalue = [2258, 2833]"] ;
301 -> 302 ;
303 [label="x[1] <= 49911.0\nentropy = 1.0\nsamples = 4217\nvalue = [2141, 2076]"] ;
302 -> 303 ;
304 [label="x[10] <= 0.5\nentropy = 0.89\nsamples = 1569\nvalue = [482, 1087]"] ;
303 -> 304 ;
305 [label="x[9] <= 0.5\nentropy = 0.935\nsamples = 356\nvalue = [231.0, 125.0]"] ;
304 -> 305 ;
306 [label="x[1] <= 48998.0\nentropy = 0.998\nsamples = 253\nvalue = [133, 120]"] ;
305 -> 306 ;
307 [label="x[16] <= 0.5\nentropy = 0.989\nsamples = 233\nvalue = [131, 102]"] ;
306 -> 307 ;
308 [label="x[11] <= 0.5\nentropy = 1.0\nsamples = 191\nvalue = [97, 94]"] ;
307 -> 308 ;
309 [label="entropy = 0.901\nsamples = 142\nvalue = [97, 45]"] ;
308 -> 309 ;
310 [label="entropy = 0.0\nsamples = 49\nvalue = [0, 49]"] ;
308 -> 310 ;
311 [label="x[0] <= 35.5\nentropy = 0.702\nsamples = 42\nvalue = [34, 8]"] ;
307 -> 311 ;
312 [label="entropy = 0.799\nsamples = 33\nvalue = [25, 8]"] ;
311 -> 312 ;
313 [label="entropy = 0.0\nsamples = 9\nvalue = [9, 0]"] ;
311 -> 313 ;
314 [label="x[4] <= 15.085\nentropy = 0.469\nsamples = 20\nvalue = [2, 18]"] ;
306 -> 314 ;
315 [label="x[6] <= 7.0\nentropy = 0.811\nsamples = 8\nvalue = [2, 6]"] ;
314 -> 315 ;
316 [label="entropy = 0.592\nsamples = 7\nvalue = [1, 6]"] ;
315 -> 316 ;
317 [label="entropy = 0.0\nsamples = 1\nvalue = [1, 0]"] ;
315 -> 317 ;
318 [label="entropy = 0.0\nsamples = 12\nvalue = [0, 12]"] ;
314 -> 318 ;
319 [label="x[21] <= 0.5\nentropy = 0.28\nsamples = 103\nvalue = [98, 5]"] ;
305 -> 319 ;
320 [label="x[4] <= 16.045\nentropy = 0.085\nsamples = 94\nvalue = [93, 1]"] ;
319 -> 320 ;
321 [label="entropy = 0.0\nsamples = 73\nvalue = [73, 0]"] ;
320 -> 321 ;
322 [label="x[6] <= 15.0\nentropy = 0.276\nsamples = 21\nvalue = [20, 1]"] ;
320 -> 322 ;
323 [label="entropy = 0.0\nsamples = 20\nvalue = [20, 0]"] ;
322 -> 323 ;
324 [label="entropy = 0.0\nsamples = 1\nvalue = [0, 1]"] ;
322 -> 324 ;
325 [label="x[5] <= 0.05\nentropy = 0.991\nsamples = 9\nvalue = [5, 4]"] ;
319 -> 325 ;
326 [label="entropy = 0.0\nsamples = 1\nvalue = [0, 1]"] ;
325 -> 326 ;
327 [label="x[1] <= 33102.0\nentropy = 0.954\nsamples = 8\nvalue = [5, 3]"] ;
325 -> 327 ;
328 [label="entropy = 0.971\nsamples = 5\nvalue = [2, 3]"] ;
327 -> 328 ;
329 [label="entropy = 0.0\nsamples = 3\nvalue = [3, 0]"] ;
327 -> 329 ;
330 [label="x[2] <= 2.5\nentropy = 0.736\nsamples = 1213\nvalue = [251, 962]"] ;
304 -> 330 ;
331 [label="x[11] <= 0.5\nentropy = 0.106\nsamples = 713\nvalue = [10, 703]"] ;
330 -> 331 ;
332 [label="x[13] <= 0.5\nentropy = 0.129\nsamples = 562\nvalue = [10.0, 552.0]"] ;
331 -> 332 ;
333 [label="x[0] <= 62.0\nentropy = 0.158\nsamples = 434\nvalue = [10, 424]"] ;
332 -> 333 ;
334 [label="entropy = 0.146\nsamples = 433\nvalue = [9, 424]"] ;
333 -> 334 ;
335 [label="entropy = 0.0\nsamples = 1\nvalue = [1, 0]"] ;
333 -> 335 ;
336 [label="entropy = 0.0\nsamples = 128\nvalue = [0, 128]"] ;
332 -> 336 ;
337 [label="entropy = 0.0\nsamples = 151\nvalue = [0, 151]"] ;
331 -> 337 ;
338 [label="x[11] <= 0.5\nentropy = 0.999\nsamples = 500\nvalue = [241, 259]"] ;
330 -> 338 ;
339 [label="x[13] <= 0.5\nentropy = 0.951\nsamples = 378\nvalue = [238, 140]"] ;
338 -> 339 ;
340 [label="x[4] <= 15.005\nentropy = 0.885\nsamples = 337\nvalue = [235, 102]"] ;
339 -> 340 ;
341 [label="entropy = 0.694\nsamples = 102\nvalue = [83, 19]"] ;
340 -> 341 ;
342 [label="entropy = 0.937\nsamples = 235\nvalue = [152, 83]"] ;
340 -> 342 ;
343 [label="x[0] <= 31.0\nentropy = 0.378\nsamples = 41\nvalue = [3, 38]"] ;
339 -> 343 ;
344 [label="entropy = 0.0\nsamples = 34\nvalue = [0, 34]"] ;
343 -> 344 ;
345 [label="entropy = 0.985\nsamples = 7\nvalue = [3, 4]"] ;
343 -> 345 ;
346 [label="x[2] <= 5.5\nentropy = 0.166\nsamples = 122\nvalue = [3, 119]"] ;
338 -> 346 ;
347 [label="x[2] <= 3.5\nentropy = 0.258\nsamples = 69\nvalue = [3, 66]"] ;
346 -> 347 ;
348 [label="entropy = 0.0\nsamples = 31\nvalue = [0, 31]"] ;
347 -> 348 ;
349 [label="entropy = 0.398\nsamples = 38\nvalue = [3, 35]"] ;
347 -> 349 ;
350 [label="entropy = 0.0\nsamples = 53\nvalue = [0, 53]"] ;
346 -> 350 ;
351 [label="x[2] <= 2.5\nentropy = 0.953\nsamples = 2648\nvalue = [1659, 989]"] ;
303 -> 351 ;
352 [label="x[1] <= 109000.0\nentropy = 0.943\nsamples = 802\nvalue = [289, 513]"] ;
351 -> 352 ;
353 [label="x[11] <= 0.5\nentropy = 0.886\nsamples = 694\nvalue = [211, 483]"] ;
352 -> 353 ;
354 [label="x[5] <= 0.215\nentropy = 0.946\nsamples = 558\nvalue = [203, 355]"] ;
353 -> 354 ;
355 [label="x[10] <= 0.5\nentropy = 0.972\nsamples = 416\nvalue = [167, 249]"] ;
354 -> 355 ;
356 [label="entropy = 0.503\nsamples = 162\nvalue = [144, 18]"] ;
355 -> 356 ;
357 [label="entropy = 0.438\nsamples = 254\nvalue = [23, 231]"] ;
355 -> 357 ;
358 [label="x[7] <= 0.5\nentropy = 0.817\nsamples = 142\nvalue = [36, 106]"] ;
354 -> 358 ;
359 [label="entropy = 0.439\nsamples = 110\nvalue = [10, 100]"] ;
358 -> 359 ;
360 [label="entropy = 0.696\nsamples = 32\nvalue = [26, 6]"] ;
358 -> 360 ;
361 [label="x[9] <= 0.5\nentropy = 0.323\nsamples = 136\nvalue = [8, 128]"] ;
353 -> 361 ;
362 [label="x[6] <= 5.5\nentropy = 0.158\nsamples = 130\nvalue = [3, 127]"] ;
361 -> 362 ;
363 [label="entropy = 0.24\nsamples = 76\nvalue = [3, 73]"] ;
362 -> 363 ;
364 [label="entropy = 0.0\nsamples = 54\nvalue = [0, 54]"] ;
362 -> 364 ;
365 [label="x[0] <= 22.5\nentropy = 0.65\nsamples = 6\nvalue = [5, 1]"] ;
361 -> 365 ;
366 [label="entropy = 0.0\nsamples = 1\nvalue = [0, 1]"] ;
365 -> 366 ;
367 [label="entropy = 0.0\nsamples = 5\nvalue = [5, 0]"] ;
365 -> 367 ;
368 [label="x[11] <= 0.5\nentropy = 0.852\nsamples = 108\nvalue = [78, 30]"] ;
352 -> 368 ;
369 [label="x[7] <= 0.5\nentropy = 0.76\nsamples = 100\nvalue = [78, 22]"] ;
368 -> 369 ;
370 [label="x[4] <= 16.62\nentropy = 1.0\nsamples = 36\nvalue = [18, 18]"] ;
369 -> 370 ;
371 [label="entropy = 0.951\nsamples = 27\nvalue = [10, 17]"] ;
370 -> 371 ;
372 [label="entropy = 0.503\nsamples = 9\nvalue = [8, 1]"] ;
370 -> 372 ;
373 [label="x[3] <= 11500.0\nentropy = 0.337\nsamples = 64\nvalue = [60, 4]"] ;
369 -> 373 ;
374 [label="entropy = 0.0\nsamples = 17\nvalue = [17, 0]"] ;
373 -> 374 ;
375 [label="entropy = 0.42\nsamples = 47\nvalue = [43, 4]"] ;
373 -> 375 ;
376 [label="entropy = 0.0\nsamples = 8\nvalue = [0, 8]"] ;
368 -> 376 ;
377 [label="x[11] <= 0.5\nentropy = 0.823\nsamples = 1846\nvalue = [1370.0, 476.0]"] ;
351 -> 377 ;
378 [label="x[1] <= 59780.0\nentropy = 0.568\nsamples = 1553\nvalue = [1345.0, 208.0]"] ;
377 -> 378 ;
379 [label="x[1] <= 58629.0\nentropy = 0.759\nsamples = 351\nvalue = [274, 77]"] ;
378 -> 379 ;
380 [label="x[1] <= 50082.0\nentropy = 0.675\nsamples = 321\nvalue = [264, 57]"] ;
379 -> 380 ;
381 [label="entropy = 0.351\nsamples = 91\nvalue = [85, 6]"] ;
380 -> 381 ;
382 [label="entropy = 0.763\nsamples = 230\nvalue = [179, 51]"] ;
380 -> 382 ;
383 [label="x[0] <= 28.5\nentropy = 0.918\nsamples = 30\nvalue = [10, 20]"] ;
379 -> 383 ;
384 [label="entropy = 1.0\nsamples = 20\nvalue = [10, 10]"] ;
383 -> 384 ;
385 [label="entropy = 0.0\nsamples = 10\nvalue = [0, 10]"] ;
383 -> 385 ;
386 [label="x[9] <= 0.5\nentropy = 0.497\nsamples = 1202\nvalue = [1071, 131]"] ;
378 -> 386 ;
387 [label="x[1] <= 88500.0\nentropy = 0.516\nsamples = 1125\nvalue = [995, 130]"] ;
386 -> 387 ;
388 [label="entropy = 0.587\nsamples = 694\nvalue = [596, 98]"] ;
387 -> 388 ;
389 [label="entropy = 0.382\nsamples = 431\nvalue = [399, 32]"] ;
387 -> 389 ;
390 [label="x[3] <= 5300.0\nentropy = 0.1\nsamples = 77\nvalue = [76, 1]"] ;
386 -> 390 ;
391 [label="entropy = 0.391\nsamples = 13\nvalue = [12, 1]"] ;
390 -> 391 ;
392 [label="entropy = 0.0\nsamples = 64\nvalue = [64, 0]"] ;
390 -> 392 ;
393 [label="x[4] <= 17.535\nentropy = 0.421\nsamples = 293\nvalue = [25.0, 268.0]"] ;
377 -> 393 ;
394 [label="x[9] <= 0.5\nentropy = 0.384\nsamples = 280\nvalue = [21, 259]"] ;
393 -> 394 ;
395 [label="x[3] <= 1275.0\nentropy = 0.262\nsamples = 270\nvalue = [12, 258]"] ;
394 -> 395 ;
396 [label="entropy = 0.0\nsamples = 1\nvalue = [1, 0]"] ;
395 -> 396 ;
397 [label="entropy = 0.246\nsamples = 269\nvalue = [11, 258]"] ;
395 -> 397 ;
398 [label="x[4] <= 16.37\nentropy = 0.469\nsamples = 10\nvalue = [9, 1]"] ;
394 -> 398 ;
399 [label="entropy = 0.0\nsamples = 9\nvalue = [9, 0]"] ;
398 -> 399 ;
400 [label="entropy = 0.0\nsamples = 1\nvalue = [0, 1]"] ;
398 -> 400 ;
401 [label="x[3] <= 10500.0\nentropy = 0.89\nsamples = 13\nvalue = [4, 9]"] ;
393 -> 401 ;
402 [label="x[5] <= 0.085\nentropy = 0.991\nsamples = 9\nvalue = [4, 5]"] ;
401 -> 402 ;
403 [label="entropy = 0.0\nsamples = 4\nvalue = [0, 4]"] ;
402 -> 403 ;
404 [label="entropy = 0.722\nsamples = 5\nvalue = [4, 1]"] ;
402 -> 404 ;
405 [label="entropy = 0.0\nsamples = 4\nvalue = [0, 4]"] ;
401 -> 405 ;
406 [label="x[9] <= 0.5\nentropy = 0.568\nsamples = 874\nvalue = [117.0, 757.0]"] ;
302 -> 406 ;
407 [label="x[2] <= 2.5\nentropy = 0.495\nsamples = 840\nvalue = [91, 749]"] ;
406 -> 407 ;
408 [label="x[3] <= 12125.0\nentropy = 0.197\nsamples = 294\nvalue = [9, 285]"] ;
407 -> 408 ;
409 [label="x[10] <= 0.5\nentropy = 0.231\nsamples = 239\nvalue = [9, 230]"] ;
408 -> 409 ;
410 [label="x[4] <= 16.03\nentropy = 0.461\nsamples = 41\nvalue = [4, 37]"] ;
409 -> 410 ;
411 [label="x[0] <= 22.5\nentropy = 0.229\nsamples = 27\nvalue = [1, 26]"] ;
410 -> 411 ;
412 [label="entropy = 0.918\nsamples = 3\nvalue = [1, 2]"] ;
411 -> 412 ;
413 [label="entropy = 0.0\nsamples = 24\nvalue = [0, 24]"] ;
411 -> 413 ;
414 [label="x[1] <= 60325.0\nentropy = 0.75\nsamples = 14\nvalue = [3, 11]"] ;
410 -> 414 ;
415 [label="entropy = 0.439\nsamples = 11\nvalue = [1, 10]"] ;
414 -> 415 ;
416 [label="entropy = 0.918\nsamples = 3\nvalue = [2, 1]"] ;
414 -> 416 ;
417 [label="x[0] <= 22.5\nentropy = 0.17\nsamples = 198\nvalue = [5, 193]"] ;
409 -> 417 ;
418 [label="entropy = 0.0\nsamples = 27\nvalue = [0, 27]"] ;
417 -> 418 ;
419 [label="x[2] <= 0.5\nentropy = 0.191\nsamples = 171\nvalue = [5, 166]"] ;
417 -> 419 ;
420 [label="entropy = 0.371\nsamples = 56\nvalue = [4, 52]"] ;
419 -> 420 ;
421 [label="entropy = 0.072\nsamples = 115\nvalue = [1, 114]"] ;
419 -> 421 ;
422 [label="entropy = 0.0\nsamples = 55\nvalue = [0, 55]"] ;
408 -> 422 ;
423 [label="x[7] <= 0.5\nentropy = 0.61\nsamples = 546\nvalue = [82, 464]"] ;
407 -> 423 ;
424 [label="x[1] <= 51250.0\nentropy = 0.712\nsamples = 338\nvalue = [66, 272]"] ;
423 -> 424 ;
425 [label="x[0] <= 22.5\nentropy = 0.853\nsamples = 187\nvalue = [52, 135]"] ;
424 -> 425 ;
426 [label="x[24] <= 0.5\nentropy = 0.353\nsamples = 30\nvalue = [2, 28]"] ;
425 -> 426 ;
427 [label="entropy = 0.0\nsamples = 14\nvalue = [0, 14]"] ;
426 -> 427 ;
428 [label="entropy = 0.544\nsamples = 16\nvalue = [2, 14]"] ;
426 -> 428 ;
429 [label="x[1] <= 34900.0\nentropy = 0.903\nsamples = 157\nvalue = [50, 107]"] ;
425 -> 429 ;
430 [label="entropy = 0.747\nsamples = 61\nvalue = [13, 48]"] ;
429 -> 430 ;
431 [label="entropy = 0.962\nsamples = 96\nvalue = [37, 59]"] ;
429 -> 431 ;
432 [label="x[6] <= 16.5\nentropy = 0.445\nsamples = 151\nvalue = [14, 137]"] ;
424 -> 432 ;
433 [label="x[1] <= 100598.0\nentropy = 0.386\nsamples = 146\nvalue = [11, 135]"] ;
432 -> 433 ;
434 [label="entropy = 0.314\nsamples = 141\nvalue = [8, 133]"] ;
433 -> 434 ;
435 [label="entropy = 0.971\nsamples = 5\nvalue = [3, 2]"] ;
433 -> 435 ;
436 [label="x[21] <= 0.5\nentropy = 0.971\nsamples = 5\nvalue = [3, 2]"] ;
432 -> 436 ;
437 [label="entropy = 0.918\nsamples = 3\nvalue = [1, 2]"] ;
436 -> 437 ;
438 [label="entropy = 0.0\nsamples = 2\nvalue = [2, 0]"] ;
436 -> 438 ;
439 [label="x[6] <= 2.5\nentropy = 0.391\nsamples = 208\nvalue = [16, 192]"] ;
423 -> 439 ;
440 [label="entropy = 0.0\nsamples = 32\nvalue = [0, 32]"] ;
439 -> 440 ;
441 [label="x[1] <= 109400.0\nentropy = 0.439\nsamples = 176\nvalue = [16, 160]"] ;
439 -> 441 ;
442 [label="x[6] <= 10.5\nentropy = 0.346\nsamples = 170\nvalue = [11.0, 159.0]"] ;
441 -> 442 ;
443 [label="entropy = 0.387\nsamples = 145\nvalue = [11, 134]"] ;
442 -> 443 ;
444 [label="entropy = 0.0\nsamples = 25\nvalue = [0, 25]"] ;
442 -> 444 ;
445 [label="x[4] <= 15.66\nentropy = 0.65\nsamples = 6\nvalue = [5, 1]"] ;
441 -> 445 ;
446 [label="entropy = 0.0\nsamples = 5\nvalue = [5, 0]"] ;
445 -> 446 ;
447 [label="entropy = 0.0\nsamples = 1\nvalue = [0, 1]"] ;
445 -> 447 ;
448 [label="x[3] <= 4400.0\nentropy = 0.787\nsamples = 34\nvalue = [26, 8]"] ;
406 -> 448 ;
449 [label="entropy = 0.0\nsamples = 10\nvalue = [10, 0]"] ;
448 -> 449 ;
450 [label="x[20] <= 0.5\nentropy = 0.918\nsamples = 24\nvalue = [16, 8]"] ;
448 -> 450 ;
451 [label="entropy = 0.0\nsamples = 2\nvalue = [0, 2]"] ;
450 -> 451 ;
452 [label="x[0] <= 30.5\nentropy = 0.845\nsamples = 22\nvalue = [16, 6]"] ;
450 -> 452 ;
453 [label="x[1] <= 198362.5\nentropy = 0.971\nsamples = 15\nvalue = [9, 6]"] ;
452 -> 453 ;
454 [label="x[3] <= 9000.0\nentropy = 0.94\nsamples = 14\nvalue = [9, 5]"] ;
453 -> 454 ;
455 [label="entropy = 0.991\nsamples = 9\nvalue = [4, 5]"] ;
454 -> 455 ;
456 [label="entropy = 0.0\nsamples = 5\nvalue = [5, 0]"] ;
454 -> 456 ;
457 [label="entropy = 0.0\nsamples = 1\nvalue = [0, 1]"] ;
453 -> 457 ;
458 [label="entropy = 0.0\nsamples = 7\nvalue = [7, 0]"] ;
452 -> 458 ;
459 [label="x[13] <= 0.5\nentropy = 0.515\nsamples = 2131\nvalue = [1886, 245]"] ;
301 -> 459 ;
460 [label="x[1] <= 34100.0\nentropy = 0.487\nsamples = 1898\nvalue = [1697, 201]"] ;
459 -> 460 ;
461 [label="x[0] <= 25.5\nentropy = 0.723\nsamples = 304\nvalue = [243.0, 61.0]"] ;
460 -> 461 ;
462 [label="x[2] <= 2.5\nentropy = 0.581\nsamples = 180\nvalue = [155, 25]"] ;
461 -> 462 ;
463 [label="x[1] <= 19600.0\nentropy = 0.714\nsamples = 97\nvalue = [78, 19]"] ;
462 -> 463 ;
464 [label="x[3] <= 2550.0\nentropy = 0.996\nsamples = 13\nvalue = [7, 6]"] ;
463 -> 464 ;
465 [label="x[6] <= 2.5\nentropy = 0.544\nsamples = 8\nvalue = [7, 1]"] ;
464 -> 465 ;
466 [label="entropy = 0.918\nsamples = 3\nvalue = [2, 1]"] ;
465 -> 466 ;
467 [label="entropy = 0.0\nsamples = 5\nvalue = [5, 0]"] ;
465 -> 467 ;
468 [label="entropy = 0.0\nsamples = 5\nvalue = [0, 5]"] ;
464 -> 468 ;
469 [label="x[1] <= 33800.0\nentropy = 0.622\nsamples = 84\nvalue = [71, 13]"] ;
463 -> 469 ;
470 [label="x[5] <= 0.175\nentropy = 0.548\nsamples = 79\nvalue = [69, 10]"] ;
469 -> 470 ;
471 [label="entropy = 0.677\nsamples = 56\nvalue = [46, 10]"] ;
470 -> 471 ;
472 [label="entropy = 0.0\nsamples = 23\nvalue = [23, 0]"] ;
470 -> 472 ;
473 [label="x[4] <= 14.53\nentropy = 0.971\nsamples = 5\nvalue = [2, 3]"] ;
469 -> 473 ;
474 [label="entropy = 0.0\nsamples = 3\nvalue = [0, 3]"] ;
473 -> 474 ;
475 [label="entropy = 0.0\nsamples = 2\nvalue = [2, 0]"] ;
473 -> 475 ;
476 [label="x[3] <= 8200.0\nentropy = 0.374\nsamples = 83\nvalue = [77, 6]"] ;
462 -> 476 ;
477 [label="x[12] <= 0.5\nentropy = 0.289\nsamples = 79\nvalue = [75, 4]"] ;
476 -> 477 ;
478 [label="x[0] <= 23.5\nentropy = 0.358\nsamples = 59\nvalue = [55, 4]"] ;
477 -> 478 ;
479 [label="entropy = 0.433\nsamples = 45\nvalue = [41, 4]"] ;
478 -> 479 ;
480 [label="entropy = 0.0\nsamples = 14\nvalue = [14, 0]"] ;
478 -> 480 ;
481 [label="entropy = 0.0\nsamples = 20\nvalue = [20, 0]"] ;
477 -> 481 ;
482 [label="x[4] <= 14.535\nentropy = 1.0\nsamples = 4\nvalue = [2, 2]"] ;
476 -> 482 ;
483 [label="entropy = 0.0\nsamples = 2\nvalue = [2, 0]"] ;
482 -> 483 ;
484 [label="entropy = 0.0\nsamples = 2\nvalue = [0, 2]"] ;
482 -> 484 ;
485 [label="x[5] <= 0.275\nentropy = 0.869\nsamples = 124\nvalue = [88, 36]"] ;
461 -> 485 ;
486 [label="x[1] <= 33798.0\nentropy = 0.837\nsamples = 116\nvalue = [85.0, 31.0]"] ;
485 -> 486 ;
487 [label="x[2] <= 1.5\nentropy = 0.748\nsamples = 103\nvalue = [81, 22]"] ;
486 -> 487 ;
488 [label="x[6] <= 13.0\nentropy = 0.975\nsamples = 27\nvalue = [16, 11]"] ;
487 -> 488 ;
489 [label="entropy = 0.902\nsamples = 22\nvalue = [15.0, 7.0]"] ;
488 -> 489 ;
490 [label="entropy = 0.722\nsamples = 5\nvalue = [1, 4]"] ;
488 -> 490 ;
491 [label="x[1] <= 19800.0\nentropy = 0.597\nsamples = 76\nvalue = [65, 11]"] ;
487 -> 491 ;
492 [label="entropy = 0.971\nsamples = 5\nvalue = [2, 3]"] ;
491 -> 492 ;
493 [label="entropy = 0.508\nsamples = 71\nvalue = [63, 8]"] ;
491 -> 493 ;
494 [label="x[5] <= 0.17\nentropy = 0.89\nsamples = 13\nvalue = [4, 9]"] ;
486 -> 494 ;
495 [label="x[16] <= 0.5\nentropy = 0.991\nsamples = 9\nvalue = [4, 5]"] ;
494 -> 495 ;
496 [label="entropy = 0.65\nsamples = 6\nvalue = [1, 5]"] ;
495 -> 496 ;
497 [label="entropy = 0.0\nsamples = 3\nvalue = [3, 0]"] ;
495 -> 497 ;
498 [label="entropy = 0.0\nsamples = 4\nvalue = [0, 4]"] ;
494 -> 498 ;
499 [label="x[3] <= 8500.0\nentropy = 0.954\nsamples = 8\nvalue = [3, 5]"] ;
485 -> 499 ;
500 [label="x[4] <= 14.72\nentropy = 0.971\nsamples = 5\nvalue = [3, 2]"] ;
499 -> 500 ;
501 [label="x[0] <= 26.5\nentropy = 0.811\nsamples = 4\nvalue = [3, 1]"] ;
500 -> 501 ;
502 [label="entropy = 0.0\nsamples = 1\nvalue = [0, 1]"] ;
501 -> 502 ;
503 [label="entropy = 0.0\nsamples = 3\nvalue = [3, 0]"] ;
501 -> 503 ;
504 [label="entropy = 0.0\nsamples = 1\nvalue = [0, 1]"] ;
500 -> 504 ;
505 [label="entropy = 0.0\nsamples = 3\nvalue = [0, 3]"] ;
499 -> 505 ;
506 [label="x[9] <= 0.5\nentropy = 0.429\nsamples = 1594\nvalue = [1454, 140]"] ;
460 -> 506 ;
507 [label="x[14] <= 0.5\nentropy = 0.446\nsamples = 1506\nvalue = [1366, 140]"] ;
506 -> 507 ;
508 [label="x[1] <= 64700.0\nentropy = 0.412\nsamples = 1197\nvalue = [1098, 99]"] ;
507 -> 508 ;
509 [label="x[1] <= 63998.0\nentropy = 0.495\nsamples = 691\nvalue = [616, 75]"] ;
508 -> 509 ;
510 [label="x[5] <= 0.065\nentropy = 0.477\nsamples = 683\nvalue = [613, 70]"] ;
509 -> 510 ;
511 [label="entropy = 0.253\nsamples = 118\nvalue = [113, 5]"] ;
510 -> 511 ;
512 [label="entropy = 0.515\nsamples = 565\nvalue = [500, 65]"] ;
510 -> 512 ;
513 [label="x[24] <= 0.5\nentropy = 0.954\nsamples = 8\nvalue = [3, 5]"] ;
509 -> 513 ;
514 [label="entropy = 0.971\nsamples = 5\nvalue = [3, 2]"] ;
513 -> 514 ;
515 [label="entropy = 0.0\nsamples = 3\nvalue = [0, 3]"] ;
513 -> 515 ;
516 [label="x[1] <= 103868.0\nentropy = 0.275\nsamples = 506\nvalue = [482, 24]"] ;
508 -> 516 ;
517 [label="x[1] <= 67750.0\nentropy = 0.326\nsamples = 385\nvalue = [362, 23]"] ;
516 -> 517 ;
518 [label="entropy = 0.0\nsamples = 47\nvalue = [47, 0]"] ;
517 -> 518 ;
519 [label="entropy = 0.359\nsamples = 338\nvalue = [315, 23]"] ;
517 -> 519 ;
520 [label="x[6] <= 2.5\nentropy = 0.069\nsamples = 121\nvalue = [120, 1]"] ;
516 -> 520 ;
521 [label="entropy = 0.286\nsamples = 20\nvalue = [19, 1]"] ;
520 -> 521 ;
522 [label="entropy = 0.0\nsamples = 101\nvalue = [101, 0]"] ;
520 -> 522 ;
523 [label="x[3] <= 10450.0\nentropy = 0.565\nsamples = 309\nvalue = [268, 41]"] ;
507 -> 523 ;
524 [label="x[6] <= 10.5\nentropy = 0.468\nsamples = 241\nvalue = [217, 24]"] ;
523 -> 524 ;
525 [label="x[4] <= 14.265\nentropy = 0.499\nsamples = 219\nvalue = [195, 24]"] ;
524 -> 525 ;
526 [label="entropy = 0.722\nsamples = 45\nvalue = [36, 9]"] ;
525 -> 526 ;
527 [label="entropy = 0.424\nsamples = 174\nvalue = [159.0, 15.0]"] ;
525 -> 527 ;
528 [label="entropy = 0.0\nsamples = 22\nvalue = [22, 0]"] ;
524 -> 528 ;
529 [label="x[2] <= 6.5\nentropy = 0.811\nsamples = 68\nvalue = [51, 17]"] ;
523 -> 529 ;
530 [label="x[3] <= 15625.0\nentropy = 0.68\nsamples = 50\nvalue = [41, 9]"] ;
529 -> 530 ;
531 [label="entropy = 0.485\nsamples = 38\nvalue = [34, 4]"] ;
530 -> 531 ;
532 [label="entropy = 0.98\nsamples = 12\nvalue = [7, 5]"] ;
530 -> 532 ;
533 [label="x[6] <= 2.5\nentropy = 0.991\nsamples = 18\nvalue = [10, 8]"] ;
529 -> 533 ;
534 [label="entropy = 0.0\nsamples = 3\nvalue = [0, 3]"] ;
533 -> 534 ;
535 [label="entropy = 0.918\nsamples = 15\nvalue = [10, 5]"] ;
533 -> 535 ;
536 [label="entropy = 0.0\nsamples = 88\nvalue = [88, 0]"] ;
506 -> 536 ;
537 [label="x[1] <= 46500.0\nentropy = 0.699\nsamples = 233\nvalue = [189, 44]"] ;
459 -> 537 ;
538 [label="x[3] <= 8500.0\nentropy = 0.999\nsamples = 48\nvalue = [25, 23]"] ;
537 -> 538 ;
539 [label="x[10] <= 0.5\nentropy = 0.998\nsamples = 42\nvalue = [20, 22]"] ;
538 -> 539 ;
540 [label="x[9] <= 0.5\nentropy = 0.773\nsamples = 22\nvalue = [17, 5]"] ;
539 -> 540 ;
541 [label="x[4] <= 15.01\nentropy = 0.961\nsamples = 13\nvalue = [8, 5]"] ;
540 -> 541 ;
542 [label="x[6] <= 5.5\nentropy = 0.881\nsamples = 10\nvalue = [7, 3]"] ;
541 -> 542 ;
543 [label="entropy = 1.0\nsamples = 6\nvalue = [3, 3]"] ;
542 -> 543 ;
544 [label="entropy = 0.0\nsamples = 4\nvalue = [4, 0]"] ;
542 -> 544 ;
545 [label="x[6] <= 5.0\nentropy = 0.918\nsamples = 3\nvalue = [1, 2]"] ;
541 -> 545 ;
546 [label="entropy = 0.0\nsamples = 2\nvalue = [0, 2]"] ;
545 -> 546 ;
547 [label="entropy = 0.0\nsamples = 1\nvalue = [1, 0]"] ;
545 -> 547 ;
548 [label="entropy = 0.0\nsamples = 9\nvalue = [9, 0]"] ;
540 -> 548 ;
549 [label="x[4] <= 14.31\nentropy = 0.61\nsamples = 20\nvalue = [3, 17]"] ;
539 -> 549 ;
550 [label="x[1] <= 38000.0\nentropy = 0.881\nsamples = 10\nvalue = [3, 7]"] ;
549 -> 550 ;
551 [label="entropy = 0.0\nsamples = 6\nvalue = [0, 6]"] ;
550 -> 551 ;
552 [label="x[4] <= 14.24\nentropy = 0.811\nsamples = 4\nvalue = [3, 1]"] ;
550 -> 552 ;
553 [label="entropy = 0.0\nsamples = 1\nvalue = [0, 1]"] ;
552 -> 553 ;
554 [label="entropy = 0.0\nsamples = 3\nvalue = [3, 0]"] ;
552 -> 554 ;
555 [label="entropy = 0.0\nsamples = 10\nvalue = [0, 10]"] ;
549 -> 555 ;
556 [label="x[1] <= 43600.0\nentropy = 0.65\nsamples = 6\nvalue = [5, 1]"] ;
538 -> 556 ;
557 [label="entropy = 0.0\nsamples = 4\nvalue = [4, 0]"] ;
556 -> 557 ;
558 [label="x[10] <= 0.5\nentropy = 1.0\nsamples = 2\nvalue = [1, 1]"] ;
556 -> 558 ;
559 [label="entropy = 0.0\nsamples = 1\nvalue = [1, 0]"] ;
558 -> 559 ;
560 [label="entropy = 0.0\nsamples = 1\nvalue = [0, 1]"] ;
558 -> 560 ;
561 [label="x[6] <= 3.5\nentropy = 0.51\nsamples = 185\nvalue = [164, 21]"] ;
537 -> 561 ;
562 [label="x[5] <= 0.22\nentropy = 0.821\nsamples = 39\nvalue = [29, 10]"] ;
561 -> 562 ;
563 [label="x[0] <= 23.5\nentropy = 0.661\nsamples = 35\nvalue = [29.0, 6.0]"] ;
562 -> 563 ;
564 [label="entropy = 0.0\nsamples = 4\nvalue = [0, 4]"] ;
563 -> 564 ;
565 [label="x[2] <= 9.5\nentropy = 0.345\nsamples = 31\nvalue = [29, 2]"] ;
563 -> 565 ;
566 [label="x[5] <= 0.135\nentropy = 0.211\nsamples = 30\nvalue = [29, 1]"] ;
565 -> 566 ;
567 [label="entropy = 0.0\nsamples = 22\nvalue = [22, 0]"] ;
566 -> 567 ;
568 [label="entropy = 0.544\nsamples = 8\nvalue = [7, 1]"] ;
566 -> 568 ;
569 [label="entropy = 0.0\nsamples = 1\nvalue = [0, 1]"] ;
565 -> 569 ;
570 [label="entropy = 0.0\nsamples = 4\nvalue = [0, 4]"] ;
562 -> 570 ;
571 [label="x[4] <= 15.01\nentropy = 0.386\nsamples = 146\nvalue = [135, 11]"] ;
561 -> 571 ;
572 [label="x[2] <= 4.5\nentropy = 0.304\nsamples = 129\nvalue = [122, 7]"] ;
571 -> 572 ;
573 [label="x[1] <= 79000.0\nentropy = 0.452\nsamples = 74\nvalue = [67, 7]"] ;
572 -> 573 ;
574 [label="x[0] <= 23.5\nentropy = 0.641\nsamples = 43\nvalue = [36.0, 7.0]"] ;
573 -> 574 ;
575 [label="entropy = 0.0\nsamples = 1\nvalue = [0, 1]"] ;
574 -> 575 ;
576 [label="entropy = 0.592\nsamples = 42\nvalue = [36, 6]"] ;
574 -> 576 ;
577 [label="entropy = 0.0\nsamples = 31\nvalue = [31, 0]"] ;
573 -> 577 ;
578 [label="entropy = 0.0\nsamples = 55\nvalue = [55, 0]"] ;
572 -> 578 ;
579 [label="x[2] <= 2.5\nentropy = 0.787\nsamples = 17\nvalue = [13, 4]"] ;
571 -> 579 ;
580 [label="x[1] <= 61500.0\nentropy = 1.0\nsamples = 6\nvalue = [3, 3]"] ;
579 -> 580 ;
581 [label="entropy = 0.0\nsamples = 2\nvalue = [2, 0]"] ;
580 -> 581 ;
582 [label="x[5] <= 0.135\nentropy = 0.811\nsamples = 4\nvalue = [1, 3]"] ;
580 -> 582 ;
583 [label="entropy = 0.0\nsamples = 3\nvalue = [0, 3]"] ;
582 -> 583 ;
584 [label="entropy = 0.0\nsamples = 1\nvalue = [1, 0]"] ;
582 -> 584 ;
585 [label="x[2] <= 9.0\nentropy = 0.439\nsamples = 11\nvalue = [10, 1]"] ;
579 -> 585 ;
586 [label="entropy = 0.0\nsamples = 7\nvalue = [7, 0]"] ;
585 -> 586 ;
587 [label="x[2] <= 11.5\nentropy = 0.811\nsamples = 4\nvalue = [3, 1]"] ;
585 -> 587 ;
588 [label="entropy = 0.0\nsamples = 1\nvalue = [0, 1]"] ;
587 -> 588 ;
589 [label="entropy = 0.0\nsamples = 3\nvalue = [3, 0]"] ;
587 -> 589 ;
590 [label="x[9] <= 0.5\nentropy = 0.885\nsamples = 4730\nvalue = [1435, 3295]"] ;
0 -> 590 [labeldistance=2.5, labelangle=-45, headlabel="False"] ;
591 [label="x[7] <= 0.5\nentropy = 0.815\nsamples = 4386\nvalue = [1108, 3278]"] ;
590 -> 591 ;
592 [label="x[3] <= 17362.5\nentropy = 0.255\nsamples = 3223\nvalue = [138, 3085]"] ;
591 -> 592 ;
593 [label="x[4] <= 15.32\nentropy = 0.204\nsamples = 2256\nvalue = [72, 2184]"] ;
592 -> 593 ;
594 [label="x[13] <= 0.5\nentropy = 0.221\nsamples = 2008\nvalue = [71, 1937]"] ;
593 -> 594 ;
595 [label="x[1] <= 32534.0\nentropy = 0.23\nsamples = 1897\nvalue = [71, 1826]"] ;
594 -> 595 ;
596 [label="x[1] <= 10800.0\nentropy = 0.173\nsamples = 967\nvalue = [25, 942]"] ;
595 -> 596 ;
597 [label="entropy = 0.0\nsamples = 1\nvalue = [1, 0]"] ;
596 -> 597 ;
598 [label="x[5] <= 0.365\nentropy = 0.168\nsamples = 966\nvalue = [24, 942]"] ;
596 -> 598 ;
599 [label="x[0] <= 27.5\nentropy = 0.222\nsamples = 532\nvalue = [19, 513]"] ;
598 -> 599 ;
600 [label="entropy = 0.272\nsamples = 365\nvalue = [17, 348]"] ;
599 -> 600 ;
601 [label="entropy = 0.094\nsamples = 167\nvalue = [2, 165]"] ;
599 -> 601 ;
602 [label="x[1] <= 30274.0\nentropy = 0.091\nsamples = 434\nvalue = [5, 429]"] ;
598 -> 602 ;
603 [label="entropy = 0.108\nsamples = 351\nvalue = [5, 346]"] ;
602 -> 603 ;
604 [label="entropy = 0.0\nsamples = 83\nvalue = [0, 83]"] ;
602 -> 604 ;
605 [label="x[3] <= 12050.0\nentropy = 0.284\nsamples = 930\nvalue = [46, 884]"] ;
595 -> 605 ;
606 [label="x[4] <= 12.855\nentropy = 0.437\nsamples = 211\nvalue = [19, 192]"] ;
605 -> 606 ;
607 [label="x[2] <= 3.5\nentropy = 0.299\nsamples = 151\nvalue = [8, 143]"] ;
606 -> 607 ;
608 [label="entropy = 0.388\nsamples = 92\nvalue = [7, 85]"] ;
607 -> 608 ;
609 [label="entropy = 0.124\nsamples = 59\nvalue = [1, 58]"] ;
607 -> 609 ;
610 [label="x[3] <= 11250.0\nentropy = 0.687\nsamples = 60\nvalue = [11, 49]"] ;
606 -> 610 ;
611 [label="entropy = 0.0\nsamples = 11\nvalue = [0, 11]"] ;
610 -> 611 ;
612 [label="entropy = 0.768\nsamples = 49\nvalue = [11, 38]"] ;
610 -> 612 ;
613 [label="x[6] <= 3.5\nentropy = 0.231\nsamples = 719\nvalue = [27, 692]"] ;
605 -> 613 ;
614 [label="x[3] <= 15100.0\nentropy = 0.104\nsamples = 293\nvalue = [4, 289]"] ;
613 -> 614 ;
615 [label="entropy = 0.127\nsamples = 230\nvalue = [4, 226]"] ;
614 -> 615 ;
616 [label="entropy = 0.0\nsamples = 63\nvalue = [0, 63]"] ;
614 -> 616 ;
617 [label="x[5] <= 0.335\nentropy = 0.303\nsamples = 426\nvalue = [23, 403]"] ;
613 -> 617 ;
618 [label="entropy = 0.449\nsamples = 160\nvalue = [15, 145]"] ;
617 -> 618 ;
619 [label="entropy = 0.195\nsamples = 266\nvalue = [8, 258]"] ;
617 -> 619 ;
620 [label="entropy = 0.0\nsamples = 111\nvalue = [0, 111]"] ;
594 -> 620 ;
621 [label="x[6] <= 2.5\nentropy = 0.038\nsamples = 248\nvalue = [1, 247]"] ;
593 -> 621 ;
622 [label="x[12] <= 0.5\nentropy = 0.154\nsamples = 45\nvalue = [1, 44]"] ;
621 -> 622 ;
623 [label="entropy = 0.0\nsamples = 40\nvalue = [0, 40]"] ;
622 -> 623 ;
624 [label="x[2] <= 6.5\nentropy = 0.722\nsamples = 5\nvalue = [1, 4]"] ;
622 -> 624 ;
625 [label="entropy = 0.0\nsamples = 4\nvalue = [0, 4]"] ;
624 -> 625 ;
626 [label="entropy = 0.0\nsamples = 1\nvalue = [1, 0]"] ;
624 -> 626 ;
627 [label="entropy = 0.0\nsamples = 203\nvalue = [0, 203]"] ;
621 -> 627 ;
628 [label="x[4] <= 15.575\nentropy = 0.359\nsamples = 967\nvalue = [66, 901]"] ;
592 -> 628 ;
629 [label="x[5] <= 0.365\nentropy = 0.407\nsamples = 812\nvalue = [66, 746]"] ;
628 -> 629 ;
630 [label="x[3] <= 17387.5\nentropy = 0.501\nsamples = 426\nvalue = [47, 379]"] ;
629 -> 630 ;
631 [label="entropy = 0.0\nsamples = 1\nvalue = [1, 0]"] ;
630 -> 631 ;
632 [label="x[4] <= 13.795\nentropy = 0.495\nsamples = 425\nvalue = [46, 379]"] ;
630 -> 632 ;
633 [label="x[4] <= 8.89\nentropy = 0.548\nsamples = 324\nvalue = [41, 283]"] ;
632 -> 633 ;
634 [label="x[1] <= 50750.0\nentropy = 0.222\nsamples = 56\nvalue = [2, 54]"] ;
633 -> 634 ;
635 [label="entropy = 0.918\nsamples = 3\nvalue = [1, 2]"] ;
634 -> 635 ;
636 [label="entropy = 0.135\nsamples = 53\nvalue = [1, 52]"] ;
634 -> 636 ;
637 [label="x[1] <= 29800.0\nentropy = 0.599\nsamples = 268\nvalue = [39, 229]"] ;
633 -> 637 ;
638 [label="entropy = 0.0\nsamples = 1\nvalue = [1, 0]"] ;
637 -> 638 ;
639 [label="entropy = 0.59\nsamples = 267\nvalue = [38, 229]"] ;
637 -> 639 ;
640 [label="x[4] <= 14.265\nentropy = 0.284\nsamples = 101\nvalue = [5, 96]"] ;
632 -> 640 ;
641 [label="entropy = 0.0\nsamples = 35\nvalue = [0, 35]"] ;
640 -> 641 ;
642 [label="x[14] <= 0.5\nentropy = 0.387\nsamples = 66\nvalue = [5, 61]"] ;
640 -> 642 ;
643 [label="entropy = 0.457\nsamples = 52\nvalue = [5, 47]"] ;
642 -> 643 ;
644 [label="entropy = 0.0\nsamples = 14\nvalue = [0, 14]"] ;
642 -> 644 ;
645 [label="x[6] <= 9.5\nentropy = 0.283\nsamples = 386\nvalue = [19, 367]"] ;
629 -> 645 ;
646 [label="x[3] <= 17825.0\nentropy = 0.325\nsamples = 320\nvalue = [19, 301]"] ;
645 -> 646 ;
647 [label="x[5] <= 0.47\nentropy = 0.779\nsamples = 13\nvalue = [3, 10]"] ;
646 -> 647 ;
648 [label="x[25] <= 0.5\nentropy = 0.65\nsamples = 12\nvalue = [2, 10]"] ;
647 -> 648 ;
649 [label="entropy = 0.439\nsamples = 11\nvalue = [1, 10]"] ;
648 -> 649 ;
650 [label="entropy = 0.0\nsamples = 1\nvalue = [1, 0]"] ;
648 -> 650 ;
651 [label="entropy = 0.0\nsamples = 1\nvalue = [1, 0]"] ;
647 -> 651 ;
652 [label="x[5] <= 0.375\nentropy = 0.295\nsamples = 307\nvalue = [16, 291]"] ;
646 -> 652 ;
653 [label="entropy = 0.0\nsamples = 56\nvalue = [0, 56]"] ;
652 -> 653 ;
654 [label="x[2] <= 11.5\nentropy = 0.342\nsamples = 251\nvalue = [16, 235]"] ;
652 -> 654 ;
655 [label="entropy = 0.307\nsamples = 237\nvalue = [13, 224]"] ;
654 -> 655 ;
656 [label="entropy = 0.75\nsamples = 14\nvalue = [3, 11]"] ;
654 -> 656 ;
657 [label="entropy = 0.0\nsamples = 66\nvalue = [0, 66]"] ;
645 -> 657 ;
658 [label="entropy = 0.0\nsamples = 155\nvalue = [0, 155]"] ;
628 -> 658 ;
659 [label="x[4] <= 13.05\nentropy = 0.648\nsamples = 1163\nvalue = [970, 193]"] ;
591 -> 659 ;
660 [label="x[4] <= 10.68\nentropy = 0.42\nsamples = 835\nvalue = [764, 71]"] ;
659 -> 660 ;
661 [label="x[3] <= 22325.0\nentropy = 0.283\nsamples = 488\nvalue = [464, 24]"] ;
660 -> 661 ;
662 [label="x[0] <= 22.5\nentropy = 0.325\nsamples = 371\nvalue = [349, 22]"] ;
661 -> 662 ;
663 [label="x[13] <= 0.5\nentropy = 0.109\nsamples = 69\nvalue = [68, 1]"] ;
662 -> 663 ;
664 [label="entropy = 0.0\nsamples = 68\nvalue = [68, 0]"] ;
663 -> 664 ;
665 [label="entropy = 0.0\nsamples = 1\nvalue = [0, 1]"] ;
663 -> 665 ;
666 [label="x[14] <= 0.5\nentropy = 0.364\nsamples = 302\nvalue = [281, 21]"] ;
662 -> 666 ;
667 [label="x[16] <= 0.5\nentropy = 0.318\nsamples = 260\nvalue = [245, 15]"] ;
666 -> 667 ;
668 [label="x[4] <= 7.89\nentropy = 0.375\nsamples = 207\nvalue = [192, 15]"] ;
667 -> 668 ;
669 [label="entropy = 0.193\nsamples = 101\nvalue = [98, 3]"] ;
668 -> 669 ;
670 [label="entropy = 0.51\nsamples = 106\nvalue = [94, 12]"] ;
668 -> 670 ;
671 [label="entropy = 0.0\nsamples = 53\nvalue = [53, 0]"] ;
667 -> 671 ;
672 [label="x[3] <= 18312.5\nentropy = 0.592\nsamples = 42\nvalue = [36, 6]"] ;
666 -> 672 ;
673 [label="x[5] <= 0.36\nentropy = 0.323\nsamples = 34\nvalue = [32, 2]"] ;
672 -> 673 ;
674 [label="entropy = 0.503\nsamples = 18\nvalue = [16, 2]"] ;
673 -> 674 ;
675 [label="entropy = 0.0\nsamples = 16\nvalue = [16, 0]"] ;
673 -> 675 ;
676 [label="x[1] <= 58500.0\nentropy = 1.0\nsamples = 8\nvalue = [4, 4]"] ;
672 -> 676 ;
677 [label="entropy = 0.0\nsamples = 3\nvalue = [0, 3]"] ;
676 -> 677 ;
678 [label="entropy = 0.722\nsamples = 5\nvalue = [4, 1]"] ;
676 -> 678 ;
679 [label="x[0] <= 46.0\nentropy = 0.125\nsamples = 117\nvalue = [115, 2]"] ;
661 -> 679 ;
680 [label="x[1] <= 97000.0\nentropy = 0.073\nsamples = 113\nvalue = [112, 1]"] ;
679 -> 680 ;
681 [label="entropy = 0.0\nsamples = 107\nvalue = [107, 0]"] ;
680 -> 681 ;
682 [label="x[1] <= 99000.0\nentropy = 0.65\nsamples = 6\nvalue = [5, 1]"] ;
680 -> 682 ;
683 [label="x[0] <= 27.5\nentropy = 1.0\nsamples = 2\nvalue = [1, 1]"] ;
682 -> 683 ;
684 [label="entropy = 0.0\nsamples = 1\nvalue = [1, 0]"] ;
683 -> 684 ;
685 [label="entropy = 0.0\nsamples = 1\nvalue = [0, 1]"] ;
683 -> 685 ;
686 [label="entropy = 0.0\nsamples = 4\nvalue = [4, 0]"] ;
682 -> 686 ;
687 [label="x[6] <= 15.5\nentropy = 0.811\nsamples = 4\nvalue = [3, 1]"] ;
679 -> 687 ;
688 [label="entropy = 0.0\nsamples = 1\nvalue = [0, 1]"] ;
687 -> 688 ;
689 [label="entropy = 0.0\nsamples = 3\nvalue = [3, 0]"] ;
687 -> 689 ;
690 [label="x[16] <= 0.5\nentropy = 0.572\nsamples = 347\nvalue = [300.0, 47.0]"] ;
660 -> 690 ;
691 [label="x[4] <= 11.115\nentropy = 0.643\nsamples = 275\nvalue = [230.0, 45.0]"] ;
690 -> 691 ;
692 [label="x[6] <= 9.5\nentropy = 0.806\nsamples = 77\nvalue = [58, 19]"] ;
691 -> 692 ;
693 [label="x[0] <= 22.5\nentropy = 0.849\nsamples = 69\nvalue = [50, 19]"] ;
692 -> 693 ;
694 [label="x[15] <= 0.5\nentropy = 1.0\nsamples = 8\nvalue = [4, 4]"] ;
693 -> 694 ;
695 [label="entropy = 0.918\nsamples = 6\nvalue = [2, 4]"] ;
694 -> 695 ;
696 [label="entropy = 0.0\nsamples = 2\nvalue = [2, 0]"] ;
694 -> 696 ;
697 [label="x[6] <= 8.5\nentropy = 0.805\nsamples = 61\nvalue = [46, 15]"] ;
693 -> 697 ;
698 [label="entropy = 0.737\nsamples = 53\nvalue = [42, 11]"] ;
697 -> 698 ;
699 [label="entropy = 1.0\nsamples = 8\nvalue = [4, 4]"] ;
697 -> 699 ;
700 [label="entropy = 0.0\nsamples = 8\nvalue = [8, 0]"] ;
692 -> 700 ;
701 [label="x[2] <= 1.5\nentropy = 0.561\nsamples = 198\nvalue = [172.0, 26.0]"] ;
691 -> 701 ;
702 [label="x[4] <= 12.605\nentropy = 0.896\nsamples = 32\nvalue = [22, 10]"] ;
701 -> 702 ;
703 [label="x[6] <= 6.5\nentropy = 0.779\nsamples = 26\nvalue = [20, 6]"] ;
702 -> 703 ;
704 [label="entropy = 0.954\nsamples = 16\nvalue = [10, 6]"] ;
703 -> 704 ;
705 [label="entropy = 0.0\nsamples = 10\nvalue = [10, 0]"] ;
703 -> 705 ;
706 [label="x[5] <= 0.335\nentropy = 0.918\nsamples = 6\nvalue = [2, 4]"] ;
702 -> 706 ;
707 [label="entropy = 0.0\nsamples = 3\nvalue = [0, 3]"] ;
706 -> 707 ;
708 [label="entropy = 0.918\nsamples = 3\nvalue = [2, 1]"] ;
706 -> 708 ;
709 [label="x[5] <= 0.345\nentropy = 0.457\nsamples = 166\nvalue = [150, 16]"] ;
701 -> 709 ;
710 [label="x[2] <= 8.5\nentropy = 0.614\nsamples = 66\nvalue = [56, 10]"] ;
709 -> 710 ;
711 [label="entropy = 0.457\nsamples = 52\nvalue = [47, 5]"] ;
710 -> 711 ;
712 [label="entropy = 0.94\nsamples = 14\nvalue = [9, 5]"] ;
710 -> 712 ;
713 [label="x[20] <= 0.5\nentropy = 0.327\nsamples = 100\nvalue = [94, 6]"] ;
709 -> 713 ;
714 [label="entropy = 0.25\nsamples = 96\nvalue = [92, 4]"] ;
713 -> 714 ;
715 [label="entropy = 1.0\nsamples = 4\nvalue = [2, 2]"] ;
713 -> 715 ;
716 [label="x[3] <= 9975.0\nentropy = 0.183\nsamples = 72\nvalue = [70, 2]"] ;
690 -> 716 ;
717 [label="x[1] <= 30500.0\nentropy = 0.918\nsamples = 3\nvalue = [2, 1]"] ;
716 -> 717 ;
718 [label="entropy = 0.0\nsamples = 2\nvalue = [2, 0]"] ;
717 -> 718 ;
719 [label="entropy = 0.0\nsamples = 1\nvalue = [0, 1]"] ;
717 -> 719 ;
720 [label="x[2] <= 11.5\nentropy = 0.109\nsamples = 69\nvalue = [68, 1]"] ;
716 -> 720 ;
721 [label="entropy = 0.0\nsamples = 63\nvalue = [63, 0]"] ;
720 -> 721 ;
722 [label="x[1] <= 73002.0\nentropy = 0.65\nsamples = 6\nvalue = [5, 1]"] ;
720 -> 722 ;
723 [label="entropy = 0.0\nsamples = 5\nvalue = [5, 0]"] ;
722 -> 723 ;
724 [label="entropy = 0.0\nsamples = 1\nvalue = [0, 1]"] ;
722 -> 724 ;
725 [label="x[12] <= 0.5\nentropy = 0.952\nsamples = 328\nvalue = [206, 122]"] ;
659 -> 725 ;
726 [label="x[4] <= 14.81\nentropy = 0.988\nsamples = 244\nvalue = [138, 106]"] ;
725 -> 726 ;
727 [label="x[11] <= 0.5\nentropy = 0.856\nsamples = 114\nvalue = [82, 32]"] ;
726 -> 727 ;
728 [label="x[1] <= 73500.0\nentropy = 0.766\nsamples = 94\nvalue = [73, 21]"] ;
727 -> 728 ;
729 [label="x[1] <= 56594.0\nentropy = 0.635\nsamples = 81\nvalue = [68, 13]"] ;
728 -> 729 ;
730 [label="x[24] <= 0.5\nentropy = 0.741\nsamples = 62\nvalue = [49, 13]"] ;
729 -> 730 ;
731 [label="entropy = 0.353\nsamples = 30\nvalue = [28, 2]"] ;
730 -> 731 ;
732 [label="entropy = 0.928\nsamples = 32\nvalue = [21, 11]"] ;
730 -> 732 ;
733 [label="entropy = 0.0\nsamples = 19\nvalue = [19, 0]"] ;
729 -> 733 ;
734 [label="x[14] <= 0.5\nentropy = 0.961\nsamples = 13\nvalue = [5, 8]"] ;
728 -> 734 ;
735 [label="x[2] <= 19.0\nentropy = 0.592\nsamples = 7\nvalue = [1, 6]"] ;
734 -> 735 ;
736 [label="entropy = 0.0\nsamples = 6\nvalue = [0, 6]"] ;
735 -> 736 ;
737 [label="entropy = 0.0\nsamples = 1\nvalue = [1, 0]"] ;
735 -> 737 ;
738 [label="x[4] <= 13.245\nentropy = 0.918\nsamples = 6\nvalue = [4, 2]"] ;
734 -> 738 ;
739 [label="entropy = 0.0\nsamples = 1\nvalue = [0, 1]"] ;
738 -> 739 ;
740 [label="entropy = 0.722\nsamples = 5\nvalue = [4, 1]"] ;
738 -> 740 ;
741 [label="x[19] <= 0.5\nentropy = 0.993\nsamples = 20\nvalue = [9, 11]"] ;
727 -> 741 ;
742 [label="entropy = 0.0\nsamples = 6\nvalue = [0, 6]"] ;
741 -> 742 ;
743 [label="x[1] <= 36000.0\nentropy = 0.94\nsamples = 14\nvalue = [9, 5]"] ;
741 -> 743 ;
744 [label="entropy = 0.0\nsamples = 2\nvalue = [0, 2]"] ;
743 -> 744 ;
745 [label="x[1] <= 55000.0\nentropy = 0.811\nsamples = 12\nvalue = [9, 3]"] ;
743 -> 745 ;
746 [label="entropy = 0.0\nsamples = 6\nvalue = [6, 0]"] ;
745 -> 746 ;
747 [label="entropy = 1.0\nsamples = 6\nvalue = [3, 3]"] ;
745 -> 747 ;
748 [label="x[11] <= 0.5\nentropy = 0.986\nsamples = 130\nvalue = [56, 74]"] ;
726 -> 748 ;
749 [label="x[14] <= 0.5\nentropy = 0.962\nsamples = 88\nvalue = [54, 34]"] ;
748 -> 749 ;
750 [label="x[4] <= 18.885\nentropy = 0.668\nsamples = 63\nvalue = [52, 11]"] ;
749 -> 750 ;
751 [label="x[4] <= 18.63\nentropy = 0.701\nsamples = 58\nvalue = [47, 11]"] ;
750 -> 751 ;
752 [label="entropy = 0.67\nsamples = 57\nvalue = [47, 10]"] ;
751 -> 752 ;
753 [label="entropy = 0.0\nsamples = 1\nvalue = [0, 1]"] ;
751 -> 753 ;
754 [label="entropy = 0.0\nsamples = 5\nvalue = [5, 0]"] ;
750 -> 754 ;
755 [label="x[1] <= 93100.0\nentropy = 0.402\nsamples = 25\nvalue = [2, 23]"] ;
749 -> 755 ;
756 [label="x[19] <= 0.5\nentropy = 0.25\nsamples = 24\nvalue = [1, 23]"] ;
755 -> 756 ;
757 [label="entropy = 0.0\nsamples = 22\nvalue = [0, 22]"] ;
756 -> 757 ;
758 [label="entropy = 1.0\nsamples = 2\nvalue = [1, 1]"] ;
756 -> 758 ;
759 [label="entropy = 0.0\nsamples = 1\nvalue = [1, 0]"] ;
755 -> 759 ;
760 [label="x[5] <= 0.365\nentropy = 0.276\nsamples = 42\nvalue = [2, 40]"] ;
748 -> 760 ;
761 [label="entropy = 0.0\nsamples = 29\nvalue = [0, 29]"] ;
760 -> 761 ;
762 [label="x[2] <= 9.5\nentropy = 0.619\nsamples = 13\nvalue = [2, 11]"] ;
760 -> 762 ;
763 [label="entropy = 0.0\nsamples = 9\nvalue = [0, 9]"] ;
762 -> 763 ;
764 [label="x[2] <= 10.5\nentropy = 1.0\nsamples = 4\nvalue = [2, 2]"] ;
762 -> 764 ;
765 [label="entropy = 0.0\nsamples = 2\nvalue = [2, 0]"] ;
764 -> 765 ;
766 [label="entropy = 0.0\nsamples = 2\nvalue = [0, 2]"] ;
764 -> 766 ;
767 [label="x[1] <= 37600.0\nentropy = 0.702\nsamples = 84\nvalue = [68, 16]"] ;
725 -> 767 ;
768 [label="x[2] <= 0.5\nentropy = 0.985\nsamples = 14\nvalue = [8, 6]"] ;
767 -> 768 ;
769 [label="entropy = 0.0\nsamples = 2\nvalue = [0, 2]"] ;
768 -> 769 ;
770 [label="x[1] <= 36600.0\nentropy = 0.918\nsamples = 12\nvalue = [8, 4]"] ;
768 -> 770 ;
771 [label="x[4] <= 13.355\nentropy = 0.845\nsamples = 11\nvalue = [8, 3]"] ;
770 -> 771 ;
772 [label="entropy = 0.0\nsamples = 2\nvalue = [0, 2]"] ;
771 -> 772 ;
773 [label="x[20] <= 0.5\nentropy = 0.503\nsamples = 9\nvalue = [8, 1]"] ;
771 -> 773 ;
774 [label="entropy = 0.0\nsamples = 7\nvalue = [7, 0]"] ;
773 -> 774 ;
775 [label="entropy = 1.0\nsamples = 2\nvalue = [1, 1]"] ;
773 -> 775 ;
776 [label="entropy = 0.0\nsamples = 1\nvalue = [0, 1]"] ;
770 -> 776 ;
777 [label="x[2] <= 10.5\nentropy = 0.592\nsamples = 70\nvalue = [60, 10]"] ;
767 -> 777 ;
778 [label="x[2] <= 2.5\nentropy = 0.469\nsamples = 60\nvalue = [54, 6]"] ;
777 -> 778 ;
779 [label="x[24] <= 0.5\nentropy = 0.863\nsamples = 14\nvalue = [10, 4]"] ;
778 -> 779 ;
780 [label="x[6] <= 5.0\nentropy = 1.0\nsamples = 6\nvalue = [3, 3]"] ;
779 -> 780 ;
781 [label="entropy = 0.811\nsamples = 4\nvalue = [3, 1]"] ;
780 -> 781 ;
782 [label="entropy = 0.0\nsamples = 2\nvalue = [0, 2]"] ;
780 -> 782 ;
783 [label="x[19] <= 0.5\nentropy = 0.544\nsamples = 8\nvalue = [7, 1]"] ;
779 -> 783 ;
784 [label="entropy = 0.0\nsamples = 5\nvalue = [5, 0]"] ;
783 -> 784 ;
785 [label="entropy = 0.918\nsamples = 3\nvalue = [2, 1]"] ;
783 -> 785 ;
786 [label="x[4] <= 16.695\nentropy = 0.258\nsamples = 46\nvalue = [44, 2]"] ;
778 -> 786 ;
787 [label="entropy = 0.0\nsamples = 38\nvalue = [38, 0]"] ;
786 -> 787 ;
788 [label="x[3] <= 17500.0\nentropy = 0.811\nsamples = 8\nvalue = [6, 2]"] ;
786 -> 788 ;
789 [label="entropy = 0.918\nsamples = 3\nvalue = [1, 2]"] ;
788 -> 789 ;
790 [label="entropy = 0.0\nsamples = 5\nvalue = [5, 0]"] ;
788 -> 790 ;
791 [label="x[4] <= 14.935\nentropy = 0.971\nsamples = 10\nvalue = [6, 4]"] ;
777 -> 791 ;
792 [label="x[5] <= 0.335\nentropy = 0.918\nsamples = 3\nvalue = [1, 2]"] ;
791 -> 792 ;
793 [label="entropy = 0.0\nsamples = 1\nvalue = [1, 0]"] ;
792 -> 793 ;
794 [label="entropy = 0.0\nsamples = 2\nvalue = [0, 2]"] ;
792 -> 794 ;
795 [label="x[1] <= 66000.0\nentropy = 0.863\nsamples = 7\nvalue = [5, 2]"] ;
791 -> 795 ;
796 [label="entropy = 0.0\nsamples = 4\nvalue = [4, 0]"] ;
795 -> 796 ;
797 [label="x[25] <= 0.5\nentropy = 0.918\nsamples = 3\nvalue = [1, 2]"] ;
795 -> 797 ;
798 [label="entropy = 0.0\nsamples = 2\nvalue = [0, 2]"] ;
797 -> 798 ;
799 [label="entropy = 0.0\nsamples = 1\nvalue = [1, 0]"] ;
797 -> 799 ;
800 [label="x[4] <= 18.34\nentropy = 0.284\nsamples = 344\nvalue = [327, 17]"] ;
590 -> 800 ;
801 [label="x[16] <= 0.5\nentropy = 0.235\nsamples = 339\nvalue = [326, 13]"] ;
800 -> 801 ;
802 [label="x[3] <= 11250.0\nentropy = 0.311\nsamples = 233\nvalue = [220, 13]"] ;
801 -> 802 ;
803 [label="x[4] <= 12.685\nentropy = 0.597\nsamples = 69\nvalue = [59, 10]"] ;
802 -> 803 ;
804 [label="x[6] <= 4.5\nentropy = 0.408\nsamples = 49\nvalue = [45.0, 4.0]"] ;
803 -> 804 ;
805 [label="entropy = 0.0\nsamples = 31\nvalue = [31, 0]"] ;
804 -> 805 ;
806 [label="x[5] <= 0.355\nentropy = 0.764\nsamples = 18\nvalue = [14, 4]"] ;
804 -> 806 ;
807 [label="x[4] <= 6.395\nentropy = 0.414\nsamples = 12\nvalue = [11, 1]"] ;
806 -> 807 ;
808 [label="x[5] <= 0.32\nentropy = 1.0\nsamples = 2\nvalue = [1, 1]"] ;
807 -> 808 ;
809 [label="entropy = 0.0\nsamples = 1\nvalue = [0, 1]"] ;
808 -> 809 ;
810 [label="entropy = 0.0\nsamples = 1\nvalue = [1, 0]"] ;
808 -> 810 ;
811 [label="entropy = 0.0\nsamples = 10\nvalue = [10, 0]"] ;
807 -> 811 ;
812 [label="x[0] <= 32.0\nentropy = 1.0\nsamples = 6\nvalue = [3, 3]"] ;
806 -> 812 ;
813 [label="x[2] <= 4.5\nentropy = 0.811\nsamples = 4\nvalue = [3, 1]"] ;
812 -> 813 ;
814 [label="entropy = 0.0\nsamples = 3\nvalue = [3, 0]"] ;
813 -> 814 ;
815 [label="entropy = 0.0\nsamples = 1\nvalue = [0, 1]"] ;
813 -> 815 ;
816 [label="entropy = 0.0\nsamples = 2\nvalue = [0, 2]"] ;
812 -> 816 ;
817 [label="x[2] <= 4.5\nentropy = 0.881\nsamples = 20\nvalue = [14, 6]"] ;
803 -> 817 ;
818 [label="x[25] <= 0.5\nentropy = 0.996\nsamples = 13\nvalue = [7, 6]"] ;
817 -> 818 ;
819 [label="x[19] <= 0.5\nentropy = 0.918\nsamples = 9\nvalue = [3, 6]"] ;
818 -> 819 ;
820 [label="entropy = 0.0\nsamples = 3\nvalue = [0, 3]"] ;
819 -> 820 ;
821 [label="x[4] <= 13.325\nentropy = 1.0\nsamples = 6\nvalue = [3, 3]"] ;
819 -> 821 ;
822 [label="entropy = 0.0\nsamples = 2\nvalue = [0, 2]"] ;
821 -> 822 ;
823 [label="entropy = 0.811\nsamples = 4\nvalue = [3, 1]"] ;
821 -> 823 ;
824 [label="entropy = 0.0\nsamples = 4\nvalue = [4, 0]"] ;
818 -> 824 ;
825 [label="entropy = 0.0\nsamples = 7\nvalue = [7, 0]"] ;
817 -> 825 ;
826 [label="x[4] <= 13.525\nentropy = 0.132\nsamples = 164\nvalue = [161, 3]"] ;
802 -> 826 ;
827 [label="entropy = 0.0\nsamples = 125\nvalue = [125, 0]"] ;
826 -> 827 ;
828 [label="x[4] <= 13.68\nentropy = 0.391\nsamples = 39\nvalue = [36, 3]"] ;
826 -> 828 ;
829 [label="entropy = 0.0\nsamples = 1\nvalue = [0, 1]"] ;
828 -> 829 ;
830 [label="x[0] <= 44.0\nentropy = 0.297\nsamples = 38\nvalue = [36, 2]"] ;
828 -> 830 ;
831 [label="x[2] <= 2.5\nentropy = 0.179\nsamples = 37\nvalue = [36, 1]"] ;
830 -> 831 ;
832 [label="x[6] <= 2.5\nentropy = 0.391\nsamples = 13\nvalue = [12, 1]"] ;
831 -> 832 ;
833 [label="entropy = 0.918\nsamples = 3\nvalue = [2, 1]"] ;
832 -> 833 ;
834 [label="entropy = 0.0\nsamples = 10\nvalue = [10, 0]"] ;
832 -> 834 ;
835 [label="entropy = 0.0\nsamples = 24\nvalue = [24, 0]"] ;
831 -> 835 ;
836 [label="entropy = 0.0\nsamples = 1\nvalue = [0, 1]"] ;
830 -> 836 ;
837 [label="entropy = 0.0\nsamples = 106\nvalue = [106, 0]"] ;
801 -> 837 ;
838 [label="x[1] <= 56858.0\nentropy = 0.722\nsamples = 5\nvalue = [1, 4]"] ;
800 -> 838 ;
839 [label="entropy = 0.0\nsamples = 4\nvalue = [0, 4]"] ;
838 -> 839 ;
840 [label="entropy = 0.0\nsamples = 1\nvalue = [1, 0]"] ;
838 -> 840 ;
}