digraph Tree {
node [shape=box, fontname="helvetica"] ;
edge [fontname="helvetica"] ;
0 [label="x[4] <= 14.365\nentropy = 0.59\nsamples = 58645\nvalue = [50295, 8350]"] ;
1 [label="x[7] <= 0.5\nentropy = 0.444\nsamples = 51856\nvalue = [47076, 4780]"] ;
0 -> 1 [labeldistance=2.5, labelangle=45, headlabel="True"] ;
2 [label="x[5] <= 0.305\nentropy = 0.582\nsamples = 29171\nvalue = [25110, 4061]"] ;
1 -> 2 ;
3 [label="x[1] <= 34999.5\nentropy = 0.335\nsamples = 26324\nvalue = [24697, 1627]"] ;
2 -> 3 ;
4 [label="x[1] <= 19984.0\nentropy = 0.587\nsamples = 4528\nvalue = [3890, 638]"] ;
3 -> 4 ;
5 [label="x[5] <= 0.155\nentropy = 0.992\nsamples = 224\nvalue = [124, 100]"] ;
4 -> 5 ;
6 [label="x[13] <= 0.5\nentropy = 0.565\nsamples = 113\nvalue = [98.0, 15.0]"] ;
5 -> 6 ;
7 [label="x[3] <= 2150.0\nentropy = 0.419\nsamples = 106\nvalue = [97, 9]"] ;
6 -> 7 ;
8 [label="x[3] <= 1550.0\nentropy = 0.274\nsamples = 85\nvalue = [81, 4]"] ;
7 -> 8 ;
9 [label="x[16] <= 0.5\nentropy = 0.469\nsamples = 40\nvalue = [36, 4]"] ;
8 -> 9 ;
10 [label="entropy = 0.523\nsamples = 34\nvalue = [30, 4]"] ;
9 -> 10 ;
11 [label="entropy = 0.0\nsamples = 6\nvalue = [6, 0]"] ;
9 -> 11 ;
12 [label="entropy = 0.0\nsamples = 45\nvalue = [45, 0]"] ;
8 -> 12 ;
13 [label="x[2] <= 1.5\nentropy = 0.792\nsamples = 21\nvalue = [16, 5]"] ;
7 -> 13 ;
14 [label="entropy = 0.0\nsamples = 10\nvalue = [10, 0]"] ;
13 -> 14 ;
15 [label="x[4] <= 12.34\nentropy = 0.994\nsamples = 11\nvalue = [6, 5]"] ;
13 -> 15 ;
16 [label="entropy = 0.65\nsamples = 6\nvalue = [5, 1]"] ;
15 -> 16 ;
17 [label="entropy = 0.722\nsamples = 5\nvalue = [1, 4]"] ;
15 -> 17 ;
18 [label="x[2] <= 0.5\nentropy = 0.592\nsamples = 7\nvalue = [1, 6]"] ;
6 -> 18 ;
19 [label="entropy = 0.0\nsamples = 5\nvalue = [0, 5]"] ;
18 -> 19 ;
20 [label="x[1] <= 16680.0\nentropy = 1.0\nsamples = 2\nvalue = [1, 1]"] ;
18 -> 20 ;
21 [label="entropy = 0.0\nsamples = 1\nvalue = [1, 0]"] ;
20 -> 21 ;
22 [label="entropy = 0.0\nsamples = 1\nvalue = [0, 1]"] ;
20 -> 22 ;
23 [label="x[9] <= 0.5\nentropy = 0.785\nsamples = 111\nvalue = [26, 85]"] ;
5 -> 23 ;
24 [label="x[4] <= 10.685\nentropy = 0.595\nsamples = 97\nvalue = [14.0, 83.0]"] ;
23 -> 24 ;
25 [label="x[6] <= 15.5\nentropy = 0.918\nsamples = 9\nvalue = [6, 3]"] ;
24 -> 25 ;
26 [label="entropy = 0.0\nsamples = 6\nvalue = [6, 0]"] ;
25 -> 26 ;
27 [label="entropy = 0.0\nsamples = 3\nvalue = [0, 3]"] ;
25 -> 27 ;
28 [label="x[0] <= 33.5\nentropy = 0.439\nsamples = 88\nvalue = [8, 80]"] ;
24 -> 28 ;
29 [label="x[5] <= 0.285\nentropy = 0.337\nsamples = 80\nvalue = [5, 75]"] ;
28 -> 29 ;
30 [label="entropy = 0.24\nsamples = 76\nvalue = [3, 73]"] ;
29 -> 30 ;
31 [label="entropy = 1.0\nsamples = 4\nvalue = [2, 2]"] ;
29 -> 31 ;
32 [label="x[4] <= 13.55\nentropy = 0.954\nsamples = 8\nvalue = [3, 5]"] ;
28 -> 32 ;
33 [label="entropy = 0.971\nsamples = 5\nvalue = [3, 2]"] ;
32 -> 33 ;
34 [label="entropy = 0.0\nsamples = 3\nvalue = [0, 3]"] ;
32 -> 34 ;
35 [label="x[3] <= 3250.0\nentropy = 0.592\nsamples = 14\nvalue = [12, 2]"] ;
23 -> 35 ;
36 [label="x[5] <= 0.165\nentropy = 1.0\nsamples = 4\nvalue = [2, 2]"] ;
35 -> 36 ;
37 [label="entropy = 0.0\nsamples = 1\nvalue = [0, 1]"] ;
36 -> 37 ;
38 [label="x[2] <= 0.5\nentropy = 0.918\nsamples = 3\nvalue = [2, 1]"] ;
36 -> 38 ;
39 [label="entropy = 0.0\nsamples = 2\nvalue = [2, 0]"] ;
38 -> 39 ;
40 [label="entropy = 0.0\nsamples = 1\nvalue = [0, 1]"] ;
38 -> 40 ;
41 [label="entropy = 0.0\nsamples = 10\nvalue = [10, 0]"] ;
35 -> 41 ;
42 [label="x[1] <= 33620.0\nentropy = 0.544\nsamples = 4304\nvalue = [3766, 538]"] ;
4 -> 42 ;
43 [label="x[13] <= 0.5\nentropy = 0.494\nsamples = 4011\nvalue = [3578, 433]"] ;
42 -> 43 ;
44 [label="x[4] <= 9.285\nentropy = 0.426\nsamples = 3859\nvalue = [3524, 335]"] ;
43 -> 44 ;
45 [label="x[3] <= 6225.0\nentropy = 0.269\nsamples = 1261\nvalue = [1203.0, 58.0]"] ;
44 -> 45 ;
46 [label="x[5] <= 0.085\nentropy = 0.227\nsamples = 983\nvalue = [947, 36]"] ;
45 -> 46 ;
47 [label="entropy = 0.423\nsamples = 128\nvalue = [117, 11]"] ;
46 -> 47 ;
48 [label="entropy = 0.191\nsamples = 855\nvalue = [830, 25]"] ;
46 -> 48 ;
49 [label="x[10] <= 0.5\nentropy = 0.399\nsamples = 278\nvalue = [256, 22]"] ;
45 -> 49 ;
50 [label="entropy = 0.0\nsamples = 42\nvalue = [42, 0]"] ;
49 -> 50 ;
51 [label="entropy = 0.447\nsamples = 236\nvalue = [214, 22]"] ;
49 -> 51 ;
52 [label="x[9] <= 0.5\nentropy = 0.49\nsamples = 2598\nvalue = [2321, 277]"] ;
44 -> 52 ;
53 [label="x[4] <= 13.985\nentropy = 0.518\nsamples = 2383\nvalue = [2106, 277]"] ;
52 -> 53 ;
54 [label="entropy = 0.49\nsamples = 2222\nvalue = [1985, 237]"] ;
53 -> 54 ;
55 [label="entropy = 0.809\nsamples = 161\nvalue = [121, 40]"] ;
53 -> 55 ;
56 [label="entropy = 0.0\nsamples = 215\nvalue = [215, 0]"] ;
52 -> 56 ;
57 [label="x[10] <= 0.5\nentropy = 0.939\nsamples = 152\nvalue = [54, 98]"] ;
43 -> 57 ;
58 [label="x[0] <= 22.5\nentropy = 0.191\nsamples = 34\nvalue = [33, 1]"] ;
57 -> 58 ;
59 [label="entropy = 0.0\nsamples = 1\nvalue = [0, 1]"] ;
58 -> 59 ;
60 [label="entropy = 0.0\nsamples = 33\nvalue = [33, 0]"] ;
58 -> 60 ;
61 [label="x[17] <= 0.5\nentropy = 0.676\nsamples = 118\nvalue = [21, 97]"] ;
57 -> 61 ;
62 [label="x[0] <= 23.5\nentropy = 0.457\nsamples = 83\nvalue = [8, 75]"] ;
61 -> 62 ;
63 [label="entropy = 0.0\nsamples = 17\nvalue = [0, 17]"] ;
62 -> 63 ;
64 [label="entropy = 0.533\nsamples = 66\nvalue = [8, 58]"] ;
62 -> 64 ;
65 [label="x[3] <= 2700.0\nentropy = 0.952\nsamples = 35\nvalue = [13, 22]"] ;
61 -> 65 ;
66 [label="entropy = 0.811\nsamples = 4\nvalue = [3, 1]"] ;
65 -> 66 ;
67 [label="entropy = 0.907\nsamples = 31\nvalue = [10, 21]"] ;
65 -> 67 ;
68 [label="x[4] <= 13.915\nentropy = 0.941\nsamples = 293\nvalue = [188, 105]"] ;
42 -> 68 ;
69 [label="x[1] <= 34054.0\nentropy = 0.912\nsamples = 272\nvalue = [183, 89]"] ;
68 -> 69 ;
70 [label="x[20] <= 0.5\nentropy = 0.946\nsamples = 231\nvalue = [147, 84]"] ;
69 -> 70 ;
71 [label="x[0] <= 22.5\nentropy = 0.934\nsamples = 226\nvalue = [147, 79]"] ;
70 -> 71 ;
72 [label="entropy = 0.999\nsamples = 46\nvalue = [22, 24]"] ;
71 -> 72 ;
73 [label="entropy = 0.888\nsamples = 180\nvalue = [125.0, 55.0]"] ;
71 -> 73 ;
74 [label="entropy = 0.0\nsamples = 5\nvalue = [0, 5]"] ;
70 -> 74 ;
75 [label="x[13] <= 0.5\nentropy = 0.535\nsamples = 41\nvalue = [36, 5]"] ;
69 -> 75 ;
76 [label="x[5] <= 0.195\nentropy = 0.469\nsamples = 40\nvalue = [36, 4]"] ;
75 -> 76 ;
77 [label="entropy = 0.211\nsamples = 30\nvalue = [29, 1]"] ;
76 -> 77 ;
78 [label="entropy = 0.881\nsamples = 10\nvalue = [7, 3]"] ;
76 -> 78 ;
79 [label="entropy = 0.0\nsamples = 1\nvalue = [0, 1]"] ;
75 -> 79 ;
80 [label="x[6] <= 7.5\nentropy = 0.792\nsamples = 21\nvalue = [5, 16]"] ;
68 -> 80 ;
81 [label="x[5] <= 0.17\nentropy = 0.918\nsamples = 15\nvalue = [5, 10]"] ;
80 -> 81 ;
82 [label="x[1] <= 34100.0\nentropy = 1.0\nsamples = 10\nvalue = [5, 5]"] ;
81 -> 82 ;
83 [label="entropy = 0.722\nsamples = 5\nvalue = [1, 4]"] ;
82 -> 83 ;
84 [label="entropy = 0.722\nsamples = 5\nvalue = [4, 1]"] ;
82 -> 84 ;
85 [label="entropy = 0.0\nsamples = 5\nvalue = [0, 5]"] ;
81 -> 85 ;
86 [label="entropy = 0.0\nsamples = 6\nvalue = [0, 6]"] ;
80 -> 86 ;
87 [label="x[20] <= 0.5\nentropy = 0.266\nsamples = 21796\nvalue = [20807, 989]"] ;
3 -> 87 ;
88 [label="x[1] <= 59513.5\nentropy = 0.242\nsamples = 21574\nvalue = [20714, 860]"] ;
87 -> 88 ;
89 [label="x[13] <= 0.5\nentropy = 0.295\nsamples = 11601\nvalue = [10996, 605]"] ;
88 -> 89 ;
90 [label="x[9] <= 0.5\nentropy = 0.257\nsamples = 10957\nvalue = [10484.0, 473.0]"] ;
89 -> 90 ;
91 [label="x[1] <= 53547.0\nentropy = 0.273\nsamples = 10033\nvalue = [9563, 470]"] ;
90 -> 91 ;
92 [label="x[1] <= 49806.0\nentropy = 0.242\nsamples = 8611\nvalue = [8268, 343]"] ;
91 -> 92 ;
93 [label="entropy = 0.279\nsamples = 6622\nvalue = [6303, 319]"] ;
92 -> 93 ;
94 [label="entropy = 0.094\nsamples = 1989\nvalue = [1965, 24]"] ;
92 -> 94 ;
95 [label="x[16] <= 0.5\nentropy = 0.434\nsamples = 1422\nvalue = [1295, 127]"] ;
91 -> 95 ;
96 [label="entropy = 0.477\nsamples = 1170\nvalue = [1050, 120]"] ;
95 -> 96 ;
97 [label="entropy = 0.183\nsamples = 252\nvalue = [245, 7]"] ;
95 -> 97 ;
98 [label="x[6] <= 4.5\nentropy = 0.032\nsamples = 924\nvalue = [921, 3]"] ;
90 -> 98 ;
99 [label="x[0] <= 23.5\nentropy = 0.048\nsamples = 559\nvalue = [556.0, 3.0]"] ;
98 -> 99 ;
100 [label="entropy = 0.0\nsamples = 321\nvalue = [321, 0]"] ;
99 -> 100 ;
101 [label="entropy = 0.098\nsamples = 238\nvalue = [235, 3]"] ;
99 -> 101 ;
102 [label="entropy = 0.0\nsamples = 365\nvalue = [365, 0]"] ;
98 -> 102 ;
103 [label="x[1] <= 49950.0\nentropy = 0.732\nsamples = 644\nvalue = [512.0, 132.0]"] ;
89 -> 103 ;
104 [label="x[9] <= 0.5\nentropy = 0.996\nsamples = 169\nvalue = [91, 78]"] ;
103 -> 104 ;
105 [label="x[6] <= 6.5\nentropy = 0.946\nsamples = 121\nvalue = [44, 77]"] ;
104 -> 105 ;
106 [label="entropy = 0.835\nsamples = 64\nvalue = [17, 47]"] ;
105 -> 106 ;
107 [label="entropy = 0.998\nsamples = 57\nvalue = [27, 30]"] ;
105 -> 107 ;
108 [label="x[1] <= 36500.0\nentropy = 0.146\nsamples = 48\nvalue = [47, 1]"] ;
104 -> 108 ;
109 [label="entropy = 0.439\nsamples = 11\nvalue = [10, 1]"] ;
108 -> 109 ;
110 [label="entropy = 0.0\nsamples = 37\nvalue = [37, 0]"] ;
108 -> 110 ;
111 [label="x[0] <= 23.5\nentropy = 0.511\nsamples = 475\nvalue = [421, 54]"] ;
103 -> 111 ;
112 [label="entropy = 0.0\nsamples = 7\nvalue = [0, 7]"] ;
111 -> 112 ;
113 [label="x[0] <= 24.5\nentropy = 0.47\nsamples = 468\nvalue = [421, 47]"] ;
111 -> 113 ;
114 [label="entropy = 0.104\nsamples = 73\nvalue = [72, 1]"] ;
113 -> 114 ;
115 [label="entropy = 0.519\nsamples = 395\nvalue = [349, 46]"] ;
113 -> 115 ;
116 [label="x[3] <= 17450.0\nentropy = 0.172\nsamples = 9973\nvalue = [9718, 255]"] ;
88 -> 116 ;
117 [label="x[4] <= 7.385\nentropy = 0.15\nsamples = 8963\nvalue = [8770, 193]"] ;
116 -> 117 ;
118 [label="x[5] <= 0.045\nentropy = 0.051\nsamples = 1233\nvalue = [1226, 7]"] ;
117 -> 118 ;
119 [label="x[4] <= 6.465\nentropy = 0.204\nsamples = 94\nvalue = [91.0, 3.0]"] ;
118 -> 119 ;
120 [label="entropy = 0.0\nsamples = 43\nvalue = [43, 0]"] ;
119 -> 120 ;
121 [label="entropy = 0.323\nsamples = 51\nvalue = [48, 3]"] ;
119 -> 121 ;
122 [label="x[2] <= 1.5\nentropy = 0.034\nsamples = 1139\nvalue = [1135, 4]"] ;
118 -> 122 ;
123 [label="entropy = 0.113\nsamples = 266\nvalue = [262, 4]"] ;
122 -> 123 ;
124 [label="entropy = 0.0\nsamples = 873\nvalue = [873, 0]"] ;
122 -> 124 ;
125 [label="x[9] <= 0.5\nentropy = 0.164\nsamples = 7730\nvalue = [7544, 186]"] ;
117 -> 125 ;
126 [label="x[13] <= 0.5\nentropy = 0.176\nsamples = 7049\nvalue = [6863, 186]"] ;
125 -> 126 ;
127 [label="entropy = 0.156\nsamples = 6136\nvalue = [5997, 139]"] ;
126 -> 127 ;
128 [label="entropy = 0.293\nsamples = 913\nvalue = [866, 47]"] ;
126 -> 128 ;
129 [label="entropy = 0.0\nsamples = 681\nvalue = [681, 0]"] ;
125 -> 129 ;
130 [label="x[1] <= 79472.0\nentropy = 0.333\nsamples = 1010\nvalue = [948, 62]"] ;
116 -> 130 ;
131 [label="x[1] <= 76100.0\nentropy = 0.514\nsamples = 296\nvalue = [262, 34]"] ;
130 -> 131 ;
132 [label="x[5] <= 0.235\nentropy = 0.452\nsamples = 264\nvalue = [239, 25]"] ;
131 -> 132 ;
133 [label="entropy = 0.971\nsamples = 5\nvalue = [2, 3]"] ;
132 -> 133 ;
134 [label="entropy = 0.419\nsamples = 259\nvalue = [237, 22]"] ;
132 -> 134 ;
135 [label="x[17] <= 0.5\nentropy = 0.857\nsamples = 32\nvalue = [23, 9]"] ;
131 -> 135 ;
136 [label="entropy = 0.918\nsamples = 27\nvalue = [18, 9]"] ;
135 -> 136 ;
137 [label="entropy = 0.0\nsamples = 5\nvalue = [5, 0]"] ;
135 -> 137 ;
138 [label="x[5] <= 0.255\nentropy = 0.239\nsamples = 714\nvalue = [686, 28]"] ;
130 -> 138 ;
139 [label="x[4] <= 7.585\nentropy = 0.175\nsamples = 612\nvalue = [596, 16]"] ;
138 -> 139 ;
140 [label="entropy = 0.0\nsamples = 66\nvalue = [66, 0]"] ;
139 -> 140 ;
141 [label="entropy = 0.191\nsamples = 546\nvalue = [530, 16]"] ;
139 -> 141 ;
142 [label="x[17] <= 0.5\nentropy = 0.523\nsamples = 102\nvalue = [90, 12]"] ;
138 -> 142 ;
143 [label="entropy = 0.587\nsamples = 85\nvalue = [73, 12]"] ;
142 -> 143 ;
144 [label="entropy = 0.0\nsamples = 17\nvalue = [17, 0]"] ;
142 -> 144 ;
145 [label="x[1] <= 54998.0\nentropy = 0.981\nsamples = 222\nvalue = [93, 129]"] ;
87 -> 145 ;
146 [label="x[9] <= 0.5\nentropy = 0.827\nsamples = 127\nvalue = [33, 94]"] ;
145 -> 146 ;
147 [label="x[5] <= 0.105\nentropy = 0.766\nsamples = 121\nvalue = [27, 94]"] ;
146 -> 147 ;
148 [label="x[2] <= 2.5\nentropy = 0.983\nsamples = 33\nvalue = [14, 19]"] ;
147 -> 148 ;
149 [label="x[3] <= 4900.0\nentropy = 0.65\nsamples = 12\nvalue = [2, 10]"] ;
148 -> 149 ;
150 [label="entropy = 0.863\nsamples = 7\nvalue = [2, 5]"] ;
149 -> 150 ;
151 [label="entropy = 0.0\nsamples = 5\nvalue = [0, 5]"] ;
149 -> 151 ;
152 [label="x[11] <= 0.5\nentropy = 0.985\nsamples = 21\nvalue = [12, 9]"] ;
148 -> 152 ;
153 [label="entropy = 0.918\nsamples = 18\nvalue = [12, 6]"] ;
152 -> 153 ;
154 [label="entropy = 0.0\nsamples = 3\nvalue = [0, 3]"] ;
152 -> 154 ;
155 [label="x[0] <= 37.0\nentropy = 0.604\nsamples = 88\nvalue = [13, 75]"] ;
147 -> 155 ;
156 [label="x[2] <= 5.5\nentropy = 0.499\nsamples = 82\nvalue = [9, 73]"] ;
155 -> 156 ;
157 [label="entropy = 0.25\nsamples = 72\nvalue = [3, 69]"] ;
156 -> 157 ;
158 [label="entropy = 0.971\nsamples = 10\nvalue = [6, 4]"] ;
156 -> 158 ;
159 [label="x[2] <= 1.5\nentropy = 0.918\nsamples = 6\nvalue = [4, 2]"] ;
155 -> 159 ;
160 [label="entropy = 0.918\nsamples = 3\nvalue = [1, 2]"] ;
159 -> 160 ;
161 [label="entropy = 0.0\nsamples = 3\nvalue = [3, 0]"] ;
159 -> 161 ;
162 [label="entropy = 0.0\nsamples = 6\nvalue = [6, 0]"] ;
146 -> 162 ;
163 [label="x[11] <= 0.5\nentropy = 0.949\nsamples = 95\nvalue = [60, 35]"] ;
145 -> 163 ;
164 [label="x[2] <= 2.5\nentropy = 0.897\nsamples = 83\nvalue = [57, 26]"] ;
163 -> 164 ;
165 [label="x[4] <= 13.27\nentropy = 0.931\nsamples = 26\nvalue = [9, 17]"] ;
164 -> 165 ;
166 [label="entropy = 0.0\nsamples = 6\nvalue = [0, 6]"] ;
165 -> 166 ;
167 [label="x[1] <= 59500.0\nentropy = 0.993\nsamples = 20\nvalue = [9, 11]"] ;
165 -> 167 ;
168 [label="entropy = 0.0\nsamples = 4\nvalue = [0, 4]"] ;
167 -> 168 ;
169 [label="entropy = 0.989\nsamples = 16\nvalue = [9, 7]"] ;
167 -> 169 ;
170 [label="x[14] <= 0.5\nentropy = 0.629\nsamples = 57\nvalue = [48, 9]"] ;
164 -> 170 ;
171 [label="x[6] <= 3.5\nentropy = 0.332\nsamples = 49\nvalue = [46, 3]"] ;
170 -> 171 ;
172 [label="entropy = 0.779\nsamples = 13\nvalue = [10, 3]"] ;
171 -> 172 ;
173 [label="entropy = 0.0\nsamples = 36\nvalue = [36, 0]"] ;
171 -> 173 ;
174 [label="x[2] <= 11.5\nentropy = 0.811\nsamples = 8\nvalue = [2, 6]"] ;
170 -> 174 ;
175 [label="entropy = 0.592\nsamples = 7\nvalue = [1, 6]"] ;
174 -> 175 ;
176 [label="entropy = 0.0\nsamples = 1\nvalue = [1, 0]"] ;
174 -> 176 ;
177 [label="x[3] <= 10300.0\nentropy = 0.811\nsamples = 12\nvalue = [3, 9]"] ;
163 -> 177 ;
178 [label="x[0] <= 32.5\nentropy = 1.0\nsamples = 6\nvalue = [3, 3]"] ;
177 -> 178 ;
179 [label="x[0] <= 23.5\nentropy = 0.811\nsamples = 4\nvalue = [3, 1]"] ;
178 -> 179 ;
180 [label="entropy = 0.0\nsamples = 1\nvalue = [0, 1]"] ;
179 -> 180 ;
181 [label="entropy = 0.0\nsamples = 3\nvalue = [3, 0]"] ;
179 -> 181 ;
182 [label="entropy = 0.0\nsamples = 2\nvalue = [0, 2]"] ;
178 -> 182 ;
183 [label="entropy = 0.0\nsamples = 6\nvalue = [0, 6]"] ;
177 -> 183 ;
184 [label="x[16] <= 0.5\nentropy = 0.597\nsamples = 2847\nvalue = [413, 2434]"] ;
2 -> 184 ;
185 [label="x[9] <= 0.5\nentropy = 0.535\nsamples = 2356\nvalue = [287, 2069]"] ;
184 -> 185 ;
186 [label="x[1] <= 59809.5\nentropy = 0.268\nsamples = 2160\nvalue = [99, 2061]"] ;
185 -> 186 ;
187 [label="x[5] <= 0.365\nentropy = 0.216\nsamples = 1859\nvalue = [64.0, 1795.0]"] ;
186 -> 187 ;
188 [label="x[1] <= 10800.0\nentropy = 0.264\nsamples = 1069\nvalue = [48, 1021]"] ;
187 -> 188 ;
189 [label="entropy = 0.0\nsamples = 2\nvalue = [2, 0]"] ;
188 -> 189 ;
190 [label="x[3] <= 11100.0\nentropy = 0.256\nsamples = 1067\nvalue = [46, 1021]"] ;
188 -> 190 ;
191 [label="x[4] <= 8.195\nentropy = 0.165\nsamples = 451\nvalue = [11, 440]"] ;
190 -> 191 ;
192 [label="entropy = 0.289\nsamples = 99\nvalue = [5, 94]"] ;
191 -> 192 ;
193 [label="entropy = 0.125\nsamples = 352\nvalue = [6, 346]"] ;
191 -> 193 ;
194 [label="x[14] <= 0.5\nentropy = 0.315\nsamples = 616\nvalue = [35, 581]"] ;
190 -> 194 ;
195 [label="entropy = 0.24\nsamples = 455\nvalue = [18, 437]"] ;
194 -> 195 ;
196 [label="entropy = 0.486\nsamples = 161\nvalue = [17, 144]"] ;
194 -> 196 ;
197 [label="x[3] <= 19875.0\nentropy = 0.143\nsamples = 790\nvalue = [16, 774]"] ;
187 -> 197 ;
198 [label="x[1] <= 32784.0\nentropy = 0.095\nsamples = 653\nvalue = [8, 645]"] ;
197 -> 198 ;
199 [label="x[1] <= 24084.0\nentropy = 0.049\nsamples = 367\nvalue = [2, 365]"] ;
198 -> 199 ;
200 [label="entropy = 0.169\nsamples = 80\nvalue = [2, 78]"] ;
199 -> 200 ;
201 [label="entropy = 0.0\nsamples = 287\nvalue = [0, 287]"] ;
199 -> 201 ;
202 [label="x[4] <= 6.95\nentropy = 0.147\nsamples = 286\nvalue = [6, 280]"] ;
198 -> 202 ;
203 [label="entropy = 0.544\nsamples = 16\nvalue = [2, 14]"] ;
202 -> 203 ;
204 [label="entropy = 0.111\nsamples = 270\nvalue = [4, 266]"] ;
202 -> 204 ;
205 [label="x[4] <= 11.055\nentropy = 0.321\nsamples = 137\nvalue = [8, 129]"] ;
197 -> 205 ;
206 [label="x[5] <= 0.395\nentropy = 0.491\nsamples = 56\nvalue = [6, 50]"] ;
205 -> 206 ;
207 [label="entropy = 0.0\nsamples = 17\nvalue = [0, 17]"] ;
206 -> 207 ;
208 [label="entropy = 0.619\nsamples = 39\nvalue = [6, 33]"] ;
206 -> 208 ;
209 [label="x[0] <= 23.5\nentropy = 0.167\nsamples = 81\nvalue = [2, 79]"] ;
205 -> 209 ;
210 [label="entropy = 0.469\nsamples = 20\nvalue = [2, 18]"] ;
209 -> 210 ;
211 [label="entropy = 0.0\nsamples = 61\nvalue = [0, 61]"] ;
209 -> 211 ;
212 [label="x[5] <= 0.365\nentropy = 0.519\nsamples = 301\nvalue = [35, 266]"] ;
186 -> 212 ;
213 [label="x[4] <= 9.47\nentropy = 0.592\nsamples = 210\nvalue = [30, 180]"] ;
212 -> 213 ;
214 [label="x[4] <= 6.58\nentropy = 0.172\nsamples = 39\nvalue = [1, 38]"] ;
213 -> 214 ;
215 [label="x[2] <= 7.0\nentropy = 0.65\nsamples = 6\nvalue = [1, 5]"] ;
214 -> 215 ;
216 [label="entropy = 0.0\nsamples = 1\nvalue = [1, 0]"] ;
215 -> 216 ;
217 [label="entropy = 0.0\nsamples = 5\nvalue = [0, 5]"] ;
215 -> 217 ;
218 [label="entropy = 0.0\nsamples = 33\nvalue = [0, 33]"] ;
214 -> 218 ;
219 [label="x[0] <= 22.5\nentropy = 0.657\nsamples = 171\nvalue = [29, 142]"] ;
213 -> 219 ;
220 [label="x[2] <= 2.5\nentropy = 0.998\nsamples = 17\nvalue = [8, 9]"] ;
219 -> 220 ;
221 [label="entropy = 0.881\nsamples = 10\nvalue = [7, 3]"] ;
220 -> 221 ;
222 [label="entropy = 0.592\nsamples = 7\nvalue = [1, 6]"] ;
220 -> 222 ;
223 [label="x[6] <= 2.5\nentropy = 0.575\nsamples = 154\nvalue = [21, 133]"] ;
219 -> 223 ;
224 [label="entropy = 0.946\nsamples = 11\nvalue = [4, 7]"] ;
223 -> 224 ;
225 [label="entropy = 0.526\nsamples = 143\nvalue = [17, 126]"] ;
223 -> 225 ;
226 [label="x[2] <= 12.5\nentropy = 0.307\nsamples = 91\nvalue = [5, 86]"] ;
212 -> 226 ;
227 [label="x[1] <= 65002.0\nentropy = 0.222\nsamples = 84\nvalue = [3, 81]"] ;
226 -> 227 ;
228 [label="x[0] <= 29.5\nentropy = 0.378\nsamples = 41\nvalue = [3, 38]"] ;
227 -> 228 ;
229 [label="entropy = 0.491\nsamples = 28\nvalue = [3, 25]"] ;
228 -> 229 ;
230 [label="entropy = 0.0\nsamples = 13\nvalue = [0, 13]"] ;
228 -> 230 ;
231 [label="entropy = 0.0\nsamples = 43\nvalue = [0, 43]"] ;
227 -> 231 ;
232 [label="x[1] <= 75000.0\nentropy = 0.863\nsamples = 7\nvalue = [2, 5]"] ;
226 -> 232 ;
233 [label="x[0] <= 28.5\nentropy = 0.65\nsamples = 6\nvalue = [1, 5]"] ;
232 -> 233 ;
234 [label="entropy = 0.0\nsamples = 1\nvalue = [1, 0]"] ;
233 -> 234 ;
235 [label="entropy = 0.0\nsamples = 5\nvalue = [0, 5]"] ;
233 -> 235 ;
236 [label="entropy = 0.0\nsamples = 1\nvalue = [1, 0]"] ;
232 -> 236 ;
237 [label="x[3] <= 12100.0\nentropy = 0.246\nsamples = 196\nvalue = [188.0, 8.0]"] ;
185 -> 237 ;
238 [label="x[5] <= 0.515\nentropy = 0.473\nsamples = 79\nvalue = [71, 8]"] ;
237 -> 238 ;
239 [label="x[0] <= 31.5\nentropy = 0.436\nsamples = 78\nvalue = [71, 7]"] ;
238 -> 239 ;
240 [label="x[5] <= 0.315\nentropy = 0.313\nsamples = 71\nvalue = [67, 4]"] ;
239 -> 240 ;
241 [label="x[1] <= 30599.0\nentropy = 0.918\nsamples = 9\nvalue = [6, 3]"] ;
240 -> 241 ;
242 [label="entropy = 0.811\nsamples = 4\nvalue = [1, 3]"] ;
241 -> 242 ;
243 [label="entropy = 0.0\nsamples = 5\nvalue = [5, 0]"] ;
241 -> 243 ;
244 [label="x[6] <= 8.5\nentropy = 0.119\nsamples = 62\nvalue = [61, 1]"] ;
240 -> 244 ;
245 [label="entropy = 0.0\nsamples = 57\nvalue = [57, 0]"] ;
244 -> 245 ;
246 [label="entropy = 0.722\nsamples = 5\nvalue = [4, 1]"] ;
244 -> 246 ;
247 [label="x[17] <= 0.5\nentropy = 0.985\nsamples = 7\nvalue = [4, 3]"] ;
239 -> 247 ;
248 [label="x[5] <= 0.325\nentropy = 0.811\nsamples = 4\nvalue = [1, 3]"] ;
247 -> 248 ;
249 [label="entropy = 0.0\nsamples = 1\nvalue = [1, 0]"] ;
248 -> 249 ;
250 [label="entropy = 0.0\nsamples = 3\nvalue = [0, 3]"] ;
248 -> 250 ;
251 [label="entropy = 0.0\nsamples = 3\nvalue = [3, 0]"] ;
247 -> 251 ;
252 [label="entropy = 0.0\nsamples = 1\nvalue = [0, 1]"] ;
238 -> 252 ;
253 [label="entropy = 0.0\nsamples = 117\nvalue = [117, 0]"] ;
237 -> 253 ;
254 [label="x[1] <= 35002.0\nentropy = 0.822\nsamples = 491\nvalue = [126.0, 365.0]"] ;
184 -> 254 ;
255 [label="x[0] <= 21.5\nentropy = 0.72\nsamples = 211\nvalue = [42, 169]"] ;
254 -> 255 ;
256 [label="x[3] <= 10550.0\nentropy = 0.881\nsamples = 10\nvalue = [7, 3]"] ;
255 -> 256 ;
257 [label="entropy = 0.0\nsamples = 6\nvalue = [6, 0]"] ;
256 -> 257 ;
258 [label="x[17] <= 0.5\nentropy = 0.811\nsamples = 4\nvalue = [1, 3]"] ;
256 -> 258 ;
259 [label="entropy = 0.0\nsamples = 2\nvalue = [0, 2]"] ;
258 -> 259 ;
260 [label="x[5] <= 0.43\nentropy = 1.0\nsamples = 2\nvalue = [1, 1]"] ;
258 -> 260 ;
261 [label="entropy = 0.0\nsamples = 1\nvalue = [0, 1]"] ;
260 -> 261 ;
262 [label="entropy = 0.0\nsamples = 1\nvalue = [1, 0]"] ;
260 -> 262 ;
263 [label="x[3] <= 16725.0\nentropy = 0.667\nsamples = 201\nvalue = [35, 166]"] ;
255 -> 263 ;
264 [label="x[10] <= 0.5\nentropy = 0.648\nsamples = 199\nvalue = [33, 166]"] ;
263 -> 264 ;
265 [label="entropy = 0.0\nsamples = 24\nvalue = [24, 0]"] ;
264 -> 265 ;
266 [label="x[5] <= 0.455\nentropy = 0.292\nsamples = 175\nvalue = [9, 166]"] ;
264 -> 266 ;
267 [label="x[1] <= 28560.0\nentropy = 0.332\nsamples = 147\nvalue = [9, 138]"] ;
266 -> 267 ;
268 [label="entropy = 0.0\nsamples = 32\nvalue = [0, 32]"] ;
267 -> 268 ;
269 [label="entropy = 0.396\nsamples = 115\nvalue = [9, 106]"] ;
267 -> 269 ;
270 [label="entropy = 0.0\nsamples = 28\nvalue = [0, 28]"] ;
266 -> 270 ;
271 [label="entropy = 0.0\nsamples = 2\nvalue = [2, 0]"] ;
263 -> 271 ;
272 [label="x[9] <= 0.5\nentropy = 0.881\nsamples = 280\nvalue = [84, 196]"] ;
254 -> 272 ;
273 [label="x[6] <= 3.5\nentropy = 0.386\nsamples = 212\nvalue = [16, 196]"] ;
272 -> 273 ;
274 [label="x[1] <= 35502.0\nentropy = 0.213\nsamples = 89\nvalue = [3, 86]"] ;
273 -> 274 ;
275 [label="x[5] <= 0.41\nentropy = 1.0\nsamples = 2\nvalue = [1, 1]"] ;
274 -> 275 ;
276 [label="entropy = 0.0\nsamples = 1\nvalue = [1, 0]"] ;
275 -> 276 ;
277 [label="entropy = 0.0\nsamples = 1\nvalue = [0, 1]"] ;
275 -> 277 ;
278 [label="x[5] <= 0.385\nentropy = 0.158\nsamples = 87\nvalue = [2, 85]"] ;
274 -> 278 ;
279 [label="entropy = 0.0\nsamples = 68\nvalue = [0, 68]"] ;
278 -> 279 ;
280 [label="x[5] <= 0.395\nentropy = 0.485\nsamples = 19\nvalue = [2, 17]"] ;
278 -> 280 ;
281 [label="entropy = 1.0\nsamples = 2\nvalue = [1, 1]"] ;
280 -> 281 ;
282 [label="entropy = 0.323\nsamples = 17\nvalue = [1, 16]"] ;
280 -> 282 ;
283 [label="x[6] <= 11.0\nentropy = 0.487\nsamples = 123\nvalue = [13, 110]"] ;
273 -> 283 ;
284 [label="x[4] <= 14.265\nentropy = 0.521\nsamples = 111\nvalue = [13, 98]"] ;
283 -> 284 ;
285 [label="x[5] <= 0.425\nentropy = 0.497\nsamples = 110\nvalue = [12, 98]"] ;
284 -> 285 ;
286 [label="entropy = 0.533\nsamples = 99\nvalue = [12, 87]"] ;
285 -> 286 ;
287 [label="entropy = 0.0\nsamples = 11\nvalue = [0, 11]"] ;
285 -> 287 ;
288 [label="entropy = 0.0\nsamples = 1\nvalue = [1, 0]"] ;
284 -> 288 ;
289 [label="entropy = 0.0\nsamples = 12\nvalue = [0, 12]"] ;
283 -> 289 ;
290 [label="entropy = 0.0\nsamples = 68\nvalue = [68, 0]"] ;
272 -> 290 ;
291 [label="x[24] <= 0.5\nentropy = 0.203\nsamples = 22685\nvalue = [21966, 719]"] ;
1 -> 291 ;
292 [label="x[19] <= 0.5\nentropy = 0.462\nsamples = 1594\nvalue = [1438, 156]"] ;
291 -> 292 ;
293 [label="x[12] <= 0.5\nentropy = 0.977\nsamples = 68\nvalue = [40, 28]"] ;
292 -> 293 ;
294 [label="x[11] <= 0.5\nentropy = 1.0\nsamples = 53\nvalue = [26, 27]"] ;
293 -> 294 ;
295 [label="x[14] <= 0.5\nentropy = 0.934\nsamples = 40\nvalue = [26, 14]"] ;
294 -> 295 ;
296 [label="x[6] <= 8.5\nentropy = 0.663\nsamples = 29\nvalue = [24, 5]"] ;
295 -> 296 ;
297 [label="x[2] <= 4.5\nentropy = 0.852\nsamples = 18\nvalue = [13, 5]"] ;
296 -> 297 ;
298 [label="x[1] <= 74500.0\nentropy = 0.991\nsamples = 9\nvalue = [4, 5]"] ;
297 -> 298 ;
299 [label="entropy = 0.65\nsamples = 6\nvalue = [1, 5]"] ;
298 -> 299 ;
300 [label="entropy = 0.0\nsamples = 3\nvalue = [3, 0]"] ;
298 -> 300 ;
301 [label="entropy = 0.0\nsamples = 9\nvalue = [9, 0]"] ;
297 -> 301 ;
302 [label="entropy = 0.0\nsamples = 11\nvalue = [11, 0]"] ;
296 -> 302 ;
303 [label="x[2] <= 5.5\nentropy = 0.684\nsamples = 11\nvalue = [2, 9]"] ;
295 -> 303 ;
304 [label="entropy = 0.0\nsamples = 7\nvalue = [0, 7]"] ;
303 -> 304 ;
305 [label="x[4] <= 13.645\nentropy = 1.0\nsamples = 4\nvalue = [2, 2]"] ;
303 -> 305 ;
306 [label="entropy = 0.0\nsamples = 2\nvalue = [2, 0]"] ;
305 -> 306 ;
307 [label="entropy = 0.0\nsamples = 2\nvalue = [0, 2]"] ;
305 -> 307 ;
308 [label="entropy = 0.0\nsamples = 13\nvalue = [0, 13]"] ;
294 -> 308 ;
309 [label="x[0] <= 32.0\nentropy = 0.353\nsamples = 15\nvalue = [14, 1]"] ;
293 -> 309 ;
310 [label="entropy = 0.0\nsamples = 12\nvalue = [12, 0]"] ;
309 -> 310 ;
311 [label="x[4] <= 14.1\nentropy = 0.918\nsamples = 3\nvalue = [2, 1]"] ;
309 -> 311 ;
312 [label="entropy = 0.0\nsamples = 2\nvalue = [2, 0]"] ;
311 -> 312 ;
313 [label="entropy = 0.0\nsamples = 1\nvalue = [0, 1]"] ;
311 -> 313 ;
314 [label="x[16] <= 0.5\nentropy = 0.416\nsamples = 1526\nvalue = [1398, 128]"] ;
292 -> 314 ;
315 [label="x[5] <= 0.285\nentropy = 0.447\nsamples = 1288\nvalue = [1168, 120]"] ;
314 -> 315 ;
316 [label="x[1] <= 78250.0\nentropy = 0.416\nsamples = 1189\nvalue = [1089, 100]"] ;
315 -> 316 ;
317 [label="x[12] <= 0.5\nentropy = 0.541\nsamples = 709\nvalue = [621, 88]"] ;
316 -> 317 ;
318 [label="x[6] <= 14.5\nentropy = 0.587\nsamples = 518\nvalue = [445, 73]"] ;
317 -> 318 ;
319 [label="x[1] <= 44200.0\nentropy = 0.568\nsamples = 486\nvalue = [421, 65]"] ;
318 -> 319 ;
320 [label="entropy = 0.748\nsamples = 89\nvalue = [70, 19]"] ;
319 -> 320 ;
321 [label="entropy = 0.517\nsamples = 397\nvalue = [351, 46]"] ;
319 -> 321 ;
322 [label="x[2] <= 18.5\nentropy = 0.811\nsamples = 32\nvalue = [24, 8]"] ;
318 -> 322 ;
323 [label="entropy = 0.771\nsamples = 31\nvalue = [24, 7]"] ;
322 -> 323 ;
324 [label="entropy = 0.0\nsamples = 1\nvalue = [0, 1]"] ;
322 -> 324 ;
325 [label="x[1] <= 49070.0\nentropy = 0.397\nsamples = 191\nvalue = [176, 15]"] ;
317 -> 325 ;
326 [label="x[1] <= 46050.0\nentropy = 0.734\nsamples = 34\nvalue = [27, 7]"] ;
325 -> 326 ;
327 [label="entropy = 0.637\nsamples = 31\nvalue = [26, 5]"] ;
326 -> 327 ;
328 [label="entropy = 0.918\nsamples = 3\nvalue = [1, 2]"] ;
326 -> 328 ;
329 [label="x[1] <= 68502.0\nentropy = 0.29\nsamples = 157\nvalue = [149, 8]"] ;
325 -> 329 ;
330 [label="entropy = 0.134\nsamples = 107\nvalue = [105.0, 2.0]"] ;
329 -> 330 ;
331 [label="entropy = 0.529\nsamples = 50\nvalue = [44, 6]"] ;
329 -> 331 ;
332 [label="x[1] <= 117400.0\nentropy = 0.169\nsamples = 480\nvalue = [468, 12]"] ;
316 -> 332 ;
333 [label="x[5] <= 0.105\nentropy = 0.239\nsamples = 306\nvalue = [294, 12]"] ;
332 -> 333 ;
334 [label="entropy = 0.0\nsamples = 125\nvalue = [125, 0]"] ;
333 -> 334 ;
335 [label="x[2] <= 19.5\nentropy = 0.352\nsamples = 181\nvalue = [169, 12]"] ;
333 -> 335 ;
336 [label="entropy = 0.332\nsamples = 180\nvalue = [169, 11]"] ;
335 -> 336 ;
337 [label="entropy = 0.0\nsamples = 1\nvalue = [0, 1]"] ;
335 -> 337 ;
338 [label="entropy = 0.0\nsamples = 174\nvalue = [174, 0]"] ;
332 -> 338 ;
339 [label="x[1] <= 47790.0\nentropy = 0.726\nsamples = 99\nvalue = [79, 20]"] ;
315 -> 339 ;
340 [label="x[0] <= 37.5\nentropy = 0.879\nsamples = 47\nvalue = [33, 14]"] ;
339 -> 340 ;
341 [label="x[6] <= 2.5\nentropy = 0.837\nsamples = 45\nvalue = [33, 12]"] ;
340 -> 341 ;
342 [label="entropy = 0.0\nsamples = 7\nvalue = [7, 0]"] ;
341 -> 342 ;
343 [label="x[0] <= 21.5\nentropy = 0.9\nsamples = 38\nvalue = [26, 12]"] ;
341 -> 343 ;
344 [label="entropy = 0.0\nsamples = 2\nvalue = [2, 0]"] ;
343 -> 344 ;
345 [label="entropy = 0.918\nsamples = 36\nvalue = [24, 12]"] ;
343 -> 345 ;
346 [label="entropy = 0.0\nsamples = 2\nvalue = [0, 2]"] ;
340 -> 346 ;
347 [label="x[1] <= 70261.5\nentropy = 0.516\nsamples = 52\nvalue = [46, 6]"] ;
339 -> 347 ;
348 [label="x[2] <= 8.5\nentropy = 0.191\nsamples = 34\nvalue = [33, 1]"] ;
347 -> 348 ;
349 [label="entropy = 0.0\nsamples = 29\nvalue = [29, 0]"] ;
348 -> 349 ;
350 [label="x[4] <= 13.92\nentropy = 0.722\nsamples = 5\nvalue = [4, 1]"] ;
348 -> 350 ;
351 [label="entropy = 0.0\nsamples = 3\nvalue = [3, 0]"] ;
350 -> 351 ;
352 [label="entropy = 1.0\nsamples = 2\nvalue = [1, 1]"] ;
350 -> 352 ;
353 [label="x[1] <= 81250.0\nentropy = 0.852\nsamples = 18\nvalue = [13, 5]"] ;
347 -> 353 ;
354 [label="x[15] <= 0.5\nentropy = 0.918\nsamples = 6\nvalue = [2, 4]"] ;
353 -> 354 ;
355 [label="entropy = 0.0\nsamples = 3\nvalue = [0, 3]"] ;
354 -> 355 ;
356 [label="entropy = 0.918\nsamples = 3\nvalue = [2, 1]"] ;
354 -> 356 ;
357 [label="x[2] <= 8.5\nentropy = 0.414\nsamples = 12\nvalue = [11, 1]"] ;
353 -> 357 ;
358 [label="entropy = 0.0\nsamples = 8\nvalue = [8, 0]"] ;
357 -> 358 ;
359 [label="entropy = 0.811\nsamples = 4\nvalue = [3, 1]"] ;
357 -> 359 ;
360 [label="x[1] <= 83250.0\nentropy = 0.212\nsamples = 238\nvalue = [230, 8]"] ;
314 -> 360 ;
361 [label="x[3] <= 7100.0\nentropy = 0.311\nsamples = 143\nvalue = [135, 8]"] ;
360 -> 361 ;
362 [label="x[4] <= 14.08\nentropy = 0.474\nsamples = 59\nvalue = [53, 6]"] ;
361 -> 362 ;
363 [label="x[1] <= 69200.0\nentropy = 0.529\nsamples = 50\nvalue = [44, 6]"] ;
362 -> 363 ;
364 [label="x[4] <= 13.59\nentropy = 0.661\nsamples = 35\nvalue = [29.0, 6.0]"] ;
363 -> 364 ;
365 [label="entropy = 0.48\nsamples = 29\nvalue = [26, 3]"] ;
364 -> 365 ;
366 [label="entropy = 1.0\nsamples = 6\nvalue = [3, 3]"] ;
364 -> 366 ;
367 [label="entropy = 0.0\nsamples = 15\nvalue = [15, 0]"] ;
363 -> 367 ;
368 [label="entropy = 0.0\nsamples = 9\nvalue = [9, 0]"] ;
362 -> 368 ;
369 [label="x[6] <= 2.5\nentropy = 0.162\nsamples = 84\nvalue = [82, 2]"] ;
361 -> 369 ;
370 [label="x[2] <= 6.0\nentropy = 0.592\nsamples = 14\nvalue = [12, 2]"] ;
369 -> 370 ;
371 [label="entropy = 0.0\nsamples = 7\nvalue = [7, 0]"] ;
370 -> 371 ;
372 [label="x[1] <= 65500.0\nentropy = 0.863\nsamples = 7\nvalue = [5, 2]"] ;
370 -> 372 ;
373 [label="entropy = 0.0\nsamples = 5\nvalue = [5, 0]"] ;
372 -> 373 ;
374 [label="entropy = 0.0\nsamples = 2\nvalue = [0, 2]"] ;
372 -> 374 ;
375 [label="entropy = 0.0\nsamples = 70\nvalue = [70, 0]"] ;
369 -> 375 ;
376 [label="entropy = 0.0\nsamples = 95\nvalue = [95, 0]"] ;
360 -> 376 ;
377 [label="x[4] <= 11.13\nentropy = 0.178\nsamples = 21091\nvalue = [20528, 563]"] ;
291 -> 377 ;
378 [label="x[5] <= 0.255\nentropy = 0.116\nsamples = 16256\nvalue = [16002, 254]"] ;
377 -> 378 ;
379 [label="x[0] <= 22.5\nentropy = 0.097\nsamples = 15016\nvalue = [14827, 189]"] ;
378 -> 379 ;
380 [label="x[4] <= 7.095\nentropy = 0.068\nsamples = 1839\nvalue = [1824.0, 15.0]"] ;
379 -> 380 ;
381 [label="entropy = 0.0\nsamples = 534\nvalue = [534, 0]"] ;
380 -> 381 ;
382 [label="x[13] <= 0.5\nentropy = 0.091\nsamples = 1305\nvalue = [1290, 15]"] ;
380 -> 382 ;
383 [label="x[14] <= 0.5\nentropy = 0.086\nsamples = 1303\nvalue = [1289, 14]"] ;
382 -> 383 ;
384 [label="x[3] <= 2200.0\nentropy = 0.074\nsamples = 1107\nvalue = [1097, 10]"] ;
383 -> 384 ;
385 [label="entropy = 0.196\nsamples = 33\nvalue = [32, 1]"] ;
384 -> 385 ;
386 [label="entropy = 0.07\nsamples = 1074\nvalue = [1065, 9]"] ;
384 -> 386 ;
387 [label="x[0] <= 21.5\nentropy = 0.144\nsamples = 196\nvalue = [192.0, 4.0]"] ;
383 -> 387 ;
388 [label="entropy = 0.439\nsamples = 22\nvalue = [20, 2]"] ;
387 -> 388 ;
389 [label="entropy = 0.091\nsamples = 174\nvalue = [172, 2]"] ;
387 -> 389 ;
390 [label="x[4] <= 7.325\nentropy = 1.0\nsamples = 2\nvalue = [1, 1]"] ;
382 -> 390 ;
391 [label="entropy = 0.0\nsamples = 1\nvalue = [0, 1]"] ;
390 -> 391 ;
392 [label="entropy = 0.0\nsamples = 1\nvalue = [1, 0]"] ;
390 -> 392 ;
393 [label="x[16] <= 0.5\nentropy = 0.101\nsamples = 13177\nvalue = [13003, 174]"] ;
379 -> 393 ;
394 [label="x[4] <= 7.89\nentropy = 0.116\nsamples = 10874\nvalue = [10704.0, 170.0]"] ;
393 -> 394 ;
395 [label="x[2] <= 0.5\nentropy = 0.091\nsamples = 6439\nvalue = [6365, 74]"] ;
394 -> 395 ;
396 [label="x[4] <= 6.01\nentropy = 0.159\nsamples = 432\nvalue = [422, 10]"] ;
395 -> 396 ;
397 [label="entropy = 0.0\nsamples = 85\nvalue = [85, 0]"] ;
396 -> 397 ;
398 [label="entropy = 0.188\nsamples = 347\nvalue = [337, 10]"] ;
396 -> 398 ;
399 [label="x[5] <= 0.045\nentropy = 0.085\nsamples = 6007\nvalue = [5943, 64]"] ;
395 -> 399 ;
400 [label="entropy = 0.023\nsamples = 454\nvalue = [453, 1]"] ;
399 -> 400 ;
401 [label="entropy = 0.09\nsamples = 5553\nvalue = [5490, 63]"] ;
399 -> 401 ;
402 [label="x[12] <= 0.5\nentropy = 0.151\nsamples = 4435\nvalue = [4339, 96]"] ;
394 -> 402 ;
403 [label="x[3] <= 27187.5\nentropy = 0.163\nsamples = 3464\nvalue = [3381, 83]"] ;
402 -> 403 ;
404 [label="entropy = 0.159\nsamples = 3443\nvalue = [3363, 80]"] ;
403 -> 404 ;
405 [label="entropy = 0.592\nsamples = 21\nvalue = [18, 3]"] ;
403 -> 405 ;
406 [label="x[2] <= 9.5\nentropy = 0.102\nsamples = 971\nvalue = [958, 13]"] ;
402 -> 406 ;
407 [label="entropy = 0.116\nsamples = 831\nvalue = [818.0, 13.0]"] ;
406 -> 407 ;
408 [label="entropy = 0.0\nsamples = 140\nvalue = [140, 0]"] ;
406 -> 408 ;
409 [label="x[2] <= 20.5\nentropy = 0.018\nsamples = 2303\nvalue = [2299, 4]"] ;
393 -> 409 ;
410 [label="x[2] <= 8.5\nentropy = 0.01\nsamples = 2283\nvalue = [2281, 2]"] ;
409 -> 410 ;
411 [label="entropy = 0.0\nsamples = 1674\nvalue = [1674, 0]"] ;
410 -> 411 ;
412 [label="x[2] <= 11.5\nentropy = 0.032\nsamples = 609\nvalue = [607, 2]"] ;
410 -> 412 ;
413 [label="entropy = 0.057\nsamples = 306\nvalue = [304, 2]"] ;
412 -> 413 ;
414 [label="entropy = 0.0\nsamples = 303\nvalue = [303, 0]"] ;
412 -> 414 ;
415 [label="x[17] <= 0.5\nentropy = 0.469\nsamples = 20\nvalue = [18, 2]"] ;
409 -> 415 ;
416 [label="x[3] <= 26500.0\nentropy = 0.764\nsamples = 9\nvalue = [7, 2]"] ;
415 -> 416 ;
417 [label="entropy = 0.544\nsamples = 8\nvalue = [7, 1]"] ;
416 -> 417 ;
418 [label="entropy = 0.0\nsamples = 1\nvalue = [0, 1]"] ;
416 -> 418 ;
419 [label="entropy = 0.0\nsamples = 11\nvalue = [11, 0]"] ;
415 -> 419 ;
420 [label="x[16] <= 0.5\nentropy = 0.297\nsamples = 1240\nvalue = [1175, 65]"] ;
378 -> 420 ;
421 [label="x[1] <= 34087.0\nentropy = 0.34\nsamples = 1011\nvalue = [947, 64]"] ;
420 -> 421 ;
422 [label="x[6] <= 8.5\nentropy = 0.531\nsamples = 116\nvalue = [102, 14]"] ;
421 -> 422 ;
423 [label="x[1] <= 28900.0\nentropy = 0.382\nsamples = 94\nvalue = [87, 7]"] ;
422 -> 423 ;
424 [label="entropy = 0.0\nsamples = 38\nvalue = [38, 0]"] ;
423 -> 424 ;
425 [label="x[2] <= 6.5\nentropy = 0.544\nsamples = 56\nvalue = [49, 7]"] ;
423 -> 425 ;
426 [label="entropy = 0.679\nsamples = 39\nvalue = [32, 7]"] ;
425 -> 426 ;
427 [label="entropy = 0.0\nsamples = 17\nvalue = [17, 0]"] ;
425 -> 427 ;
428 [label="x[4] <= 6.955\nentropy = 0.902\nsamples = 22\nvalue = [15.0, 7.0]"] ;
422 -> 428 ;
429 [label="entropy = 0.0\nsamples = 4\nvalue = [4, 0]"] ;
428 -> 429 ;
430 [label="x[0] <= 34.0\nentropy = 0.964\nsamples = 18\nvalue = [11, 7]"] ;
428 -> 430 ;
431 [label="entropy = 0.684\nsamples = 11\nvalue = [9, 2]"] ;
430 -> 431 ;
432 [label="entropy = 0.863\nsamples = 7\nvalue = [2, 5]"] ;
430 -> 432 ;
433 [label="x[4] <= 10.375\nentropy = 0.311\nsamples = 895\nvalue = [845, 50]"] ;
421 -> 433 ;
434 [label="x[14] <= 0.5\nentropy = 0.226\nsamples = 657\nvalue = [633, 24]"] ;
433 -> 434 ;
435 [label="x[6] <= 9.5\nentropy = 0.191\nsamples = 546\nvalue = [530, 16]"] ;
434 -> 435 ;
436 [label="entropy = 0.14\nsamples = 454\nvalue = [445, 9]"] ;
435 -> 436 ;
437 [label="entropy = 0.388\nsamples = 92\nvalue = [85, 7]"] ;
435 -> 437 ;
438 [label="x[0] <= 22.5\nentropy = 0.374\nsamples = 111\nvalue = [103, 8]"] ;
434 -> 438 ;
439 [label="entropy = 0.0\nsamples = 23\nvalue = [23, 0]"] ;
438 -> 439 ;
440 [label="entropy = 0.439\nsamples = 88\nvalue = [80, 8]"] ;
438 -> 440 ;
441 [label="x[1] <= 64350.0\nentropy = 0.498\nsamples = 238\nvalue = [212, 26]"] ;
433 -> 441 ;
442 [label="x[3] <= 18612.5\nentropy = 0.589\nsamples = 141\nvalue = [121, 20]"] ;
441 -> 442 ;
443 [label="entropy = 0.448\nsamples = 107\nvalue = [97, 10]"] ;
442 -> 443 ;
444 [label="entropy = 0.874\nsamples = 34\nvalue = [24, 10]"] ;
442 -> 444 ;
445 [label="x[3] <= 23875.0\nentropy = 0.335\nsamples = 97\nvalue = [91, 6]"] ;
441 -> 445 ;
446 [label="entropy = 0.0\nsamples = 29\nvalue = [29, 0]"] ;
445 -> 446 ;
447 [label="entropy = 0.431\nsamples = 68\nvalue = [62, 6]"] ;
445 -> 447 ;
448 [label="x[3] <= 10250.0\nentropy = 0.041\nsamples = 229\nvalue = [228, 1]"] ;
420 -> 448 ;
449 [label="x[4] <= 6.58\nentropy = 0.201\nsamples = 32\nvalue = [31, 1]"] ;
448 -> 449 ;
450 [label="x[4] <= 6.165\nentropy = 0.918\nsamples = 3\nvalue = [2, 1]"] ;
449 -> 450 ;
451 [label="entropy = 0.0\nsamples = 2\nvalue = [2, 0]"] ;
450 -> 451 ;
452 [label="entropy = 0.0\nsamples = 1\nvalue = [0, 1]"] ;
450 -> 452 ;
453 [label="entropy = 0.0\nsamples = 29\nvalue = [29, 0]"] ;
449 -> 453 ;
454 [label="entropy = 0.0\nsamples = 197\nvalue = [197, 0]"] ;
448 -> 454 ;
455 [label="x[4] <= 14.04\nentropy = 0.343\nsamples = 4835\nvalue = [4526, 309]"] ;
377 -> 455 ;
456 [label="x[5] <= 0.225\nentropy = 0.319\nsamples = 4651\nvalue = [4382, 269]"] ;
455 -> 456 ;
457 [label="x[16] <= 0.5\nentropy = 0.276\nsamples = 3828\nvalue = [3646, 182]"] ;
456 -> 457 ;
458 [label="x[5] <= 0.035\nentropy = 0.308\nsamples = 3177\nvalue = [3002, 175]"] ;
457 -> 458 ;
459 [label="x[14] <= 0.5\nentropy = 0.115\nsamples = 130\nvalue = [128, 2]"] ;
458 -> 459 ;
460 [label="entropy = 0.0\nsamples = 105\nvalue = [105, 0]"] ;
459 -> 460 ;
461 [label="x[0] <= 22.5\nentropy = 0.402\nsamples = 25\nvalue = [23, 2]"] ;
459 -> 461 ;
462 [label="entropy = 1.0\nsamples = 2\nvalue = [1, 1]"] ;
461 -> 462 ;
463 [label="entropy = 0.258\nsamples = 23\nvalue = [22, 1]"] ;
461 -> 463 ;
464 [label="x[20] <= 0.5\nentropy = 0.315\nsamples = 3047\nvalue = [2874, 173]"] ;
458 -> 464 ;
465 [label="x[18] <= 0.5\nentropy = 0.306\nsamples = 3031\nvalue = [2865, 166]"] ;
464 -> 465 ;
466 [label="entropy = 0.383\nsamples = 912\nvalue = [844, 68]"] ;
465 -> 466 ;
467 [label="entropy = 0.27\nsamples = 2119\nvalue = [2021, 98]"] ;
465 -> 467 ;
468 [label="x[6] <= 9.5\nentropy = 0.989\nsamples = 16\nvalue = [9, 7]"] ;
464 -> 468 ;
469 [label="entropy = 0.845\nsamples = 11\nvalue = [8, 3]"] ;
468 -> 469 ;
470 [label="entropy = 0.722\nsamples = 5\nvalue = [1, 4]"] ;
468 -> 470 ;
471 [label="x[4] <= 13.165\nentropy = 0.086\nsamples = 651\nvalue = [644.0, 7.0]"] ;
457 -> 471 ;
472 [label="x[1] <= 29200.0\nentropy = 0.037\nsamples = 517\nvalue = [515, 2]"] ;
471 -> 472 ;
473 [label="x[1] <= 28900.0\nentropy = 0.439\nsamples = 11\nvalue = [10, 1]"] ;
472 -> 473 ;
474 [label="entropy = 0.0\nsamples = 10\nvalue = [10, 0]"] ;
473 -> 474 ;
475 [label="entropy = 0.0\nsamples = 1\nvalue = [0, 1]"] ;
473 -> 475 ;
476 [label="x[2] <= 24.5\nentropy = 0.021\nsamples = 506\nvalue = [505.0, 1.0]"] ;
472 -> 476 ;
477 [label="entropy = 0.0\nsamples = 504\nvalue = [504, 0]"] ;
476 -> 477 ;
478 [label="entropy = 1.0\nsamples = 2\nvalue = [1, 1]"] ;
476 -> 478 ;
479 [label="x[6] <= 7.5\nentropy = 0.23\nsamples = 134\nvalue = [129, 5]"] ;
471 -> 479 ;
480 [label="x[19] <= 0.5\nentropy = 0.34\nsamples = 79\nvalue = [74, 5]"] ;
479 -> 480 ;
481 [label="entropy = 0.0\nsamples = 1\nvalue = [0, 1]"] ;
480 -> 481 ;
482 [label="entropy = 0.292\nsamples = 78\nvalue = [74, 4]"] ;
480 -> 482 ;
483 [label="entropy = 0.0\nsamples = 55\nvalue = [55, 0]"] ;
479 -> 483 ;
484 [label="x[1] <= 59350.0\nentropy = 0.487\nsamples = 823\nvalue = [736, 87]"] ;
456 -> 484 ;
485 [label="x[1] <= 58900.0\nentropy = 0.592\nsamples = 399\nvalue = [342, 57]"] ;
484 -> 485 ;
486 [label="x[2] <= 1.5\nentropy = 0.571\nsamples = 393\nvalue = [340.0, 53.0]"] ;
485 -> 486 ;
487 [label="x[0] <= 39.5\nentropy = 0.793\nsamples = 67\nvalue = [51, 16]"] ;
486 -> 487 ;
488 [label="entropy = 0.734\nsamples = 63\nvalue = [50, 13]"] ;
487 -> 488 ;
489 [label="entropy = 0.811\nsamples = 4\nvalue = [1, 3]"] ;
487 -> 489 ;
490 [label="x[6] <= 12.5\nentropy = 0.51\nsamples = 326\nvalue = [289, 37]"] ;
486 -> 490 ;
491 [label="entropy = 0.537\nsamples = 302\nvalue = [265, 37]"] ;
490 -> 491 ;
492 [label="entropy = 0.0\nsamples = 24\nvalue = [24, 0]"] ;
490 -> 492 ;
493 [label="x[2] <= 5.5\nentropy = 0.918\nsamples = 6\nvalue = [2, 4]"] ;
485 -> 493 ;
494 [label="x[15] <= 0.5\nentropy = 0.918\nsamples = 3\nvalue = [2, 1]"] ;
493 -> 494 ;
495 [label="entropy = 1.0\nsamples = 2\nvalue = [1, 1]"] ;
494 -> 495 ;
496 [label="entropy = 0.0\nsamples = 1\nvalue = [1, 0]"] ;
494 -> 496 ;
497 [label="entropy = 0.0\nsamples = 3\nvalue = [0, 3]"] ;
493 -> 497 ;
498 [label="x[1] <= 60500.0\nentropy = 0.369\nsamples = 424\nvalue = [394, 30]"] ;
484 -> 498 ;
499 [label="entropy = 0.0\nsamples = 76\nvalue = [76, 0]"] ;
498 -> 499 ;
500 [label="x[6] <= 15.5\nentropy = 0.424\nsamples = 348\nvalue = [318.0, 30.0]"] ;
498 -> 500 ;
501 [label="x[5] <= 0.335\nentropy = 0.4\nsamples = 340\nvalue = [313, 27]"] ;
500 -> 501 ;
502 [label="entropy = 0.307\nsamples = 291\nvalue = [275, 16]"] ;
501 -> 502 ;
503 [label="entropy = 0.768\nsamples = 49\nvalue = [38, 11]"] ;
501 -> 503 ;
504 [label="x[4] <= 11.705\nentropy = 0.954\nsamples = 8\nvalue = [5, 3]"] ;
500 -> 504 ;
505 [label="entropy = 0.0\nsamples = 2\nvalue = [2, 0]"] ;
504 -> 505 ;
506 [label="entropy = 1.0\nsamples = 6\nvalue = [3, 3]"] ;
504 -> 506 ;
507 [label="x[1] <= 104000.0\nentropy = 0.755\nsamples = 184\nvalue = [144, 40]"] ;
455 -> 507 ;
508 [label="x[4] <= 14.115\nentropy = 0.826\nsamples = 154\nvalue = [114.0, 40.0]"] ;
507 -> 508 ;
509 [label="x[11] <= 0.5\nentropy = 0.996\nsamples = 28\nvalue = [13, 15]"] ;
508 -> 509 ;
510 [label="x[0] <= 25.5\nentropy = 0.976\nsamples = 22\nvalue = [13, 9]"] ;
509 -> 510 ;
511 [label="x[6] <= 3.5\nentropy = 0.811\nsamples = 8\nvalue = [6, 2]"] ;
510 -> 511 ;
512 [label="entropy = 0.0\nsamples = 5\nvalue = [5, 0]"] ;
511 -> 512 ;
513 [label="entropy = 0.918\nsamples = 3\nvalue = [1, 2]"] ;
511 -> 513 ;
514 [label="x[6] <= 7.5\nentropy = 1.0\nsamples = 14\nvalue = [7, 7]"] ;
510 -> 514 ;
515 [label="entropy = 0.544\nsamples = 8\nvalue = [1, 7]"] ;
514 -> 515 ;
516 [label="entropy = 0.0\nsamples = 6\nvalue = [6, 0]"] ;
514 -> 516 ;
517 [label="entropy = 0.0\nsamples = 6\nvalue = [0, 6]"] ;
509 -> 517 ;
518 [label="x[1] <= 98301.5\nentropy = 0.719\nsamples = 126\nvalue = [101, 25]"] ;
508 -> 518 ;
519 [label="x[11] <= 0.5\nentropy = 0.692\nsamples = 124\nvalue = [101, 23]"] ;
518 -> 519 ;
520 [label="x[1] <= 74954.5\nentropy = 0.646\nsamples = 109\nvalue = [91, 18]"] ;
519 -> 520 ;
521 [label="entropy = 0.727\nsamples = 84\nvalue = [67, 17]"] ;
520 -> 521 ;
522 [label="entropy = 0.242\nsamples = 25\nvalue = [24, 1]"] ;
520 -> 522 ;
523 [label="x[0] <= 40.5\nentropy = 0.918\nsamples = 15\nvalue = [10, 5]"] ;
519 -> 523 ;
524 [label="entropy = 0.863\nsamples = 14\nvalue = [10, 4]"] ;
523 -> 524 ;
525 [label="entropy = 0.0\nsamples = 1\nvalue = [0, 1]"] ;
523 -> 525 ;
526 [label="entropy = 0.0\nsamples = 2\nvalue = [0, 2]"] ;
518 -> 526 ;
527 [label="entropy = 0.0\nsamples = 30\nvalue = [30, 0]"] ;
507 -> 527 ;
528 [label="x[19] <= 0.5\nentropy = 0.998\nsamples = 6789\nvalue = [3219.0, 3570.0]"] ;
0 -> 528 [labeldistance=2.5, labelangle=-45, headlabel="False"] ;
529 [label="x[10] <= 0.5\nentropy = 0.973\nsamples = 5716\nvalue = [2304.0, 3412.0]"] ;
528 -> 529 ;
530 [label="x[11] <= 0.5\nentropy = 0.937\nsamples = 2093\nvalue = [1353, 740]"] ;
529 -> 530 ;
531 [label="x[7] <= 0.5\nentropy = 0.831\nsamples = 1783\nvalue = [1314.0, 469.0]"] ;
530 -> 531 ;
532 [label="x[20] <= 0.5\nentropy = 0.409\nsamples = 305\nvalue = [280.0, 25.0]"] ;
531 -> 532 ;
533 [label="x[1] <= 33502.0\nentropy = 0.837\nsamples = 45\nvalue = [33, 12]"] ;
532 -> 533 ;
534 [label="x[24] <= 0.5\nentropy = 0.881\nsamples = 10\nvalue = [3, 7]"] ;
533 -> 534 ;
535 [label="entropy = 0.0\nsamples = 3\nvalue = [0, 3]"] ;
534 -> 535 ;
536 [label="x[1] <= 24996.0\nentropy = 0.985\nsamples = 7\nvalue = [3, 4]"] ;
534 -> 536 ;
537 [label="entropy = 0.0\nsamples = 3\nvalue = [3, 0]"] ;
536 -> 537 ;
538 [label="entropy = 0.0\nsamples = 4\nvalue = [0, 4]"] ;
536 -> 538 ;
539 [label="x[14] <= 0.5\nentropy = 0.592\nsamples = 35\nvalue = [30, 5]"] ;
533 -> 539 ;
540 [label="x[24] <= 0.5\nentropy = 0.353\nsamples = 30\nvalue = [28, 2]"] ;
539 -> 540 ;
541 [label="x[1] <= 64500.0\nentropy = 0.544\nsamples = 16\nvalue = [14, 2]"] ;
540 -> 541 ;
542 [label="entropy = 0.764\nsamples = 9\nvalue = [7, 2]"] ;
541 -> 542 ;
543 [label="entropy = 0.0\nsamples = 7\nvalue = [7, 0]"] ;
541 -> 543 ;
544 [label="entropy = 0.0\nsamples = 14\nvalue = [14, 0]"] ;
540 -> 544 ;
545 [label="x[4] <= 17.425\nentropy = 0.971\nsamples = 5\nvalue = [2, 3]"] ;
539 -> 545 ;
546 [label="entropy = 0.0\nsamples = 2\nvalue = [0, 2]"] ;
545 -> 546 ;
547 [label="x[25] <= 0.5\nentropy = 0.918\nsamples = 3\nvalue = [2, 1]"] ;
545 -> 547 ;
548 [label="entropy = 0.0\nsamples = 1\nvalue = [1, 0]"] ;
547 -> 548 ;
549 [label="entropy = 1.0\nsamples = 2\nvalue = [1, 1]"] ;
547 -> 549 ;
550 [label="x[14] <= 0.5\nentropy = 0.286\nsamples = 260\nvalue = [247, 13]"] ;
532 -> 550 ;
551 [label="x[8] <= 0.5\nentropy = 0.129\nsamples = 224\nvalue = [220, 4]"] ;
550 -> 551 ;
552 [label="x[3] <= 2650.0\nentropy = 0.043\nsamples = 215\nvalue = [214, 1]"] ;
551 -> 552 ;
553 [label="x[0] <= 32.5\nentropy = 0.544\nsamples = 8\nvalue = [7, 1]"] ;
552 -> 553 ;
554 [label="entropy = 0.0\nsamples = 7\nvalue = [7, 0]"] ;
553 -> 554 ;
555 [label="entropy = 0.0\nsamples = 1\nvalue = [0, 1]"] ;
553 -> 555 ;
556 [label="entropy = 0.0\nsamples = 207\nvalue = [207, 0]"] ;
552 -> 556 ;
557 [label="x[0] <= 23.0\nentropy = 0.918\nsamples = 9\nvalue = [6, 3]"] ;
551 -> 557 ;
558 [label="entropy = 0.0\nsamples = 2\nvalue = [0, 2]"] ;
557 -> 558 ;
559 [label="x[1] <= 56000.0\nentropy = 0.592\nsamples = 7\nvalue = [6, 1]"] ;
557 -> 559 ;
560 [label="entropy = 0.0\nsamples = 1\nvalue = [0, 1]"] ;
559 -> 560 ;
561 [label="entropy = 0.0\nsamples = 6\nvalue = [6, 0]"] ;
559 -> 561 ;
562 [label="x[3] <= 4400.0\nentropy = 0.811\nsamples = 36\nvalue = [27, 9]"] ;
550 -> 562 ;
563 [label="entropy = 0.0\nsamples = 9\nvalue = [9, 0]"] ;
562 -> 563 ;
564 [label="x[5] <= 0.12\nentropy = 0.918\nsamples = 27\nvalue = [18, 9]"] ;
562 -> 564 ;
565 [label="x[5] <= 0.075\nentropy = 0.954\nsamples = 8\nvalue = [3, 5]"] ;
564 -> 565 ;
566 [label="entropy = 0.0\nsamples = 3\nvalue = [3, 0]"] ;
565 -> 566 ;
567 [label="entropy = 0.0\nsamples = 5\nvalue = [0, 5]"] ;
565 -> 567 ;
568 [label="x[0] <= 43.5\nentropy = 0.742\nsamples = 19\nvalue = [15, 4]"] ;
564 -> 568 ;
569 [label="entropy = 0.65\nsamples = 18\nvalue = [15, 3]"] ;
568 -> 569 ;
570 [label="entropy = 0.0\nsamples = 1\nvalue = [0, 1]"] ;
568 -> 570 ;
571 [label="x[1] <= 64732.0\nentropy = 0.882\nsamples = 1478\nvalue = [1034, 444]"] ;
531 -> 571 ;
572 [label="x[14] <= 0.5\nentropy = 0.988\nsamples = 685\nvalue = [387.0, 298.0]"] ;
571 -> 572 ;
573 [label="x[1] <= 59709.5\nentropy = 0.768\nsamples = 490\nvalue = [380, 110]"] ;
572 -> 573 ;
574 [label="x[16] <= 0.5\nentropy = 0.845\nsamples = 378\nvalue = [275, 103]"] ;
573 -> 574 ;
575 [label="x[15] <= 0.5\nentropy = 0.879\nsamples = 292\nvalue = [205.0, 87.0]"] ;
574 -> 575 ;
576 [label="entropy = 0.823\nsamples = 198\nvalue = [147, 51]"] ;
575 -> 576 ;
577 [label="entropy = 0.96\nsamples = 94\nvalue = [58, 36]"] ;
575 -> 577 ;
578 [label="x[3] <= 4900.0\nentropy = 0.693\nsamples = 86\nvalue = [70, 16]"] ;
574 -> 578 ;
579 [label="entropy = 0.0\nsamples = 13\nvalue = [13, 0]"] ;
578 -> 579 ;
580 [label="entropy = 0.759\nsamples = 73\nvalue = [57, 16]"] ;
578 -> 580 ;
581 [label="x[24] <= 0.5\nentropy = 0.337\nsamples = 112\nvalue = [105, 7]"] ;
573 -> 581 ;
582 [label="x[1] <= 62100.0\nentropy = 0.531\nsamples = 58\nvalue = [51, 7]"] ;
581 -> 582 ;
583 [label="entropy = 0.262\nsamples = 45\nvalue = [43, 2]"] ;
582 -> 583 ;
584 [label="entropy = 0.961\nsamples = 13\nvalue = [8, 5]"] ;
582 -> 584 ;
585 [label="entropy = 0.0\nsamples = 54\nvalue = [54, 0]"] ;
581 -> 585 ;
586 [label="x[4] <= 15.245\nentropy = 0.223\nsamples = 195\nvalue = [7.0, 188.0]"] ;
572 -> 586 ;
587 [label="entropy = 0.0\nsamples = 51\nvalue = [0, 51]"] ;
586 -> 587 ;
588 [label="x[4] <= 15.295\nentropy = 0.28\nsamples = 144\nvalue = [7, 137]"] ;
586 -> 588 ;
589 [label="x[24] <= 0.5\nentropy = 1.0\nsamples = 2\nvalue = [1, 1]"] ;
588 -> 589 ;
590 [label="entropy = 0.0\nsamples = 1\nvalue = [1, 0]"] ;
589 -> 590 ;
591 [label="entropy = 0.0\nsamples = 1\nvalue = [0, 1]"] ;
589 -> 591 ;
592 [label="x[6] <= 9.5\nentropy = 0.253\nsamples = 142\nvalue = [6, 136]"] ;
588 -> 592 ;
593 [label="entropy = 0.294\nsamples = 116\nvalue = [6, 110]"] ;
592 -> 593 ;
594 [label="entropy = 0.0\nsamples = 26\nvalue = [0, 26]"] ;
592 -> 594 ;
595 [label="x[14] <= 0.5\nentropy = 0.689\nsamples = 793\nvalue = [647, 146]"] ;
571 -> 595 ;
596 [label="x[20] <= 0.5\nentropy = 0.454\nsamples = 702\nvalue = [635, 67]"] ;
595 -> 596 ;
597 [label="x[6] <= 23.0\nentropy = 0.221\nsamples = 169\nvalue = [163, 6]"] ;
596 -> 597 ;
598 [label="x[0] <= 47.5\nentropy = 0.163\nsamples = 167\nvalue = [163, 4]"] ;
597 -> 598 ;
599 [label="entropy = 0.132\nsamples = 164\nvalue = [161, 3]"] ;
598 -> 599 ;
600 [label="entropy = 0.918\nsamples = 3\nvalue = [2, 1]"] ;
598 -> 600 ;
601 [label="entropy = 0.0\nsamples = 2\nvalue = [0, 2]"] ;
597 -> 601 ;
602 [label="x[1] <= 65609.5\nentropy = 0.513\nsamples = 533\nvalue = [472, 61]"] ;
596 -> 602 ;
603 [label="entropy = 0.0\nsamples = 38\nvalue = [38, 0]"] ;
602 -> 603 ;
604 [label="x[5] <= 0.335\nentropy = 0.539\nsamples = 495\nvalue = [434, 61]"] ;
602 -> 604 ;
605 [label="entropy = 0.509\nsamples = 478\nvalue = [424, 54]"] ;
604 -> 605 ;
606 [label="entropy = 0.977\nsamples = 17\nvalue = [10, 7]"] ;
604 -> 606 ;
607 [label="x[1] <= 109400.0\nentropy = 0.563\nsamples = 91\nvalue = [12, 79]"] ;
595 -> 607 ;
608 [label="x[6] <= 3.5\nentropy = 0.417\nsamples = 83\nvalue = [7.0, 76.0]"] ;
607 -> 608 ;
609 [label="entropy = 0.0\nsamples = 27\nvalue = [0, 27]"] ;
608 -> 609 ;
610 [label="x[5] <= 0.205\nentropy = 0.544\nsamples = 56\nvalue = [7, 49]"] ;
608 -> 610 ;
611 [label="entropy = 0.734\nsamples = 34\nvalue = [7, 27]"] ;
610 -> 611 ;
612 [label="entropy = 0.0\nsamples = 22\nvalue = [0, 22]"] ;
610 -> 612 ;
613 [label="x[6] <= 2.5\nentropy = 0.954\nsamples = 8\nvalue = [5, 3]"] ;
607 -> 613 ;
614 [label="entropy = 0.0\nsamples = 2\nvalue = [0, 2]"] ;
613 -> 614 ;
615 [label="x[4] <= 15.66\nentropy = 0.65\nsamples = 6\nvalue = [5, 1]"] ;
613 -> 615 ;
616 [label="entropy = 0.0\nsamples = 5\nvalue = [5, 0]"] ;
615 -> 616 ;
617 [label="entropy = 0.0\nsamples = 1\nvalue = [0, 1]"] ;
615 -> 617 ;
618 [label="x[7] <= 0.5\nentropy = 0.546\nsamples = 310\nvalue = [39.0, 271.0]"] ;
530 -> 618 ;
619 [label="x[20] <= 0.5\nentropy = 0.544\nsamples = 32\nvalue = [28, 4]"] ;
618 -> 619 ;
620 [label="entropy = 0.0\nsamples = 3\nvalue = [0, 3]"] ;
619 -> 620 ;
621 [label="x[5] <= 0.085\nentropy = 0.216\nsamples = 29\nvalue = [28, 1]"] ;
619 -> 621 ;
622 [label="x[5] <= 0.075\nentropy = 0.65\nsamples = 6\nvalue = [5, 1]"] ;
621 -> 622 ;
623 [label="entropy = 0.0\nsamples = 4\nvalue = [4, 0]"] ;
622 -> 623 ;
624 [label="x[2] <= 3.5\nentropy = 1.0\nsamples = 2\nvalue = [1, 1]"] ;
622 -> 624 ;
625 [label="entropy = 0.0\nsamples = 1\nvalue = [0, 1]"] ;
624 -> 625 ;
626 [label="entropy = 0.0\nsamples = 1\nvalue = [1, 0]"] ;
624 -> 626 ;
627 [label="entropy = 0.0\nsamples = 23\nvalue = [23, 0]"] ;
621 -> 627 ;
628 [label="x[1] <= 55000.0\nentropy = 0.24\nsamples = 278\nvalue = [11, 267]"] ;
618 -> 628 ;
629 [label="x[5] <= 0.365\nentropy = 0.079\nsamples = 103\nvalue = [1.0, 102.0]"] ;
628 -> 629 ;
630 [label="entropy = 0.0\nsamples = 94\nvalue = [0, 94]"] ;
629 -> 630 ;
631 [label="x[2] <= 9.5\nentropy = 0.503\nsamples = 9\nvalue = [1, 8]"] ;
629 -> 631 ;
632 [label="entropy = 0.0\nsamples = 7\nvalue = [0, 7]"] ;
631 -> 632 ;
633 [label="x[6] <= 4.0\nentropy = 1.0\nsamples = 2\nvalue = [1, 1]"] ;
631 -> 633 ;
634 [label="entropy = 0.0\nsamples = 1\nvalue = [1, 0]"] ;
633 -> 634 ;
635 [label="entropy = 0.0\nsamples = 1\nvalue = [0, 1]"] ;
633 -> 635 ;
636 [label="x[0] <= 23.5\nentropy = 0.316\nsamples = 175\nvalue = [10, 165]"] ;
628 -> 636 ;
637 [label="entropy = 0.0\nsamples = 28\nvalue = [0, 28]"] ;
636 -> 637 ;
638 [label="x[5] <= 0.035\nentropy = 0.359\nsamples = 147\nvalue = [10.0, 137.0]"] ;
636 -> 638 ;
639 [label="x[2] <= 5.5\nentropy = 1.0\nsamples = 4\nvalue = [2, 2]"] ;
638 -> 639 ;
640 [label="entropy = 0.0\nsamples = 2\nvalue = [0, 2]"] ;
639 -> 640 ;
641 [label="entropy = 0.0\nsamples = 2\nvalue = [2, 0]"] ;
639 -> 641 ;
642 [label="x[22] <= 0.5\nentropy = 0.311\nsamples = 143\nvalue = [8, 135]"] ;
638 -> 642 ;
643 [label="x[3] <= 18125.0\nentropy = 0.285\nsamples = 141\nvalue = [7, 134]"] ;
642 -> 643 ;
644 [label="entropy = 0.356\nsamples = 104\nvalue = [7, 97]"] ;
643 -> 644 ;
645 [label="entropy = 0.0\nsamples = 37\nvalue = [0, 37]"] ;
643 -> 645 ;
646 [label="x[0] <= 31.0\nentropy = 1.0\nsamples = 2\nvalue = [1, 1]"] ;
642 -> 646 ;
647 [label="entropy = 0.0\nsamples = 1\nvalue = [1, 0]"] ;
646 -> 647 ;
648 [label="entropy = 0.0\nsamples = 1\nvalue = [0, 1]"] ;
646 -> 648 ;
649 [label="x[5] <= 0.305\nentropy = 0.83\nsamples = 3623\nvalue = [951, 2672]"] ;
529 -> 649 ;
650 [label="x[2] <= 2.5\nentropy = 0.9\nsamples = 2983\nvalue = [942, 2041]"] ;
649 -> 650 ;
651 [label="x[1] <= 109000.0\nentropy = 0.242\nsamples = 1349\nvalue = [54.0, 1295.0]"] ;
650 -> 651 ;
652 [label="x[3] <= 9900.0\nentropy = 0.204\nsamples = 1315\nvalue = [42, 1273]"] ;
651 -> 652 ;
653 [label="x[0] <= 56.0\nentropy = 0.151\nsamples = 924\nvalue = [20, 904]"] ;
652 -> 653 ;
654 [label="x[1] <= 39998.0\nentropy = 0.14\nsamples = 914\nvalue = [18, 896]"] ;
653 -> 654 ;
655 [label="x[4] <= 15.005\nentropy = 0.063\nsamples = 541\nvalue = [4, 537]"] ;
654 -> 655 ;
656 [label="entropy = 0.154\nsamples = 180\nvalue = [4, 176]"] ;
655 -> 656 ;
657 [label="entropy = 0.0\nsamples = 361\nvalue = [0, 361]"] ;
655 -> 657 ;
658 [label="x[4] <= 21.71\nentropy = 0.231\nsamples = 373\nvalue = [14.0, 359.0]"] ;
654 -> 658 ;
659 [label="entropy = 0.219\nsamples = 372\nvalue = [13.0, 359.0]"] ;
658 -> 659 ;
660 [label="entropy = 0.0\nsamples = 1\nvalue = [1, 0]"] ;
658 -> 660 ;
661 [label="x[20] <= 0.5\nentropy = 0.722\nsamples = 10\nvalue = [2, 8]"] ;
653 -> 661 ;
662 [label="entropy = 0.0\nsamples = 1\nvalue = [1, 0]"] ;
661 -> 662 ;
663 [label="x[4] <= 14.9\nentropy = 0.503\nsamples = 9\nvalue = [1, 8]"] ;
661 -> 663 ;
664 [label="entropy = 0.0\nsamples = 1\nvalue = [1, 0]"] ;
663 -> 664 ;
665 [label="entropy = 0.0\nsamples = 8\nvalue = [0, 8]"] ;
663 -> 665 ;
666 [label="x[6] <= 8.5\nentropy = 0.312\nsamples = 391\nvalue = [22, 369]"] ;
652 -> 666 ;
667 [label="x[4] <= 18.12\nentropy = 0.37\nsamples = 295\nvalue = [21, 274]"] ;
666 -> 667 ;
668 [label="x[4] <= 15.97\nentropy = 0.325\nsamples = 286\nvalue = [17, 269]"] ;
667 -> 668 ;
669 [label="entropy = 0.221\nsamples = 169\nvalue = [6, 163]"] ;
668 -> 669 ;
670 [label="entropy = 0.45\nsamples = 117\nvalue = [11, 106]"] ;
668 -> 670 ;
671 [label="x[12] <= 0.5\nentropy = 0.991\nsamples = 9\nvalue = [4, 5]"] ;
667 -> 671 ;
672 [label="entropy = 0.863\nsamples = 7\nvalue = [2, 5]"] ;
671 -> 672 ;
673 [label="entropy = 0.0\nsamples = 2\nvalue = [2, 0]"] ;
671 -> 673 ;
674 [label="x[15] <= 0.5\nentropy = 0.084\nsamples = 96\nvalue = [1, 95]"] ;
666 -> 674 ;
675 [label="entropy = 0.0\nsamples = 76\nvalue = [0, 76]"] ;
674 -> 675 ;
676 [label="x[6] <= 14.0\nentropy = 0.286\nsamples = 20\nvalue = [1, 19]"] ;
674 -> 676 ;
677 [label="entropy = 0.0\nsamples = 14\nvalue = [0, 14]"] ;
676 -> 677 ;
678 [label="entropy = 0.65\nsamples = 6\nvalue = [1, 5]"] ;
676 -> 678 ;
679 [label="x[3] <= 13900.0\nentropy = 0.937\nsamples = 34\nvalue = [12, 22]"] ;
651 -> 679 ;
680 [label="x[11] <= 0.5\nentropy = 0.989\nsamples = 16\nvalue = [9, 7]"] ;
679 -> 680 ;
681 [label="x[0] <= 40.0\nentropy = 0.94\nsamples = 14\nvalue = [9, 5]"] ;
680 -> 681 ;
682 [label="x[3] <= 3500.0\nentropy = 0.811\nsamples = 12\nvalue = [9, 3]"] ;
681 -> 682 ;
683 [label="entropy = 0.0\nsamples = 1\nvalue = [0, 1]"] ;
682 -> 683 ;
684 [label="entropy = 0.684\nsamples = 11\nvalue = [9, 2]"] ;
682 -> 684 ;
685 [label="entropy = 0.0\nsamples = 2\nvalue = [0, 2]"] ;
681 -> 685 ;
686 [label="entropy = 0.0\nsamples = 2\nvalue = [0, 2]"] ;
680 -> 686 ;
687 [label="x[20] <= 0.5\nentropy = 0.65\nsamples = 18\nvalue = [3, 15]"] ;
679 -> 687 ;
688 [label="x[4] <= 16.68\nentropy = 0.971\nsamples = 5\nvalue = [3, 2]"] ;
687 -> 688 ;
689 [label="entropy = 0.0\nsamples = 2\nvalue = [0, 2]"] ;
688 -> 689 ;
690 [label="entropy = 0.0\nsamples = 3\nvalue = [3, 0]"] ;
688 -> 690 ;
691 [label="entropy = 0.0\nsamples = 13\nvalue = [0, 13]"] ;
687 -> 691 ;
692 [label="x[14] <= 0.5\nentropy = 0.995\nsamples = 1634\nvalue = [888.0, 746.0]"] ;
650 -> 692 ;
693 [label="x[16] <= 0.5\nentropy = 0.953\nsamples = 1320\nvalue = [828, 492]"] ;
692 -> 693 ;
694 [label="x[15] <= 0.5\nentropy = 0.984\nsamples = 1058\nvalue = [608, 450]"] ;
693 -> 694 ;
695 [label="x[12] <= 0.5\nentropy = 0.999\nsamples = 749\nvalue = [364.0, 385.0]"] ;
694 -> 695 ;
696 [label="x[13] <= 0.5\nentropy = 0.876\nsamples = 426\nvalue = [126, 300]"] ;
695 -> 696 ;
697 [label="entropy = 0.214\nsamples = 236\nvalue = [8, 228]"] ;
696 -> 697 ;
698 [label="entropy = 0.957\nsamples = 190\nvalue = [118.0, 72.0]"] ;
696 -> 698 ;
699 [label="x[20] <= 0.5\nentropy = 0.831\nsamples = 323\nvalue = [238, 85]"] ;
695 -> 699 ;
700 [label="entropy = 0.973\nsamples = 62\nvalue = [37, 25]"] ;
699 -> 700 ;
701 [label="entropy = 0.778\nsamples = 261\nvalue = [201, 60]"] ;
699 -> 701 ;
702 [label="x[0] <= 23.5\nentropy = 0.742\nsamples = 309\nvalue = [244.0, 65.0]"] ;
694 -> 702 ;
703 [label="x[4] <= 14.565\nentropy = 0.893\nsamples = 84\nvalue = [58, 26]"] ;
702 -> 703 ;
704 [label="entropy = 0.0\nsamples = 8\nvalue = [8, 0]"] ;
703 -> 704 ;
705 [label="entropy = 0.927\nsamples = 76\nvalue = [50, 26]"] ;
703 -> 705 ;
706 [label="x[3] <= 2650.0\nentropy = 0.665\nsamples = 225\nvalue = [186, 39]"] ;
702 -> 706 ;
707 [label="entropy = 0.989\nsamples = 16\nvalue = [9, 7]"] ;
706 -> 707 ;
708 [label="entropy = 0.618\nsamples = 209\nvalue = [177, 32]"] ;
706 -> 708 ;
709 [label="x[1] <= 44679.5\nentropy = 0.635\nsamples = 262\nvalue = [220, 42]"] ;
693 -> 709 ;
710 [label="x[2] <= 6.5\nentropy = 0.897\nsamples = 67\nvalue = [46, 21]"] ;
709 -> 710 ;
711 [label="x[4] <= 18.19\nentropy = 0.934\nsamples = 60\nvalue = [39, 21]"] ;
710 -> 711 ;
712 [label="entropy = 0.886\nsamples = 56\nvalue = [39, 17]"] ;
711 -> 712 ;
713 [label="entropy = 0.0\nsamples = 4\nvalue = [0, 4]"] ;
711 -> 713 ;
714 [label="entropy = 0.0\nsamples = 7\nvalue = [7, 0]"] ;
710 -> 714 ;
715 [label="x[6] <= 20.0\nentropy = 0.493\nsamples = 195\nvalue = [174, 21]"] ;
709 -> 715 ;
716 [label="x[1] <= 53500.0\nentropy = 0.479\nsamples = 194\nvalue = [174, 20]"] ;
715 -> 716 ;
717 [label="entropy = 0.156\nsamples = 44\nvalue = [43, 1]"] ;
716 -> 717 ;
718 [label="entropy = 0.548\nsamples = 150\nvalue = [131, 19]"] ;
716 -> 718 ;
719 [label="entropy = 0.0\nsamples = 1\nvalue = [0, 1]"] ;
715 -> 719 ;
720 [label="x[1] <= 51250.0\nentropy = 0.704\nsamples = 314\nvalue = [60.0, 254.0]"] ;
692 -> 720 ;
721 [label="x[6] <= 3.5\nentropy = 0.854\nsamples = 172\nvalue = [48.0, 124.0]"] ;
720 -> 721 ;
722 [label="x[1] <= 35640.0\nentropy = 0.627\nsamples = 70\nvalue = [11, 59]"] ;
721 -> 722 ;
723 [label="x[0] <= 24.5\nentropy = 0.303\nsamples = 37\nvalue = [2, 35]"] ;
722 -> 723 ;
724 [label="entropy = 0.0\nsamples = 24\nvalue = [0, 24]"] ;
723 -> 724 ;
725 [label="entropy = 0.619\nsamples = 13\nvalue = [2, 11]"] ;
723 -> 725 ;
726 [label="x[4] <= 15.355\nentropy = 0.845\nsamples = 33\nvalue = [9, 24]"] ;
722 -> 726 ;
727 [label="entropy = 0.391\nsamples = 13\nvalue = [1, 12]"] ;
726 -> 727 ;
728 [label="entropy = 0.971\nsamples = 20\nvalue = [8, 12]"] ;
726 -> 728 ;
729 [label="x[4] <= 16.83\nentropy = 0.945\nsamples = 102\nvalue = [37, 65]"] ;
721 -> 729 ;
730 [label="x[0] <= 22.5\nentropy = 0.977\nsamples = 90\nvalue = [37, 53]"] ;
729 -> 730 ;
731 [label="entropy = 0.592\nsamples = 7\nvalue = [1, 6]"] ;
730 -> 731 ;
732 [label="entropy = 0.987\nsamples = 83\nvalue = [36.0, 47.0]"] ;
730 -> 732 ;
733 [label="entropy = 0.0\nsamples = 12\nvalue = [0, 12]"] ;
729 -> 733 ;
734 [label="x[1] <= 100598.0\nentropy = 0.418\nsamples = 142\nvalue = [12, 130]"] ;
720 -> 734 ;
735 [label="x[0] <= 50.5\nentropy = 0.323\nsamples = 136\nvalue = [8, 128]"] ;
734 -> 735 ;
736 [label="x[6] <= 2.5\nentropy = 0.294\nsamples = 135\nvalue = [7, 128]"] ;
735 -> 736 ;
737 [label="entropy = 0.0\nsamples = 33\nvalue = [0, 33]"] ;
736 -> 737 ;
738 [label="entropy = 0.361\nsamples = 102\nvalue = [7.0, 95.0]"] ;
736 -> 738 ;
739 [label="entropy = 0.0\nsamples = 1\nvalue = [1, 0]"] ;
735 -> 739 ;
740 [label="x[6] <= 2.5\nentropy = 0.918\nsamples = 6\nvalue = [4, 2]"] ;
734 -> 740 ;
741 [label="entropy = 0.0\nsamples = 2\nvalue = [0, 2]"] ;
740 -> 741 ;
742 [label="entropy = 0.0\nsamples = 4\nvalue = [4, 0]"] ;
740 -> 742 ;
743 [label="x[2] <= 2.5\nentropy = 0.107\nsamples = 640\nvalue = [9, 631]"] ;
649 -> 743 ;
744 [label="entropy = 0.0\nsamples = 321\nvalue = [0, 321]"] ;
743 -> 744 ;
745 [label="x[5] <= 0.455\nentropy = 0.185\nsamples = 319\nvalue = [9, 310]"] ;
743 -> 745 ;
746 [label="x[4] <= 15.575\nentropy = 0.159\nsamples = 302\nvalue = [7, 295]"] ;
745 -> 746 ;
747 [label="x[1] <= 35880.0\nentropy = 0.297\nsamples = 114\nvalue = [6, 108]"] ;
746 -> 747 ;
748 [label="entropy = 0.0\nsamples = 32\nvalue = [0, 32]"] ;
747 -> 748 ;
749 [label="x[24] <= 0.5\nentropy = 0.378\nsamples = 82\nvalue = [6, 76]"] ;
747 -> 749 ;
750 [label="x[1] <= 36250.0\nentropy = 0.562\nsamples = 38\nvalue = [5, 33]"] ;
749 -> 750 ;
751 [label="entropy = 0.0\nsamples = 1\nvalue = [1, 0]"] ;
750 -> 751 ;
752 [label="entropy = 0.494\nsamples = 37\nvalue = [4, 33]"] ;
750 -> 752 ;
753 [label="x[6] <= 2.5\nentropy = 0.156\nsamples = 44\nvalue = [1, 43]"] ;
749 -> 753 ;
754 [label="entropy = 0.544\nsamples = 8\nvalue = [1, 7]"] ;
753 -> 754 ;
755 [label="entropy = 0.0\nsamples = 36\nvalue = [0, 36]"] ;
753 -> 755 ;
756 [label="x[12] <= 0.5\nentropy = 0.048\nsamples = 188\nvalue = [1, 187]"] ;
746 -> 756 ;
757 [label="entropy = 0.0\nsamples = 159\nvalue = [0, 159]"] ;
756 -> 757 ;
758 [label="x[2] <= 8.5\nentropy = 0.216\nsamples = 29\nvalue = [1, 28]"] ;
756 -> 758 ;
759 [label="entropy = 0.0\nsamples = 26\nvalue = [0, 26]"] ;
758 -> 759 ;
760 [label="x[3] <= 19000.0\nentropy = 0.918\nsamples = 3\nvalue = [1, 2]"] ;
758 -> 760 ;
761 [label="entropy = 0.0\nsamples = 1\nvalue = [1, 0]"] ;
760 -> 761 ;
762 [label="entropy = 0.0\nsamples = 2\nvalue = [0, 2]"] ;
760 -> 762 ;
763 [label="x[24] <= 0.5\nentropy = 0.523\nsamples = 17\nvalue = [2, 15]"] ;
745 -> 763 ;
764 [label="entropy = 0.0\nsamples = 8\nvalue = [0, 8]"] ;
763 -> 764 ;
765 [label="x[12] <= 0.5\nentropy = 0.764\nsamples = 9\nvalue = [2, 7]"] ;
763 -> 765 ;
766 [label="entropy = 0.0\nsamples = 6\nvalue = [0, 6]"] ;
765 -> 766 ;
767 [label="x[4] <= 15.83\nentropy = 0.918\nsamples = 3\nvalue = [2, 1]"] ;
765 -> 767 ;
768 [label="entropy = 0.0\nsamples = 2\nvalue = [2, 0]"] ;
767 -> 768 ;
769 [label="entropy = 0.0\nsamples = 1\nvalue = [0, 1]"] ;
767 -> 769 ;
770 [label="x[5] <= 0.295\nentropy = 0.603\nsamples = 1073\nvalue = [915, 158]"] ;
528 -> 770 ;
771 [label="x[9] <= 0.5\nentropy = 0.521\nsamples = 1008\nvalue = [890, 118]"] ;
770 -> 771 ;
772 [label="x[4] <= 15.085\nentropy = 0.549\nsamples = 930\nvalue = [812.0, 118.0]"] ;
771 -> 772 ;
773 [label="x[0] <= 59.5\nentropy = 0.409\nsamples = 524\nvalue = [481, 43]"] ;
772 -> 773 ;
774 [label="x[13] <= 0.5\nentropy = 0.403\nsamples = 523\nvalue = [481, 42]"] ;
773 -> 774 ;
775 [label="x[4] <= 14.755\nentropy = 0.367\nsamples = 470\nvalue = [437, 33]"] ;
774 -> 775 ;
776 [label="x[4] <= 14.595\nentropy = 0.43\nsamples = 341\nvalue = [311, 30]"] ;
775 -> 776 ;
777 [label="entropy = 0.0\nsamples = 1\nvalue = [0, 1]"] ;
776 -> 777 ;
778 [label="x[3] <= 16250.0\nentropy = 0.421\nsamples = 340\nvalue = [311, 29]"] ;
776 -> 778 ;
779 [label="entropy = 0.441\nsamples = 317\nvalue = [288, 29]"] ;
778 -> 779 ;
780 [label="entropy = 0.0\nsamples = 23\nvalue = [23, 0]"] ;
778 -> 780 ;
781 [label="x[0] <= 25.5\nentropy = 0.159\nsamples = 129\nvalue = [126, 3]"] ;
775 -> 781 ;
782 [label="entropy = 0.0\nsamples = 68\nvalue = [68, 0]"] ;
781 -> 782 ;
783 [label="x[1] <= 48978.0\nentropy = 0.283\nsamples = 61\nvalue = [58, 3]"] ;
781 -> 783 ;
784 [label="entropy = 0.592\nsamples = 21\nvalue = [18, 3]"] ;
783 -> 784 ;
785 [label="entropy = 0.0\nsamples = 40\nvalue = [40, 0]"] ;
783 -> 785 ;
786 [label="x[1] <= 33700.0\nentropy = 0.657\nsamples = 53\nvalue = [44, 9]"] ;
774 -> 786 ;
787 [label="entropy = 0.0\nsamples = 3\nvalue = [0, 3]"] ;
786 -> 787 ;
788 [label="x[6] <= 3.5\nentropy = 0.529\nsamples = 50\nvalue = [44, 6]"] ;
786 -> 788 ;
789 [label="x[3] <= 3450.0\nentropy = 0.994\nsamples = 11\nvalue = [6, 5]"] ;
788 -> 789 ;
790 [label="entropy = 0.0\nsamples = 1\nvalue = [0, 1]"] ;
789 -> 790 ;
791 [label="entropy = 0.971\nsamples = 10\nvalue = [6, 4]"] ;
789 -> 791 ;
792 [label="x[5] <= 0.155\nentropy = 0.172\nsamples = 39\nvalue = [38, 1]"] ;
788 -> 792 ;
793 [label="entropy = 0.0\nsamples = 26\nvalue = [26, 0]"] ;
792 -> 793 ;
794 [label="entropy = 0.391\nsamples = 13\nvalue = [12, 1]"] ;
792 -> 794 ;
795 [label="entropy = 0.0\nsamples = 1\nvalue = [0, 1]"] ;
773 -> 795 ;
796 [label="x[1] <= 49305.0\nentropy = 0.69\nsamples = 406\nvalue = [331, 75]"] ;
772 -> 796 ;
797 [label="x[13] <= 0.5\nentropy = 0.823\nsamples = 167\nvalue = [124.0, 43.0]"] ;
796 -> 797 ;
798 [label="x[4] <= 16.035\nentropy = 0.765\nsamples = 157\nvalue = [122.0, 35.0]"] ;
797 -> 798 ;
799 [label="x[1] <= 48998.0\nentropy = 0.747\nsamples = 155\nvalue = [122, 33]"] ;
798 -> 799 ;
800 [label="x[4] <= 15.25\nentropy = 0.722\nsamples = 150\nvalue = [120, 30]"] ;
799 -> 800 ;
801 [label="entropy = 0.55\nsamples = 55\nvalue = [48.0, 7.0]"] ;
800 -> 801 ;
802 [label="entropy = 0.799\nsamples = 95\nvalue = [72, 23]"] ;
800 -> 802 ;
803 [label="x[5] <= 0.13\nentropy = 0.971\nsamples = 5\nvalue = [2, 3]"] ;
799 -> 803 ;
804 [label="entropy = 0.0\nsamples = 3\nvalue = [0, 3]"] ;
803 -> 804 ;
805 [label="entropy = 0.0\nsamples = 2\nvalue = [2, 0]"] ;
803 -> 805 ;
806 [label="entropy = 0.0\nsamples = 2\nvalue = [0, 2]"] ;
798 -> 806 ;
807 [label="x[10] <= 0.5\nentropy = 0.722\nsamples = 10\nvalue = [2, 8]"] ;
797 -> 807 ;
808 [label="x[6] <= 4.5\nentropy = 1.0\nsamples = 4\nvalue = [2, 2]"] ;
807 -> 808 ;
809 [label="entropy = 0.0\nsamples = 2\nvalue = [0, 2]"] ;
808 -> 809 ;
810 [label="entropy = 0.0\nsamples = 2\nvalue = [2, 0]"] ;
808 -> 810 ;
811 [label="entropy = 0.0\nsamples = 6\nvalue = [0, 6]"] ;
807 -> 811 ;
812 [label="x[0] <= 33.5\nentropy = 0.568\nsamples = 239\nvalue = [207.0, 32.0]"] ;
796 -> 812 ;
813 [label="x[5] <= 0.175\nentropy = 0.614\nsamples = 211\nvalue = [179, 32]"] ;
812 -> 813 ;
814 [label="x[0] <= 28.5\nentropy = 0.507\nsamples = 160\nvalue = [142, 18]"] ;
813 -> 814 ;
815 [label="x[3] <= 4950.0\nentropy = 0.367\nsamples = 128\nvalue = [119, 9]"] ;
814 -> 815 ;
816 [label="entropy = 0.0\nsamples = 32\nvalue = [32, 0]"] ;
815 -> 816 ;
817 [label="entropy = 0.449\nsamples = 96\nvalue = [87, 9]"] ;
815 -> 817 ;
818 [label="x[5] <= 0.13\nentropy = 0.857\nsamples = 32\nvalue = [23, 9]"] ;
814 -> 818 ;
819 [label="entropy = 0.931\nsamples = 26\nvalue = [17, 9]"] ;
818 -> 819 ;
820 [label="entropy = 0.0\nsamples = 6\nvalue = [6, 0]"] ;
818 -> 820 ;
821 [label="x[14] <= 0.5\nentropy = 0.848\nsamples = 51\nvalue = [37.0, 14.0]"] ;
813 -> 821 ;
822 [label="x[5] <= 0.245\nentropy = 0.731\nsamples = 44\nvalue = [35, 9]"] ;
821 -> 822 ;
823 [label="entropy = 0.857\nsamples = 32\nvalue = [23, 9]"] ;
822 -> 823 ;
824 [label="entropy = 0.0\nsamples = 12\nvalue = [12, 0]"] ;
822 -> 824 ;
825 [label="x[1] <= 116900.0\nentropy = 0.863\nsamples = 7\nvalue = [2, 5]"] ;
821 -> 825 ;
826 [label="entropy = 0.65\nsamples = 6\nvalue = [1, 5]"] ;
825 -> 826 ;
827 [label="entropy = 0.0\nsamples = 1\nvalue = [1, 0]"] ;
825 -> 827 ;
828 [label="entropy = 0.0\nsamples = 28\nvalue = [28, 0]"] ;
812 -> 828 ;
829 [label="entropy = 0.0\nsamples = 78\nvalue = [78, 0]"] ;
771 -> 829 ;
830 [label="x[10] <= 0.5\nentropy = 0.961\nsamples = 65\nvalue = [25, 40]"] ;
770 -> 830 ;
831 [label="x[6] <= 4.5\nentropy = 0.954\nsamples = 24\nvalue = [15, 9]"] ;
830 -> 831 ;
832 [label="x[5] <= 0.36\nentropy = 0.971\nsamples = 10\nvalue = [4, 6]"] ;
831 -> 832 ;
833 [label="x[12] <= 0.5\nentropy = 0.811\nsamples = 8\nvalue = [2, 6]"] ;
832 -> 833 ;
834 [label="x[9] <= 0.5\nentropy = 0.592\nsamples = 7\nvalue = [1, 6]"] ;
833 -> 834 ;
835 [label="entropy = 0.0\nsamples = 5\nvalue = [0, 5]"] ;
834 -> 835 ;
836 [label="x[4] <= 15.25\nentropy = 1.0\nsamples = 2\nvalue = [1, 1]"] ;
834 -> 836 ;
837 [label="entropy = 0.0\nsamples = 1\nvalue = [0, 1]"] ;
836 -> 837 ;
838 [label="entropy = 0.0\nsamples = 1\nvalue = [1, 0]"] ;
836 -> 838 ;
839 [label="entropy = 0.0\nsamples = 1\nvalue = [1, 0]"] ;
833 -> 839 ;
840 [label="entropy = 0.0\nsamples = 2\nvalue = [2, 0]"] ;
832 -> 840 ;
841 [label="x[1] <= 57500.0\nentropy = 0.75\nsamples = 14\nvalue = [11, 3]"] ;
831 -> 841 ;
842 [label="entropy = 0.0\nsamples = 8\nvalue = [8, 0]"] ;
841 -> 842 ;
843 [label="x[24] <= 0.5\nentropy = 1.0\nsamples = 6\nvalue = [3, 3]"] ;
841 -> 843 ;
844 [label="x[3] <= 20800.0\nentropy = 0.811\nsamples = 4\nvalue = [1, 3]"] ;
843 -> 844 ;
845 [label="entropy = 0.0\nsamples = 1\nvalue = [1, 0]"] ;
844 -> 845 ;
846 [label="entropy = 0.0\nsamples = 3\nvalue = [0, 3]"] ;
844 -> 846 ;
847 [label="entropy = 0.0\nsamples = 2\nvalue = [2, 0]"] ;
843 -> 847 ;
848 [label="x[5] <= 0.305\nentropy = 0.801\nsamples = 41\nvalue = [10, 31]"] ;
830 -> 848 ;
849 [label="x[2] <= 8.0\nentropy = 0.881\nsamples = 10\nvalue = [7, 3]"] ;
848 -> 849 ;
850 [label="x[0] <= 26.5\nentropy = 0.544\nsamples = 8\nvalue = [7, 1]"] ;
849 -> 850 ;
851 [label="entropy = 0.0\nsamples = 5\nvalue = [5, 0]"] ;
850 -> 851 ;
852 [label="x[25] <= 0.5\nentropy = 0.918\nsamples = 3\nvalue = [2, 1]"] ;
850 -> 852 ;
853 [label="entropy = 0.0\nsamples = 2\nvalue = [2, 0]"] ;
852 -> 853 ;
854 [label="entropy = 0.0\nsamples = 1\nvalue = [0, 1]"] ;
852 -> 854 ;
855 [label="entropy = 0.0\nsamples = 2\nvalue = [0, 2]"] ;
849 -> 855 ;
856 [label="x[6] <= 14.0\nentropy = 0.459\nsamples = 31\nvalue = [3, 28]"] ;
848 -> 856 ;
857 [label="x[4] <= 14.755\nentropy = 0.353\nsamples = 30\nvalue = [2, 28]"] ;
856 -> 857 ;
858 [label="x[24] <= 0.5\nentropy = 0.619\nsamples = 13\nvalue = [2, 11]"] ;
857 -> 858 ;
859 [label="x[0] <= 23.5\nentropy = 0.971\nsamples = 5\nvalue = [2, 3]"] ;
858 -> 859 ;
860 [label="entropy = 0.0\nsamples = 2\nvalue = [0, 2]"] ;
859 -> 860 ;
861 [label="x[6] <= 8.5\nentropy = 0.918\nsamples = 3\nvalue = [2, 1]"] ;
859 -> 861 ;
862 [label="entropy = 0.0\nsamples = 2\nvalue = [2, 0]"] ;
861 -> 862 ;
863 [label="entropy = 0.0\nsamples = 1\nvalue = [0, 1]"] ;
861 -> 863 ;
864 [label="entropy = 0.0\nsamples = 8\nvalue = [0, 8]"] ;
858 -> 864 ;
865 [label="entropy = 0.0\nsamples = 17\nvalue = [0, 17]"] ;
857 -> 865 ;
866 [label="entropy = 0.0\nsamples = 1\nvalue = [1, 0]"] ;
856 -> 866 ;
}